{"learner":{"attributes":{"scikit_learn":"{\"_estimator_type\": \"regressor\"}"},"feature_names":["roll_3_minutes","roll_3_starts","roll_3_total_points","roll_3_goals_scored","roll_3_assists","roll_3_expected_goals","roll_3_expected_assists","roll_3_expected_goal_involvements","roll_3_ict_index","roll_3_bps","roll_3_bonus","roll_3_threat","roll_3_influence","roll_3_creativity","roll_3_us_key_passes","roll_3_us_xGChain","roll_3_us_xGBuildup","roll_3_goals_scored_per90","roll_3_assists_per90","roll_3_expected_goals_per90","roll_3_expected_assists_per90","roll_3_expected_goal_involvements_per90","roll_3_us_key_passes_per90","roll_3_us_xGChain_per90","roll_3_us_xGBuildup_per90","roll_3_total_points_per90","roll_hist_count_3","roll_5_minutes","roll_5_starts","roll_5_total_points","roll_5_goals_scored","roll_5_assists","roll_5_expected_goals","roll_5_expected_assists","roll_5_expected_goal_involvements","roll_5_ict_index","roll_5_bps","roll_5_bonus","roll_5_threat","roll_5_influence","roll_5_creativity","roll_5_us_key_passes","roll_5_us_xGChain","roll_5_us_xGBuildup","roll_5_goals_scored_per90","roll_5_assists_per90","roll_5_expected_goals_per90","roll_5_expected_assists_per90","roll_5_expected_goal_involvements_per90","roll_5_us_key_passes_per90","roll_5_us_xGChain_per90","roll_5_us_xGBuildup_per90","roll_5_total_points_per90","roll_hist_count_5","roll_8_minutes","roll_8_starts","roll_8_total_points","roll_8_goals_scored","roll_8_assists","roll_8_expected_goals","roll_8_expected_assists","roll_8_expected_goal_involvements","roll_8_ict_index","roll_8_bps","roll_8_bonus","roll_8_threat","roll_8_influence","roll_8_creativity","roll_8_us_key_passes","roll_8_us_xGChain","roll_8_us_xGBuildup","roll_8_goals_scored_per90","roll_8_assists_per90","roll_8_expected_goals_per90","roll_8_expected_assists_per90","roll_8_expected_goal_involvements_per90","roll_8_us_key_passes_per90","roll_8_us_xGChain_per90","roll_8_us_xGBuildup_per90","roll_8_total_points_per90","roll_hist_count_8","was_home","opp_dyn_attack","opp_dyn_defence","opp_dyn_overall"],"feature_types":["float","float","float","float","float","float","float","float","float","float","float","float","float","float","float","float","float","float","float","float","float","float","float","float","float","float","float","float","float","float","float","float","float","float","float","float","float","float","float","float","float","float","float","float","float","float","float","float","float","float","float","float","float","float","float","float","float","float","float","float","float","float","float","float","float","float","float","float","float","float","float","float","float","float","float","float","float","float","float","float","float","i","float","float","float"],"gradient_booster":{"model":{"cats":{"enc":[],"feature_segments":[],"sorted_idx":[]},"gbtree_model_param":{"num_parallel_tree":"1","num_trees":"300"},"iteration_indptr":[0,1,2,3,4,5,6,7,8,9,10,11,12,13,14,15,16,17,18,19,20,21,22,23,24,25,26,27,28,29,30,31,32,33,34,35,36,37,38,39,40,41,42,43,44,45,46,47,48,49,50,51,52,53,54,55,56,57,58,59,60,61,62,63,64,65,66,67,68,69,70,71,72,73,74,75,76,77,78,79,80,81,82,83,84,85,86,87,88,89,90,91,92,93,94,95,96,97,98,99,100,101,102,103,104,105,106,107,108,109,110,111,112,113,114,115,116,117,118,119,120,121,122,123,124,125,126,127,128,129,130,131,132,133,134,135,136,137,138,139,140,141,142,143,144,145,146,147,148,149,150,151,152,153,154,155,156,157,158,159,160,161,162,163,164,165,166,167,168,169,170,171,172,173,174,175,176,177,178,179,180,181,182,183,184,185,186,187,188,189,190,191,192,193,194,195,196,197,198,199,200,201,202,203,204,205,206,207,208,209,210,211,212,213,214,215,216,217,218,219,220,221,222,223,224,225,226,227,228,229,230,231,232,233,234,235,236,237,238,239,240,241,242,243,244,245,246,247,248,249,250,251,252,253,254,255,256,257,258,259,260,261,262,263,264,265,266,267,268,269,270,271,272,273,274,275,276,277,278,279,280,281,282,283,284,285,286,287,288,289,290,291,292,293,294,295,296,297,298,299,300],"tree_info":[0,0,0,0,0,0,0,0,0,0,0,0,0,0,0,0,0,0,0,0,0,0,0,0,0,0,0,0,0,0,0,0,0,0,0,0,0,0,0,0,0,0,0,0,0,0,0,0,0,0,0,0,0,0,0,0,0,0,0,0,0,0,0,0,0,0,0,0,0,0,0,0,0,0,0,0,0,0,0,0,0,0,0,0,0,0,0,0,0,0,0,0,0,0,0,0,0,0,0,0,0,0,0,0,0,0,0,0,0,0,0,0,0,0,0,0,0,0,0,0,0,0,0,0,0,0,0,0,0,0,0,0,0,0,0,0,0,0,0,0,0,0,0,0,0,0,0,0,0,0,0,0,0,0,0,0,0,0,0,0,0,0,0,0,0,0,0,0,0,0,0,0,0,0,0,0,0,0,0,0,0,0,0,0,0,0,0,0,0,0,0,0,0,0,0,0,0,0,0,0,0,0,0,0,0,0,0,0,0,0,0,0,0,0,0,0,0,0,0,0,0,0,0,0,0,0,0,0,0,0,0,0,0,0,0,0,0,0,0,0,0,0,0,0,0,0,0,0,0,0,0,0,0,0,0,0,0,0,0,0,0,0,0,0,0,0,0,0,0,0,0,0,0,0,0,0,0,0,0,0,0,0,0,0,0,0,0,0,0,0,0,0,0,0,0,0,0,0,0,0],"trees":[{"base_weights":[3.69645E-3,-6.5630406E-1,1.0853069E0,-1.5323582E0,-3.5018766E-1,5.9545445E-1,1.8785324E0,-2.4041538E0,-1.2430152E0,-6.2457705E-1,-9.5487565E-2,8.4108543E-1,2.1299657E-1,1.6270037E0,2.9766312E0,-2.4207697E0,3.237269E-1,-1.7280064E0,-1.1506919E0,-6.369848E-1,4.5128307E0,-3.5610905E-1,9.599232E-2,7.745074E-1,2.5893726E0,4.145086E-1,-4.315969E-1,1.1732175E0,2.0840442E0,2.179709E0,4.4037366E0,-1.2168261E-1,-8.813656E-3,-6.8945475E-2,1.357909E-1,-8.789405E-2,6.4387865E-2,7.7265434E-2,-5.8006257E-2,-7.899086E-2,-2.9674295E-2,7.2654346E-3,5.143879E-1,1.1487959E-2,-2.406214E-2,4.0738326E-3,2.1798483E-1,2.6461482E-2,5.3457934E-2,7.10913E-2,2.3109923E-1,-7.990147E-3,3.5001095E-2,-4.2170465E-2,8.3486794E-4,3.1996045E-2,7.66992E-2,1.3555735E-1,7.014888E-2,1.4700648E-2,1.3812225E-1,1.1617736E-1,2.6891214E-1],"categories":[],"categories_nodes":[],"categories_segments":[],"categories_sizes":[],"default_left":[1,1,0,0,0,0,0,1,0,1,0,0,0,0,0,0,0,0,0,0,0,0,0,0,0,0,0,0,0,0,0,0,0,0,0,0,0,0,0,0,0,0,0,0,0,0,0,0,0,0,0,0,0,0,0,0,0,0,0,0,0,0,0],"id":0,"left_children":[1,3,5,7,9,11,13,15,17,19,21,23,25,27,29,31,33,35,37,39,41,43,45,47,49,51,53,55,57,59,61,-1,-1,-1,-1,-1,-1,-1,-1,-1,-1,-1,-1,-1,-1,-1,-1,-1,-1,-1,-1,-1,-1,-1,-1,-1,-1,-1,-1,-1,-1,-1,-1],"loss_changes":[9.194561E3,2.1445918E3,1.89546E3,5.19417E2,4.1430054E2,2.8343628E2,5.0972363E2,2.4126709E1,6.772778E1,1.8479895E2,1.535382E2,2.1193323E2,1.5371283E2,3.12386E2,3.839038E2,1.4375244E1,2.003631E1,2.451715E1,3.5134277E1,1.1586511E2,1.7505995E2,9.563594E1,1.0943857E2,1.2749902E2,1.5243066E2,1.4785205E2,5.207498E1,1.4600854E2,3.18656E2,2.4533313E2,2.36844E2,0E0,0E0,0E0,0E0,0E0,0E0,0E0,0E0,0E0,0E0,0E0,0E0,0E0,0E0,0E0,0E0,0E0,0E0,0E0,0E0,0E0,0E0,0E0,0E0,0E0,0E0,0E0,0E0,0E0,0E0,0E0,0E0],"parents":[2147483647,0,0,1,1,2,2,3,3,4,4,5,5,6,6,7,7,8,8,9,9,10,10,11,11,12,12,13,13,14,14,15,15,16,16,17,17,18,18,19,19,20,20,21,21,22,22,23,23,24,24,25,25,26,26,27,27,28,28,29,29,30,30],"right_children":[2,4,6,8,10,12,14,16,18,20,22,24,26,28,30,32,34,36,38,40,42,44,46,48,50,52,54,56,58,60,62,-1,-1,-1,-1,-1,-1,-1,-1,-1,-1,-1,-1,-1,-1,-1,-1,-1,-1,-1,-1,-1,-1,-1,-1,-1,-1,-1,-1,-1,-1,-1,-1],"split_conditions":[3.9125E0,1.125E0,6.25E0,1E0,2.4625E0,1.0458906E3,3.68E1,7.5630254E-1,7.5E-1,5.625E0,9E0,8.366667E0,1.3495704E3,1.7E-1,6.58E-1,4E-1,1.125E1,1.0333333E1,5E-1,7.3333335E0,5.04E-1,8.326004E2,7.633333E0,1.6697589E-1,3.519907E-1,2.8E0,7.7333336E1,4.8477715E-1,1.0095989E3,7.9666664E1,8.776115E-1,-1.2168261E-1,-8.813656E-3,-6.8945475E-2,1.357909E-1,-8.789405E-2,6.4387865E-2,7.7265434E-2,-5.8006257E-2,-7.899086E-2,-2.9674295E-2,7.2654346E-3,5.143879E-1,1.1487959E-2,-2.406214E-2,4.0738326E-3,2.1798483E-1,2.6461482E-2,5.3457934E-2,7.10913E-2,2.3109923E-1,-7.990147E-3,3.5001095E-2,-4.2170465E-2,8.3486794E-4,3.1996045E-2,7.66992E-2,1.3555735E-1,7.014888E-2,1.4700648E-2,1.3812225E-1,1.1617736E-1,2.6891214E-1],"split_indices":[62,62,62,0,62,82,38,71,29,18,9,8,83,33,34,68,54,11,36,0,47,83,8,72,51,29,0,42,82,0,69,0,0,0,0,0,0,0,0,0,0,0,0,0,0,0,0,0,0,0,0,0,0,0,0,0,0,0,0,0,0,0,0],"split_type":[0,0,0,0,0,0,0,0,0,0,0,0,0,0,0,0,0,0,0,0,0,0,0,0,0,0,0,0,0,0,0,0,0,0,0,0,0,0,0,0,0,0,0,0,0,0,0,0,0,0,0,0,0,0,0,0,0,0,0,0,0,0,0],"sum_hessian":[1.2878E4,7.998E3,4.88E3,2.07E3,5.928E3,3.018E3,1.862E3,5.14E2,1.556E3,2.853E3,3.075E3,1.837E3,1.181E3,1.517E3,3.45E2,5.11E2,3E0,2.46E2,1.31E3,2.847E3,6E0,1.302E3,1.773E3,1.771E3,6.6E1,9E2,2.81E2,7.63E2,7.54E2,2.23E2,1.22E2,5.08E2,3E0,2E0,1E0,2.44E2,2E0,4E0,1.306E3,1.24E2,2.723E3,4E0,2E0,2.29E2,1.073E3,1.768E3,5E0,9.68E2,8.03E2,4.3E1,2.3E1,2.99E2,6.01E2,1.46E2,1.35E2,3.09E2,4.54E2,3.91E2,3.63E2,5.3E1,1.7E2,4E1,8.2E1],"tree_param":{"num_deleted":"0","num_feature":"85","num_nodes":"63","size_leaf_vector":"1"}},{"base_weights":[2.105316E-2,-6.3069105E-1,1.0808785E0,-1.4528794E0,-3.230035E-1,5.911588E-1,1.8735551E0,-2.1683939E0,-1.138322E0,-5.058707E-1,-2.6717057E-2,1.2002983E0,4.347315E-1,1.5294298E0,3.0428987E0,-2.1821308E0,1.5857184E0,-1.1440208E0,1.8724106E-1,-7.6927954E-1,-3.6731377E-1,4.879031E-1,-1.2281649E-1,1.1100955E0,5.3336244E0,5.7938117E-1,-5.404992E-2,3.451205E0,1.4499233E0,2.513643E0,4.9109473E0,-7.145414E-2,-1.12468064E-1,1.3239613E-1,-1.3467247E-2,-5.7538696E-2,1.3204367E-1,-3.9865687E-2,1.576884E-1,-3.466248E-2,-1.1378691E-2,9.584266E-2,7.4536838E-3,-6.8278858E-3,2.0890212E-1,3.393832E-2,8.2100205E-2,3.9415583E-1,-1.6109368E-2,-1.5679263E-2,3.3619847E-2,-1.925682E-2,2.5141016E-2,1.8896072E-1,-3.579678E-2,3.4084436E-2,8.112576E-2,1.18626736E-1,3.9836183E-1,5.4232206E-2,2.787648E-1],"categories":[],"categories_nodes":[],"categories_segments":[],"categories_sizes":[],"default_left":[1,1,0,0,0,0,0,0,1,0,0,0,0,0,0,0,0,1,0,1,0,0,0,0,0,0,0,0,0,0,0,0,0,0,0,0,0,0,0,0,0,0,0,0,0,0,0,0,0,0,0,0,0,0,0,0,0,0,0,0,0],"id":1,"left_children":[1,3,5,7,9,11,13,15,17,19,21,23,25,27,29,31,33,35,-1,37,39,41,43,45,47,49,51,53,55,57,59,-1,-1,-1,-1,-1,-1,-1,-1,-1,-1,-1,-1,-1,-1,-1,-1,-1,-1,-1,-1,-1,-1,-1,-1,-1,-1,-1,-1,-1,-1],"loss_changes":[8.922905E3,2.0230947E3,1.908396E3,4.8773486E2,3.154287E2,2.8933826E2,7.510552E2,3.770288E1,4.644348E1,1.3110693E2,1.0999774E2,2.2561139E2,1.712717E2,2.1700513E2,4.0883154E2,3.030127E1,6.624572E0,4.173633E1,0E0,1.3888922E2,1.0737695E2,1.6917386E2,1.1132214E2,1.3860693E2,1.899927E2,1.5544989E2,1.0233585E2,8.061676E1,1.8412354E2,2.3812622E2,2.3035889E2,0E0,0E0,0E0,0E0,0E0,0E0,0E0,0E0,0E0,0E0,0E0,0E0,0E0,0E0,0E0,0E0,0E0,0E0,0E0,0E0,0E0,0E0,0E0,0E0,0E0,0E0,0E0,0E0,0E0,0E0],"parents":[2147483647,0,0,1,1,2,2,3,3,4,4,5,5,6,6,7,7,8,8,9,9,10,10,11,11,12,12,13,13,14,14,15,15,16,16,17,17,19,19,20,20,21,21,22,22,23,23,24,24,25,25,26,26,27,27,28,28,29,29,30,30],"right_children":[2,4,6,8,10,12,14,16,18,20,22,24,26,28,30,32,34,36,-1,38,40,42,44,46,48,50,52,54,56,58,60,-1,-1,-1,-1,-1,-1,-1,-1,-1,-1,-1,-1,-1,-1,-1,-1,-1,-1,-1,-1,-1,-1,-1,-1,-1,-1,-1,-1,-1,-1],"split_conditions":[3.9125E0,1.175E0,6.25E0,5E-1,2.8375E0,8.89631E2,5.4875E-1,1.075E-1,2.3E-1,3.4333332E1,8.581796E2,7.033333E-1,1.2492258E3,7.826087E-1,4.275E1,1.862069E0,1E0,1.7566668E1,1.8724106E-1,5.625E0,2.4E0,4.848256E-2,7.633333E0,1.42E1,1.74E-1,4.2333332E1,8.1E1,1.25125E1,7E1,7.14293E-1,2.636E1,-7.145414E-2,-1.12468064E-1,1.3239613E-1,-1.3467247E-2,-5.7538696E-2,1.3204367E-1,-3.9865687E-2,1.576884E-1,-3.466248E-2,-1.1378691E-2,9.584266E-2,7.4536838E-3,-6.8278858E-3,2.0890212E-1,3.393832E-2,8.2100205E-2,3.9415583E-1,-1.6109368E-2,-1.5679263E-2,3.3619847E-2,-1.925682E-2,2.5141016E-2,1.8896072E-1,-3.579678E-2,3.4084436E-2,8.112576E-2,1.18626736E-1,3.9836183E-1,5.4232206E-2,2.787648E-1],"split_indices":[62,62,62,2,62,84,61,61,59,0,84,7,84,76,65,52,0,13,0,18,38,24,8,38,33,0,27,67,0,43,39,0,0,0,0,0,0,0,0,0,0,0,0,0,0,0,0,0,0,0,0,0,0,0,0,0,0,0,0,0,0],"split_type":[0,0,0,0,0,0,0,0,0,0,0,0,0,0,0,0,0,0,0,0,0,0,0,0,0,0,0,0,0,0,0,0,0,0,0,0,0,0,0,0,0,0,0,0,0,0,0,0,0,0,0,0,0,0,0,0,0,0,0,0,0],"sum_hessian":[1.2916E4,7.998E3,4.918E3,2.177E3,5.821E3,3.041E3,1.877E3,6.63E2,1.514E3,3.599E3,2.222E3,6.2E2,2.421E3,1.452E3,4.25E2,6.61E2,2E0,1.513E3,1E0,1.239E3,2.36E3,3.49E2,1.873E3,6.08E2,1.2E1,1.868E3,5.53E2,5.6E1,1.396E3,3.33E2,9.2E1,5.6E1,6.05E2,1E0,1E0,1.511E3,2E0,1.231E3,8E0,7.07E2,1.653E3,6.6E1,2.83E2,1.868E3,5E0,3.37E2,2.71E2,8E0,4E0,1.76E2,1.692E3,3.47E2,2.06E2,5.2E1,4E0,2.57E2,1.139E3,3.26E2,7E0,1.4E1,7.8E1],"tree_param":{"num_deleted":"0","num_feature":"85","num_nodes":"61","size_leaf_vector":"1"}},{"base_weights":[-7.906398E-3,-6.0092515E-1,9.505411E-1,-1.3263068E0,-3.1426316E-1,5.434728E-1,1.6198492E0,-2.0394876E0,-1.0174769E0,-6.460088E-1,-1.7843011E-1,7.561411E-1,2.0971665E-1,1.4873778E0,3.7501528E0,-2.0606132E0,2.0353339E0,-1.1256891E0,-7.115998E-1,-1.3717366E0,-5.364728E-1,5.794121E0,-1.8579046E-1,1.7382535E0,6.648473E-1,5.760152E-1,-2.0759574E-1,1.2364874E0,2.012322E0,6.508758E0,2.96878E0,-5.70327E-2,-1.0654004E-1,1.4444265E-1,-1.3130563E-2,-5.7208102E-2,5.5470742E-2,-5.568243E-4,-4.051266E-2,-7.3837645E-2,6.0386E-2,2.625294E-1,-2.720796E-2,3.6836788E-1,-1.2470603E-2,-1.1666547E-2,3.5383463E-2,3.2753494E-2,1.6191104E-1,2.0955069E-2,4.951876E-2,-1.3225893E-2,4.3980382E-2,-1.1752467E-2,2.4702588E-1,2.1846436E-2,7.275083E-2,1.3431858E-1,7.05102E-2,2.431269E-1,5.1813126E-1,1.111986E-1,3.9224193E-1],"categories":[],"categories_nodes":[],"categories_segments":[],"categories_sizes":[],"default_left":[1,1,0,0,0,0,0,0,1,0,0,0,0,0,0,0,0,1,0,0,0,0,0,0,0,0,0,0,0,0,0,0,0,0,0,0,0,0,0,0,0,0,0,0,0,0,0,0,0,0,0,0,0,0,0,0,0,0,0,0,0,0,0],"id":2,"left_children":[1,3,5,7,9,11,13,15,17,19,21,23,25,27,29,31,33,35,37,39,41,43,45,47,49,51,53,55,57,59,61,-1,-1,-1,-1,-1,-1,-1,-1,-1,-1,-1,-1,-1,-1,-1,-1,-1,-1,-1,-1,-1,-1,-1,-1,-1,-1,-1,-1,-1,-1,-1,-1],"loss_changes":[7.299673E3,1.6493743E3,1.3365967E3,4.9283032E2,2.5619757E2,2.1661243E2,5.1819336E2,6.255835E1,5.1165283E1,1.3058704E2,1.7854349E2,1.6606177E2,1.8202406E2,2.2786108E2,2.134707E2,4.1154053E1,8.604002E0,4.9081787E1,2.8530533E1,6.0294617E1,6.677716E1,4.9377045E1,1.7146878E2,2.5458765E2,1.362201E2,1.6201645E2,7.9884415E1,2.0659021E2,2.2511523E2,9.553058E1,2.948819E2,0E0,0E0,0E0,0E0,0E0,0E0,0E0,0E0,0E0,0E0,0E0,0E0,0E0,0E0,0E0,0E0,0E0,0E0,0E0,0E0,0E0,0E0,0E0,0E0,0E0,0E0,0E0,0E0,0E0,0E0,0E0,0E0],"parents":[2147483647,0,0,1,1,2,2,3,3,4,4,5,5,6,6,7,7,8,8,9,9,10,10,11,11,12,12,13,13,14,14,15,15,16,16,17,17,18,18,19,19,20,20,21,21,22,22,23,23,24,24,25,25,26,26,27,27,28,28,29,29,30,30],"right_children":[2,4,6,8,10,12,14,16,18,20,22,24,26,28,30,32,34,36,38,40,42,44,46,48,50,52,54,56,58,60,62,-1,-1,-1,-1,-1,-1,-1,-1,-1,-1,-1,-1,-1,-1,-1,-1,-1,-1,-1,-1,-1,-1,-1,-1,-1,-1,-1,-1,-1,-1,-1,-1],"split_conditions":[3.9125E0,1.2375E0,6.25E0,5E-1,2.5E0,1.0458906E3,5.30325E-1,1.075E-1,1.2E0,1E0,2.5E-1,7.185739E2,1.1468915E3,2.1375E-1,1.2854843E-1,1.862069E0,9.333333E0,1.6E-1,3.5E0,2.913729E-1,1.4E0,1.0953333E-2,4E-1,1.6E1,4.975E0,2.75E0,2.56E1,7.34E1,1.0313588E3,1.0715337E3,6.2211984E-1,-5.70327E-2,-1.0654004E-1,1.4444265E-1,-1.3130563E-2,-5.7208102E-2,5.5470742E-2,-5.568243E-4,-4.051266E-2,-7.3837645E-2,6.0386E-2,2.625294E-1,-2.720796E-2,3.6836788E-1,-1.2470603E-2,-1.1666547E-2,3.5383463E-2,3.2753494E-2,1.6191104E-1,2.0955069E-2,4.951876E-2,-1.3225893E-2,4.3980382E-2,-1.1752467E-2,2.4702588E-1,2.1846436E-2,7.275083E-2,1.3431858E-1,7.05102E-2,2.431269E-1,5.1813126E-1,1.111986E-1,3.9224193E-1],"split_indices":[62,62,62,2,11,82,59,61,29,2,29,83,83,60,24,52,0,61,36,43,36,6,31,11,62,56,36,27,83,83,45,0,0,0,0,0,0,0,0,0,0,0,0,0,0,0,0,0,0,0,0,0,0,0,0,0,0,0,0,0,0,0,0],"split_type":[0,0,0,0,0,0,0,0,0,0,0,0,0,0,0,0,0,0,0,0,0,0,0,0,0,0,0,0,0,0,0,0,0,0,0,0,0,0,0,0,0,0,0,0,0,0,0,0,0,0,0,0,0,0,0,0,0,0,0,0,0,0,0],"sum_hessian":[1.2841E4,7.933E3,4.908E3,2.246E3,5.687E3,3.053E3,1.855E3,6.77E2,1.569E3,1.651E3,4.036E3,1.864E3,1.189E3,1.748E3,1.07E2,6.74E2,3E0,1.157E3,4.12E2,2.15E2,1.436E3,4E0,4.032E3,1.57E2,1.707E3,6.33E2,5.56E2,1.185E3,5.63E2,2.2E1,8.5E1,4.9E1,6.25E2,2E0,1E0,1.148E3,9E0,5.1E1,3.61E2,2.07E2,8E0,1E0,1.435E3,3E0,1E0,3.829E3,2.03E2,9.2E1,6.5E1,9.74E2,7.33E2,1.68E2,4.65E2,5.54E2,2E0,2.55E2,9.3E2,2.64E2,2.99E2,1.7E1,5E0,7.5E1,1E1],"tree_param":{"num_deleted":"0","num_feature":"85","num_nodes":"63","size_leaf_vector":"1"}},{"base_weights":[1.0060383E-2,-4.953652E-1,1.0460309E0,-1.2007861E0,-1.8395373E-1,7.514746E-1,2.0874023E0,-2.018076E0,-9.730514E-1,-4.2767948E-1,1.0042999E-1,1.4066788E0,6.168052E-1,1.9000419E0,4.8243227E0,-1.723192E0,-2.1185555E0,-1.2327819E0,-7.1808356E-1,-6.195249E-1,-2.1282904E-1,2.6308298E-1,-2.9085875E-1,1.2211243E0,3.92836E0,3.7019765E-1,9.678052E-1,1.0866299E0,2.3415363E0,1.4845552E0,5.8303714E0,1.9308163E-2,-8.698594E-2,-4.1987654E-2,-1.0689578E-1,-6.774179E-2,-4.8485845E-2,-3.7421267E-2,1.6637437E-1,-4.776172E-2,-2.5877377E-2,-1.1273488E-2,3.1440148E-1,2.3502326E-3,3.1315114E-2,-1.6684307E-2,5.672818E-2,8.825847E-2,4.214195E-2,3.8588104E-1,1.3303183E-1,1.5613302E-2,1.1232352E-1,2.140709E-2,6.742163E-2,2.3476107E-1,4.7511905E-2,1.4017062E-1,6.3046806E-2,-3.7780546E-3,1.9186617E-1,3.2465443E-1,-3.8499292E-2],"categories":[],"categories_nodes":[],"categories_segments":[],"categories_sizes":[],"default_left":[1,1,0,0,0,0,0,0,1,0,0,0,0,0,0,0,0,0,0,0,0,0,0,0,0,0,0,0,0,0,0,0,0,0,0,0,0,0,0,0,0,0,0,0,0,0,0,0,0,0,0,0,0,0,0,0,0,0,0,0,0,0,0],"id":3,"left_children":[1,3,5,7,9,11,13,15,17,19,21,23,25,27,29,31,33,35,37,39,41,43,45,47,49,51,53,55,57,59,61,-1,-1,-1,-1,-1,-1,-1,-1,-1,-1,-1,-1,-1,-1,-1,-1,-1,-1,-1,-1,-1,-1,-1,-1,-1,-1,-1,-1,-1,-1,-1,-1],"loss_changes":[6.7466577E3,1.9021741E3,1.2944185E3,4.9164087E2,4.1653653E2,2.8987E2,4.682417E2,1.3445801E1,1.365935E2,1.3324976E2,1.766258E2,2.5770007E2,2.3638135E2,3.109646E2,1.8958252E2,5.9706116E0,8.751465E0,3.1661255E1,1.3137769E2,5.801288E1,1.2698202E2,1.5379883E2,5.0131958E1,1.063537E2,1.6200812E2,1.7408098E2,2.3112585E2,1.4762271E2,2.784585E2,5.5348835E1,2.0183728E2,0E0,0E0,0E0,0E0,0E0,0E0,0E0,0E0,0E0,0E0,0E0,0E0,0E0,0E0,0E0,0E0,0E0,0E0,0E0,0E0,0E0,0E0,0E0,0E0,0E0,0E0,0E0,0E0,0E0,0E0,0E0,0E0],"parents":[2147483647,0,0,1,1,2,2,3,3,4,4,5,5,6,6,7,7,8,8,9,9,10,10,11,11,12,12,13,13,14,14,15,15,16,16,17,17,18,18,19,19,20,20,21,21,22,22,23,23,24,24,25,25,26,26,27,27,28,28,29,29,30,30],"right_children":[2,4,6,8,10,12,14,16,18,20,22,24,26,28,30,32,34,36,38,40,42,44,46,48,50,52,54,56,58,60,62,-1,-1,-1,-1,-1,-1,-1,-1,-1,-1,-1,-1,-1,-1,-1,-1,-1,-1,-1,-1,-1,-1,-1,-1,-1,-1,-1,-1,-1,-1,-1,-1],"split_conditions":[4.32E0,2.4E1,4.2375E-1,5E-1,2.74E0,8.72012E2,4.8E1,2.7406016E-1,2.238806E-2,4.375E0,1.1328378E3,2.9233578E-1,1.825E1,1.75E1,8.3625E1,5.820266E2,2E0,1.3666667E0,4.3333335E0,1.2E0,2.022472E0,1.6E-1,3.1888488E-1,1.1449704E-1,2.93295E-1,4.5891088E-1,7.5E1,2.0318782E-1,1.1446581E3,4.720698E-1,8.975E1,1.9308163E-2,-8.698594E-2,-4.1987654E-2,-1.0689578E-1,-6.774179E-2,-4.8485845E-2,-3.7421267E-2,1.6637437E-1,-4.776172E-2,-2.5877377E-2,-1.1273488E-2,3.1440148E-1,2.3502326E-3,3.1315114E-2,-1.6684307E-2,5.672818E-2,8.825847E-2,4.214195E-2,3.8588104E-1,1.3303183E-1,1.5613302E-2,1.1232352E-1,2.140709E-2,6.742163E-2,2.3476107E-1,4.7511905E-2,1.4017062E-1,6.3046806E-2,-3.7780546E-3,1.9186617E-1,3.2465443E-1,-3.8499292E-2],"split_indices":[35,0,61,56,35,84,38,47,20,65,82,74,65,63,54,82,26,8,2,56,18,61,74,74,61,20,54,23,84,51,54,0,0,0,0,0,0,0,0,0,0,0,0,0,0,0,0,0,0,0,0,0,0,0,0,0,0,0,0,0,0,0,0],"split_type":[0,0,0,0,0,0,0,0,0,0,0,0,0,0,0,0,0,0,0,0,0,0,0,0,0,0,0,0,0,0,0,0,0,0,0,0,0,0,0,0,0,0,0,0,0,0,0,0,0,0,0,0,0,0,0,0,0,0,0,0,0,0,0],"sum_hessian":[1.2883E4,8.659E3,4.224E3,2.651E3,6.008E3,3.294E3,9.3E2,5.76E2,2.075E3,3.235E3,2.773E3,5.6E2,2.734E3,8.72E2,5.8E1,1.51E2,4.25E2,1.026E3,1.049E3,1.708E3,1.527E3,1.959E3,8.14E2,5.23E2,3.7E1,1.607E3,1.127E3,3.08E2,5.64E2,1.4E1,4.4E1,1E0,1.5E2,7E0,4.18E2,6.98E2,3.28E2,1.042E3,7E0,3.96E2,1.312E3,1.525E3,2E0,1.229E3,7.3E2,7.91E2,2.3E1,2.13E2,3.1E2,8E0,2.9E1,1.56E3,4.7E1,4.67E2,6.6E2,1E1,2.98E2,3.94E2,1.7E2,9E0,5E0,4E1,4E0],"tree_param":{"num_deleted":"0","num_feature":"85","num_nodes":"63","size_leaf_vector":"1"}},{"base_weights":[-2.6162271E-3,-4.4271138E-1,1.0787916E0,-1.1223048E0,-1.3620855E-1,5.714447E-1,1.5618439E0,-1.8492234E0,-8.870407E-1,-3.9317608E-1,1.06128484E-1,7.944756E-1,1.364032E-1,1.4073334E0,3.0605888E0,-1.980693E0,-1.4024996E0,-9.732871E-1,-4.9375576E-1,-4.0271503E-1,3.8178866E0,2.2465552E-1,-3.26639E-1,9.2624146E-1,2.3323888E-2,-3.8884073E-1,4.796287E-1,1.0575408E0,1.7467228E0,7.406637E0,2.6996238E0,-2.8774643E-2,-9.991496E-2,-7.2276704E-2,6.729148E-2,-6.9554836E-2,-4.4164553E-2,2.2561784E-1,-2.7882686E-2,-4.3559764E-2,-1.671402E-2,-2.6567845E-2,4.8969984E-1,-9.587685E-4,2.0960843E-2,-3.474181E-2,1.8105034E-3,4.4664305E-2,2.7932894E-1,-4.4082727E-2,2.5551125E-2,3.3379074E-2,-2.9044745E-2,4.8460167E-2,-1.1561933E-3,-9.850374E-3,6.001429E-2,1.05388224E-1,5.8482748E-2,1.2971078E-1,4.6286225E-1,5.2607376E-2,1.866576E-1],"categories":[],"categories_nodes":[],"categories_segments":[],"categories_sizes":[],"default_left":[1,1,0,0,0,0,0,0,1,1,0,0,0,0,0,0,0,0,0,0,0,0,0,0,0,0,0,0,0,0,0,0,0,0,0,0,0,0,0,0,0,0,0,0,0,0,0,0,0,0,0,0,0,0,0,0,0,0,0,0,0,0,0],"id":4,"left_children":[1,3,5,7,9,11,13,15,17,19,21,23,25,27,29,31,33,35,37,39,41,43,45,47,49,51,53,55,57,59,61,-1,-1,-1,-1,-1,-1,-1,-1,-1,-1,-1,-1,-1,-1,-1,-1,-1,-1,-1,-1,-1,-1,-1,-1,-1,-1,-1,-1,-1,-1,-1,-1],"loss_changes":[6.114176E3,1.9018098E3,9.0980664E2,4.837085E2,3.9198642E2,1.758999E2,4.3637402E2,3.7922363E1,7.231067E1,1.2425418E2,1.6626804E2,1.2181055E2,1.1123721E2,2.031753E2,2.5767725E2,1.2036621E1,2.0987427E1,6.491162E1,1.2662988E2,9.746057E1,1.8714502E2,1.2069554E2,9.3144356E1,1.5227893E2,7.8129326E1,4.9893013E1,9.1830734E1,1.5299213E2,1.7983716E2,9.1761475E1,2.7701978E2,0E0,0E0,0E0,0E0,0E0,0E0,0E0,0E0,0E0,0E0,0E0,0E0,0E0,0E0,0E0,0E0,0E0,0E0,0E0,0E0,0E0,0E0,0E0,0E0,0E0,0E0,0E0,0E0,0E0,0E0,0E0,0E0],"parents":[2147483647,0,0,1,1,2,2,3,3,4,4,5,5,6,6,7,7,8,8,9,9,10,10,11,11,12,12,13,13,14,14,15,15,16,16,17,17,18,18,19,19,20,20,21,21,22,22,23,23,24,24,25,25,26,26,27,27,28,28,29,29,30,30],"right_children":[2,4,6,8,10,12,14,16,18,20,22,24,26,28,30,32,34,36,38,40,42,44,46,48,50,52,54,56,58,60,62,-1,-1,-1,-1,-1,-1,-1,-1,-1,-1,-1,-1,-1,-1,-1,-1,-1,-1,-1,-1,-1,-1,-1,-1,-1,-1,-1,-1,-1,-1,-1,-1],"split_conditions":[4.6125E0,1.42E0,6.25E0,6.25E-1,2.9E0,1.1520793E3,6.7125E-1,2E-1,3.6666667E0,5.625E0,1.2296508E3,4.965024E-1,7.6E1,1E0,1.590254E-1,2E0,1.0333333E1,1E0,2.5E-1,2.2E1,1.1052943E-1,5E-2,1E0,7.033333E-1,9.6666664E-2,8.8751465E2,5.7E0,6.74E1,1.0389169E3,8.4743E2,9.603419E-1,-2.8774643E-2,-9.991496E-2,-7.2276704E-2,6.729148E-2,-6.9554836E-2,-4.4164553E-2,2.2561784E-1,-2.7882686E-2,-4.3559764E-2,-1.671402E-2,-2.6567845E-2,4.8969984E-1,-9.587685E-4,2.0960843E-2,-3.474181E-2,1.8105034E-3,4.4664305E-2,2.7932894E-1,-4.4082727E-2,2.5551125E-2,3.3379074E-2,-2.9044745E-2,4.8460167E-2,-1.1561933E-3,-9.850374E-3,6.001429E-2,1.05388224E-1,5.8482748E-2,1.2971078E-1,4.6286225E-1,5.2607376E-2,1.866576E-1],"split_indices":[62,35,62,56,62,84,61,13,11,18,82,75,0,81,70,53,11,2,29,0,15,32,81,7,6,82,8,27,82,83,77,0,0,0,0,0,0,0,0,0,0,0,0,0,0,0,0,0,0,0,0,0,0,0,0,0,0,0,0,0,0,0,0],"split_type":[0,0,0,0,0,0,0,0,0,0,0,0,0,0,0,0,0,0,0,0,0,0,0,0,0,0,0,0,0,0,0,0,0,0,0,0,0,0,0,0,0,0,0,0,0,0,0,0,0,0,0,0,0,0,0,0,0,0,0,0,0,0,0],"sum_hessian":[1.2845E4,9.13E3,3.715E3,2.837E3,6.293E3,1.813E3,1.902E3,6.92E2,2.145E3,3.054E3,3.239E3,1.198E3,6.15E2,1.726E3,1.76E2,5.32E2,1.6E2,1.758E3,3.87E2,3.048E3,6E0,2.543E3,6.96E2,1.023E3,1.75E2,2.43E2,3.72E2,8.52E2,8.74E2,1.2E1,1.64E2,7E0,5.25E2,1.58E2,2E0,3.09E2,1.449E3,4E0,3.83E2,3.87E2,2.661E3,4E0,2E0,1.129E3,1.414E3,3.45E2,3.51E2,1.017E3,6E0,6.1E1,1.14E2,3.7E1,2.06E2,1.88E2,1.84E2,8.7E1,7.65E2,5.36E2,3.38E2,4E0,8E0,6.4E1,1E2],"tree_param":{"num_deleted":"0","num_feature":"85","num_nodes":"63","size_leaf_vector":"1"}},{"base_weights":[1.1115914E-4,-5.2461797E-1,8.348454E-1,-1.1789038E0,-2.7453265E-1,4.6615237E-1,1.4265882E0,-1.8647904E0,-9.6618545E-1,-5.0295085E-1,-7.286655E-2,-3.0115637E-1,5.6945705E-1,1.195909E0,2.371952E0,-1.8783447E0,1.2890758E-1,-1.3352436E0,-8.9977103E-1,-7.4449193E-1,-3.1838784E-1,4.1727668E-1,-1.5858063E-1,-1.1743816E0,-1.3290493E-1,7.922795E-1,2.2048312E-1,-2.4817792E-1,1.2823676E0,2.6219895E0,-1.318968E-1,-2.121699E-2,-9.458446E-2,-6.921837E-2,6.939953E-2,-4.5312922E-2,8.165233E-2,-3.769907E-2,2.5800583E-1,2.8822133E-1,-1.6506108E-2,4.0081604E-3,6.2522076E-2,-8.366127E-3,2.7794662E-1,-7.845103E-2,-9.415695E-3,1.5677404E-1,-1.1525675E-2,2.412642E-3,4.644623E-2,4.904051E-3,5.5898447E-2,-2.4956811E-2,1.6323875E-1,1.18315436E-1,5.889497E-2,7.4022874E-2,1.5189074E-1,1.6331641E-1,-2.7627656E-2],"categories":[],"categories_nodes":[],"categories_segments":[],"categories_sizes":[],"default_left":[1,1,0,0,0,0,0,0,0,0,0,0,0,0,0,0,0,0,1,0,0,0,0,0,0,0,0,0,0,0,0,0,0,0,0,0,0,0,0,0,0,0,0,0,0,0,0,0,0,0,0,0,0,0,0,0,0,0,0,0,0],"id":5,"left_children":[1,3,5,7,9,11,13,15,17,19,21,23,25,27,29,31,-1,33,35,37,39,41,43,45,47,49,51,53,55,57,59,-1,-1,-1,-1,-1,-1,-1,-1,-1,-1,-1,-1,-1,-1,-1,-1,-1,-1,-1,-1,-1,-1,-1,-1,-1,-1,-1,-1,-1,-1],"loss_changes":[5.6682793E3,1.2998586E3,1.0891013E3,3.1874194E2,2.6483255E2,2.4423328E2,4.1521436E2,3.6097168E1,3.995215E1,1.1994946E2,1.2841338E2,5.361716E1,2.1086377E2,1.9296777E2,2.3511694E2,9.248047E0,0E0,3.590042E1,2.491101E1,6.927954E1,1.11110916E2,1.2769613E2,1.3093321E2,2.2663841E1,9.898168E1,1.683169E2,1.1622589E2,7.921077E1,1.6208643E2,1.5736768E2,5.1836792E1,0E0,0E0,0E0,0E0,0E0,0E0,0E0,0E0,0E0,0E0,0E0,0E0,0E0,0E0,0E0,0E0,0E0,0E0,0E0,0E0,0E0,0E0,0E0,0E0,0E0,0E0,0E0,0E0,0E0,0E0],"parents":[2147483647,0,0,1,1,2,2,3,3,4,4,5,5,6,6,7,7,8,8,9,9,10,10,11,11,12,12,13,13,14,14,15,15,17,17,18,18,19,19,20,20,21,21,22,22,23,23,24,24,25,25,26,26,27,27,28,28,29,29,30,30],"right_children":[2,4,6,8,10,12,14,16,18,20,22,24,26,28,30,32,-1,34,36,38,40,42,44,46,48,50,52,54,56,58,60,-1,-1,-1,-1,-1,-1,-1,-1,-1,-1,-1,-1,-1,-1,-1,-1,-1,-1,-1,-1,-1,-1,-1,-1,-1,-1,-1,-1,-1,-1],"split_conditions":[3.8875E0,1.2E0,6.25E0,1E0,2.4625E0,4.5666668E1,5.6625E-1,1.075E-1,7.5E-1,2.5E0,8.4596967E2,1.5333333E0,1.0458906E3,5.88E1,1.4234702E3,1.2478336E0,1.2890758E-1,1.0333333E1,1.054E1,1.9125E-1,1.3333334E-1,1.075E1,1.5E0,1.7727509E-1,2E0,2.564912E-1,2.857143E-1,3.7325E1,7.258065E-1,2.56E1,1.374E1,-2.121699E-2,-9.458446E-2,-6.921837E-2,6.939953E-2,-4.5312922E-2,8.165233E-2,-3.769907E-2,2.5800583E-1,2.8822133E-1,-1.6506108E-2,4.0081604E-3,6.2522076E-2,-8.366127E-3,2.7794662E-1,-7.845103E-2,-9.415695E-3,1.5677404E-1,-1.1525675E-2,2.412642E-3,4.644623E-2,4.904051E-3,5.5898447E-2,-2.4956811E-2,1.6323875E-1,1.18315436E-1,5.889497E-2,7.4022874E-2,1.5189074E-1,1.6331641E-1,-2.7627656E-2],"split_indices":[62,62,62,0,62,0,61,61,29,11,84,8,82,27,84,79,0,11,40,59,40,65,10,43,12,69,57,66,22,66,40,0,0,0,0,0,0,0,0,0,0,0,0,0,0,0,0,0,0,0,0,0,0,0,0,0,0,0,0,0,0],"split_type":[0,0,0,0,0,0,0,0,0,0,0,0,0,0,0,0,0,0,0,0,0,0,0,0,0,0,0,0,0,0,0,0,0,0,0,0,0,0,0,0,0,0,0,0,0,0,0,0,0,0,0,0,0,0,0,0,0,0,0,0,0],"sum_hessian":[1.2939E4,7.945E3,4.994E3,2.196E3,5.749E3,3.078E3,1.916E3,5.18E2,1.678E3,2.695E3,3.054E3,3.65E2,2.713E3,1.542E3,3.74E2,5.17E2,1E0,2.53E2,1.425E3,1.166E3,1.529E3,4.54E2,2.6E3,5.8E1,3.07E2,1.655E3,1.058E3,8.7E1,1.455E3,3.4E2,3.4E1,5E0,5.12E2,2.49E2,4E0,1.422E3,3E0,1.165E3,1E0,2E0,1.527E3,3.24E2,1.3E2,2.597E3,3E0,4.1E1,1.7E1,8E0,2.99E2,2.57E2,1.398E3,9.32E2,1.26E2,8.2E1,5E0,1.26E2,1.329E3,9.2E1,2.48E2,3E0,3.1E1],"tree_param":{"num_deleted":"0","num_feature":"85","num_nodes":"61","size_leaf_vector":"1"}},{"base_weights":[-2.6112548E-3,-5.1333576E-1,7.292402E-1,-1.0772021E0,-2.4383366E-1,5.293666E-1,1.6437787E0,-1.6631739E0,-8.5216296E-1,-3.9656365E-1,1.5685992E-2,1.6998805E-1,7.417302E-1,8.389817E-1,2.0689483E0,-1.2729734E0,-1.7846744E0,-8.996616E-1,7.430157E-2,-6.9046026E-1,-2.559161E-1,3.832124E-1,3.5435434E-3,7.448312E-2,7.6238424E-1,1.000481E0,3.718861E-1,1.3473312E0,3.2862833E-1,1.8531305E0,4.0786633E0,-6.507299E-2,8.425792E-2,-1.9263608E-2,-8.988448E-2,-7.121338E-2,-4.2494707E-2,3.7303042E-1,-4.916849E-3,-3.5369918E-2,9.5508866E-2,-1.314846E-2,3.7711522E-1,-9.143017E-4,1.8680397E-1,6.0891057E-3,-5.8254905E-2,2.5076801E-2,1.3597606E-1,4.8137605E-2,2.0426404E-1,-1.062889E-2,2.9841576E-2,2.1248923E-1,5.656321E-2,1.0644793E-2,3.253609E-1,1.4677803E-1,7.737004E-2,2.2852163E-1,-1.136982E-2],"categories":[],"categories_nodes":[],"categories_segments":[],"categories_sizes":[],"default_left":[1,1,0,0,0,0,0,0,1,0,0,0,0,0,0,0,0,0,0,0,0,0,0,0,0,0,0,0,0,0,0,0,0,0,0,0,0,0,0,0,0,0,0,0,0,0,0,0,0,0,0,0,0,0,0,0,0,0,0,0,0],"id":6,"left_children":[1,3,5,7,9,11,13,15,17,19,21,23,25,27,29,31,33,35,37,39,41,-1,43,45,47,49,51,53,55,57,59,-1,-1,-1,-1,-1,-1,-1,-1,-1,-1,-1,-1,-1,-1,-1,-1,-1,-1,-1,-1,-1,-1,-1,-1,-1,-1,-1,-1,-1,-1],"loss_changes":[4.7887993E3,1.1464514E3,9.6171313E2,3.203374E2,2.0242944E2,3.2980066E2,3.2127734E2,2.9776855E1,7.7737305E1,1.3271799E2,1.7578003E2,9.086206E1,2.5963794E2,8.465286E1,2.600547E2,1.6012878E1,8.651001E0,4.2625366E1,1.1167269E2,4.7163116E1,1.2166719E2,0E0,1.5414638E2,8.134574E1,1.1248108E2,1.8205188E2,1.4737604E2,9.804074E1,1.1660012E2,1.8044788E2,1.2597693E2,0E0,0E0,0E0,0E0,0E0,0E0,0E0,0E0,0E0,0E0,0E0,0E0,0E0,0E0,0E0,0E0,0E0,0E0,0E0,0E0,0E0,0E0,0E0,0E0,0E0,0E0,0E0,0E0,0E0,0E0],"parents":[2147483647,0,0,1,1,2,2,3,3,4,4,5,5,6,6,7,7,8,8,9,9,10,10,11,11,12,12,13,13,14,14,15,15,16,16,17,17,18,18,19,19,20,20,22,22,23,23,24,24,25,25,26,26,27,27,28,28,29,29,30,30],"right_children":[2,4,6,8,10,12,14,16,18,20,22,24,26,28,30,32,34,36,38,40,42,-1,44,46,48,50,52,54,56,58,60,-1,-1,-1,-1,-1,-1,-1,-1,-1,-1,-1,-1,-1,-1,-1,-1,-1,-1,-1,-1,-1,-1,-1,-1,-1,-1,-1,-1,-1,-1],"split_conditions":[3.6666667E0,1.2E0,4.2375E-1,6.25E-1,6.4E1,3.590239E-1,1.7375E1,9.033457E0,8.875E-2,3.3333333E0,4.9E1,4.6E0,1.0154262E3,2.0594966E-1,4.625E1,1.0333333E1,2E0,7.5E-1,1.2676057E0,1.5529412E0,2.903226E0,3.832124E-1,2.0625E-1,6.293706E-1,8.9333336E1,1.0095989E3,3.6302521E0,4.606299E-1,9.333333E0,1.86E1,1.7393223E0,-6.507299E-2,8.425792E-2,-1.9263608E-2,-8.988448E-2,-7.121338E-2,-4.2494707E-2,3.7303042E-1,-4.916849E-3,-3.5369918E-2,9.5508866E-2,-1.314846E-2,3.7711522E-1,-9.143017E-4,1.8680397E-1,6.0891057E-3,-5.8254905E-2,2.5076801E-2,1.3597606E-1,4.8137605E-2,2.0426404E-1,-1.062889E-2,2.9841576E-2,2.1248923E-1,5.656321E-2,1.0644793E-2,3.253609E-1,1.4677803E-1,7.737004E-2,2.2852163E-1,-1.136982E-2],"split_indices":[35,35,61,56,54,69,63,25,59,11,27,29,82,45,65,11,26,29,25,75,45,0,60,71,27,82,79,75,2,36,50,0,0,0,0,0,0,0,0,0,0,0,0,0,0,0,0,0,0,0,0,0,0,0,0,0,0,0,0,0,0],"split_type":[0,0,0,0,0,0,0,0,0,0,0,0,0,0,0,0,0,0,0,0,0,0,0,0,0,0,0,0,0,0,0,0,0,0,0,0,0,0,0,0,0,0,0,0,0,0,0,0,0,0,0,0,0,0,0,0,0,0,0,0,0],"sum_hessian":[1.281E4,7.545E3,5.265E3,2.439E3,5.106E3,4.322E3,9.43E2,6.75E2,1.764E3,3.214E3,1.892E3,1.606E3,2.716E3,3.27E2,6.16E2,1.63E2,5.12E2,1.678E3,8.6E1,1.039E3,2.175E3,2E0,1.89E3,1.384E3,2.22E2,1.597E3,1.119E3,1.63E2,1.64E2,5.58E2,5.8E1,1.62E2,1E0,5E0,5.07E2,1.43E2,1.535E3,1E0,8.5E1,1.033E3,6E0,2.174E3,1E0,1.88E3,1E1,1.334E3,5E1,1.97E2,2.5E1,1.579E3,1.8E1,3.11E2,8.08E2,1E1,1.53E2,1.62E2,2E0,1.21E2,4.37E2,5.2E1,6E0],"tree_param":{"num_deleted":"0","num_feature":"85","num_nodes":"61","size_leaf_vector":"1"}},{"base_weights":[9.789922E-3,-4.6209475E-1,7.7510464E-1,-1.118712E0,-2.6070958E-1,6.2000346E-1,2.0319698E0,-1.6032234E0,-8.706837E-1,-4.3975964E-1,-2.8176064E-2,3.5813496E-1,9.6064293E-1,1.5713004E0,3.99925E0,-1.6137061E0,1.258078E-1,-8.9000267E-1,2.2229292E0,-1.1475793E0,-3.849375E-1,-3.833534E-2,5.3801622E0,5.351252E-1,-2.7537027E-2,1.0794915E0,1.5000685E-1,2.1710565E0,9.779455E-1,2.0066576E0,5.2009077E0,-8.1126474E-2,9.9063806E-2,-5.2468885E-2,-3.884874E-2,2.2654457E-1,-6.0887784E-2,-3.5070237E-2,-7.640479E-2,-2.0010728E-2,1.1009327E-1,2.0218262E-2,-7.3331E-3,4.6640286E-1,-1.8056007E-2,6.2362994E-3,4.0336628E-2,-2.291022E-3,2.3676646E-1,6.3492246E-2,3.125822E-2,-2.6689906E-2,2.5504509E-2,2.377895E-1,8.1683E-2,1.0606465E-2,9.10616E-2,3.1173638E-1,6.122563E-2,3.0616164E-1,3.8537838E-2],"categories":[],"categories_nodes":[],"categories_segments":[],"categories_sizes":[],"default_left":[1,1,0,0,0,0,0,0,1,0,0,0,0,0,0,0,0,0,0,0,0,0,0,0,0,0,0,0,0,0,0,0,0,0,0,0,0,0,0,0,0,0,0,0,0,0,0,0,0,0,0,0,0,0,0,0,0,0,0,0,0],"id":7,"left_children":[1,3,5,7,9,11,13,15,17,19,21,23,25,27,29,31,-1,33,35,37,39,41,43,45,47,49,51,53,55,57,59,-1,-1,-1,-1,-1,-1,-1,-1,-1,-1,-1,-1,-1,-1,-1,-1,-1,-1,-1,-1,-1,-1,-1,-1,-1,-1,-1,-1,-1,-1],"loss_changes":[4.667013E3,1.0567787E3,9.596057E2,2.240476E2,2.5475308E2,3.9116675E2,4.8400586E2,3.1437866E1,7.626666E1,1.3370428E2,1.4652426E2,1.6950476E2,1.8356409E2,1.5445886E2,2.3379382E2,2.329309E1,0E0,2.1449768E1,6.904529E1,4.1032837E1,1.27736206E2,1.2757505E2,1.1669847E2,1.8961697E2,6.831467E1,1.430271E2,6.0597843E1,2.9503845E2,1.436276E2,1.2464407E2,2.527008E2,0E0,0E0,0E0,0E0,0E0,0E0,0E0,0E0,0E0,0E0,0E0,0E0,0E0,0E0,0E0,0E0,0E0,0E0,0E0,0E0,0E0,0E0,0E0,0E0,0E0,0E0,0E0,0E0,0E0,0E0],"parents":[2147483647,0,0,1,1,2,2,3,3,4,4,5,5,6,6,7,7,8,8,9,9,10,10,11,11,12,12,13,13,14,14,15,15,17,17,18,18,19,19,20,20,21,21,22,22,23,23,24,24,25,25,26,26,27,27,28,28,29,29,30,30],"right_children":[2,4,6,8,10,12,14,16,18,20,22,24,26,28,30,32,-1,34,36,38,40,42,44,46,48,50,52,54,56,58,60,-1,-1,-1,-1,-1,-1,-1,-1,-1,-1,-1,-1,-1,-1,-1,-1,-1,-1,-1,-1,-1,-1,-1,-1,-1,-1,-1,-1,-1,-1],"split_conditions":[3.9125E0,1E0,5.1E-1,5E-1,8.6666666E-2,5.5875E0,1.132E1,1.075E-1,7.258065E-1,5.332312E-3,2.903226E0,1.158615E3,1.3147708E3,1.047227E3,6.164383E-1,5.4375E0,1.258078E-1,1.0333333E0,1.8351667E-1,1.35E-1,4.6E0,8.642829E2,1E0,1.3166667E1,2.56E1,3.9130434E-1,1.38E1,2.32E-1,2.975E1,5.50539E-1,9.9473685E-1,-8.1126474E-2,9.9063806E-2,-5.2468885E-2,-3.884874E-2,2.2654457E-1,-6.0887784E-2,-3.5070237E-2,-7.640479E-2,-2.0010728E-2,1.1009327E-1,2.0218262E-2,-7.3331E-3,4.6640286E-1,-1.8056007E-2,6.2362994E-3,4.0336628E-2,-2.291022E-3,2.3676646E-1,6.3492246E-2,3.125822E-2,-2.6689906E-2,2.5504509E-2,2.377895E-1,8.1683E-2,1.0606465E-2,9.10616E-2,3.1173638E-1,6.122563E-2,3.0616164E-1,3.8537838E-2],"split_indices":[62,62,61,29,7,62,35,61,71,15,45,84,84,83,44,67,0,40,7,75,29,84,4,13,36,71,36,32,65,23,46,0,0,0,0,0,0,0,0,0,0,0,0,0,0,0,0,0,0,0,0,0,0,0,0,0,0,0,0,0,0],"split_type":[0,0,0,0,0,0,0,0,0,0,0,0,0,0,0,0,0,0,0,0,0,0,0,0,0,0,0,0,0,0,0,0,0,0,0,0,0,0,0,0,0,0,0,0,0,0,0,0,0,0,0,0,0,0,0,0,0,0,0,0,0],"sum_hessian":[1.2921E4,7.993E3,4.928E3,1.875E3,6.118E3,4.388E3,5.4E2,6.33E2,1.242E3,3.456E3,2.662E3,2.482E3,1.906E3,4.39E2,1.01E2,6.32E2,1E0,1.235E3,7E0,2.47E2,3.209E3,2.658E3,4E0,1.701E3,7.81E2,1.662E3,2.44E2,2.17E2,2.22E2,3.9E1,6.2E1,6.31E2,1E0,5.09E2,7.26E2,4E0,3E0,1.15E2,1.32E2,3.191E3,1.8E1,5.22E2,2.136E3,2E0,2E0,6.78E2,1.023E3,7.79E2,2E0,1.17E3,4.92E2,8.4E1,1.6E2,3.6E1,1.81E2,1.17E2,1.05E2,5E0,3.4E1,5.1E1,1.1E1],"tree_param":{"num_deleted":"0","num_feature":"85","num_nodes":"61","size_leaf_vector":"1"}},{"base_weights":[-5.2794027E-3,-3.1732467E-1,1.0348383E0,-9.572221E-1,-7.45425E-2,9.629727E-1,3.2310216E0,-1.4970039E0,-7.442345E-1,-3.9897156E-1,1.0112197E-1,5.883586E-1,1.2223308E0,4.4900336E0,8.771765E-1,-1.512752E0,2.6611993E-1,-7.7692217E-1,4.951859E-1,-6.4811134E-1,-2.7051005E-1,2.1321803E-1,-4.098951E-1,8.2796735E-1,7.188977E-2,7.6628846E-1,1.5211824E0,5.70542E0,2.233942E0,3.171407E-1,3.3736122E-1,-7.6415904E-2,9.270578E-2,-4.50309E-2,-2.4956174E-2,7.509019E-3,2.9826072E-1,-3.28244E-2,1.6368583E-1,-1.8508568E-2,6.3283737E-3,1.0352486E-2,3.0330396E-1,-2.1361992E-2,2.2887424E-1,3.5485093E-2,1.15865484E-1,1.3837554E-4,2.600104E-1,2.8650147E-1,3.6413606E-2,1.0799938E-1,5.8857024E-2,4.5670934E-2,3.4563002E-1,3.4417936E-1,4.463876E-2,-4.704639E-2,7.6030605E-2],"categories":[],"categories_nodes":[],"categories_segments":[],"categories_sizes":[],"default_left":[1,1,0,0,0,0,0,0,1,0,0,0,0,0,0,1,0,1,0,0,0,0,0,0,0,0,0,0,0,0,0,0,0,0,0,0,0,0,0,0,0,0,0,0,0,0,0,0,0,0,0,0,0,0,0,0,0,0,0],"id":8,"left_children":[1,3,5,7,9,11,13,15,17,19,21,23,25,27,29,31,-1,33,35,37,39,41,43,45,47,49,51,53,55,-1,57,-1,-1,-1,-1,-1,-1,-1,-1,-1,-1,-1,-1,-1,-1,-1,-1,-1,-1,-1,-1,-1,-1,-1,-1,-1,-1,-1,-1],"loss_changes":[4.191096E3,1.5430767E3,4.6722217E2,3.1297534E2,4.104871E2,2.7977954E2,2.746322E2,9.095862E1,7.983215E1,8.0797E1,2.6777084E2,1.4633728E2,2.3120703E2,1.5451782E2,9.817497E1,4.3240967E1,0E0,6.5217285E1,9.5350845E1,3.0401703E1,6.617378E1,1.3712419E2,7.470627E1,1.406748E2,1.3327045E2,1.2357901E2,2.2360645E2,2.1929346E2,1.3728137E2,0E0,4.983195E1,0E0,0E0,0E0,0E0,0E0,0E0,0E0,0E0,0E0,0E0,0E0,0E0,0E0,0E0,0E0,0E0,0E0,0E0,0E0,0E0,0E0,0E0,0E0,0E0,0E0,0E0,0E0,0E0],"parents":[2147483647,0,0,1,1,2,2,3,3,4,4,5,5,6,6,7,7,8,8,9,9,10,10,11,11,12,12,13,13,14,14,15,15,17,17,18,18,19,19,20,20,21,21,22,22,23,23,24,24,25,25,26,26,27,27,28,28,30,30],"right_children":[2,4,6,8,10,12,14,16,18,20,22,24,26,28,30,32,-1,34,36,38,40,42,44,46,48,50,52,54,56,-1,58,-1,-1,-1,-1,-1,-1,-1,-1,-1,-1,-1,-1,-1,-1,-1,-1,-1,-1,-1,-1,-1,-1,-1,-1,-1,-1,-1,-1],"split_conditions":[5.125E0,2.4E1,1.1325E1,5E-1,2.4625E0,7.9125E1,1.2052452E3,1.0333333E1,1.6901408E0,2E0,1.2530298E3,1.116749E3,1.825E1,3.3E-1,4.3494425E0,1.8E0,2.6611993E-1,3.125E-2,1.4666667E1,1.3666667E-1,5.5E-2,5.05E-1,2.56E1,3.84E1,5.9125E-1,3.0059839E-2,9.986532E2,8.4333336E1,5.678238E-1,3.171407E-1,9.015691E2,-7.6415904E-2,9.270578E-2,-4.50309E-2,-2.4956174E-2,7.509019E-3,2.9826072E-1,-3.28244E-2,1.6368583E-1,-1.8508568E-2,6.3283737E-3,1.0352486E-2,3.0330396E-1,-2.1361992E-2,2.2887424E-1,3.5485093E-2,1.15865484E-1,1.3837554E-4,2.600104E-1,2.8650147E-1,3.6413606E-2,1.0799938E-1,5.8857024E-2,4.5670934E-2,3.4563002E-1,3.4417936E-1,4.463876E-2,-4.704639E-2,7.6030605E-2],"split_indices":[62,0,62,2,62,54,83,11,45,38,84,82,65,6,25,44,0,59,11,5,33,32,36,40,59,70,83,54,15,0,82,0,0,0,0,0,0,0,0,0,0,0,0,0,0,0,0,0,0,0,0,0,0,0,0,0,0,0,0],"split_type":[0,0,0,0,0,0,0,0,0,0,0,0,0,0,0,0,0,0,0,0,0,0,0,0,0,0,0,0,0,0,0,0,0,0,0,0,0,0,0,0,0,0,0,0,0,0,0,0,0,0,0,0,0,0,0,0,0,0,0],"sum_hessian":[1.2911E4,9.932E3,2.979E3,2.731E3,7.201E3,2.886E3,9.3E1,7.71E2,1.96E3,2.529E3,4.672E3,1.182E3,1.704E3,6E1,3.3E1,7.7E2,1E0,1.91E3,5E1,8.59E2,1.67E3,3.832E3,8.4E2,8.07E2,3.75E2,6.76E2,1.028E3,3.8E1,2.2E1,2E0,3.1E1,7.67E2,3E0,1.32E3,5.9E2,4.8E1,2E0,8.58E2,1E0,1.335E3,3.35E2,3.829E3,3E0,8.38E2,2E0,7.49E2,5.8E1,3.71E2,4E0,4E0,6.72E2,3.58E2,6.7E2,8E0,3E1,4E0,1.8E1,1.5E1,1.6E1],"tree_param":{"num_deleted":"0","num_feature":"85","num_nodes":"59","size_leaf_vector":"1"}},{"base_weights":[-4.4974713E-3,-4.1714215E-1,6.776495E-1,-1.3080302E0,-2.9254866E-1,3.6932966E-1,1.1723547E0,-1.3341647E0,1.6656322E0,-5.2792126E-1,-1.0500626E-1,4.673375E-1,-3.0580422E-1,1.057233E0,3.085367E0,-1.0371648E0,-1.5375828E0,4.4285383E0,-7.152001E-2,-5.4147273E-1,2.3088148E0,-1.467128E-1,7.4057513E-1,2.3937707E-1,7.112225E-1,-3.5995254E-1,3.120409E0,7.007233E0,1.0396389E0,6.3164735E0,2.1528273E0,-3.9517906E-2,-5.9453726E-2,-7.852284E-2,3.459252E-4,3.4198192E-1,2.7062926E-2,-3.446377E-2,-1.4313406E-2,2.2885588E-1,-4.6870258E-2,-1.5429171E-2,3.2054668E-3,7.284044E-2,-7.42691E-3,-2.0894235E-2,1.6503068E-2,-8.7358095E-3,4.2815555E-2,-3.89132E-2,-2.3488388E-3,2.1111727E-2,2.181969E-1,4.5893857E-1,1.24997534E-1,9.81932E-2,4.7559388E-2,3.6814392E-1,-2.4733517E-2,-2.477602E-2,1.4212427E-1],"categories":[],"categories_nodes":[],"categories_segments":[],"categories_sizes":[],"default_left":[1,0,0,0,1,0,0,0,0,1,0,0,0,0,0,0,1,0,0,1,0,0,0,0,0,0,0,0,0,0,0,0,0,0,0,0,0,0,0,0,0,0,0,0,0,0,0,0,0,0,0,0,0,0,0,0,0,0,0,0,0],"id":9,"left_children":[1,3,5,7,9,11,13,15,17,19,21,23,25,27,29,31,33,35,-1,37,39,41,43,45,47,49,51,53,55,57,59,-1,-1,-1,-1,-1,-1,-1,-1,-1,-1,-1,-1,-1,-1,-1,-1,-1,-1,-1,-1,-1,-1,-1,-1,-1,-1,-1,-1,-1,-1],"loss_changes":[3.6167932E3,8.882742E2,7.3825757E2,7.853833E1,3.100445E2,1.9765558E2,4.0614404E2,5.7249634E1,8.3321E1,1.20996826E2,1.3803505E2,1.4476886E2,7.143669E1,1.7643677E2,3.0278094E2,1.4019653E1,2.9256714E1,4.3161095E1,0E0,1.16772095E2,1.14741745E2,1.27241165E2,1.1738995E2,8.05428E1,1.6198102E2,4.892802E1,1.8288937E1,2.5992188E1,1.4127405E2,1.6756805E2,1.5300424E2,0E0,0E0,0E0,0E0,0E0,0E0,0E0,0E0,0E0,0E0,0E0,0E0,0E0,0E0,0E0,0E0,0E0,0E0,0E0,0E0,0E0,0E0,0E0,0E0,0E0,0E0,0E0,0E0,0E0,0E0],"parents":[2147483647,0,0,1,1,2,2,3,3,4,4,5,5,6,6,7,7,8,8,9,9,10,10,11,11,12,12,13,13,14,14,15,15,16,16,17,17,19,19,20,20,21,21,22,22,23,23,24,24,25,25,26,26,27,27,28,28,29,29,30,30],"right_children":[2,4,6,8,10,12,14,16,18,20,22,24,26,28,30,32,34,36,-1,38,40,42,44,46,48,50,52,54,56,58,60,-1,-1,-1,-1,-1,-1,-1,-1,-1,-1,-1,-1,-1,-1,-1,-1,-1,-1,-1,-1,-1,-1,-1,-1,-1,-1,-1,-1,-1,-1],"split_conditions":[3.9125E0,7.3333335E0,6.25E0,9.333333E0,3.3333333E0,1.323639E3,1.1325E1,1.211371E0,2.4E0,5.228571E-1,4E-1,1.4E1,2.4E1,6.375E0,1.7142857E0,9.8909155E2,4.477612E-1,1.0333333E-1,-7.152001E-2,5.55E1,7.2533335E-3,5.3375E1,1.0490656E3,1.085087E-1,7E0,2.1E-1,6.666667E-1,8.6666664E1,7.258065E-1,1.3333334E0,1E0,-3.9517906E-2,-5.9453726E-2,-7.852284E-2,3.459252E-4,3.4198192E-1,2.7062926E-2,-3.446377E-2,-1.4313406E-2,2.2885588E-1,-4.6870258E-2,-1.5429171E-2,3.2054668E-3,7.284044E-2,-7.42691E-3,-2.0894235E-2,1.6503068E-2,-8.7358095E-3,4.2815555E-2,-3.89132E-2,-2.3488388E-3,2.1111727E-2,2.181969E-1,4.5893857E-1,1.24997534E-1,9.81932E-2,4.7559388E-2,3.6814392E-1,-2.4733517E-2,-2.477602E-2,1.4212427E-1],"split_indices":[62,0,62,9,11,84,62,20,62,73,31,11,36,63,22,84,71,7,0,54,6,54,82,15,80,34,37,0,22,30,55,0,0,0,0,0,0,0,0,0,0,0,0,0,0,0,0,0,0,0,0,0,0,0,0,0,0,0,0,0,0],"split_type":[0,0,0,0,0,0,0,0,0,0,0,0,0,0,0,0,0,0,0,0,0,0,0,0,0,0,0,0,0,0,0,0,0,0,0,0,0,0,0,0,0,0,0,0,0,0,0,0,0,0,0,0,0,0,0,0,0,0,0,0,0],"sum_hessian":[1.2847E4,8.005E3,4.842E3,9.81E2,7.024E3,2.984E3,1.858E3,9.73E2,8E0,3.114E3,3.91E3,2.606E3,3.78E2,1.754E3,1.04E2,3.98E2,5.75E2,4E0,4E0,3.1E3,1.4E1,3.727E3,1.83E2,1.348E3,1.258E3,3.73E2,5E0,4E0,1.75E3,2.2E1,8.2E1,1.54E2,2.44E2,5.63E2,1.2E1,2E0,2E0,1.962E3,1.138E3,8E0,6E0,2.108E3,1.619E3,1.01E2,8.2E1,1.63E2,1.185E3,1.77E2,1.081E3,1.59E2,2.14E2,2E0,3E0,2E0,2E0,1.51E2,1.599E3,1.9E1,3E0,1.7E1,6.5E1],"tree_param":{"num_deleted":"0","num_feature":"85","num_nodes":"61","size_leaf_vector":"1"}},{"base_weights":[1.8142791E-2,-3.955742E-1,6.8849427E-1,-8.307142E-1,-1.521159E-1,3.4625718E-1,1.1139339E0,-1.3645709E0,-6.446092E-1,-1.972454E-1,4.682344E-1,3.3429414E-1,5.6858683E0,9.467206E-1,1.9680083E0,-8.462232E-1,-1.4231548E0,-4.1486606E-1,-7.2917056E-1,-4.6947533E-1,-1.1724633E-1,4.0792134E-1,5.507941E0,4.3873438E-1,-1.5864633E-1,-2.3126353E-2,3.5040265E-1,7.256228E-1,1.444869E0,1.251151E0,2.6778367E0,-4.613061E-2,6.727876E-2,-7.220025E-2,-2.1655332E-2,-2.609486E-2,4.8941303E-2,-4.8636943E-2,-3.162467E-2,-2.4102163E-2,2.0931669E-1,-1.006659E-2,1.2940161E-2,8.2787454E-2,9.177001E-3,3.115628E-1,8.3449885E-2,8.077748E-3,3.1905975E-2,-1.7552705E-2,2.4443781E-2,1.849306E-2,5.3004123E-2,1.0052152E-1,4.976917E-2,1.6044238E-1,3.6793243E-2,1.20612375E-1,3.449256E-1],"categories":[],"categories_nodes":[],"categories_segments":[],"categories_sizes":[],"default_left":[1,1,0,0,0,0,0,0,0,0,0,0,0,0,0,0,0,1,0,0,0,0,0,0,0,0,0,0,0,0,0,0,0,0,0,0,0,0,0,0,0,0,0,0,0,0,0,0,0,0,0,0,0,0,0,0,0,0,0],"id":10,"left_children":[1,3,5,7,9,11,13,15,17,19,21,23,25,27,29,31,33,35,37,39,41,43,45,47,49,-1,-1,51,53,55,57,-1,-1,-1,-1,-1,-1,-1,-1,-1,-1,-1,-1,-1,-1,-1,-1,-1,-1,-1,-1,-1,-1,-1,-1,-1,-1,-1,-1],"loss_changes":[3.554331E3,8.3943567E2,7.1174976E2,2.8158215E2,1.4239658E2,1.7133624E2,3.094685E2,2.108496E1,4.068933E1,1.0315155E2,1.02619385E2,1.394336E2,5.201729E1,1.999563E2,1.7779858E2,1.4133495E1,1.2957397E1,8.553686E1,3.5671448E1,6.497893E1,1.1590888E2,9.545242E1,7.071152E-1,1.2335989E2,5.922646E1,0E0,0E0,1.5024664E2,1.4035742E2,1.7820926E2,1.8289111E2,0E0,0E0,0E0,0E0,0E0,0E0,0E0,0E0,0E0,0E0,0E0,0E0,0E0,0E0,0E0,0E0,0E0,0E0,0E0,0E0,0E0,0E0,0E0,0E0,0E0,0E0,0E0,0E0],"parents":[2147483647,0,0,1,1,2,2,3,3,4,4,5,5,6,6,7,7,8,8,9,9,10,10,11,11,12,12,13,13,14,14,15,15,16,16,17,17,18,18,19,19,20,20,21,21,22,22,23,23,24,24,27,27,28,28,29,29,30,30],"right_children":[2,4,6,8,10,12,14,16,18,20,22,24,26,28,30,32,34,36,38,40,42,44,46,48,50,-1,-1,52,54,56,58,-1,-1,-1,-1,-1,-1,-1,-1,-1,-1,-1,-1,-1,-1,-1,-1,-1,-1,-1,-1,-1,-1,-1,-1,-1,-1,-1,-1],"split_conditions":[3.8875E0,1.42E0,5.825E0,5E-1,4.3333335E0,7.966667E-1,3.68E1,1.7716535E0,9.248944E2,3.4666668E1,2.0930233E0,1.2492258E3,1.7133333E1,2.1375E-1,5.1E-1,6.3333335E0,2.1501814E-1,1.257975E-1,1.2333333E1,1.4625E1,1.075E1,7.3819555E-2,1.5E-1,1.3432837E-1,8.2875E1,-2.3126353E-2,3.5040265E-1,1E0,1.01257007E3,1.1875E1,3.2505643E0,-4.613061E-2,6.727876E-2,-7.220025E-2,-2.1655332E-2,-2.609486E-2,4.8941303E-2,-4.8636943E-2,-3.162467E-2,-2.4102163E-2,2.0931669E-1,-1.006659E-2,1.2940161E-2,8.2787454E-2,9.177001E-3,3.115628E-1,8.3449885E-2,8.077748E-3,3.1905975E-2,-1.7552705E-2,2.4443781E-2,1.849306E-2,5.3004123E-2,1.0052152E-1,4.976917E-2,1.6044238E-1,3.6793243E-2,1.20612375E-1,3.449256E-1],"split_indices":[62,35,62,2,2,7,38,52,84,0,18,84,13,60,61,11,69,61,0,63,65,78,5,72,54,0,0,81,84,63,49,0,0,0,0,0,0,0,0,0,0,0,0,0,0,0,0,0,0,0,0,0,0,0,0,0,0,0,0],"split_type":[0,0,0,0,0,0,0,0,0,0,0,0,0,0,0,0,0,0,0,0,0,0,0,0,0,0,0,0,0,0,0,0,0,0,0,0,0,0,0,0,0,0,0,0,0,0,0,0,0,0,0,0,0,0,0,0,0,0,0],"sum_hessian":[1.2814E4,7.924E3,4.89E3,2.842E3,5.082E3,2.711E3,2.179E3,7.33E2,2.109E3,4.738E3,3.44E2,2.706E3,5E0,1.824E3,3.55E2,7.6E1,6.57E2,5.69E2,1.54E3,1.075E3,3.663E3,3.41E2,3E0,2.233E3,4.73E2,1E0,4E0,1.265E3,5.59E2,1.78E2,1.77E2,7.4E1,2E0,6.43E2,1.4E1,5.29E2,4E1,4.35E2,1.105E3,1.073E3,2E0,2.994E3,6.69E2,5.1E1,2.9E2,2E0,1E0,9.35E2,1.298E3,3.65E2,1.08E2,6.14E2,6.51E2,2.46E2,3.13E2,3.6E1,1.42E2,1.68E2,9E0],"tree_param":{"num_deleted":"0","num_feature":"85","num_nodes":"59","size_leaf_vector":"1"}},{"base_weights":[8.33004E-3,-3.2817847E-1,6.698059E-1,-8.97446E-1,-1.4863756E-1,5.215612E-1,1.4521326E0,-1.253891E0,-6.481671E-1,-3.4072828E-1,5.022895E-3,1.0697553E0,4.023016E-1,1.6775202E0,1.2427092E-2,-1.3924613E0,-1.0339376E0,-3.5077474E-1,-7.29735E-1,-3.4880337E-1,3.00835E0,8.357206E-2,-4.2305085E-1,4.9772432E-1,1.4901596E0,1.5931177E-1,6.3326824E-1,1.0423845E0,2.3264396E0,2.506903E-1,-2.075503E-1,-5.6849785E-2,-7.116802E-2,-5.2729156E-2,4.48416E-2,-6.7886757E-3,-4.2999417E-2,3.8931218E-3,-3.7685163E-2,-1.7988788E-2,1.0413344E-1,1.197356E-3,2.6203328E-1,5.3606327E-3,-6.497093E-2,-2.3775505E-2,6.885839E-2,4.4558227E-2,-3.254083E-2,-3.910145E-2,8.313318E-2,-6.803834E-3,2.1592882E-2,2.7280329E-2,1.0489024E-1,1.8434916E-1,3.5764758E-2,4.2733617E-2,1.3508837E-1,-2.6454782E-2,1.0895306E-1],"categories":[],"categories_nodes":[],"categories_segments":[],"categories_sizes":[],"default_left":[1,1,0,0,0,0,0,0,0,0,0,0,0,0,0,0,0,0,0,0,0,0,0,0,0,0,0,0,0,0,0,0,0,0,0,0,0,0,0,0,0,0,0,0,0,0,0,0,0,0,0,0,0,0,0,0,0,0,0,0,0],"id":11,"left_children":[1,3,5,7,9,11,13,15,17,19,21,23,25,27,29,31,33,35,37,39,41,43,45,47,49,51,53,55,57,-1,59,-1,-1,-1,-1,-1,-1,-1,-1,-1,-1,-1,-1,-1,-1,-1,-1,-1,-1,-1,-1,-1,-1,-1,-1,-1,-1,-1,-1,-1,-1],"loss_changes":[2.849178E3,8.669891E2,4.9979407E2,1.7991687E2,1.9041429E2,2.3688965E2,2.229049E2,2.4040771E1,2.882898E1,7.858472E1,1.2058039E2,1.550921E2,1.6731256E2,2.4239331E2,1.0445851E2,2.4074097E0,1.398056E1,2.8348434E1,1.8253967E1,7.7078064E1,4.6509396E1,9.920431E1,5.3162445E1,1.2529948E2,1.4750208E2,1.171963E2,1.9515405E2,2.5859882E2,1.595426E2,0E0,7.098668E1,0E0,0E0,0E0,0E0,0E0,0E0,0E0,0E0,0E0,0E0,0E0,0E0,0E0,0E0,0E0,0E0,0E0,0E0,0E0,0E0,0E0,0E0,0E0,0E0,0E0,0E0,0E0,0E0,0E0,0E0],"parents":[2147483647,0,0,1,1,2,2,3,3,4,4,5,5,6,6,7,7,8,8,9,9,10,10,11,11,12,12,13,13,14,14,15,15,16,16,17,17,18,18,19,19,20,20,21,21,22,22,23,23,24,24,25,25,26,26,27,27,28,28,30,30],"right_children":[2,4,6,8,10,12,14,16,18,20,22,24,26,28,30,32,34,36,38,40,42,44,46,48,50,52,54,56,58,-1,60,-1,-1,-1,-1,-1,-1,-1,-1,-1,-1,-1,-1,-1,-1,-1,-1,-1,-1,-1,-1,-1,-1,-1,-1,-1,-1,-1,-1,-1,-1],"split_conditions":[4.28E0,1.125E0,8.3125E0,1E0,2.5E0,8.72012E2,1.3415629E3,6.625E0,3.4615386E0,1.788E1,1.3222875E3,1.598579E-1,1E0,5.596447E-1,2E-1,1.7142857E1,5.834684E-1,3.9112905E-1,5.2859265E2,1.6981132E0,1.4E-2,1.8394161E1,1.6E0,4E-1,6.1624203E-2,5.3625E0,3.0666667E-1,3.75E-1,8.8E0,2.506903E-1,4.8E1,-5.6849785E-2,-7.116802E-2,-5.2729156E-2,4.48416E-2,-6.7886757E-3,-4.2999417E-2,3.8931218E-3,-3.7685163E-2,-1.7988788E-2,1.0413344E-1,1.197356E-3,2.6203328E-1,5.3606327E-3,-6.497093E-2,-2.3775505E-2,6.885839E-2,4.4558227E-2,-3.254083E-2,-3.910145E-2,8.313318E-2,-6.803834E-3,2.1592882E-2,2.7280329E-2,1.0489024E-1,1.8434916E-1,3.5764758E-2,4.2733617E-2,1.3508837E-1,-2.6454782E-2,1.0895306E-1],"split_indices":[35,62,62,2,62,84,82,54,25,40,82,72,81,75,37,25,71,77,82,72,5,25,41,64,73,62,6,64,35,0,38,0,0,0,0,0,0,0,0,0,0,0,0,0,0,0,0,0,0,0,0,0,0,0,0,0,0,0,0,0,0],"split_type":[0,0,0,0,0,0,0,0,0,0,0,0,0,0,0,0,0,0,0,0,0,0,0,0,0,0,0,0,0,0,0,0,0,0,0,0,0,0,0,0,0,0,0,0,0,0,0,0,0,0,0,0,0,0,0,0,0,0,0,0,0],"sum_hessian":[1.2798E4,8.483E3,4.315E3,2.033E3,6.45E3,3.629E3,6.86E2,8.35E2,1.198E3,2.866E3,3.584E3,6.47E2,2.982E3,5.93E2,9.3E1,5.09E2,3.26E2,2.59E2,9.39E2,2.86E3,6E0,3.029E3,5.55E2,2.75E2,3.72E2,1.454E3,1.528E3,3.01E2,2.92E2,3E0,9E1,5.9E1,4.5E2,3.23E2,3E0,1.83E2,7.6E1,2.7E1,9.12E2,2.848E3,1.2E1,3E0,3E0,2.979E3,5E1,5.4E2,1.5E1,2.05E2,7E1,2.6E1,3.46E2,6.98E2,7.56E2,1.443E3,8.5E1,3.2E1,2.69E2,6E1,2.32E2,8E1,1E1],"tree_param":{"num_deleted":"0","num_feature":"85","num_nodes":"61","size_leaf_vector":"1"}},{"base_weights":[3.5093296E-3,-3.1679398E-1,7.136141E-1,-7.978235E-1,-1.2909167E-1,4.6359226E-1,1.2585675E0,-1.3023549E0,-6.451253E-1,-4.051733E-1,-1.5335802E-2,2.0033017E-1,7.091131E-1,1.5441426E0,5.355303E-1,-1.3141377E0,1.3940545E0,-6.843389E-1,7.729378E-1,-4.5937878E-1,1.7498618E-1,-1.5476285E-1,1.7289144E-1,-1.7386335E-1,3.7440228E-1,-5.233719E-1,7.948257E-1,1.155356E0,2.2545075E0,2.7761052E0,2.2894727E-1,-1.2777984E-3,-6.6268824E-2,9.585362E-2,8.700467E-3,-3.4490403E-2,2.3761211E-1,-1.2748758E-2,1.4521138E-1,-2.5125468E-2,4.7294083E-3,2.1017809E-1,3.561638E-3,1.2230168E-2,-1.0963149E-2,5.0418223E-3,4.5121912E-2,-1.4790024E-2,5.7089515E-2,2.4199544E-2,-2.1990849E-2,3.0966488E-1,-3.3184882E-2,6.730792E-2,3.0383006E-2,3.2197874E-2,8.228583E-2,1.3225587E-1,4.6540305E-2,3.0799767E-1,5.5221975E-2,-6.89021E-3,4.8894055E-2],"categories":[],"categories_nodes":[],"categories_segments":[],"categories_sizes":[],"default_left":[1,1,0,0,0,0,0,1,1,0,0,0,0,0,0,0,0,1,0,0,0,0,0,0,0,0,0,0,0,0,0,0,0,0,0,0,0,0,0,0,0,0,0,0,0,0,0,0,0,0,0,0,0,0,0,0,0,0,0,0,0,0,0],"id":12,"left_children":[1,3,5,7,9,11,13,15,17,19,21,23,25,27,29,31,33,35,37,39,41,43,45,47,49,51,53,55,57,59,61,-1,-1,-1,-1,-1,-1,-1,-1,-1,-1,-1,-1,-1,-1,-1,-1,-1,-1,-1,-1,-1,-1,-1,-1,-1,-1,-1,-1,-1,-1,-1,-1],"loss_changes":[2.9304502E3,8.01585E2,5.45099E2,1.91146E2,2.0061472E2,1.7741394E2,2.5913318E2,2.01958E1,1.0701715E2,5.8699127E1,1.1878073E2,8.6501434E1,1.505296E2,2.4651001E2,2.452826E2,8.307739E0,1.5807276E0,5.8700256E1,1.14661095E2,4.0784912E1,6.657714E1,6.702749E1,1.0115401E2,6.803795E1,8.105447E1,9.176498E1,1.363222E2,1.4564044E2,1.6196008E2,2.3643323E2,8.693129E1,0E0,0E0,0E0,0E0,0E0,0E0,0E0,0E0,0E0,0E0,0E0,0E0,0E0,0E0,0E0,0E0,0E0,0E0,0E0,0E0,0E0,0E0,0E0,0E0,0E0,0E0,0E0,0E0,0E0,0E0,0E0,0E0],"parents":[2147483647,0,0,1,1,2,2,3,3,4,4,5,5,6,6,7,7,8,8,9,9,10,10,11,11,12,12,13,13,14,14,15,15,16,16,17,17,18,18,19,19,20,20,21,21,22,22,23,23,24,24,25,25,26,26,27,27,28,28,29,29,30,30],"right_children":[2,4,6,8,10,12,14,16,18,20,22,24,26,28,30,32,34,36,38,40,42,44,46,48,50,52,54,56,58,60,62,-1,-1,-1,-1,-1,-1,-1,-1,-1,-1,-1,-1,-1,-1,-1,-1,-1,-1,-1,-1,-1,-1,-1,-1,-1,-1,-1,-1,-1,-1,-1,-1],"split_conditions":[4.5E0,2.48E1,3.725E-1,1E0,2.6666667E0,1.754386E-1,1.1806459E3,2.621359E0,1.6901408E0,1.4125E1,6.4E1,3.49413E-1,4.68E1,8.94E0,3.2519966E-1,1.2478336E0,8.133333E-4,1E0,6.125E-2,7E0,1.425E1,8.3686066E2,1.75E1,4.0666667E-1,2.3333334E1,3.4482758E0,1.3E-1,1E0,3.2E0,1.5340909E0,3.0375E1,-1.2777984E-3,-6.6268824E-2,9.585362E-2,8.700467E-3,-3.4490403E-2,2.3761211E-1,-1.2748758E-2,1.4521138E-1,-2.5125468E-2,4.7294083E-3,2.1017809E-1,3.561638E-3,1.2230168E-2,-1.0963149E-2,5.0418223E-3,4.5121912E-2,-1.4790024E-2,5.7089515E-2,2.4199544E-2,-2.1990849E-2,3.0966488E-1,-3.3184882E-2,6.730792E-2,3.0383006E-2,3.2197874E-2,8.228583E-2,1.3225587E-1,4.6540305E-2,3.0799767E-1,5.5221975E-2,-6.89021E-3,4.8894055E-2],"split_indices":[35,27,61,0,11,72,84,44,45,63,54,42,27,35,15,79,6,1,60,38,63,84,65,7,9,79,7,81,41,22,65,0,0,0,0,0,0,0,0,0,0,0,0,0,0,0,0,0,0,0,0,0,0,0,0,0,0,0,0,0,0,0,0],"split_type":[0,0,0,0,0,0,0,0,0,0,0,0,0,0,0,0,0,0,0,0,0,0,0,0,0,0,0,0,0,0,0,0,0,0,0,0,0,0,0,0,0,0,0,0,0,0,0,0,0,0,0,0,0,0,0,0,0,0,0,0,0,0,0],"sum_hessian":[1.2882E4,8.878E3,4.004E3,2.491E3,6.387E3,2.746E3,1.258E3,5.77E2,1.914E3,1.863E3,4.524E3,1.326E3,1.42E3,9.01E2,3.57E2,5.75E2,2E0,1.863E3,5.1E1,1.704E3,1.59E2,2.599E3,1.925E3,4.21E2,9.05E2,9.2E1,1.328E3,5.84E2,3.17E2,4.2E1,3.15E2,5E0,5.7E2,1E0,1E0,1.862E3,1E0,3.5E1,1.6E1,1.581E3,1.23E2,3E0,1.56E2,3.61E2,2.238E3,1.753E3,1.72E2,3.86E2,3.5E1,7.98E2,1.07E2,1E0,9.1E1,3.35E2,9.93E2,2.87E2,2.97E2,2.44E2,7.3E1,1.3E1,2.9E1,2.12E2,1.03E2],"tree_param":{"num_deleted":"0","num_feature":"85","num_nodes":"63","size_leaf_vector":"1"}},{"base_weights":[-6.8958756E-3,-4.7473183E-1,3.8504884E-1,-9.6904767E-1,-3.1590033E-1,1.5242323E-1,8.8638103E-1,-1.261182E0,-7.576204E-1,-4.1495174E-1,-7.852376E-2,3.110323E-1,-1.1145394E-1,8.030737E-1,2.5840554E0,-1.2857755E0,-4.9890794E-2,-7.941769E-1,1.4428844E0,-3.5140052E-1,-6.980653E-1,3.6504219E0,-9.551702E-2,2.4188371E-1,1.0500079E0,-4.1691136E-1,4.251002E-2,1.4902626E0,6.698804E-1,3.922617E0,6.6959405E-1,-6.2953554E-2,-8.423277E-2,-4.842515E-2,8.067946E-2,-4.0313806E-2,2.2848368E-1,3.2343957E-1,-6.071788E-2,-1.8281264E-2,5.0279547E-2,-3.5683304E-2,1.262385E-1,3.3361337E-1,2.3571614E-2,-7.7130855E-3,4.2434514E-2,1.6690863E-2,-6.8885647E-3,1.3435066E-1,2.902793E-2,-2.3476886E-2,3.8755983E-2,2.3048635E-1,1.362527E-3,1.0585238E-1,3.9683327E-2,8.111291E-3,4.385691E-2,1.1809275E-1,3.1151906E-1,2.920417E-1,7.4375644E-3],"categories":[],"categories_nodes":[],"categories_segments":[],"categories_sizes":[],"default_left":[1,1,0,0,0,0,0,0,1,0,0,0,0,0,0,0,0,1,0,0,0,0,0,0,0,0,0,0,0,0,0,0,0,0,0,0,0,0,0,0,0,0,0,0,0,0,0,0,0,0,0,0,0,0,0,0,0,0,0,0,0,0,0],"id":13,"left_children":[1,3,5,7,9,11,13,15,17,19,21,23,25,27,29,31,33,35,37,39,41,43,45,47,49,51,53,55,57,59,61,-1,-1,-1,-1,-1,-1,-1,-1,-1,-1,-1,-1,-1,-1,-1,-1,-1,-1,-1,-1,-1,-1,-1,-1,-1,-1,-1,-1,-1,-1,-1,-1],"loss_changes":[2.3744038E3,4.6315564E2,8.215884E2,8.767749E1,1.0504474E2,2.0151654E2,3.13735E2,1.7839539E1,6.831558E1,5.648413E1,8.380291E1,1.534011E2,8.5046936E1,1.9395837E2,2.6388635E2,4.152893E0,2.1427973E1,5.703131E1,1.9482614E2,5.0111206E1,3.0812653E1,5.4492966E1,7.290385E1,9.606424E1,1.959422E2,3.837967E1,8.371551E1,1.4895227E2,1.8777234E2,2.0499872E2,1.1764089E2,0E0,0E0,0E0,0E0,0E0,0E0,0E0,0E0,0E0,0E0,0E0,0E0,0E0,0E0,0E0,0E0,0E0,0E0,0E0,0E0,0E0,0E0,0E0,0E0,0E0,0E0,0E0,0E0,0E0,0E0,0E0,0E0],"parents":[2147483647,0,0,1,1,2,2,3,3,4,4,5,5,6,6,7,7,8,8,9,9,10,10,11,11,12,12,13,13,14,14,15,15,16,16,17,17,18,18,19,19,20,20,21,21,22,22,23,23,24,24,25,25,26,26,27,27,28,28,29,29,30,30],"right_children":[2,4,6,8,10,12,14,16,18,20,22,24,26,28,30,32,34,36,38,40,42,44,46,48,50,52,54,56,58,60,62,-1,-1,-1,-1,-1,-1,-1,-1,-1,-1,-1,-1,-1,-1,-1,-1,-1,-1,-1,-1,-1,-1,-1,-1,-1,-1,-1,-1,-1,-1,-1,-1],"split_conditions":[2.8875E0,1E0,5.825E0,2.3333333E0,9E-2,1.1287817E3,1.1325E1,6.675E0,1.25E1,7.7884617E0,4.898143E-2,3.6E-1,6.1333332E1,6.9346356E2,1.1748303E3,1.15E0,1.56E-1,1.2857143E0,2.9E0,5.415929E-1,1.9125E-1,9.3333334E-2,1.5333333E1,1.8897638E0,8.394937E2,2.8375E-1,1.94E0,6.574623E-1,2.7666667E-1,1E0,4.3494425E0,-6.2953554E-2,-8.423277E-2,-4.842515E-2,8.067946E-2,-4.0313806E-2,2.2848368E-1,3.2343957E-1,-6.071788E-2,-1.8281264E-2,5.0279547E-2,-3.5683304E-2,1.262385E-1,3.3361337E-1,2.3571614E-2,-7.7130855E-3,4.2434514E-2,1.6690863E-2,-6.8885647E-3,1.3435066E-1,2.902793E-2,-2.3476886E-2,3.8755983E-2,2.3048635E-1,1.362527E-3,1.0585238E-1,3.9683327E-2,8.111291E-3,4.385691E-2,1.1809275E-1,3.1151906E-1,2.920417E-1,7.4375644E-3],"split_indices":[62,2,62,0,7,84,62,66,65,25,75,34,0,82,83,62,46,72,67,75,59,7,9,76,84,59,40,77,7,3,25,0,0,0,0,0,0,0,0,0,0,0,0,0,0,0,0,0,0,0,0,0,0,0,0,0,0,0,0,0,0,0,0],"split_type":[0,0,0,0,0,0,0,0,0,0,0,0,0,0,0,0,0,0,0,0,0,0,0,0,0,0,0,0,0,0,0,0,0,0,0,0,0,0,0,0,0,0,0,0,0,0,0,0,0,0,0,0,0,0,0,0,0,0,0,0,0,0,0],"sum_hessian":[1.2947E4,5.902E3,7.045E3,1.434E3,4.468E3,4.813E3,2.232E3,6E2,8.34E2,3.152E3,1.316E3,3.006E3,1.807E3,2.129E3,1.03E2,5.88E2,1.2E1,8.21E2,1.3E1,2.576E3,5.76E2,5E0,1.311E3,2.75E3,2.56E2,6.05E2,1.202E3,3.44E2,1.785E3,6E1,4.3E1,5.55E2,3.3E1,8E0,4E0,8.2E2,1E0,4E0,9E0,2.55E3,2.6E1,5.74E2,2E0,2E0,3E0,1.235E3,7.6E1,2.214E3,5.36E2,5.6E1,2E2,5.8E2,2.5E1,3E0,1.199E3,1.8E2,1.64E2,5.18E2,1.267E3,3.7E1,2.3E1,3E0,4E1],"tree_param":{"num_deleted":"0","num_feature":"85","num_nodes":"63","size_leaf_vector":"1"}},{"base_weights":[9.175707E-4,-3.3931625E-1,5.149836E-1,-9.7027075E-1,-2.3465984E-1,2.9225895E-1,9.1013765E-1,-1.1481683E0,-6.7528754E-1,-3.0704367E-1,2.024192E-1,5.0260395E-1,-3.4862623E-2,2.6990077E-1,1.1166351E0,-1.1984255E0,-8.7703E-1,9.0728605E-1,-7.406952E-1,-4.4203332E-1,-1.2107998E-1,5.824652E-1,-7.879567E-2,2.6978356E-1,8.014455E-1,-2.853949E-1,2.0654309E-1,-1.9219525E-2,9.0774214E-1,2.1449633E-1,1.2850769E0,-2.916412E-3,-6.0516216E-2,-8.863344E-3,-4.722792E-2,2.01049E-1,-3.62584E-2,-7.709067E-3,-4.2789347E-2,-2.2718681E-2,6.3170455E-2,-6.3340715E-3,3.3291987E-1,1.4445937E-1,2.174281E-2,1.663074E-2,-1.8611385E-2,3.515829E-2,-2.3090525E-3,9.458366E-2,2.9986186E-2,-5.1491708E-2,-5.5179778E-3,2.6396804E-3,5.197945E-2,1.5161884E-2,-3.4793507E-2,8.5071616E-2,-9.978943E-4,-1.8189196E-2,6.6129036E-2,3.7843418E-1,6.312865E-2],"categories":[],"categories_nodes":[],"categories_segments":[],"categories_sizes":[],"default_left":[1,0,0,0,1,0,1,0,0,1,0,0,0,0,0,0,0,0,0,1,0,0,0,0,0,0,0,0,0,0,0,0,0,0,0,0,0,0,0,0,0,0,0,0,0,0,0,0,0,0,0,0,0,0,0,0,0,0,0,0,0,0,0],"id":14,"left_children":[1,3,5,7,9,11,13,15,17,19,21,23,25,27,29,31,33,35,37,39,41,43,45,47,49,51,53,55,57,59,61,-1,-1,-1,-1,-1,-1,-1,-1,-1,-1,-1,-1,-1,-1,-1,-1,-1,-1,-1,-1,-1,-1,-1,-1,-1,-1,-1,-1,-1,-1,-1,-1],"loss_changes":[2.2520464E3,5.113993E2,4.51052E2,5.7054077E1,2.1035632E2,2.2577783E2,2.4401782E2,8.296814E0,4.383667E1,1.4310986E2,1.0104237E2,1.387279E2,7.777566E1,8.337207E1,2.1200964E2,7.743225E0,5.0777435E0,8.932623E1,2.6936722E1,7.010901E1,9.198323E1,1.3562177E2,6.579604E1,1.5394566E2,1.9107794E2,8.2107666E1,8.383775E1,6.828656E1,1.0385317E2,1.4209424E2,1.568778E2,0E0,0E0,0E0,0E0,0E0,0E0,0E0,0E0,0E0,0E0,0E0,0E0,0E0,0E0,0E0,0E0,0E0,0E0,0E0,0E0,0E0,0E0,0E0,0E0,0E0,0E0,0E0,0E0,0E0,0E0,0E0,0E0],"parents":[2147483647,0,0,1,1,2,2,3,3,4,4,5,5,6,6,7,7,8,8,9,9,10,10,11,11,12,12,13,13,14,14,15,15,16,16,17,17,18,18,19,19,20,20,21,21,22,22,23,23,24,24,25,25,26,26,27,27,28,28,29,29,30,30],"right_children":[2,4,6,8,10,12,14,16,18,20,22,24,26,28,30,32,34,36,38,40,42,44,46,48,50,52,54,56,58,60,62,-1,-1,-1,-1,-1,-1,-1,-1,-1,-1,-1,-1,-1,-1,-1,-1,-1,-1,-1,-1,-1,-1,-1,-1,-1,-1,-1,-1,-1,-1,-1,-1],"split_conditions":[3.775E0,3.3333334E-1,6.25E0,1E0,1.075E1,1.0419823E3,4.9518E-1,2E-1,5E-1,8.333333E0,1.0457515E3,1.754386E-1,1E0,1.94E-1,7.14E1,2E0,2.5E0,3.25E0,8.2068866E2,1.6901408E0,2.765046E0,1.1E1,7.5630254E-1,1.4775E1,7.9026953E2,1.018E1,2E-1,3.3529413E-1,2.6666668E-1,2.6410835E0,6.375E0,-2.916412E-3,-6.0516216E-2,-8.863344E-3,-4.722792E-2,2.01049E-1,-3.62584E-2,-7.709067E-3,-4.2789347E-2,-2.2718681E-2,6.3170455E-2,-6.3340715E-3,3.3291987E-1,1.4445937E-1,2.174281E-2,1.663074E-2,-1.8611385E-2,3.515829E-2,-2.3090525E-3,9.458366E-2,2.9986186E-2,-5.1491708E-2,-5.5179778E-3,2.6396804E-3,5.197945E-2,1.5161884E-2,-3.4793507E-2,8.5071616E-2,-9.978943E-4,-1.8189196E-2,6.6129036E-2,3.7843418E-1,6.312865E-2],"split_indices":[62,8,62,56,65,82,23,13,36,9,83,72,81,33,27,53,27,63,83,45,24,65,76,66,83,40,6,21,33,49,63,0,0,0,0,0,0,0,0,0,0,0,0,0,0,0,0,0,0,0,0,0,0,0,0,0,0,0,0,0,0,0,0],"split_type":[0,0,0,0,0,0,0,0,0,0,0,0,0,0,0,0,0,0,0,0,0,0,0,0,0,0,0,0,0,0,0,0,0,0,0,0,0,0,0,0,0,0,0,0,0,0,0,0,0,0,0,0,0,0,0,0,0,0,0,0,0,0,0],"sum_hessian":[1.2874E4,7.747E3,5.127E3,1.101E3,6.646E3,3.28E3,1.847E3,6.85E2,4.16E2,5.702E3,9.44E2,1.996E3,1.284E3,4.51E2,1.396E3,5.75E2,1.1E2,1.6E1,4E2,3.303E3,2.399E3,4.01E2,5.43E2,1.123E3,8.73E2,6.3E2,6.54E2,3.11E2,1.4E2,2.2E2,1.176E3,6E0,5.69E2,1E1,1E2,5E0,1.1E1,6.6E1,3.34E2,3.28E3,2.3E1,2.398E3,1E0,2.3E1,3.78E2,2.26E2,3.17E2,4.73E2,6.5E2,1.35E2,7.38E2,1.19E2,5.11E2,5.53E2,1.01E2,2.11E2,1E2,7.5E1,6.5E1,1.45E2,7.5E1,3E0,1.173E3],"tree_param":{"num_deleted":"0","num_feature":"85","num_nodes":"63","size_leaf_vector":"1"}},{"base_weights":[6.1457106E-3,-3.2344204E-1,5.329254E-1,-6.6595477E-1,-1.3386334E-1,3.041851E-1,9.0266836E-1,-1.1440245E0,-5.484659E-1,-2.0979929E-1,1.7370072E-1,5.290427E-1,8.664651E-2,3.1007212E-1,1.0842873E0,-1.1517848E0,-6.0033154E-2,-6.29471E-1,-2.0545045E-1,-2.4107504E-1,4.0868413E-1,1.1269257E0,2.768947E-2,1.3142234E-1,7.4780333E-1,2.699151E-1,-2.2649509E-1,1.7489561E-1,2.1741838E0,4.2241636E-1,1.0682483E0,-1.0871395E-2,-5.7910997E-2,1.9575045E-2,-4.6654236E-2,-4.3368608E-2,-2.8266033E-2,3.7331354E-2,-1.8306855E-2,-1.22598745E-2,1.9120777E-1,1.6087179E-1,9.637684E-3,-7.4573583E-3,8.657721E-2,-1.4491724E-3,1.0653879E-1,1.5641496E-2,-4.301265E-2,3.4031823E-1,3.5467934E-2,6.3592754E-2,9.8753655E-3,-2.2436697E-2,2.002558E-2,5.3681973E-3,2.0526686E-1,2.5842512E-1,-2.098093E-2,4.973905E-2,1.3189958E-1],"categories":[],"categories_nodes":[],"categories_segments":[],"categories_sizes":[],"default_left":[1,1,0,0,0,0,0,0,1,0,0,0,0,0,0,0,0,0,0,0,0,0,0,0,0,0,0,0,0,0,0,0,0,0,0,0,0,0,0,0,0,0,0,0,0,0,0,0,0,0,0,0,0,0,0,0,0,0,0,0,0],"id":15,"left_children":[1,3,5,7,9,11,13,15,17,19,21,23,25,27,29,31,33,35,37,39,41,43,45,47,49,51,53,55,57,-1,59,-1,-1,-1,-1,-1,-1,-1,-1,-1,-1,-1,-1,-1,-1,-1,-1,-1,-1,-1,-1,-1,-1,-1,-1,-1,-1,-1,-1,-1,-1],"loss_changes":[2.23258E3,5.135318E2,4.1828784E2,1.5765344E2,1.189843E2,1.4958575E2,2.0318591E2,4.5995483E0,6.27782E1,7.911687E1,1.40403E2,1.3072522E2,8.935845E1,1.1175267E2,1.618833E2,3.0612183E0,2.336366E0,2.7453308E1,6.666935E1,6.6112305E1,1.18859344E2,1.0364421E2,1.0447046E2,9.651422E1,2.21104E2,7.09912E1,8.030322E1,1.0997781E2,2.3516888E2,0E0,1.6402014E2,0E0,0E0,0E0,0E0,0E0,0E0,0E0,0E0,0E0,0E0,0E0,0E0,0E0,0E0,0E0,0E0,0E0,0E0,0E0,0E0,0E0,0E0,0E0,0E0,0E0,0E0,0E0,0E0,0E0,0E0],"parents":[2147483647,0,0,1,1,2,2,3,3,4,4,5,5,6,6,7,7,8,8,9,9,10,10,11,11,12,12,13,13,14,14,15,15,16,16,17,17,18,18,19,19,20,20,21,21,22,22,23,23,24,24,25,25,26,26,27,27,28,28,30,30],"right_children":[2,4,6,8,10,12,14,16,18,20,22,24,26,28,30,32,34,36,38,40,42,44,46,48,50,52,54,56,58,-1,60,-1,-1,-1,-1,-1,-1,-1,-1,-1,-1,-1,-1,-1,-1,-1,-1,-1,-1,-1,-1,-1,-1,-1,-1,-1,-1,-1,-1,-1,-1],"split_conditions":[3.8875E0,1.42E0,6.25E0,1E0,1.075E1,1.0868733E3,4.810108E-1,4.1E1,6.125E-2,4E-1,8.483591E2,1.3166667E1,1.0867852E3,3.1666666E-1,3.2E0,1.2478336E0,6.666667E-1,1E0,7.8921783E2,2.195122E0,1.8E0,4.54E1,4.06E-1,1.722488E0,5E-1,4.3333335E0,8.7E1,8.5463333E-1,4.25E0,4.2241636E-1,3.6E1,-1.0871395E-2,-5.7910997E-2,1.9575045E-2,-4.6654236E-2,-4.3368608E-2,-2.8266033E-2,3.7331354E-2,-1.8306855E-2,-1.22598745E-2,1.9120777E-1,1.6087179E-1,9.637684E-3,-7.4573583E-3,8.657721E-2,-1.4491724E-3,1.0653879E-1,1.5641496E-2,-4.301265E-2,3.4031823E-1,3.5467934E-2,6.3592754E-2,9.8753655E-3,-2.2436697E-2,2.002558E-2,5.3681973E-3,2.0526686E-1,2.5842512E-1,-2.098093E-2,4.973905E-2,1.3189958E-1],"split_indices":[62,35,62,0,65,83,42,54,61,31,84,13,82,6,36,79,29,2,84,45,56,27,34,49,14,12,0,50,29,0,9,0,0,0,0,0,0,0,0,0,0,0,0,0,0,0,0,0,0,0,0,0,0,0,0,0,0,0,0,0,0],"split_type":[0,0,0,0,0,0,0,0,0,0,0,0,0,0,0,0,0,0,0,0,0,0,0,0,0,0,0,0,0,0,0,0,0,0,0,0,0,0,0,0,0,0,0,0,0,0,0,0,0,0,0,0,0,0,0,0,0,0,0,0,0],"sum_hessian":[1.2857E4,7.909E3,4.948E3,2.817E3,5.092E3,3.058E3,1.89E3,5.54E2,2.263E3,4.084E3,1.008E3,1.503E3,1.555E3,4.44E2,1.446E3,5.5E2,4E0,1.83E3,4.33E2,3.888E3,1.96E2,1.33E2,8.75E2,5.34E2,9.69E2,9.81E2,5.74E2,4.15E2,2.9E1,2E0,1.444E3,4E0,5.46E2,3E0,1E0,3.86E2,1.444E3,6.2E1,3.71E2,3.885E3,3E0,1.3E1,1.83E2,4.3E1,9E1,8.53E2,2.2E1,4.52E2,8.2E1,5E0,9.64E2,6.5E1,9.16E2,4.24E2,1.5E2,4.09E2,6E0,1.3E1,1.6E1,1.381E3,6.3E1],"tree_param":{"num_deleted":"0","num_feature":"85","num_nodes":"61","size_leaf_vector":"1"}},{"base_weights":[2.2609156E-2,-3.125991E-1,5.046662E-1,-6.515796E-1,-1.5100187E-1,2.6463777E-1,9.9798167E-1,-1.0683258E0,-5.2753925E-1,-3.2899725E-1,-1.6721064E-2,7.116463E-1,1.7221549E-1,1.1634109E0,-7.196029E-2,-1.0768462E0,9.1939524E-2,-5.5279016E-1,6.7860526E-1,-3.8584596E-1,1.3446991E-1,-7.363377E-2,4.161334E-1,1.6033067E-1,1.3552613E0,-9.878674E-2,3.5850838E-1,9.8593277E-1,2.0017686E0,-2.3760138E-1,4.0402536E0,-3.8210172E-3,-5.465686E-2,-3.154266E-2,-9.526958E-3,3.9224364E-4,1.6384105E-1,-1.6431687E-2,-3.8429737E-2,1.2259378E-1,-5.4762303E-3,-9.594283E-3,5.213739E-3,3.1250438E-1,1.7272154E-2,6.0613398E-3,3.2270485E-1,2.6467515E-2,1.0310079E-1,-1.1472845E-2,2.0810137E-2,1.6974092E-2,3.438799E-1,6.207894E-2,3.0573323E-2,9.147418E-2,5.1939774E-1,3.1007144E-1,-1.4727021E-2,-2.5489822E-2,3.2001224E-1],"categories":[],"categories_nodes":[],"categories_segments":[],"categories_sizes":[],"default_left":[1,1,0,0,0,0,0,1,1,0,0,0,0,0,0,0,0,1,0,0,0,0,0,0,0,0,0,0,0,0,0,0,0,0,0,0,0,0,0,0,0,0,0,0,0,0,0,0,0,0,0,0,0,0,0,0,0,0,0,0,0],"id":16,"left_children":[1,3,5,7,9,11,13,15,17,19,21,23,25,27,29,31,-1,33,35,37,39,41,43,45,47,49,51,53,55,57,59,-1,-1,-1,-1,-1,-1,-1,-1,-1,-1,-1,-1,-1,-1,-1,-1,-1,-1,-1,-1,-1,-1,-1,-1,-1,-1,-1,-1,-1,-1],"loss_changes":[2.068342E3,4.1347772E2,6.213871E2,1.2541321E2,1.22226074E2,1.4583824E2,3.041692E2,1.5801819E1,5.7632812E1,5.7990036E1,7.186606E1,2.1445786E2,1.4790828E2,2.1942615E2,1.5830602E2,8.994385E0,0E0,5.1968567E1,6.7942726E1,4.2645416E1,1.3653821E2,5.4256023E1,1.3764597E2,7.969577E1,1.6176538E2,8.044425E1,2.1299112E2,1.16989624E2,3.552025E2,8.3585495E1,9.990552E1,0E0,0E0,0E0,0E0,0E0,0E0,0E0,0E0,0E0,0E0,0E0,0E0,0E0,0E0,0E0,0E0,0E0,0E0,0E0,0E0,0E0,0E0,0E0,0E0,0E0,0E0,0E0,0E0,0E0,0E0],"parents":[2147483647,0,0,1,1,2,2,3,3,4,4,5,5,6,6,7,7,8,8,9,9,10,10,11,11,12,12,13,13,14,14,15,15,17,17,18,18,19,19,20,20,21,21,22,22,23,23,24,24,25,25,26,26,27,27,28,28,29,29,30,30],"right_children":[2,4,6,8,10,12,14,16,18,20,22,24,26,28,30,32,-1,34,36,38,40,42,44,46,48,50,52,54,56,58,60,-1,-1,-1,-1,-1,-1,-1,-1,-1,-1,-1,-1,-1,-1,-1,-1,-1,-1,-1,-1,-1,-1,-1,-1,-1,-1,-1,-1,-1,-1],"split_conditions":[2.625E0,2.5333334E1,2.2625E1,3.3333334E-1,2.2E0,8.642829E2,1.3147708E3,3.6E0,1.6901408E0,6.666667E-2,1.7E1,1.9522777E-1,6.8125E1,3.1625E1,1.3504974E0,2E0,9.1939524E-2,4.75E-2,8.8E-2,1.3147708E3,8.332648E-2,6.375E-2,1.1625E1,1.1773619E3,4.62E0,2.42E1,8.3793104E-1,9.8371686E2,7.3680377E-1,2.5333334E1,1.0666667E-1,-3.8210172E-3,-5.465686E-2,-3.154266E-2,-9.526958E-3,3.9224364E-4,1.6384105E-1,-1.6431687E-2,-3.8429737E-2,1.2259378E-1,-5.4762303E-3,-9.594283E-3,5.213739E-3,3.1250438E-1,1.7272154E-2,6.0613398E-3,3.2270485E-1,2.6467515E-2,1.0310079E-1,-1.1472845E-2,2.0810137E-2,1.6974092E-2,3.438799E-1,6.207894E-2,3.0573323E-2,9.147418E-2,5.1939774E-1,3.1007144E-1,-1.4727021E-2,-2.5489822E-2,3.2001224E-1],"split_indices":[56,27,67,2,8,84,84,44,45,5,38,72,54,65,50,26,0,59,33,84,42,60,65,82,35,12,73,82,78,0,6,0,0,0,0,0,0,0,0,0,0,0,0,0,0,0,0,0,0,0,0,0,0,0,0,0,0,0,0,0,0],"split_type":[0,0,0,0,0,0,0,0,0,0,0,0,0,0,0,0,0,0,0,0,0,0,0,0,0,0,0,0,0,0,0,0,0,0,0,0,0,0,0,0,0,0,0,0,0,0,0,0,0,0,0,0,0,0,0,0,0,0,0,0,0],"sum_hessian":[1.2798E4,7.549E3,5.249E3,2.436E3,5.113E3,3.532E3,1.717E3,5.57E2,1.879E3,2.198E3,2.915E3,6.04E2,2.928E3,1.487E3,2.3E2,5.56E2,1E0,1.841E3,3.8E1,1.958E3,2.4E2,2.577E3,3.38E2,3.26E2,2.78E2,1.193E3,1.735E3,1.229E3,2.58E2,2.22E2,8E0,9E0,5.47E2,1.514E3,3.27E2,3.1E1,7E0,1.705E3,2.53E2,2.2E1,2.18E2,1.548E3,1.029E3,3E0,3.35E2,3.25E2,1E0,1.29E2,1.49E2,9.52E2,2.41E2,1.731E3,4E0,7.29E2,5E2,2.54E2,4E0,1E0,2.21E2,3E0,5E0],"tree_param":{"num_deleted":"0","num_feature":"85","num_nodes":"61","size_leaf_vector":"1"}},{"base_weights":[1.747729E-2,-2.6809287E-1,4.788108E-1,-5.991209E-1,-1.013629E-1,3.9546952E-1,1.4903889E0,-9.77881E-1,-4.603174E-1,-2.879297E-1,2.4512863E-2,1.7135786E-1,6.228006E-1,9.0722626E-1,2.428559E0,-9.9832535E-1,2.0830682E-1,-4.778256E-1,1.4347411E0,-3.8543296E-1,-9.48469E-2,1.9665013E-1,-1.5560243E-1,-2.6661234E-3,4.6482125E-1,4.6349218E-1,1.2676014E0,2.9279852E0,5.7936877E-1,-1.4667715E0,2.7994108E0,-5.0447535E-2,5.6065727E-2,-2.4268314E-2,1.6296345E-1,2.8552508E-2,2.781423E-1,-1.9823907E-2,9.4011925E-2,-1.2746939E-2,1.881117E-2,9.045488E-3,1.8831779E-1,-8.4521575E-3,2.5155434E-1,-9.63743E-3,1.566004E-2,7.349764E-2,1.7692313E-2,2.2246694E-2,2.9706845E-1,2.781081E-2,8.472396E-2,-4.8330575E-2,1.9319578E-1,1.3497469E-2,1.6753228E-1,6.154135E-2,-8.970701E-2,2.0579675E-1,5.205636E-2],"categories":[],"categories_nodes":[],"categories_segments":[],"categories_sizes":[],"default_left":[1,1,0,0,0,0,0,0,1,0,0,0,0,0,0,0,0,1,0,0,0,0,0,0,0,0,0,0,0,0,0,0,0,0,0,0,0,0,0,0,0,0,0,0,0,0,0,0,0,0,0,0,0,0,0,0,0,0,0,0,0],"id":17,"left_children":[1,3,5,7,9,11,13,15,17,19,21,23,25,27,29,31,-1,33,35,37,39,41,43,45,47,49,51,53,55,57,59,-1,-1,-1,-1,-1,-1,-1,-1,-1,-1,-1,-1,-1,-1,-1,-1,-1,-1,-1,-1,-1,-1,-1,-1,-1,-1,-1,-1,-1,-1],"loss_changes":[1.6856492E3,4.3612396E2,4.1183655E2,1.387113E2,1.234637E2,2.3022717E2,2.0132013E2,7.8721924E1,6.5019714E1,3.983734E1,9.73849E1,1.16337944E2,2.2992096E2,1.5134596E2,2.0923798E2,1.7054321E1,0E0,5.5744293E1,6.1000656E1,3.5955215E1,5.3791058E1,8.955734E1,1.0785951E2,8.597871E1,9.4069565E1,1.8044653E2,1.3388898E2,1.2037723E2,1.7059286E2,1.3688698E1,2.9664166E2,0E0,0E0,0E0,0E0,0E0,0E0,0E0,0E0,0E0,0E0,0E0,0E0,0E0,0E0,0E0,0E0,0E0,0E0,0E0,0E0,0E0,0E0,0E0,0E0,0E0,0E0,0E0,0E0,0E0,0E0],"parents":[2147483647,0,0,1,1,2,2,3,3,4,4,5,5,6,6,7,7,8,8,9,9,10,10,11,11,12,12,13,13,14,14,15,15,17,17,18,18,19,19,20,20,21,21,22,22,23,23,24,24,25,25,26,26,27,27,28,28,29,29,30,30],"right_children":[2,4,6,8,10,12,14,16,18,20,22,24,26,28,30,32,-1,34,36,38,40,42,44,46,48,50,52,54,56,58,60,-1,-1,-1,-1,-1,-1,-1,-1,-1,-1,-1,-1,-1,-1,-1,-1,-1,-1,-1,-1,-1,-1,-1,-1,-1,-1,-1,-1,-1,-1],"split_conditions":[3.9125E0,2.5333334E1,3.68E1,5E-1,3.6666667E0,1E0,1.8333334E0,1.2666667E-1,1.125E0,2E0,1.0557343E3,1.625E0,2.1E-1,6.766917E-1,7.725E1,3.5625E0,2.0830682E-1,6.666667E-1,8.5E0,2.5E-1,3.35875E-2,7.3333335E0,7.633333E0,1.7095E-1,7.8921783E2,4.1125E1,4.6666665E0,4.846979E-1,1.0066667E0,1.2342655E-1,8.8E1,-5.0447535E-2,5.6065727E-2,-2.4268314E-2,1.6296345E-1,2.8552508E-2,2.781423E-1,-1.9823907E-2,9.4011925E-2,-1.2746939E-2,1.881117E-2,9.045488E-3,1.8831779E-1,-8.4521575E-3,2.5155434E-1,-9.63743E-3,1.566004E-2,7.349764E-2,1.7692313E-2,2.2246694E-2,2.9706845E-1,2.781081E-2,8.472396E-2,-4.8330575E-2,1.9319578E-1,1.3497469E-2,1.6753228E-1,6.154135E-2,-8.970701E-2,2.0579675E-1,5.205636E-2],"split_indices":[62,0,38,2,11,81,68,5,68,2,84,68,6,76,54,62,0,1,36,30,59,2,8,59,84,65,25,77,21,24,27,0,0,0,0,0,0,0,0,0,0,0,0,0,0,0,0,0,0,0,0,0,0,0,0,0,0,0,0,0,0],"split_type":[0,0,0,0,0,0,0,0,0,0,0,0,0,0,0,0,0,0,0,0,0,0,0,0,0,0,0,0,0,0,0,0,0,0,0,0,0,0,0,0,0,0,0,0,0,0,0,0,0,0,0,0,0,0,0,0,0,0,0,0,0],"sum_hessian":[1.2793E4,7.902E3,4.891E3,2.646E3,5.256E3,4.52E3,3.71E2,7.08E2,1.938E3,2.117E3,3.139E3,2.277E3,2.243E3,2.3E2,1.41E2,7.06E2,2E0,1.921E3,1.7E1,1.406E3,7.11E2,1.605E3,1.534E3,1.43E3,8.47E2,1.8E3,4.43E2,3.1E1,1.99E2,1.2E1,1.29E2,7.03E2,3E0,1.918E3,3E0,1.5E1,2E0,1.4E3,6E0,5.31E2,1.8E2,1.599E3,6E0,1.531E3,3E0,8.93E2,5.37E2,8.3E1,7.64E2,1.795E3,5E0,1.67E2,2.76E2,6E0,2.5E1,1.8E2,1.9E1,1E0,1.1E1,7.3E1,5.6E1],"tree_param":{"num_deleted":"0","num_feature":"85","num_nodes":"61","size_leaf_vector":"1"}},{"base_weights":[-2.3994965E-2,-2.9623076E-1,3.9019626E-1,-5.786282E-1,-1.0687601E-1,6.574779E-2,6.9979906E-1,-9.313261E-1,-4.653727E-1,-1.2503015E-1,1.0726027E0,-2.632297E-1,2.5519916E-1,4.86253E-1,1.1021863E0,-9.4589573E-1,3.0652328E0,-4.7331157E-1,2.7480357E0,-1.3184385E-1,2.2929723E0,-7.0624524E-1,1.8856823E0,-1.017736E-1,-6.497494E-1,1.091219E0,1.3015494E-1,6.8471825E-1,1.4221945E-3,9.437032E-1,2.8289125E0,-4.799817E-2,4.8979484E-2,2.1882772E-1,1.106473E-2,-2.3869282E-2,2.294536E-1,1.7585104E-2,1.578481E-1,-1.6937606E-2,-2.9634328E-3,2.4637718E-1,1.521121E-3,1.6022448E-1,-6.1564546E-2,-2.546748E-2,1.5311724E-1,-7.286309E-3,1.028175E-1,-2.4250733E-2,-8.894687E-2,6.208488E-3,9.3188934E-2,4.1077305E-3,1.2276186E-1,7.724213E-2,2.8266553E-2,-1.3671887E-2,4.619916E-2,5.9384245E-2,1.8727018E-2,-2.4421137E-2,1.9716299E-1],"categories":[],"categories_nodes":[],"categories_segments":[],"categories_sizes":[],"default_left":[1,1,0,0,0,0,0,0,1,0,0,0,0,0,0,0,0,1,0,0,0,0,0,0,0,0,0,0,0,0,0,0,0,0,0,0,0,0,0,0,0,0,0,0,0,0,0,0,0,0,0,0,0,0,0,0,0,0,0,0,0,0,0],"id":18,"left_children":[1,3,5,7,9,11,13,15,17,19,21,23,25,27,29,31,33,35,37,39,41,43,45,47,49,51,53,55,57,59,61,-1,-1,-1,-1,-1,-1,-1,-1,-1,-1,-1,-1,-1,-1,-1,-1,-1,-1,-1,-1,-1,-1,-1,-1,-1,-1,-1,-1,-1,-1,-1,-1],"loss_changes":[1.4596509E3,4.1761816E2,5.1566516E2,1.2479407E2,1.0028E2,1.5637888E2,2.2519739E2,4.721118E1,6.1888733E1,7.620526E1,1.0402226E2,5.7160145E1,1.6628479E2,1.653086E2,2.4635815E2,2.149945E1,1.0219446E1,5.107068E1,4.76923E0,6.8980316E1,7.7341125E1,5.117189E1,1.3964883E2,6.1765747E1,4.9361633E1,1.5441895E2,1.5448244E2,1.2430316E2,1.27040184E2,1.1550781E2,2.8287238E2,0E0,0E0,0E0,0E0,0E0,0E0,0E0,0E0,0E0,0E0,0E0,0E0,0E0,0E0,0E0,0E0,0E0,0E0,0E0,0E0,0E0,0E0,0E0,0E0,0E0,0E0,0E0,0E0,0E0,0E0,0E0,0E0],"parents":[2147483647,0,0,1,1,2,2,3,3,4,4,5,5,6,6,7,7,8,8,9,9,10,10,11,11,12,12,13,13,14,14,15,15,16,16,17,17,18,18,19,19,20,20,21,21,22,22,23,23,24,24,25,25,26,26,27,27,28,28,29,29,30,30],"right_children":[2,4,6,8,10,12,14,16,18,20,22,24,26,28,30,32,34,36,38,40,42,44,46,48,50,52,54,56,58,60,62,-1,-1,-1,-1,-1,-1,-1,-1,-1,-1,-1,-1,-1,-1,-1,-1,-1,-1,-1,-1,-1,-1,-1,-1,-1,-1,-1,-1,-1,-1,-1,-1],"split_conditions":[1.05E1,3.4666668E1,7.6E1,5E-1,3.2704225E-1,4.8333332E1,3.725E-1,2.9707268E-1,3.2E-1,5.4E-1,4.2352942E-1,1.7095E-1,8.483591E2,2.264E1,4.275E1,3.0232936E-1,8.333333E0,1E0,1E0,2.4E0,1.5333333E1,8.581796E2,1.5053315E-1,3.2E1,2.58E1,1.598579E-1,4.064E1,8.772583E-2,3.184E1,1.1806459E3,6.804878E0,-4.799817E-2,4.8979484E-2,2.1882772E-1,1.106473E-2,-2.3869282E-2,2.294536E-1,1.7585104E-2,1.578481E-1,-1.6937606E-2,-2.9634328E-3,2.4637718E-1,1.521121E-3,1.6022448E-1,-6.1564546E-2,-2.546748E-2,1.5311724E-1,-7.286309E-3,1.028175E-1,-2.4250733E-2,-8.894687E-2,6.208488E-3,9.3188934E-2,4.1077305E-3,1.2276186E-1,7.724213E-2,2.8266553E-2,-1.3671887E-2,4.619916E-2,5.9384245E-2,1.8727018E-2,-2.4421137E-2,1.9716299E-1],"split_indices":[65,0,0,2,74,0,61,15,61,7,75,59,84,39,65,42,0,1,2,38,11,84,51,11,38,72,40,78,40,84,52,0,0,0,0,0,0,0,0,0,0,0,0,0,0,0,0,0,0,0,0,0,0,0,0,0,0,0,0,0,0,0,0],"split_type":[0,0,0,0,0,0,0,0,0,0,0,0,0,0,0,0,0,0,0,0,0,0,0,0,0,0,0,0,0,0,0,0,0,0,0,0,0,0,0,0,0,0,0,0,0,0,0,0,0,0,0,0,0,0,0,0,0,0,0,0,0,0,0],"sum_hessian":[1.2943E4,7.81E3,5.133E3,3.134E3,4.676E3,2.507E3,2.626E3,7.6E2,2.374E3,4.606E3,7E1,9.16E2,1.591E3,1.717E3,9.09E2,7.58E2,2E0,2.369E3,5E0,4.594E3,1.2E1,2.2E1,4.8E1,6.47E2,2.69E2,2.06E2,1.385E3,1.218E3,4.99E2,8.34E2,7.5E1,7.53E2,5E0,1E0,1E0,2.368E3,1E0,1E0,4E0,1.192E3,3.402E3,5E0,7E0,2E0,2E1,1.6E1,3.2E1,6.35E2,1.2E1,2.36E2,3.3E1,9.2E1,1.14E2,1.358E3,2.7E1,1.47E2,1.071E3,3.85E2,1.14E2,5.83E2,2.51E2,1.9E1,5.6E1],"tree_param":{"num_deleted":"0","num_feature":"85","num_nodes":"63","size_leaf_vector":"1"}},{"base_weights":[4.52977E-3,-2.6745674E-1,3.936307E-1,-5.7739425E-1,-1.250177E-1,2.4492958E-1,8.470446E-1,-8.8160914E-1,-4.4476423E-1,-2.1074548E-1,1.4168437E-1,3.0615585E-2,4.256038E-1,1.1995054E0,4.7104755E-1,-8.933229E-1,1.11568324E-1,-4.521943E-1,3.8222287E0,-2.3831567E-1,5.7287425E-1,-5.4730035E-2,6.280143E-1,-9.109114E-2,3.6687386E-1,7.2141504E-1,1.8707335E-1,1.1145415E0,4.863616E0,5.714468E-1,-1.2664095E0,-4.4953514E-2,8.126285E-2,-4.0469968E-4,-2.6119558E-2,3.1768247E-1,-3.1015312E-2,-1.0380917E-2,-4.039971E-2,-3.25948E-3,7.050409E-2,-3.4229308E-3,1.5222262E-1,5.8732558E-2,2.0903446E-4,1.275625E-2,-1.3888846E-2,1.23015486E-1,1.2878323E-2,3.313866E-2,1.8062268E-1,8.53753E-3,3.3241913E-1,2.467207E-2,7.697484E-2,3.3267364E-1,-8.6092874E-2,1.6663314E-1,2.5954336E-2,-7.6864E-2,1.0676507E-1],"categories":[],"categories_nodes":[],"categories_segments":[],"categories_sizes":[],"default_left":[1,1,0,0,0,0,0,0,1,0,0,0,0,0,0,1,0,0,0,0,0,0,0,0,0,0,0,0,0,0,0,0,0,0,0,0,0,0,0,0,0,0,0,0,0,0,0,0,0,0,0,0,0,0,0,0,0,0,0,0,0],"id":19,"left_children":[1,3,5,7,9,11,13,15,17,19,21,23,25,27,29,31,-1,33,35,37,39,41,43,45,47,49,51,53,55,57,59,-1,-1,-1,-1,-1,-1,-1,-1,-1,-1,-1,-1,-1,-1,-1,-1,-1,-1,-1,-1,-1,-1,-1,-1,-1,-1,-1,-1,-1,-1],"loss_changes":[1.3638335E3,3.3478436E2,3.5727014E2,9.5959045E1,1.1887577E2,1.546387E2,1.7290918E2,2.8393677E1,5.4515656E1,8.5128815E1,1.20869965E2,7.484413E1,1.527685E2,2.047185E2,1.1149269E2,1.1912231E1,0E0,5.1838867E1,3.7678986E1,6.630264E1,7.1673645E1,3.858616E1,1.2412288E2,8.6873825E1,1.1057675E2,1.61547E2,1.2553001E2,1.7370453E2,1.8826212E2,8.5161194E1,3.5532356E1,0E0,0E0,0E0,0E0,0E0,0E0,0E0,0E0,0E0,0E0,0E0,0E0,0E0,0E0,0E0,0E0,0E0,0E0,0E0,0E0,0E0,0E0,0E0,0E0,0E0,0E0,0E0,0E0,0E0,0E0],"parents":[2147483647,0,0,1,1,2,2,3,3,4,4,5,5,6,6,7,7,8,8,9,9,10,10,11,11,12,12,13,13,14,14,15,15,17,17,18,18,19,19,20,20,21,21,22,22,23,23,24,24,25,25,26,26,27,27,28,28,29,29,30,30],"right_children":[2,4,6,8,10,12,14,16,18,20,22,24,26,28,30,32,-1,34,36,38,40,42,44,46,48,50,52,54,56,58,60,-1,-1,-1,-1,-1,-1,-1,-1,-1,-1,-1,-1,-1,-1,-1,-1,-1,-1,-1,-1,-1,-1,-1,-1,-1,-1,-1,-1,-1,-1],"split_conditions":[2.6E0,2.2E1,3.725E-1,5E-1,7.8666664E1,1.4425E1,1.0616681E3,1.96E1,4.3333335E0,3.2876712E-1,7.071429E-2,4.5881802E-1,2.857143E-1,1.2E0,1.6961384E3,1.8E0,1.11568324E-1,8.4447565E2,1.1E1,9.247593E-1,1.55E1,2.78E1,1.3933333E1,3.139535E0,5.3278735E2,8.3125E0,3.3125E-1,8.2666664E1,8.9E1,2.4901185E0,6.666667E-1,-4.4953514E-2,8.126285E-2,-4.0469968E-4,-2.6119558E-2,3.1768247E-1,-3.1015312E-2,-1.0380917E-2,-4.039971E-2,-3.25948E-3,7.050409E-2,-3.4229308E-3,1.5222262E-1,5.8732558E-2,2.0903446E-4,1.275625E-2,-1.3888846E-2,1.23015486E-1,1.2878323E-2,3.313866E-2,1.8062268E-1,8.53753E-3,3.3241913E-1,2.467207E-2,7.697484E-2,3.3267364E-1,-8.6092874E-2,1.6663314E-1,2.5954336E-2,-7.6864E-2,1.0676507E-1],"split_indices":[56,0,61,2,0,67,83,38,2,47,46,15,64,30,82,44,0,84,0,77,13,38,12,25,82,62,60,0,0,52,31,0,0,0,0,0,0,0,0,0,0,0,0,0,0,0,0,0,0,0,0,0,0,0,0,0,0,0,0,0,0],"split_type":[0,0,0,0,0,0,0,0,0,0,0,0,0,0,0,0,0,0,0,0,0,0,0,0,0,0,0,0,0,0,0,0,0,0,0,0,0,0,0,0,0,0,0,0,0,0,0,0,0,0,0,0,0,0,0,0,0,0,0,0,0],"sum_hessian":[1.2885E4,7.584E3,5.301E3,2.387E3,5.197E3,3.993E3,1.308E3,7.23E2,1.664E3,3.933E3,1.264E3,1.827E3,2.166E3,6.74E2,6.34E2,7.21E2,2E0,1.662E3,2E0,3.8E3,1.33E2,9.01E2,3.63E2,1.342E3,4.85E2,9.66E2,1.2E3,6.6E2,1.4E1,6E2,3.4E1,7.2E2,1E0,2.27E2,1.435E3,1E0,1E0,3.607E3,1.93E2,7.6E1,5.7E1,8.98E2,3E0,1.93E2,1.7E2,4.7E2,8.72E2,2.3E1,4.62E2,9.48E2,1.8E1,1.198E3,2E0,2.69E2,3.91E2,1.1E1,3E0,1E1,5.9E2,3.2E1,2E0],"tree_param":{"num_deleted":"0","num_feature":"85","num_nodes":"61","size_leaf_vector":"1"}},{"base_weights":[-5.039544E-3,-3.3439428E-1,2.7320915E-1,-7.680394E-1,-2.512002E-1,1.5704863E-1,7.246892E-1,-7.876074E-1,3.0721757E0,-2.537622E-1,3.097404E-1,2.866128E-1,-1.02586515E-1,6.1854756E-1,2.065924E0,-6.50948E-1,-9.488136E-1,-6.855479E-2,3.2456943E-1,-3.2849473E-1,-6.4504184E-2,1.1435075E-1,6.0113096E-1,2.5786015E-1,-2.451062E-1,1.6570116E0,5.07666E-1,3.1621172E0,7.87959E-2,-3.385065E-2,1.4175425E-1,-4.6359863E-2,-6.5377645E-2,-1.7176308E-2,3.6333382E-2,2.4339572E-1,-3.930054E-3,9.442541E-3,-1.6747905E-2,8.304601E-2,2.41833E-2,1.026097E-2,2.0544592E-1,-1.3415507E-2,2.0761226E-1,5.5678137E-2,1.9148704E-1,-2.3150306E-2,2.9933691E-2,3.3635512E-1,1.17086284E-1,5.578331E-2,-7.927247E-2],"categories":[],"categories_nodes":[],"categories_segments":[],"categories_sizes":[],"default_left":[1,0,0,0,1,0,0,0,0,1,0,0,0,0,0,1,0,0,0,1,0,0,0,0,0,0,0,0,0,0,0,0,0,0,0,0,0,0,0,0,0,0,0,0,0,0,0,0,0,0,0,0,0],"id":20,"left_children":[1,3,5,7,9,11,13,15,17,19,-1,21,23,25,27,29,31,-1,-1,33,35,37,39,41,43,45,47,49,51,-1,-1,-1,-1,-1,-1,-1,-1,-1,-1,-1,-1,-1,-1,-1,-1,-1,-1,-1,-1,-1,-1,-1,-1],"loss_changes":[1.1766897E3,2.1193805E2,3.6489752E2,7.350714E1,8.307132E1,1.8629086E2,2.0144403E2,2.0134949E1,8.486278E1,6.976395E1,0E0,2.000705E2,9.4790855E1,1.512674E2,2.2629156E2,4.8532455E1,2.1221313E0,0E0,0E0,5.634857E1,9.758806E1,7.999807E1,1.6190265E2,1.05180695E2,1.3600536E2,1.4569278E2,1.0584201E2,1.802008E2,6.734189E1,0E0,0E0,0E0,0E0,0E0,0E0,0E0,0E0,0E0,0E0,0E0,0E0,0E0,0E0,0E0,0E0,0E0,0E0,0E0,0E0,0E0,0E0,0E0,0E0],"parents":[2147483647,0,0,1,1,2,2,3,3,4,4,5,5,6,6,7,7,8,8,9,9,11,11,12,12,13,13,14,14,15,15,16,16,19,19,20,20,21,21,22,22,23,23,24,24,25,25,26,26,27,27,28,28],"right_children":[2,4,6,8,10,12,14,16,18,20,-1,22,24,26,28,30,32,-1,-1,34,36,38,40,42,44,46,48,50,52,-1,-1,-1,-1,-1,-1,-1,-1,-1,-1,-1,-1,-1,-1,-1,-1,-1,-1,-1,-1,-1,-1,-1,-1],"split_conditions":[2.8875E0,7.3333335E0,2.3375E1,9.333333E0,5.625E0,1.0948596E3,1.1325E1,7.178571E-1,3E0,9E-2,3.097404E-1,2.2666667E-1,9.583186E2,3.3626373E0,1.2010394E3,3.6E0,5.65E-2,-6.855479E-2,3.2456943E-1,1.4E1,5.4E0,4.8187676E-1,7.185739E2,3.1125E-1,2.8375E1,2E0,5E0,1.6917482E-1,1E1,-3.385065E-2,1.4175425E-1,-4.6359863E-2,-6.5377645E-2,-1.7176308E-2,3.6333382E-2,2.4339572E-1,-3.930054E-3,9.442541E-3,-1.6747905E-2,8.304601E-2,2.41833E-2,1.026097E-2,2.0544592E-1,-1.3415507E-2,2.0761226E-1,5.5678137E-2,1.9148704E-1,-2.3150306E-2,2.9933691E-2,3.3635512E-1,1.17086284E-1,5.578331E-2,-7.927247E-2],"split_indices":[62,0,65,9,18,82,62,75,0,7,0,7,83,79,83,44,59,0,0,11,27,78,83,60,63,14,53,51,52,0,0,0,0,0,0,0,0,0,0,0,0,0,0,0,0,0,0,0,0,0,0,0,0],"split_type":[0,0,0,0,0,0,0,0,0,0,0,0,0,0,0,0,0,0,0,0,0,0,0,0,0,0,0,0,0,0,0,0,0,0,0,0,0,0,0,0,0,0,0,0,0,0,0,0,0,0,0,0,0],"sum_hessian":[1.2838E4,5.879E3,6.959E3,9.45E2,4.934E3,5.536E3,1.423E3,9.41E2,4E0,4.933E3,1E0,3.693E3,1.843E3,1.32E3,1.03E2,5.12E2,4.29E2,2E0,2E0,3.536E3,1.397E3,2.387E3,1.306E3,5.22E2,1.321E3,1.26E2,1.194E3,6.6E1,3.7E1,5.09E2,3E0,4.08E2,2.1E1,3.487E3,4.9E1,3E0,1.394E3,2.048E3,3.39E2,1.29E2,1.177E3,5.16E2,6E0,1.315E3,6E0,1.02E2,2.4E1,1.02E2,1.092E3,1.1E1,5.5E1,2.3E1,1.4E1],"tree_param":{"num_deleted":"0","num_feature":"85","num_nodes":"53","size_leaf_vector":"1"}},{"base_weights":[2.7035912E-3,-2.1055488E-1,4.3167E-1,-5.8249277E-1,-1.07858986E-1,6.9586563E-1,2.1134041E-1,-5.9760827E-1,2.2675927E0,-2.9622176E-1,-2.9853476E-2,6.6176325E-1,3.389378E0,-3.931251E-1,3.8550487E-1,-7.509268E-1,-4.0593264E-1,3.778409E0,-4.7161695E-2,-8.154913E-1,-2.1144338E-1,4.424193E-2,-2.8545123E-1,-6.1003577E-2,7.6777095E-1,5.5945706E-1,5.7408915E0,2.1359713E0,-4.417537E-1,3.5991436E-1,3.8893094E0,-3.944455E-2,-1.7387757E-2,-3.5602541E-3,-2.5110299E-2,-2.567085E-2,2.2896414E-1,-4.2253748E-2,1.07915595E-1,2.0511832E-2,-1.2933761E-2,1.7104069E-3,1.3374762E-1,-1.5132624E-2,1.717752E-1,-1.3954587E-2,6.308653E-2,2.2111302E-3,4.4045217E-2,-3.1185666E-2,2.1584363E-1,-9.617793E-3,3.7700507E-1,-2.6427103E-2,1.676706E-1,-4.990613E-4,-3.6385026E-2,2.4701381E-2,-5.0064116E-3,3.2697052E-1,-1.4618813E-2],"categories":[],"categories_nodes":[],"categories_segments":[],"categories_sizes":[],"default_left":[1,1,0,1,0,0,0,0,0,0,0,0,0,0,0,0,0,0,0,0,0,0,0,0,0,0,0,0,0,0,0,0,0,0,0,0,0,0,0,0,0,0,0,0,0,0,0,0,0,0,0,0,0,0,0,0,0,0,0,0,0],"id":21,"left_children":[1,3,5,7,9,11,13,15,17,19,21,23,25,27,29,31,33,35,-1,37,39,41,43,45,47,49,51,53,55,57,59,-1,-1,-1,-1,-1,-1,-1,-1,-1,-1,-1,-1,-1,-1,-1,-1,-1,-1,-1,-1,-1,-1,-1,-1,-1,-1,-1,-1,-1,-1],"loss_changes":[1.1749779E3,3.276249E2,2.4811902E2,8.131256E1,9.8789154E1,1.758642E2,2.4512978E2,5.3973694E1,5.2073616E1,8.650853E1,9.008471E1,1.4684851E2,1.5649857E2,6.5019485E1,1.6062329E2,1.5414429E1,2.6485687E1,2.641156E1,0E0,2.61053E1,4.98472E1,9.725694E1,6.9461174E1,7.131641E1,1.3674487E2,5.6040447E1,1.4022745E2,3.4211273E1,6.320627E1,1.10797E2,1.4597653E2,0E0,0E0,0E0,0E0,0E0,0E0,0E0,0E0,0E0,0E0,0E0,0E0,0E0,0E0,0E0,0E0,0E0,0E0,0E0,0E0,0E0,0E0,0E0,0E0,0E0,0E0,0E0,0E0,0E0,0E0],"parents":[2147483647,0,0,1,1,2,2,3,3,4,4,5,5,6,6,7,7,8,8,9,9,10,10,11,11,12,12,13,13,14,14,15,15,16,16,17,17,19,19,20,20,21,21,22,22,23,23,24,24,25,25,26,26,27,27,28,28,29,29,30,30],"right_children":[2,4,6,8,10,12,14,16,18,20,22,24,26,28,30,32,34,36,-1,38,40,42,44,46,48,50,52,54,56,58,60,-1,-1,-1,-1,-1,-1,-1,-1,-1,-1,-1,-1,-1,-1,-1,-1,-1,-1,-1,-1,-1,-1,-1,-1,-1,-1,-1,-1,-1,-1],"split_conditions":[4.32E0,1E0,1.0616681E3,7.258065E-1,2.5E0,1.439577E0,6.78E1,2.0639734E-2,1.8351667E-1,1E0,1.2296508E3,9.125E0,4E-1,2.9E0,7.701031E-1,2.8125E0,7.4056226E2,4E-3,-4.7161695E-2,1.96E1,7.696842E2,2.38E-1,2.358E1,3.409091E-1,1.25E1,8.82E1,7E0,5.35E0,9.5785715E-2,1.3147708E3,1.2010394E3,-3.944455E-2,-1.7387757E-2,-3.5602541E-3,-2.5110299E-2,-2.567085E-2,2.2896414E-1,-4.2253748E-2,1.07915595E-1,2.0511832E-2,-1.2933761E-2,1.7104069E-3,1.3374762E-1,-1.5132624E-2,1.717752E-1,-1.3954587E-2,6.308653E-2,2.2111302E-3,4.4045217E-2,-3.1185666E-2,2.1584363E-1,-9.617793E-3,3.7700507E-1,-2.6427103E-2,1.676706E-1,-4.990613E-4,-3.6385026E-2,2.4701381E-2,-5.0064116E-3,3.2697052E-1,-1.4618813E-2],"split_indices":[35,62,83,71,11,15,27,15,7,2,82,65,72,67,73,67,82,46,0,38,84,33,40,17,40,27,80,8,59,84,83,0,0,0,0,0,0,0,0,0,0,0,0,0,0,0,0,0,0,0,0,0,0,0,0,0,0,0,0,0,0],"split_type":[0,0,0,0,0,0,0,0,0,0,0,0,0,0,0,0,0,0,0,0,0,0,0,0,0,0,0,0,0,0,0,0,0,0,0,0,0,0,0,0,0,0,0,0,0,0,0,0,0,0,0,0,0,0,0,0,0,0,0,0,0],"sum_hessian":[1.2842E4,8.578E3,4.264E3,1.855E3,6.723E3,1.938E3,2.326E3,1.846E3,9E0,1.968E3,4.755E3,1.915E3,2.3E1,5.2E2,1.806E3,1.024E3,8.22E2,6E0,3E0,2.75E2,1.693E3,3.687E3,1.068E3,2.45E2,1.67E3,1.1E1,1.2E1,9E0,5.11E2,1.794E3,1.2E1,9.35E2,8.9E1,1.84E2,6.38E2,1E0,5E0,2.73E2,2E0,1.19E2,1.574E3,3.674E3,1.3E1,1.064E3,4E0,2.11E2,3.4E1,2.26E2,1.444E3,9E0,2E0,3E0,9E0,3E0,6E0,2.04E2,3.07E2,1.389E3,4.05E2,7E0,5E0],"tree_param":{"num_deleted":"0","num_feature":"85","num_nodes":"61","size_leaf_vector":"1"}},{"base_weights":[-1.3144101E-2,-1.9902663E-1,4.515404E-1,-6.137069E-1,-1.11687645E-1,-2.5626743E-1,5.609955E-1,-6.206018E-1,1.6225632E-1,-3.7008613E-1,-4.6234448E-2,-1.1662991E-1,-1.0944213E0,4.6887878E-1,1.2880735E0,-7.758126E-1,-4.6519643E-1,-3.852746E-1,2.2361958E0,3.498078E-2,-3.2939667E-1,-1.5927783E-1,4.379896E0,-1.2288432E0,1.1586406E-1,-2.2674012E-1,5.3882825E-1,-1.2785345E-1,1.6167759E0,-3.955424E-2,6.808867E-2,-1.970171E-2,-5.4044563E-2,-2.0641932E-2,2.3431182E-2,-4.0451884E-3,3.4486815E-1,-2.9484875E-4,3.6016244E-2,-2.7112827E-2,-4.6684784E-3,7.148389E-3,-3.1039525E-2,2.6657903E-1,3.8121056E-2,-1.02730155E-1,-4.6762582E-2,2.6776958E-2,-3.4088347E-2,1.9070618E-1,2.6159579E-2,3.9836895E-2,-8.2603395E-2,4.3452192E-2,1.2752466E-1],"categories":[],"categories_nodes":[],"categories_segments":[],"categories_sizes":[],"default_left":[1,1,0,1,0,0,0,0,0,0,0,0,0,0,0,0,1,0,0,0,0,0,0,0,0,0,0,0,0,0,0,0,0,0,0,0,0,0,0,0,0,0,0,0,0,0,0,0,0,0,0,0,0,0,0],"id":22,"left_children":[1,3,5,7,9,11,13,15,-1,17,19,21,23,25,27,29,31,33,35,37,39,41,43,45,-1,47,49,51,53,-1,-1,-1,-1,-1,-1,-1,-1,-1,-1,-1,-1,-1,-1,-1,-1,-1,-1,-1,-1,-1,-1,-1,-1,-1,-1],"loss_changes":[1.1067485E3,3.3139633E2,2.8377313E2,4.4370728E1,1.2786214E2,5.7337883E1,2.117771E2,3.7990845E1,0E0,6.1348053E1,1.3877592E2,8.1623474E1,3.4950096E1,1.3714362E2,1.6589569E2,2.6997772E1,3.4494034E1,3.596953E1,9.776152E1,1.3139615E2,6.752309E1,5.8535137E1,9.705872E0,1.4564087E1,0E0,8.985435E1,1.2906342E2,9.7147E1,1.9955475E2,0E0,0E0,0E0,0E0,0E0,0E0,0E0,0E0,0E0,0E0,0E0,0E0,0E0,0E0,0E0,0E0,0E0,0E0,0E0,0E0,0E0,0E0,0E0,0E0,0E0,0E0],"parents":[2147483647,0,0,1,1,2,2,3,3,4,4,5,5,6,6,7,7,9,9,10,10,11,11,12,12,13,13,14,14,15,15,16,16,17,17,18,18,19,19,20,20,21,21,22,22,23,23,25,25,26,26,27,27,28,28],"right_children":[2,4,6,8,10,12,14,16,-1,18,20,22,24,26,28,30,32,34,36,38,40,42,44,46,-1,48,50,52,54,-1,-1,-1,-1,-1,-1,-1,-1,-1,-1,-1,-1,-1,-1,-1,-1,-1,-1,-1,-1,-1,-1,-1,-1,-1,-1],"split_conditions":[4.6125E0,7.3333335E-1,6.0333332E1,1.5666667E1,2E0,4.009901E0,3.68E1,6.3333335E0,1.6225632E-1,1.17E0,1.2296508E3,3.424E1,6.419234E-1,8.4E0,7.94E1,2.3666666E0,8.391994E-1,1.74E1,1.125E0,4E-1,1E0,3.04E-1,5.4333332E1,8.246536E2,1.1586406E-1,1.724299E-1,5.48E0,2.044E1,1.8897638E0,-3.955424E-2,6.808867E-2,-1.970171E-2,-5.4044563E-2,-2.0641932E-2,2.3431182E-2,-4.0451884E-3,3.4486815E-1,-2.9484875E-4,3.6016244E-2,-2.7112827E-2,-4.6684784E-3,7.148389E-3,-3.1039525E-2,2.6657903E-1,3.8121056E-2,-1.02730155E-1,-4.6762582E-2,2.6776958E-2,-3.4088347E-2,1.9070618E-1,2.6159579E-2,3.9836895E-2,-8.2603395E-2,4.3452192E-2,1.2752466E-1],"split_indices":[62,13,0,9,38,22,38,0,0,48,82,40,16,38,27,8,50,66,56,31,81,46,0,83,0,48,39,40,76,0,0,0,0,0,0,0,0,0,0,0,0,0,0,0,0,0,0,0,0,0,0,0,0,0,0],"split_type":[0,0,0,0,0,0,0,0,0,0,0,0,0,0,0,0,0,0,0,0,0,0,0,0,0,0,0,0,0,0,0,0,0,0,0,0,0,0,0,0,0,0,0,0,0,0,0,0,0,0,0,0,0,0,0],"sum_hessian":[1.2811E4,9.151E3,3.66E3,1.591E3,7.56E3,4.9E2,3.17E3,1.589E3,2E0,1.527E3,6.033E3,4.21E2,6.9E1,2.815E3,3.55E2,7.93E2,7.96E2,1.519E3,8E0,4.689E3,1.344E3,4.18E2,3E0,6.7E1,2E0,2.57E2,2.558E3,6.7E1,2.88E2,7.88E2,5E0,7.15E2,8.1E1,1.472E3,4.7E1,6E0,2E0,4.426E3,2.63E2,7.06E2,6.38E2,2.53E2,1.65E2,2E0,1E0,1.6E1,5.1E1,9.6E1,1.61E2,1.1E1,2.547E3,4.2E1,2.5E1,1.61E2,1.27E2],"tree_param":{"num_deleted":"0","num_feature":"85","num_nodes":"55","size_leaf_vector":"1"}},{"base_weights":[9.292826E-3,-1.4619836E-1,5.187891E-1,-4.5478934E-1,-3.2556456E-2,7.138023E-1,2.0473346E-1,-6.790372E-1,-3.1000203E-1,-1.2937552E-1,1.7602693E-1,2.9667702E-1,9.4262636E-1,1.0173881E0,1.0255721E-1,-7.216482E-1,3.0385843E-1,-3.4139284E-1,8.1997913E-1,-1.3428965E-1,3.346546E0,8.080236E-2,6.3241816E-1,3.6795971E0,2.3897119E-1,5.8224998E0,9.091128E-1,8.6376685E-1,3.5907796E-1,6.096342E-2,2.5725784E0,-3.6580015E-2,7.015734E-2,5.1238227E-1,-2.068234E-2,-1.7363893E-2,2.2289228E-1,-2.1064717E-3,1.1656511E-1,-1.2991118E-2,-6.308374E-4,1.6089564E-2,2.7673322E-1,6.6275164E-3,-2.3679566E-2,2.1434551E-2,1.4650255E-1,3.068617E-1,-2.4850687E-2,-2.9684374E-2,2.039158E-2,3.6627278E-2,4.3649817E-1,4.2468093E-2,1.6390531E-1,-6.859922E-2,5.9919875E-2,1.4802013E-1,1.7455854E-3,2.29896E-1,-4.888062E-2],"categories":[],"categories_nodes":[],"categories_segments":[],"categories_sizes":[],"default_left":[1,1,0,0,0,0,0,1,1,0,0,0,0,0,0,1,0,1,0,0,0,0,0,0,0,0,0,0,0,0,0,0,0,0,0,0,0,0,0,0,0,0,0,0,0,0,0,0,0,0,0,0,0,0,0,0,0,0,0,0,0],"id":23,"left_children":[1,3,5,7,9,11,13,15,17,19,21,23,25,27,29,31,33,35,37,39,41,43,45,47,49,51,53,55,-1,57,59,-1,-1,-1,-1,-1,-1,-1,-1,-1,-1,-1,-1,-1,-1,-1,-1,-1,-1,-1,-1,-1,-1,-1,-1,-1,-1,-1,-1,-1,-1],"loss_changes":[1.02117053E3,3.4632535E2,1.8444629E2,8.609015E1,1.4580939E2,1.7715875E2,9.5882965E1,4.3860413E1,5.7636612E1,8.467641E1,9.942806E1,1.27962105E2,1.9095667E2,1.1595308E2,1.05457375E2,2.215155E1,3.181665E2,4.6003326E1,5.7426903E1,7.522082E1,4.4548637E1,5.442794E1,1.8363953E2,1.159608E2,9.163411E1,1.1199576E2,1.6608453E2,9.6659355E1,0E0,7.633842E1,1.2673092E2,0E0,0E0,0E0,0E0,0E0,0E0,0E0,0E0,0E0,0E0,0E0,0E0,0E0,0E0,0E0,0E0,0E0,0E0,0E0,0E0,0E0,0E0,0E0,0E0,0E0,0E0,0E0,0E0,0E0,0E0],"parents":[2147483647,0,0,1,1,2,2,3,3,4,4,5,5,6,6,7,7,8,8,9,9,10,10,11,11,12,12,13,13,14,14,15,15,16,16,17,17,18,18,19,19,20,20,21,21,22,22,23,23,24,24,25,25,26,26,27,27,29,29,30,30],"right_children":[2,4,6,8,10,12,14,16,18,20,22,24,26,28,30,32,34,36,38,40,42,44,46,48,50,52,54,56,-1,58,60,-1,-1,-1,-1,-1,-1,-1,-1,-1,-1,-1,-1,-1,-1,-1,-1,-1,-1,-1,-1,-1,-1,-1,-1,-1,-1,-1,-1,-1,-1],"split_conditions":[5.125E0,2.4E1,1.1211313E3,1E0,3.576093E-1,8E1,1.26E1,5.58498E-1,1.6901408E0,4.4E-1,2.26E1,6.424469E2,4E0,8.3793104E-1,8.625E0,1.8E0,5.6781113E-1,1E0,1.6652454E-1,1E0,6.5E0,1.4234702E3,2.1E1,6.4666664E1,7E0,2.8E0,1.4147427E0,5.2666668E1,3.5907796E-1,2.9026112E-2,1.2319391E1,-3.6580015E-2,7.015734E-2,5.1238227E-1,-2.068234E-2,-1.7363893E-2,2.2289228E-1,-2.1064717E-3,1.1656511E-1,-1.2991118E-2,-6.308374E-4,1.6089564E-2,2.7673322E-1,6.6275164E-3,-2.3679566E-2,2.1434551E-2,1.4650255E-1,3.068617E-1,-2.4850687E-2,-2.9684374E-2,2.039158E-2,3.6627278E-2,4.3649817E-1,4.2468093E-2,1.6390531E-1,-6.859922E-2,5.9919875E-2,1.4802013E-1,1.7455854E-3,2.29896E-1,-4.888062E-2],"split_indices":[62,0,84,2,15,0,40,19,45,61,13,84,36,73,56,44,21,1,69,81,9,84,38,0,80,56,23,0,0,78,25,0,0,0,0,0,0,0,0,0,0,0,0,0,0,0,0,0,0,0,0,0,0,0,0,0,0,0,0,0,0],"split_type":[0,0,0,0,0,0,0,0,0,0,0,0,0,0,0,0,0,0,0,0,0,0,0,0,0,0,0,0,0,0,0,0,0,0,0,0,0,0,0,0,0,0,0,0,0,0,0,0,0,0,0,0,0,0,0,0,0,0,0,0,0],"sum_hessian":[1.2888E4,9.875E3,3.013E3,2.657E3,7.218E3,1.858E3,1.155E3,1.041E3,1.616E3,4.93E3,2.288E3,6.59E2,1.199E3,1.28E2,1.027E3,9.98E2,4.3E1,1.573E3,4.3E1,4.924E3,6E0,1.894E3,3.94E2,1E1,6.49E2,7E0,1.192E3,1.26E2,2E0,1.011E3,1.6E1,9.94E2,4E0,2E0,4.1E1,1.572E3,1E0,2.8E1,1.5E1,2.423E3,2.501E3,3E0,3E0,1.733E3,1.61E2,3.63E2,3.1E1,6E0,4E0,1.09E2,5.4E2,3E0,4E0,1.164E3,2.8E1,1.6E1,1.1E2,8E0,1.003E3,1E1,6E0],"tree_param":{"num_deleted":"0","num_feature":"85","num_nodes":"61","size_leaf_vector":"1"}},{"base_weights":[-1.4615975E-2,-2.1492238E-1,3.0464047E-1,-5.8614427E-1,-1.4096093E-1,2.1509251E-1,8.6646485E-1,-6.0755E-1,2.0008063E0,-2.807704E-1,-2.9242823E-2,-2.1355048E-2,4.5466712E-1,5.0672355E0,8.090007E-1,-6.2870765E-1,1.7192886E0,3.784029E-1,-1.03292E0,-2.9248747E-1,1.3540198E0,2.6695475E-2,-3.3157146E-1,-4.371814E-2,1.4622648E0,3.510781E-1,1.183169E0,4.6633884E-1,1.3830022E0,-2.0512773E-2,1.0328515E0,-3.619603E-2,-1.6693855E-2,-8.4703864E-4,2.076699E-1,-1.0767326E-2,-5.594762E-2,-3.257684E-2,-1.277318E-2,2.8974542E-1,1.4596618E-2,5.6590714E-2,4.4486715E-4,-2.7407065E-2,6.964785E-3,1.3374415E-3,-2.1958144E-2,-4.2458386E-3,2.0239885E-1,2.1654455E-2,-1.4443553E-2,4.1784585E-2,1.3090059E-1,1.0368641E-1,-5.17657E-2,2.2295335E-2,-5.2827235E-2,8.074E-2,2.5767043E-2],"categories":[],"categories_nodes":[],"categories_segments":[],"categories_sizes":[],"default_left":[1,0,0,1,1,0,0,1,0,1,0,0,0,0,0,0,0,0,0,0,0,0,0,0,0,0,0,0,0,0,0,0,0,0,0,0,0,0,0,0,0,0,0,0,0,0,0,0,0,0,0,0,0,0,0,0,0,0,0],"id":24,"left_children":[1,3,5,7,9,11,13,15,17,19,21,23,25,27,29,31,33,-1,35,37,39,41,43,45,47,49,51,-1,53,55,57,-1,-1,-1,-1,-1,-1,-1,-1,-1,-1,-1,-1,-1,-1,-1,-1,-1,-1,-1,-1,-1,-1,-1,-1,-1,-1,-1,-1],"loss_changes":[8.2206726E2,2.1679315E2,2.4915112E2,7.386847E1,1.0289139E2,2.4223155E2,1.6028986E2,6.5178955E1,1.9360187E2,5.6443436E1,6.1956585E1,7.1496864E1,1.5987189E2,1.2833932E2,1.2498877E2,3.599881E1,5.0784435E1,0E0,3.2174015E-1,3.8464157E1,9.735712E1,6.080663E1,5.840641E1,5.9142952E1,1.2836186E2,9.7795715E1,1.2943604E2,0E0,1.2169323E1,7.005558E1,1.5878497E2,0E0,0E0,0E0,0E0,0E0,0E0,0E0,0E0,0E0,0E0,0E0,0E0,0E0,0E0,0E0,0E0,0E0,0E0,0E0,0E0,0E0,0E0,0E0,0E0,0E0,0E0,0E0,0E0],"parents":[2147483647,0,0,1,1,2,2,3,3,4,4,5,5,6,6,7,7,8,8,9,9,10,10,11,11,12,12,13,13,14,14,15,15,16,16,18,18,19,19,20,20,21,21,22,22,23,23,24,24,25,25,26,26,28,28,29,29,30,30],"right_children":[2,4,6,8,10,12,14,16,18,20,22,24,26,28,30,32,34,-1,36,38,40,42,44,46,48,50,52,-1,54,56,58,-1,-1,-1,-1,-1,-1,-1,-1,-1,-1,-1,-1,-1,-1,-1,-1,-1,-1,-1,-1,-1,-1,-1,-1,-1,-1,-1,-1],"split_conditions":[2.6666667E0,1.3687767E-2,2.1375E-1,8.6071426E-1,2.5E-2,1E0,3.013393E0,5.232558E-1,5.075188E0,6.04E0,1.3495704E3,5.76E-1,7.4358714E-1,2.4666667E-1,3.6125E-1,2.2166667E-3,4.7333332E1,3.784029E-1,1E0,1E0,3.499558E-1,3.346599E-2,9.8E0,5.2242744E-1,7.0866144E-1,5.834684E-1,1.263554E0,4.6633884E-1,4.5E-1,2.25E0,1.0313588E3,-3.619603E-2,-1.6693855E-2,-8.4703864E-4,2.076699E-1,-1.0767326E-2,-5.594762E-2,-3.257684E-2,-1.277318E-2,2.8974542E-1,1.4596618E-2,5.6590714E-2,4.4486715E-4,-2.7407065E-2,6.964785E-3,1.3374415E-3,-2.1958144E-2,-4.2458386E-3,2.0239885E-1,2.1654455E-2,-1.4443553E-2,4.1784585E-2,1.3090059E-1,1.0368641E-1,-5.17657E-2,2.2295335E-2,-5.2827235E-2,8.074E-2,2.5767043E-2],"split_indices":[56,15,60,19,59,81,79,18,79,35,83,32,42,6,61,6,0,0,0,2,50,42,36,48,17,71,23,0,6,68,83,0,0,0,0,0,0,0,0,0,0,0,0,0,0,0,0,0,0,0,0,0,0,0,0,0,0,0,0],"split_type":[0,0,0,0,0,0,0,0,0,0,0,0,0,0,0,0,0,0,0,0,0,0,0,0,0,0,0,0,0,0,0,0,0,0,0,0,0,0,0,0,0,0,0,0,0,0,0,0,0,0,0,0,0,0,0,0,0,0,0],"sum_hessian":[1.2853E4,7.898E3,4.955E3,1.311E3,6.587E3,4.275E3,6.8E2,1.301E3,1E1,2.925E3,3.662E3,2.152E3,2.123E3,8E0,6.72E2,1.29E3,1.1E1,3E0,7E0,2.905E3,2E1,3.091E3,5.71E2,2.121E3,3.1E1,1.86E3,2.63E2,3E0,5E0,1.43E2,5.29E2,9.74E2,3.16E2,7E0,4E0,1E0,6E0,2.7E2,2.635E3,3E0,1.7E1,4.8E1,3.043E3,3.91E2,1.8E2,1.801E3,3.2E2,2E1,1.1E1,1.649E3,2.11E2,2.13E2,5E1,4E0,1E0,9.9E1,4.4E1,2.48E2,2.81E2],"tree_param":{"num_deleted":"0","num_feature":"85","num_nodes":"59","size_leaf_vector":"1"}},{"base_weights":[1.39238E-2,-1.0288887E-1,5.7883036E-1,-3.6553633E-1,2.6901705E-2,8.3099806E-1,1.6975634E-1,-5.9194857E-1,-2.4930541E-1,7.4844085E-2,-3.4923548E-1,7.986919E-1,5.598938E0,2.2900522E0,8.8499956E-2,-6.3450426E-1,4.6009097E-1,-2.6744926E-1,1.6654813E0,-6.5849185E-2,2.1994245E-1,-3.6580208E-1,2.1035133E-1,4.4605184E-1,1.1141592E0,1.3692865E-1,4.9705797E-1,3.3088622E0,-1.8033509E-1,5.2446854E-1,-1.9965209E-1,-3.209814E-2,8.295568E-2,-1.5270843E-2,2.4390261E-1,-9.61375E-3,-3.0904902E-2,2.3193812E-1,-1.8243833E-2,-3.8065594E-3,1.6165172E-1,-1.7102446E-2,1.4528451E-2,-2.0812046E-2,2.5743708E-2,1.9648077E-3,6.0415726E-2,6.8233564E-2,1.4272396E-2,-2.6262274E-2,3.7672997E-2,1.7956203E-2,2.3307326E-1,9.576184E-2,-4.7181632E-2,1.8538084E-2,1.4172949E-1,-1.3424962E-2,1.170933E-1],"categories":[],"categories_nodes":[],"categories_segments":[],"categories_sizes":[],"default_left":[1,1,0,0,0,0,0,0,1,0,0,0,0,0,0,1,0,0,0,0,0,0,0,0,0,0,0,0,0,0,0,0,0,0,0,0,0,0,0,0,0,0,0,0,0,0,0,0,0,0,0,0,0,0,0,0,0,0,0],"id":25,"left_children":[1,3,5,7,9,11,13,15,17,19,21,23,25,27,29,31,33,35,37,39,41,43,-1,45,47,49,-1,51,53,55,57,-1,-1,-1,-1,-1,-1,-1,-1,-1,-1,-1,-1,-1,-1,-1,-1,-1,-1,-1,-1,-1,-1,-1,-1,-1,-1,-1,-1],"loss_changes":[8.480085E2,3.6302533E2,2.2700684E2,9.253772E1,1.2856473E2,2.0532178E2,1.446912E2,5.374759E1,8.135863E1,1.2909451E2,6.237726E1,1.5013068E2,2.1209406E2,7.86192E1,1.01986786E2,2.0703857E1,1.604431E2,6.0719513E1,1.3450273E2,1.0916049E2,1.2365906E2,3.5928223E1,0E0,1.9869754E2,1.4783844E2,2.4370067E0,0E0,8.610213E1,1.780273E1,1.13640366E2,8.619218E1,0E0,0E0,0E0,0E0,0E0,0E0,0E0,0E0,0E0,0E0,0E0,0E0,0E0,0E0,0E0,0E0,0E0,0E0,0E0,0E0,0E0,0E0,0E0,0E0,0E0,0E0,0E0,0E0],"parents":[2147483647,0,0,1,1,2,2,3,3,4,4,5,5,6,6,7,7,8,8,9,9,10,10,11,11,12,12,13,13,14,14,15,15,16,16,17,17,18,18,19,19,20,20,21,21,23,23,24,24,25,25,27,27,28,28,29,29,30,30],"right_children":[2,4,6,8,10,12,14,16,18,20,22,24,26,28,30,32,34,36,38,40,42,44,-1,46,48,50,-1,52,54,56,58,-1,-1,-1,-1,-1,-1,-1,-1,-1,-1,-1,-1,-1,-1,-1,-1,-1,-1,-1,-1,-1,-1,-1,-1,-1,-1,-1,-1],"split_conditions":[5.825E0,3.4333332E1,1.1264945E3,1E0,1.3461873E3,1.12E1,7.0866144E-1,8.036666E-2,2.32E1,7.598945E-2,2.4E1,1E0,2.8333333E-1,1.146E1,4.719101E0,1.8E0,3.7037036E-1,1.2469219E3,2.5333334E1,2.6625E-1,2E-2,8.8333336E1,2.1035133E-1,2.1E-1,2.6277373E0,8.1E1,4.9705797E-1,5.152672E-1,1.1520793E3,2.95E-1,9.3625E-1,-3.209814E-2,8.295568E-2,-1.5270843E-2,2.4390261E-1,-9.61375E-3,-3.0904902E-2,2.3193812E-1,-1.8243833E-2,-3.8065594E-3,1.6165172E-1,-1.7102446E-2,1.4528451E-2,-2.0812046E-2,2.5743708E-2,1.9648077E-3,6.0415726E-2,6.8233564E-2,1.4272396E-2,-2.6262274E-2,3.7672997E-2,1.7956203E-2,2.3307326E-1,9.576184E-2,-4.7181632E-2,1.8538084E-2,1.4172949E-1,-1.3424962E-2,1.170933E-1],"split_indices":[62,0,84,2,84,29,76,5,12,73,36,81,6,40,52,44,72,84,12,61,20,54,0,60,76,0,0,76,84,60,61,0,0,0,0,0,0,0,0,0,0,0,0,0,0,0,0,0,0,0,0,0,0,0,0,0,0,0,0],"split_type":[0,0,0,0,0,0,0,0,0,0,0,0,0,0,0,0,0,0,0,0,0,0,0,0,0,0,0,0,0,0,0,0,0,0,0,0,0,0,0,0,0,0,0,0,0,0,0,0,0,0,0,0,0,0,0,0,0,0,0],"sum_hessian":[1.2849E4,1.0648E4,2.201E3,3.521E3,7.127E3,1.361E3,8.4E2,1.193E3,2.328E3,6.322E3,8.05E2,1.353E3,8E0,3E1,8.1E2,1.147E3,4.6E1,2.307E3,2.1E1,3.21E3,3.112E3,8.03E2,2E0,6.4E2,7.13E2,4E0,4E0,2.1E1,9E0,3.22E2,4.88E2,1.144E3,3E0,4E1,6E0,1.901E3,4.06E2,8E0,1.3E1,3.201E3,9E0,3.47E2,2.765E3,7.6E2,4.3E1,4.18E2,2.22E2,5.47E2,1.66E2,2E0,2E0,7E0,1.4E1,2E0,7E0,3.03E2,1.9E1,4.76E2,1.2E1],"tree_param":{"num_deleted":"0","num_feature":"85","num_nodes":"59","size_leaf_vector":"1"}},{"base_weights":[6.17367E-3,-1.21125914E-1,4.9556005E-1,-3.254555E-1,3.5039E-2,3.566311E-1,9.7261906E-1,-5.9391314E-1,-2.3524947E-1,4.511993E-1,-1.6830125E-3,1.3929216E0,3.03523E-1,1.9931338E0,7.3074013E-1,-6.1071587E-1,2.143367E0,9.686577E-5,-2.9700324E-1,3.0695644E-1,1.9494673E0,-7.231137E-2,1.8507907E-1,-5.656686E-1,2.4562495E0,5.111207E-1,4.9174437E-3,1.650596E0,5.8060083E0,3.0685845E-1,1.4224875E0,-3.0907704E-2,1.9002528E-1,5.044052E-1,-4.3105327E-2,-1.5190451E-3,2.0877658E-1,-1.9554053E-2,-6.3984054E-3,2.069199E-2,-6.828266E-2,3.447317E-1,5.355605E-2,-3.9691133E-3,1.3282534E-1,-2.3179336E-2,1.4544449E-2,1.15710594E-1,-4.4880178E-2,9.380134E-2,3.1779167E-1,2.5988534E-1,2.3695076E-2,2.016257E-1,-1.2666747E-3,1.2623134E-1,7.2664763E-3,3.9586505E-1,5.9378374E-2,2.620571E-3,1.502948E-1,6.1473794E-2,3.4717926E-1],"categories":[],"categories_nodes":[],"categories_segments":[],"categories_sizes":[],"default_left":[1,1,0,0,0,0,0,0,0,0,0,0,0,0,0,0,0,1,1,0,0,0,0,0,0,0,0,0,0,0,0,0,0,0,0,0,0,0,0,0,0,0,0,0,0,0,0,0,0,0,0,0,0,0,0,0,0,0,0,0,0,0,0],"id":26,"left_children":[1,3,5,7,9,11,13,15,17,19,21,23,25,27,29,31,33,35,37,39,41,43,45,47,49,51,53,55,57,59,61,-1,-1,-1,-1,-1,-1,-1,-1,-1,-1,-1,-1,-1,-1,-1,-1,-1,-1,-1,-1,-1,-1,-1,-1,-1,-1,-1,-1,-1,-1,-1,-1],"loss_changes":[8.0097186E2,3.2558005E2,1.7555316E2,1.0689719E2,8.839326E1,1.12785034E2,1.4615448E2,5.2408173E1,4.8105988E1,1.00759285E2,7.013514E1,2.0965181E2,