{"learner":{"attributes":{"scikit_learn":"{\"_estimator_type\": \"regressor\"}"},"feature_names":["roll_3_minutes","roll_3_starts","roll_3_total_points","roll_3_goals_scored","roll_3_assists","roll_3_expected_goals","roll_3_expected_assists","roll_3_expected_goal_involvements","roll_3_ict_index","roll_3_bps","roll_3_bonus","roll_3_threat","roll_3_influence","roll_3_creativity","roll_3_saves","roll_3_clean_sheets","roll_3_expected_goals_conceded","roll_3_goals_scored_per90","roll_3_assists_per90","roll_3_expected_goals_per90","roll_3_expected_assists_per90","roll_3_expected_goal_involvements_per90","roll_3_saves_per90","roll_3_expected_goals_conceded_per90","roll_3_total_points_per90","roll_hist_count_3","roll_5_minutes","roll_5_starts","roll_5_total_points","roll_5_goals_scored","roll_5_assists","roll_5_expected_goals","roll_5_expected_assists","roll_5_expected_goal_involvements","roll_5_ict_index","roll_5_bps","roll_5_bonus","roll_5_threat","roll_5_influence","roll_5_creativity","roll_5_saves","roll_5_clean_sheets","roll_5_expected_goals_conceded","roll_5_goals_scored_per90","roll_5_assists_per90","roll_5_expected_goals_per90","roll_5_expected_assists_per90","roll_5_expected_goal_involvements_per90","roll_5_saves_per90","roll_5_expected_goals_conceded_per90","roll_5_total_points_per90","roll_hist_count_5","roll_8_minutes","roll_8_starts","roll_8_total_points","roll_8_goals_scored","roll_8_assists","roll_8_expected_goals","roll_8_expected_assists","roll_8_expected_goal_involvements","roll_8_ict_index","roll_8_bps","roll_8_bonus","roll_8_threat","roll_8_influence","roll_8_creativity","roll_8_saves","roll_8_clean_sheets","roll_8_expected_goals_conceded","roll_8_goals_scored_per90","roll_8_assists_per90","roll_8_expected_goals_per90","roll_8_expected_assists_per90","roll_8_expected_goal_involvements_per90","roll_8_saves_per90","roll_8_expected_goals_conceded_per90","roll_8_total_points_per90","roll_hist_count_8","was_home","opp_dyn_attack","opp_dyn_defence","opp_dyn_overall"],"feature_types":["float","float","float","float","float","float","float","float","float","float","float","float","float","float","float","float","float","float","float","float","float","float","float","float","float","float","float","float","float","float","float","float","float","float","float","float","float","float","float","float","float","float","float","float","float","float","float","float","float","float","float","float","float","float","float","float","float","float","float","float","float","float","float","float","float","float","float","float","float","float","float","float","float","float","float","float","float","float","i","float","float","float"],"gradient_booster":{"model":{"cats":{"enc":[],"feature_segments":[],"sorted_idx":[]},"gbtree_model_param":{"num_parallel_tree":"1","num_trees":"300"},"iteration_indptr":[0,1,2,3,4,5,6,7,8,9,10,11,12,13,14,15,16,17,18,19,20,21,22,23,24,25,26,27,28,29,30,31,32,33,34,35,36,37,38,39,40,41,42,43,44,45,46,47,48,49,50,51,52,53,54,55,56,57,58,59,60,61,62,63,64,65,66,67,68,69,70,71,72,73,74,75,76,77,78,79,80,81,82,83,84,85,86,87,88,89,90,91,92,93,94,95,96,97,98,99,100,101,102,103,104,105,106,107,108,109,110,111,112,113,114,115,116,117,118,119,120,121,122,123,124,125,126,127,128,129,130,131,132,133,134,135,136,137,138,139,140,141,142,143,144,145,146,147,148,149,150,151,152,153,154,155,156,157,158,159,160,161,162,163,164,165,166,167,168,169,170,171,172,173,174,175,176,177,178,179,180,181,182,183,184,185,186,187,188,189,190,191,192,193,194,195,196,197,198,199,200,201,202,203,204,205,206,207,208,209,210,211,212,213,214,215,216,217,218,219,220,221,222,223,224,225,226,227,228,229,230,231,232,233,234,235,236,237,238,239,240,241,242,243,244,245,246,247,248,249,250,251,252,253,254,255,256,257,258,259,260,261,262,263,264,265,266,267,268,269,270,271,272,273,274,275,276,277,278,279,280,281,282,283,284,285,286,287,288,289,290,291,292,293,294,295,296,297,298,299,300],"tree_info":[0,0,0,0,0,0,0,0,0,0,0,0,0,0,0,0,0,0,0,0,0,0,0,0,0,0,0,0,0,0,0,0,0,0,0,0,0,0,0,0,0,0,0,0,0,0,0,0,0,0,0,0,0,0,0,0,0,0,0,0,0,0,0,0,0,0,0,0,0,0,0,0,0,0,0,0,0,0,0,0,0,0,0,0,0,0,0,0,0,0,0,0,0,0,0,0,0,0,0,0,0,0,0,0,0,0,0,0,0,0,0,0,0,0,0,0,0,0,0,0,0,0,0,0,0,0,0,0,0,0,0,0,0,0,0,0,0,0,0,0,0,0,0,0,0,0,0,0,0,0,0,0,0,0,0,0,0,0,0,0,0,0,0,0,0,0,0,0,0,0,0,0,0,0,0,0,0,0,0,0,0,0,0,0,0,0,0,0,0,0,0,0,0,0,0,0,0,0,0,0,0,0,0,0,0,0,0,0,0,0,0,0,0,0,0,0,0,0,0,0,0,0,0,0,0,0,0,0,0,0,0,0,0,0,0,0,0,0,0,0,0,0,0,0,0,0,0,0,0,0,0,0,0,0,0,0,0,0,0,0,0,0,0,0,0,0,0,0,0,0,0,0,0,0,0,0,0,0,0,0,0,0,0,0,0,0,0,0,0,0,0,0,0,0,0,0,0,0,0,0],"trees":[{"base_weights":[-2.357728E-3,-2.809773E0,2.5241494E-1,-2.5408251E-2,-2.8214188E0,4.6541116E-1,-2.559016E-1,-1.4166084E-1,-2.5408251E-2,6.7098415E-1,-2.028922E-1,5.270815E-1,-4.0452686E-1,6.319791E-1,2.9847589E0,4.1530585E0,-2.9584134E-1,-9.786882E-1,1.2566942E0,-1.5650294E0,-2.4561977E-1,3.4344252E-2,-4.4540983E-2,9.5400155E-2,3.3278903E-1,-3.3877667E-2,3.3688766E-1,5.8071516E-3,-3.4144163E-2,7.459175E-2,-5.655433E-2,1.893468E-1,4.9199514E-2,-8.9341156E-2,7.438763E-2,-1.8899124E-2,3.4307256E-2],"categories":[],"categories_nodes":[],"categories_segments":[],"categories_sizes":[],"default_left":[0,0,0,0,1,1,0,0,0,0,0,0,0,0,0,0,0,0,0,0,1,0,0,0,0,0,0,0,0,0,0,0,0,0,0,0,0],"id":0,"left_children":[1,3,5,-1,7,9,11,-1,-1,13,15,17,19,21,23,25,27,29,31,33,35,-1,-1,-1,-1,-1,-1,-1,-1,-1,-1,-1,-1,-1,-1,-1,-1],"loss_changes":[1.3325096E3,2.7209473E0,1.8504343E2,0E0,2.7631836E0,1.6554782E2,5.89806E1,0E0,0E0,8.1233E1,1.162151E2,9.021884E1,7.799072E1,7.644675E1,4.6592636E1,7.9479126E1,4.4567326E1,1.1852993E1,3.4224075E1,3.718985E1,4.6508442E1,0E0,0E0,0E0,0E0,0E0,0E0,0E0,0E0,0E0,0E0,0E0,0E0,0E0,0E0,0E0,0E0],"parents":[2147483647,0,0,1,1,2,2,4,4,5,5,6,6,9,9,10,10,11,11,12,12,13,13,14,14,15,15,16,16,17,17,18,18,19,19,20,20],"right_children":[2,4,6,-1,8,10,12,-1,-1,14,16,18,20,22,24,26,28,30,32,34,36,-1,-1,-1,-1,-1,-1,-1,-1,-1,-1,-1,-1,-1,-1,-1,-1],"split_conditions":[3E1,3.3333334E-1,1.1734646E3,-2.5408251E-2,2.1686747E-3,1.68125E0,4E-1,-1.4166084E-1,-2.5408251E-2,1.7792899E3,1.0833334E0,1.2083589E3,8.4375E1,1.6660585E3,3.7E0,2.0666666E1,9.2810504E2,1.22E0,1.24E1,2.59E0,1E0,3.4344252E-2,-4.4540983E-2,9.5400155E-2,3.3278903E-1,-3.3877667E-2,3.3688766E-1,5.8071516E-3,-3.4144163E-2,7.459175E-2,-5.655433E-2,1.893468E-1,4.9199514E-2,-8.9341156E-2,7.438763E-2,-1.8899124E-2,3.4307256E-2],"split_indices":[0,22,81,0,73,68,53,0,0,80,16,81,52,80,8,12,79,34,35,49,10,0,0,0,0,0,0,0,0,0,0,0,0,0,0,0,0],"split_type":[0,0,0,0,0,0,0,0,0,0,0,0,0,0,0,0,0,0,0,0,0,0,0,0,0,0,0,0,0,0,0,0,0,0,0,0,0],"sum_hessian":[1.861E3,1.54E2,1.707E3,1E0,1.53E2,1.203E3,5.04E2,1.52E2,1E0,9.2E2,2.83E2,8E1,4.24E2,9.06E2,1.4E1,5E0,2.78E2,2.6E1,5.4E1,5E1,3.74E2,8.75E2,3.1E1,1.2E1,2E0,2E0,3E0,1.35E2,1.43E2,1E0,2.5E1,4E0,5E1,4.7E1,3E0,3.28E2,4.6E1],"tree_param":{"num_deleted":"0","num_feature":"82","num_nodes":"37","size_leaf_vector":"1"}},{"base_weights":[-3.165603E-2,-2.6295288E0,1.9592462E-1,-3.5435995E-1,-2.7225122E0,2.934507E-1,-5.4165137E-1,1.1890682E-1,-1.9229858E0,-1.3673533E-1,-2.4773045E-2,-5.272323E-1,3.9161637E-1,3.1616956E-1,-6.082596E-1,-1.0780009E-1,-2.4773045E-2,-5.9586793E-1,1.6431014E-1,8.4434396E-1,2.2432616E-1,1.6285922E-1,-6.844315E-1,-1.00145936E-1,-1.9530226E-2,5.5543344E-2,7.230391E-3,5.8192736E-3,4.851338E-2,1.7444657E-1,-3.6196392E-2],"categories":[],"categories_nodes":[],"categories_segments":[],"categories_sizes":[],"default_left":[0,0,1,0,1,0,0,0,0,0,0,0,0,0,0,0,0,0,0,0,1,0,0,0,0,0,0,0,0,0,0],"id":1,"left_children":[1,3,5,7,9,11,13,-1,15,-1,-1,17,19,-1,21,-1,-1,23,-1,25,27,-1,29,-1,-1,-1,-1,-1,-1,-1,-1],"loss_changes":[1.0936913E3,3.0556763E1,1.225168E2,3.4576973E1,2.5285645E0,1.2129251E2,9.4842674E1,0E0,5.94965E-1,0E0,0E0,4.4097908E1,1.0152522E2,0E0,6.052806E1,0E0,0E0,4.5139412E1,0E0,6.735083E1,7.89552E1,0E0,3.46681E1,0E0,0E0,0E0,0E0,0E0,0E0,0E0,0E0],"parents":[2147483647,0,0,1,1,2,2,3,3,4,4,5,5,6,6,8,8,11,11,12,12,14,14,17,17,19,19,20,20,22,22],"right_children":[2,4,6,8,10,12,14,-1,16,-1,-1,18,20,-1,22,-1,-1,24,-1,26,28,-1,30,-1,-1,-1,-1,-1,-1,-1,-1],"split_conditions":[2.3333334E1,1.2E0,1.94125E0,7.723863E2,2.1686747E-3,8.8333336E1,1.0833334E0,1.1890682E-1,4E0,-1.3673533E-1,-2.4773045E-2,2.534E0,1.956E1,3.1616956E-1,7.6E1,-1.0780009E-1,-2.4773045E-2,4E0,1.6431014E-1,1.1637377E3,2.8571428E-3,1.6285922E-1,1.9436808E0,-1.00145936E-1,-1.9530226E-2,5.5543344E-2,7.230391E-3,5.8192736E-3,4.851338E-2,1.7444657E-1,-3.6196392E-2],"split_indices":[0,74,68,81,73,0,23,0,0,0,0,49,38,0,52,0,0,9,0,81,58,0,75,0,0,0,0,0,0,0,0],"split_type":[0,0,0,0,0,0,0,0,0,0,0,0,0,0,0,0,0,0,0,0,0,0,0,0,0,0,0,0,0,0,0],"sum_hessian":[1.848E3,1.48E2,1.7E3,6E0,1.42E2,1.502E3,1.98E2,2E0,4E0,1.41E2,1E0,1.6E2,1.342E3,1E0,1.97E2,3E0,1E0,1.58E2,2E0,3.61E2,9.81E2,3E0,1.94E2,1.9E1,1.39E2,2.61E2,1E2,8.58E2,1.23E2,1E0,1.93E2],"tree_param":{"num_deleted":"0","num_feature":"82","num_nodes":"31","size_leaf_vector":"1"}},{"base_weights":[-2.1019098E-3,-2.4602718E0,2.11272E-1,-2.5256684E0,-1.3183131E0,3.331491E-1,-3.5357475E-1,-4.5803864E-2,-2.5671892E0,4.228301E-1,-1.8064526E0,5.377504E-1,-6.2050816E-2,2.280362E0,-4.4318092E-1,-2.022573E0,-1.3256231E-1,1.001606E-1,-6.844834E-2,-2.3469408E-1,-1.14562824E-1,5.215887E-1,2.6304516E-1,1.7584863E-1,-7.257697E-1,3.2606514E0,-5.2352548E-3,-1.4825239E0,-2.8057155E-1,-1.12624645E-1,-3.9517347E-2,6.551659E-3,-2.4153715E-2,1.1091533E-2,3.770852E-2,4.856975E-3,1.4171873E-1,-5.4560374E-2,8.643598E-3,-2.4447514E-2,1.9835384E-1,5.9192575E-4,-1.4114141E-3,5.308472E-2,-8.243718E-2,3.81218E-2,-2.4940481E-2],"categories":[],"categories_nodes":[],"categories_segments":[],"categories_sizes":[],"default_left":[0,1,0,0,0,1,0,0,0,0,0,1,0,0,0,0,0,0,0,0,0,1,0,0,0,0,0,0,0,0,0,0,0,0,0,0,0,0,0,0,0,0,0,0,0,0,0],"id":2,"left_children":[1,3,5,7,9,11,13,-1,15,17,19,21,23,25,27,29,-1,-1,-1,31,-1,33,-1,35,37,39,41,43,45,-1,-1,-1,-1,-1,-1,-1,-1,-1,-1,-1,-1,-1,-1,-1,-1,-1,-1],"loss_changes":[9.587984E2,7.5736694E0,1.15909836E2,6.804199E0,9.263033E0,1.1194142E2,7.15797E1,0E0,7.261963E-1,1.1237501E1,5.5582104E0,6.687305E1,7.481355E1,2.2422535E1,4.8596046E1,4.4526367E0,0E0,0E0,0E0,3.3581704E-1,0E0,6.3276306E1,0E0,7.275301E1,4.123835E1,2.0481392E1,1.9044918E-3,1.8243538E1,5.7741554E1,0E0,0E0,0E0,0E0,0E0,0E0,0E0,0E0,0E0,0E0,0E0,0E0,0E0,0E0,0E0,0E0,0E0,0E0],"parents":[2147483647,0,0,1,1,2,2,3,3,4,4,5,5,6,6,8,8,9,9,10,10,11,11,12,12,13,13,14,14,15,15,19,19,21,21,23,23,24,24,25,25,26,26,27,27,28,28],"right_children":[2,4,6,8,10,12,14,-1,16,18,20,22,24,26,28,30,-1,-1,-1,32,-1,34,-1,36,38,40,42,44,46,-1,-1,-1,-1,-1,-1,-1,-1,-1,-1,-1,-1,-1,-1,-1,-1,-1,-1],"split_conditions":[5E-2,2.08E0,1.2557068E3,1.1811024E0,8.9352136E2,1.555E0,8.102115E2,-4.5803864E-2,7E0,4E0,6E0,5E-1,3.7218046E0,3.05E0,8.6E1,6E0,-1.3256231E-1,1.001606E-1,-6.844834E-2,3.3333334E-1,-1.14562824E-1,1.5666667E1,2.6304516E-1,8.333334E-3,2.4E1,1E0,6.6666666E-6,1.258694E3,1.88E0,-1.12624645E-1,-3.9517347E-2,6.551659E-3,-2.4153715E-2,1.1091533E-2,3.770852E-2,4.856975E-3,1.4171873E-1,-5.4560374E-2,8.643598E-3,-2.4447514E-2,1.9835384E-1,5.9192575E-4,-1.4114141E-3,5.308472E-2,-8.243718E-2,3.81218E-2,-2.4940481E-2],"split_indices":[8,75,81,48,80,49,80,0,77,26,52,44,24,8,26,77,0,0,0,9,0,9,0,58,9,1,7,81,34,0,0,0,0,0,0,0,0,0,0,0,0,0,0,0,0,0,0],"split_type":[0,0,0,0,0,0,0,0,0,0,0,0,0,0,0,0,0,0,0,0,0,0,0,0,0,0,0,0,0,0,0,0,0,0,0,0,0,0,0,0,0,0,0,0,0,0,0],"sum_hessian":[1.826E3,1.45E2,1.681E3,1.36E2,9E0,1.383E3,2.98E2,4E0,1.32E2,2E0,7E0,9.11E2,4.72E2,9E0,2.89E2,2.1E1,1.11E2,1E0,1E0,2E0,5E0,9.09E2,2E0,3.48E2,1.24E2,6E0,3E0,3.8E1,2.51E2,1.7E1,4E0,1E0,1E0,3.98E2,5.11E2,3.39E2,9E0,8.8E1,3.6E1,1E0,5E0,2E0,1E0,2E0,3.6E1,4.3E1,2.08E2],"tree_param":{"num_deleted":"0","num_feature":"82","num_nodes":"47","size_leaf_vector":"1"}},{"base_weights":[-3.1629458E-2,-2.3028288E0,1.9683716E-1,1.9359189E0,-2.364084E0,4.888243E-1,-4.1172374E-2,1.2165785E-3,1.4397734E-1,-2.4132347E0,-8.748311E-1,1.0410464E0,2.418968E-1,6.735154E-2,-7.518917E-1,-2.428275E0,9.5950963E-4,-8.932908E-3,-6.0970187E-2,1.3739145E0,3.9508933E-1,-1.0819694E0,3.7241983E-1,-8.306399E-3,1.3688526E0,-9.342541E-1,7.607141E-1,-2.300862E-2,-1.21879175E-1,-9.000242E-4,2.3005604E-4,2.0015669E-1,5.832061E-2,6.5377573E-3,1.6042809E-1,-6.070601E-2,6.525E-2,6.821662E-3,5.3672917E-2,-2.0153744E-3,1.5324183E-1,1.6223702E-1,2.085043E-2,-5.588156E-2,1.1793039E-2,1.6830511E-1,2.2987097E-3],"categories":[],"categories_nodes":[],"categories_segments":[],"categories_sizes":[],"default_left":[0,0,0,0,0,0,1,0,0,0,0,0,1,1,0,0,0,0,0,0,0,1,0,1,0,0,0,0,0,0,0,0,0,0,0,0,0,0,0,0,0,0,0,0,0,0,0],"id":3,"left_children":[1,3,5,7,9,11,13,-1,-1,15,17,19,21,23,25,27,-1,29,-1,31,33,35,37,39,41,43,45,-1,-1,-1,-1,-1,-1,-1,-1,-1,-1,-1,-1,-1,-1,-1,-1,-1,-1,-1,-1],"loss_changes":[9.764914E2,4.923584E1,1.1885783E2,5.3414173E0,1.0332336E1,1.0447177E2,7.278427E1,0E0,0E0,6.046631E0,2.077661E0,5.0416565E1,9.232992E1,8.0657394E1,3.5190994E1,1.8643188E0,0E0,4.5098487E-4,0E0,8.043942E1,6.0563614E1,1.6725552E1,8.008986E1,7.634007E1,7.899678E1,2.4295715E1,2.5915693E1,0E0,0E0,0E0,0E0,0E0,0E0,0E0,0E0,0E0,0E0,0E0,0E0,0E0,0E0,0E0,0E0,0E0,0E0,0E0,0E0],"parents":[2147483647,0,0,1,1,2,2,3,3,4,4,5,5,6,6,9,9,10,10,11,11,12,12,13,13,14,14,15,15,17,17,19,19,20,20,21,21,22,22,23,23,24,24,25,25,26,26],"right_children":[2,4,6,8,10,12,14,-1,-1,16,18,20,22,24,26,28,-1,30,-1,32,34,36,38,40,42,44,46,-1,-1,-1,-1,-1,-1,-1,-1,-1,-1,-1,-1,-1,-1,-1,-1,-1,-1,-1,-1],"split_conditions":[5E-1,0E0,9.2810504E2,5.6E1,1.37E0,2.06E0,1.94125E0,1.2165785E-3,1.4397734E-1,6.6666666E-6,1.3333334E0,2E-1,1.6666666E0,2.02E0,4.008E1,6.3829786E-1,9.5950963E-4,4.1666668E1,-6.0970187E-2,7.1270294E2,1.2077196E3,3.4E0,9.775E-4,2.0306666E0,2.06E0,1.3688635E3,5.2E0,-2.300862E-2,-1.21879175E-1,-9.000242E-4,2.3005604E-4,2.0015669E-1,5.832061E-2,6.5377573E-3,1.6042809E-1,-6.070601E-2,6.525E-2,6.821662E-3,5.3672917E-2,-2.0153744E-3,1.5324183E-1,1.6223702E-1,2.085043E-2,-5.588156E-2,1.1793039E-2,1.6830511E-1,2.2987097E-3],"split_indices":[2,2,79,0,42,34,68,0,0,6,14,36,2,39,64,48,0,0,0,81,81,8,58,75,39,81,66,0,0,0,0,0,0,0,0,0,0,0,0,0,0,0,0,0,0,0,0],"split_type":[0,0,0,0,0,0,0,0,0,0,0,0,0,0,0,0,0,0,0,0,0,0,0,0,0,0,0,0,0,0,0,0,0,0,0,0,0,0,0,0,0,0,0,0,0,0,0],"sum_hessian":[1.88E3,1.71E2,1.709E3,2E0,1.69E2,7.67E2,9.42E2,1E0,1E0,1.63E2,6E0,2.36E2,5.31E2,8.18E2,1.24E2,1.62E2,1E0,2E0,4E0,1.55E2,8.1E1,4.7E1,4.84E2,7.74E2,4.4E1,1.11E2,1.3E1,1E0,1.61E2,1E0,1E0,1E1,1.45E2,7.5E1,6E0,4.5E1,2E0,3.63E2,1.21E2,7.67E2,7E0,1.4E1,3E1,9.6E1,1.5E1,2E0,1.1E1],"tree_param":{"num_deleted":"0","num_feature":"82","num_nodes":"47","size_leaf_vector":"1"}},{"base_weights":[-2.4630109E-2,-2.2332966E0,1.9118112E-1,5.619037E-2,-2.3648992E0,4.6221733E-1,-1.5568177E-1,1.2008138E-1,-1.2920867E0,-2.3894823E0,-3.0647364E-1,6.060696E-1,-5.9254926E-1,-1.929011E-1,1.4517182E0,-1.5935191E0,1.2912697E-2,-4.9206547E-2,-1.2007103E-1,9.355247E-4,-2.3921048E-2,2.9512076E0,5.6851786E-1,-1.0227462E0,6.061374E-1,-8.086553E-2,-7.242128E-1,-3.2321417E-1,4.0335093E0,-9.492663E-2,-3.2783072E-2,4.6763564E-3,2.1054481E-1,3.0755645E-2,-5.8325697E-2,-1.4663798E-1,-4.2027917E-2,2.2965875E-1,-7.7326237E-3,3.7932508E-3,-2.1674791E-2,1.3096347E-1,-4.271194E-2,-6.26043E-2,8.0766656E-2,-2.547471E-2,2.4377961E-1],"categories":[],"categories_nodes":[],"categories_segments":[],"categories_sizes":[],"default_left":[0,0,0,0,0,0,1,0,0,0,0,0,0,0,0,0,0,0,0,0,0,0,0,0,0,1,0,0,0,0,0,0,0,0,0,0,0,0,0,0,0,0,0,0,0,0,0],"id":4,"left_children":[1,3,5,7,9,11,13,-1,15,17,19,21,23,25,27,29,-1,-1,-1,-1,-1,31,33,35,37,39,41,43,45,-1,-1,-1,-1,-1,-1,-1,-1,-1,-1,-1,-1,-1,-1,-1,-1,-1,-1],"loss_changes":[8.889119E2,5.0149048E1,1.5979903E2,3.47261E1,7.212219E0,1.451101E2,4.49105E1,0E0,3.6827927E0,2.3724365E-1,1.7669514E-1,7.229602E1,5.992212E1,4.3395287E1,7.920627E1,4.7156143E-1,0E0,0E0,0E0,0E0,0E0,4.640338E1,6.765625E1,2.711325E1,9.474258E1,3.3414726E1,5.744941E1,2.182982E1,2.9263184E1,0E0,0E0,0E0,0E0,0E0,0E0,0E0,0E0,0E0,0E0,0E0,0E0,0E0,0E0,0E0,0E0,0E0,0E0],"parents":[2147483647,0,0,1,1,2,2,3,3,4,4,5,5,6,6,8,8,9,9,10,10,11,11,12,12,13,13,14,14,15,15,21,21,22,22,23,23,24,24,25,25,26,26,27,27,28,28],"right_children":[2,4,6,8,10,12,14,-1,16,18,20,22,24,26,28,30,-1,-1,-1,-1,-1,32,34,36,38,40,42,44,46,-1,-1,-1,-1,-1,-1,-1,-1,-1,-1,-1,-1,-1,-1,-1,-1,-1,-1],"split_conditions":[4.6666667E-1,6.474992E2,1.445E0,1.2E0,6.666667E-1,1.3677352E3,1.25E-2,1.2008138E-1,6.252405E2,3.3333334E-1,3.0333334E1,5.6515906E2,1.7391978E3,1.29784E3,1.0517838E3,5.576786E2,1.2912697E-2,-4.9206547E-2,-1.2007103E-1,9.355247E-4,-2.3921048E-2,1.5E0,7.6666665E0,6.897921E2,3.0666666E0,1.91E0,1.4E0,6.666667E-1,1.0066667E0,-9.492663E-2,-3.2783072E-2,4.6763564E-3,2.1054481E-1,3.0755645E-2,-5.8325697E-2,-1.4663798E-1,-4.2027917E-2,2.2965875E-1,-7.7326237E-3,3.7932508E-3,-2.1674791E-2,1.3096347E-1,-4.271194E-2,-6.26043E-2,8.0766656E-2,-2.547471E-2,2.4377961E-1],"split_indices":[8,79,75,74,14,79,58,0,79,22,0,80,79,80,80,79,0,0,0,0,0,8,24,80,76,68,76,62,16,0,0,0,0,0,0,0,0,0,0,0,0,0,0,0,0,0,0],"split_type":[0,0,0,0,0,0,0,0,0,0,0,0,0,0,0,0,0,0,0,0,0,0,0,0,0,0,0,0,0,0,0,0,0,0,0,0,0,0,0,0,0,0,0,0,0,0,0],"sum_hessian":[1.863E3,1.65E2,1.698E3,9E0,1.56E2,9.53E2,7.45E2,3E0,6E0,1.54E2,2E0,8.39E2,1.14E2,7.29E2,1.6E1,5E0,1E0,2E0,1.52E2,1E0,1E0,1.2E1,8.27E2,8.4E1,3E1,6.03E2,1.26E2,1E1,6E0,3E0,2E0,4E0,8E0,8.06E2,2.1E1,6E0,7.8E1,4E0,2.6E1,4.18E2,1.85E2,4E0,1.22E2,7E0,3E0,1E0,5E0],"tree_param":{"num_deleted":"0","num_feature":"82","num_nodes":"47","size_leaf_vector":"1"}},{"base_weights":[-4.208201E-2,-1.6951802E0,1.8626635E-1,-1.8614482E0,1.7691706E0,3.4330842E-1,-2.9104456E-1,-2.1446166E0,-1.0190285E0,2.7218375E0,-8.39277E-2,4.777352E-1,-4.077509E-1,-7.5654334E-1,3.0655613E-2,9.057809E-2,-2.1802201E0,4.043827E-1,-1.7413758E0,3.0358115E-1,2.2978632E-1,8.501756E-1,3.101967E-1,2.4222436E0,-5.2923834E-1,-8.5321105E-1,2.5654666E0,1.2409457E0,-2.1273924E-1,-3.7794795E-2,-1.1150781E-1,6.584476E-2,-9.721477E-2,1.4756317E-2,-9.313564E-2,-3.5196614E-2,6.0495038E-2,3.8018916E-2,2.4296986E-1,3.4564342E-2,2.420748E-3,2.4197698E-1,-6.024685E-2,-3.464522E-2,2.9195992E-2,6.910344E-2,-4.883501E-2,1.7186417E-1,-2.3044992E-2,4.277127E-2,2.2965765E-1,-1.4031178E-2,1.6258165E-1],"categories":[],"categories_nodes":[],"categories_segments":[],"categories_sizes":[],"default_left":[0,1,0,0,0,0,1,0,0,0,0,0,0,1,0,0,0,0,0,0,0,0,0,0,1,0,0,0,0,0,0,0,0,0,0,0,0,0,0,0,0,0,0,0,0,0,0,0,0,0,0,0,0],"id":5,"left_children":[1,3,5,7,9,11,13,15,17,19,-1,21,23,25,27,-1,29,31,33,35,-1,37,39,41,43,45,47,49,51,-1,-1,-1,-1,-1,-1,-1,-1,-1,-1,-1,-1,-1,-1,-1,-1,-1,-1,-1,-1,-1,-1,-1,-1],"loss_changes":[7.1224725E2,1.3519965E2,1.24380104E2,5.0056335E1,4.0698616E1,1.26195984E2,6.1570866E1,2.6908691E1,5.931142E1,3.9388725E1,0E0,6.581587E1,6.660562E1,5.6138916E1,7.214113E1,0E0,9.836487E0,4.5424393E1,9.939644E0,5.4173336E0,0E0,1.14390656E2,7.299264E1,7.59751E1,3.3744663E1,4.6619247E1,1.4776428E1,4.905701E1,4.8888504E1,0E0,0E0,0E0,0E0,0E0,0E0,0E0,0E0,0E0,0E0,0E0,0E0,0E0,0E0,0E0,0E0,0E0,0E0,0E0,0E0,0E0,0E0,0E0,0E0],"parents":[2147483647,0,0,1,1,2,2,3,3,4,4,5,5,6,6,7,7,8,8,9,9,11,11,12,12,13,13,14,14,16,16,17,17,18,18,19,19,21,21,22,22,23,23,24,24,25,25,26,26,27,27,28,28],"right_children":[2,4,6,8,10,12,14,16,18,20,-1,22,24,26,28,-1,30,32,34,36,-1,38,40,42,44,46,48,50,52,-1,-1,-1,-1,-1,-1,-1,-1,-1,-1,-1,-1,-1,-1,-1,-1,-1,-1,-1,-1,-1,-1,-1,-1],"split_conditions":[6.6E1,6.5E0,1.2012139E3,4E0,1.3795768E3,1.9436808E0,2.325E0,-2.6666667E0,7E0,9.066667E0,-8.39277E-2,2.967033E0,4.5E0,2.5E-3,2.1333334E1,9.057809E-2,1.1428572E0,1.1593766E3,6.501157E2,1E0,2.2978632E-1,2.02E1,7.8845996E2,2.24E1,2.4625E0,6E-1,1.14E0,2.0666666E1,2.3177024E3,-3.7794795E-2,-1.1150781E-1,6.584476E-2,-9.721477E-2,1.4756317E-2,-9.313564E-2,-3.5196614E-2,6.0495038E-2,3.8018916E-2,2.4296986E-1,3.4564342E-2,2.420748E-3,2.4197698E-1,-6.024685E-2,-3.464522E-2,2.9195992E-2,6.910344E-2,-4.883501E-2,1.7186417E-1,-2.3044992E-2,4.277127E-2,2.2965765E-1,-1.4031178E-2,1.6258165E-1],"split_indices":[0,50,79,9,80,75,60,9,9,12,0,76,35,57,12,0,76,80,79,78,0,35,79,12,75,42,16,12,79,0,0,0,0,0,0,0,0,0,0,0,0,0,0,0,0,0,0,0,0,0,0,0,0],"split_type":[0,0,0,0,0,0,0,0,0,0,0,0,0,0,0,0,0,0,0,0,0,0,0,0,0,0,0,0,0,0,0,0,0,0,0,0,0,0,0,0,0,0,0,0,0,0,0,0,0,0,0,0,0],"sum_hessian":[1.885E3,2.28E2,1.657E3,2.18E2,1E1,1.247E3,4.1E2,1.62E2,5.6E1,8E0,2E0,1.058E3,1.89E2,1.67E2,2.43E2,1E0,1.61E2,1.9E1,3.7E1,4E0,4E0,3.27E2,7.31E2,7E0,1.82E2,1.63E2,4E0,4E1,2.03E2,6E0,1.55E2,1.4E1,5E0,2E0,3.5E1,2E0,2E0,3.21E2,6E0,2.97E2,4.34E2,4E0,3E0,1.59E2,2.3E1,8E0,1.55E2,3E0,1E0,3.7E1,3E0,2E2,3E0],"tree_param":{"num_deleted":"0","num_feature":"82","num_nodes":"53","size_leaf_vector":"1"}},{"base_weights":[3.0057656E-2,-1.8088145E0,2.4013323E-1,-1.8801956E0,1.9804555E0,3.693039E0,2.21211E-1,-1.962294E0,9.2348486E-1,1.5228458E-1,-3.0381316E-2,5.1967187E0,-5.2327998E-2,3.3072725E-1,-2.6267186E-1,-5.0050837E-1,-2.0625346E0,1.03602625E-1,-9.1576695E-1,2.8012666E-1,6.904575E-2,4.8744208E-1,-8.106313E-2,-3.0519426E-1,2.066911E-1,1.0976732E-1,-5.9512038E-2,-1.0433973E-1,-8.230369E-4,-6.504818E-2,-3.6343397E-3,3.1210974E-2,2.121678E-3,1.2910567E-1,-8.837122E-3,-6.7581095E-2,-1.0329192E-2],"categories":[],"categories_nodes":[],"categories_segments":[],"categories_sizes":[],"default_left":[0,0,0,0,0,0,0,0,0,0,0,0,0,1,1,0,0,0,0,0,0,0,0,0,0,0,0,0,0,0,0,0,0,0,0,0,0],"id":6,"left_children":[1,3,5,7,9,11,13,15,17,-1,-1,19,-1,21,23,25,27,-1,29,-1,-1,31,33,35,-1,-1,-1,-1,-1,-1,-1,-1,-1,-1,-1,-1,-1],"loss_changes":[7.1586584E2,5.5115295E1,1.0783792E2,4.4855347E1,1.2878315E1,6.9580215E1,8.779035E1,2.563617E1,1.4572548E1,0E0,0E0,3.102951E0,0E0,8.715994E1,5.846816E1,2.6785427E1,8.404114E0,0E0,8.796921E-1,0E0,0E0,5.950157E1,9.5500824E1,3.1090136E1,0E0,0E0,0E0,0E0,0E0,0E0,0E0,0E0,0E0,0E0,0E0,0E0,0E0],"parents":[2147483647,0,0,1,1,2,2,3,3,4,4,5,5,6,6,7,7,8,8,11,11,13,13,14,14,15,15,16,16,18,18,21,21,22,22,23,23],"right_children":[2,4,6,8,10,12,14,16,18,-1,-1,20,-1,22,24,26,28,-1,30,-1,-1,32,34,36,-1,-1,-1,-1,-1,-1,-1,-1,-1,-1,-1,-1,-1],"split_conditions":[6E1,1.412E0,3E0,4E-2,4.5333332E1,2.15E0,1.2482605E3,6.69681E2,7.574875E-1,1.5228458E-1,-3.0381316E-2,1.25E-1,-5.2327998E-2,1.63E0,1.6E-2,1.2E0,1.1754333E0,1.03602625E-1,4.5E-1,2.8012666E-1,6.904575E-2,1.1329128E3,1.2766666E0,1.2733334E1,2.066911E-1,1.0976732E-1,-5.9512038E-2,-1.0433973E-1,-8.230369E-4,-6.504818E-2,-3.6343397E-3,3.1210974E-2,2.121678E-3,1.2910567E-1,-8.837122E-3,-6.7581095E-2,-1.0329192E-2],"split_indices":[0,42,35,65,0,8,81,79,68,0,0,67,0,42,32,74,16,0,8,0,0,81,16,12,0,0,0,0,0,0,0,0,0,0,0,0,0],"split_type":[0,0,0,0,0,0,0,0,0,0,0,0,0,0,0,0,0,0,0,0,0,0,0,0,0,0,0,0,0,0,0,0,0,0,0,0,0],"sum_hessian":[1.851E3,1.89E2,1.662E3,1.86E2,3E0,8E0,1.654E3,1.81E2,5E0,2E0,1E0,6E0,2E0,1.349E3,3.05E2,1.2E1,1.69E2,3E0,2E0,5E0,1E0,9.77E2,3.72E2,3.03E2,2E0,2E0,1E1,1.67E2,2E0,1E0,1E0,7.47E2,2.3E2,1.2E1,3.6E2,2.5E1,2.78E2],"tree_param":{"num_deleted":"0","num_feature":"82","num_nodes":"37","size_leaf_vector":"1"}},{"base_weights":[3.3602767E-2,-1.8712454E0,2.3079081E-1,-1.9267293E0,9.8528646E-2,3.4304085E-1,-3.5211593E-1,-2.6767632E-1,-2.0370479E0,4.9679926E-1,-1.7729981E-1,1.8862829E-1,-3.961523E-1,-1.3441987E0,1.1107089E-1,-2.0559602E0,-3.4306088E-1,1.9457282E0,4.417579E-1,-2.639768E-1,2.3288121E0,-1.3119649E0,-2.424806E-1,-7.462156E-2,-2.7512828E-2,-1.03445135E-1,-3.4234457E-2,-2.1023715E-2,-4.7058524E-3,6.3977614E-2,2.753733E-1,-1.6969776E-2,2.5853977E-2,-2.33799E-2,1.0376294E-2,-1.4751116E-2,1.9351462E-1,1.22297764E-1,-7.376124E-2,4.9980104E-2,-2.2160051E-2],"categories":[],"categories_nodes":[],"categories_segments":[],"categories_sizes":[],"default_left":[0,0,0,0,0,1,0,1,0,0,0,0,0,0,0,1,0,0,0,0,0,0,0,0,0,0,0,0,0,0,0,0,0,0,0,0,0,0,0,0,0],"id":7,"left_children":[1,3,5,7,-1,9,11,13,15,17,19,-1,21,23,-1,25,27,29,31,33,35,37,39,-1,-1,-1,-1,-1,-1,-1,-1,-1,-1,-1,-1,-1,-1,-1,-1,-1,-1],"loss_changes":[7.047068E2,4.1312805E1,1.11354E2,3.1300964E1,0E0,1.14177734E2,5.1444405E1,3.5140816E1,4.5167847E0,8.694638E1,7.14292E1,0E0,3.810238E1,2.3797035E-1,0E0,1.4407959E0,1.8240988E-2,8.786267E1,6.2661163E1,3.0435547E1,4.5632294E1,2.7535522E1,5.9031204E1,0E0,0E0,0E0,0E0,0E0,0E0,0E0,0E0,0E0,0E0,0E0,0E0,0E0,0E0,0E0,0E0,0E0,0E0],"parents":[2147483647,0,0,1,1,2,2,3,3,5,5,6,6,7,7,8,8,9,9,10,10,12,12,13,13,15,15,16,16,17,17,18,18,19,19,20,20,21,21,22,22],"right_children":[2,4,6,8,-1,10,12,14,16,18,20,-1,22,24,-1,26,28,30,32,34,36,38,40,-1,-1,-1,-1,-1,-1,-1,-1,-1,-1,-1,-1,-1,-1,-1,-1,-1,-1],"split_conditions":[5.6666666E-1,1.16E0,1.2776205E3,6.474992E2,9.8528646E-2,1.68125E0,6.521169E2,7.9E-1,3.5E0,1.75E0,7.142857E-3,1.8862829E-1,8.9E1,6.252405E2,1.1107089E-1,8.666667E0,4.8333332E1,1.6666666E0,8.2666664E1,1.0868733E3,9.358718E2,4E-1,1.88E0,-7.462156E-2,-2.7512828E-2,-1.03445135E-1,-3.4234457E-2,-2.1023715E-2,-4.7058524E-3,6.3977614E-2,2.753733E-1,-1.6969776E-2,2.5853977E-2,-2.33799E-2,1.0376294E-2,-1.4751116E-2,1.9351462E-1,1.22297764E-1,-7.376124E-2,4.9980104E-2,-2.2160051E-2],"split_indices":[8,16,81,79,0,68,80,75,28,76,58,0,26,79,0,76,0,28,0,80,79,27,34,0,0,0,0,0,0,0,0,0,0,0,0,0,0,0,0,0,0],"split_type":[0,0,0,0,0,0,0,0,0,0,0,0,0,0,0,0,0,0,0,0,0,0,0,0,0,0,0,0,0,0,0,0,0,0,0,0,0,0,0,0,0],"sum_hessian":[1.874E3,1.75E2,1.699E3,1.73E2,2E0,1.425E3,2.74E2,1.1E1,1.62E2,1.1E3,3.25E2,2E0,2.72E2,8E0,3E0,1.6E2,2E0,3.9E1,1.061E3,3.15E2,1E1,3.8E1,2.34E2,6E0,2E0,1.58E2,2E0,1E0,1E0,3.4E1,5E0,9.3E1,9.68E2,2.2E2,9.5E1,4E0,6E0,1E0,3.7E1,3.2E1,2.02E2],"tree_param":{"num_deleted":"0","num_feature":"82","num_nodes":"41","size_leaf_vector":"1"}},{"base_weights":[2.566219E-2,-1.7653582E0,1.9852957E-1,-1.8088039E0,1.3290754E-1,3.0119824E-1,-3.250931E-1,-1.8792218E0,-6.649188E-1,8.015817E-1,1.4429042E-1,-4.0301892E-1,2.0574615E0,-8.918572E-1,-1.9134554E0,-1.01004004E-1,-1.1180137E0,2.6902434E-1,7.4468523E-1,1.3094285E-1,2.4528845E-1,-5.0252485E-1,1.3287175E0,2.3559003E-1,-5.5008292E-2,-7.3825024E-2,-1.813499E-2,-9.617122E-2,-1.1449314E-2,-1.6501876E-2,4.8011066E-3,-6.6211365E-2,-2.1736564E-3,7.409727E-2,2.6539758E-2,-2.0523618E-3,2.3352329E-2,-5.3212907E-2,-6.300099E-3,1.85616E-1,-1.171578E-2,2.1552717E-2,-2.029016E-2],"categories":[],"categories_nodes":[],"categories_segments":[],"categories_sizes":[],"default_left":[0,0,0,0,0,0,1,0,0,0,1,1,0,0,1,0,0,0,0,1,0,1,0,0,0,0,0,0,0,0,0,0,0,0,0,0,0,0,0,0,0,0,0],"id":8,"left_children":[1,3,5,7,-1,9,11,13,15,17,19,21,23,25,27,29,31,-1,33,35,-1,37,39,-1,41,-1,-1,-1,-1,-1,-1,-1,-1,-1,-1,-1,-1,-1,-1,-1,-1,-1,-1],"loss_changes":[5.7684247E2,3.632602E1,9.143555E1,1.1880127E1,0E0,1.11452835E2,5.2629036E1,3.4650269E0,2.6976523E0,8.431062E1,6.8186806E1,4.7365913E1,5.072409E1,1.6300521E0,2.0280762E0,3.024444E-1,1.2719398E0,0E0,5.2198105E1,6.2507996E1,0E0,5.4222794E1,5.6754593E1,0E0,1.197973E0,0E0,0E0,0E0,0E0,0E0,0E0,0E0,0E0,0E0,0E0,0E0,0E0,0E0,0E0,0E0,0E0,0E0,0E0],"parents":[2147483647,0,0,1,1,2,2,3,3,5,5,6,6,7,7,8,8,9,9,10,10,11,11,12,12,13,13,14,14,15,15,16,16,18,18,19,19,21,21,22,22,24,24],"right_children":[2,4,6,8,-1,10,12,14,16,18,20,22,24,26,28,30,32,-1,34,36,-1,38,40,-1,42,-1,-1,-1,-1,-1,-1,-1,-1,-1,-1,-1,-1,-1,-1,-1,-1,-1,-1],"split_conditions":[5E-1,1.8333334E0,1.3057286E3,2.3333333E0,1.3290754E-1,2.4285715E0,2.375E0,6.474992E2,8.4431067E2,4.958422E2,5E-1,2.02E0,1.1593766E3,5.576786E2,2.1686747E-3,7.435452E2,2.36E0,2.6902434E-1,7.172453E2,8.75E-5,2.4528845E-1,1.1933334E0,1.3225E0,2.3559003E-1,3.8666666E0,-7.3825024E-2,-1.813499E-2,-9.617122E-2,-1.1449314E-2,-1.6501876E-2,4.8011066E-3,-6.6211365E-2,-2.1736564E-3,7.409727E-2,2.6539758E-2,-2.0523618E-3,2.3352329E-2,-5.3212907E-2,-6.300099E-3,1.85616E-1,-1.171578E-2,2.1552717E-2,-2.029016E-2],"split_indices":[2,8,79,9,0,74,75,79,79,80,70,39,80,79,72,79,23,0,79,59,0,16,68,0,8,0,0,0,0,0,0,0,0,0,0,0,0,0,0,0,0,0,0],"split_type":[0,0,0,0,0,0,0,0,0,0,0,0,0,0,0,0,0,0,0,0,0,0,0,0,0,0,0,0,0,0,0,0,0,0,0,0,0,0,0,0,0,0,0],"sum_hessian":[1.861E3,1.63E2,1.698E3,1.62E2,1E0,1.42E3,2.78E2,1.52E2,1E1,3.38E2,1.082E3,2.7E2,8E0,6E0,1.46E2,5E0,5E0,3E0,3.35E2,1.08E3,2E0,2.56E2,1.4E1,3E0,5E0,2E0,4E0,1.45E2,1E0,2E0,3E0,4E0,1E0,7.4E1,2.61E2,7.15E2,3.65E2,1.02E2,1.54E2,5E0,9E0,2E0,3E0],"tree_param":{"num_deleted":"0","num_feature":"82","num_nodes":"43","size_leaf_vector":"1"}},{"base_weights":[1.994492E-2,-1.7725303E0,1.834646E-1,-1.8331288E0,9.581956E-1,3.2636556E-1,-1.9085753E-1,-1.8551669E0,-1.2752755E-1,7.7987455E-2,-2.1161616E-2,2.258506E-1,9.921222E-1,-5.4416823E-1,1.3150632E-1,-9.3708163E-1,-1.9006108E0,6.931603E-3,-1.649617E-2,6.9265354E-1,4.732342E-2,1.5888302E0,2.407452E-1,1.371034E0,-6.888753E-1,3.5023053E0,4.668841E-2,-7.610555E-2,9.357882E-2,-4.1862443E-2,-9.6277334E-2,2.2029613E-1,3.0658236E-2,1.1181805E-1,-1.0471499E-4,4.5471158E-2,1.5576339E-1,4.9010456E-2,-3.571081E-2,2.0451084E-1,6.189424E-3,-7.780774E-2,-2.1650244E-2,2.1920617E-1,-2.2669649E-2,3.2349277E-2,-1.3447652E-2],"categories":[],"categories_nodes":[],"categories_segments":[],"categories_sizes":[],"default_left":[0,1,0,0,0,1,1,0,0,0,0,1,0,0,0,0,0,0,0,0,0,0,0,0,0,0,0,0,0,0,0,0,0,0,0,0,0,0,0,0,0,0,0,0,0,0,0],"id":9,"left_children":[1,3,5,7,9,11,13,15,17,-1,-1,19,21,23,25,27,29,-1,-1,31,33,35,37,39,41,43,45,-1,-1,-1,-1,-1,-1,-1,-1,-1,-1,-1,-1,-1,-1,-1,-1,-1,-1,-1,-1],"loss_changes":[5.3993146E2,2.7240082E1,9.035509E1,5.4391785E0,3.9841466E0,8.155032E1,5.3260338E1,4.435486E0,2.0734677E-1,0E0,0E0,8.855447E1,7.135391E1,6.2747414E1,6.9883E1,1.7637074E1,2.1265564E0,0E0,0E0,8.407648E1,8.330116E1,8.9466354E1,5.154357E1,5.3757492E1,4.5483704E1,2.2916977E1,4.5648884E1,0E0,0E0,0E0,0E0,0E0,0E0,0E0,0E0,0E0,0E0,0E0,0E0,0E0,0E0,0E0,0E0,0E0,0E0,0E0,0E0],"parents":[2147483647,0,0,1,1,2,2,3,3,4,4,5,5,6,6,7,7,8,8,11,11,12,12,13,13,14,14,15,15,16,16,19,19,20,20,21,21,22,22,23,23,24,24,25,25,26,26],"right_children":[2,4,6,8,10,12,14,16,18,-1,-1,20,22,24,26,28,30,-1,-1,32,34,36,38,40,42,44,46,-1,-1,-1,-1,-1,-1,-1,-1,-1,-1,-1,-1,-1,-1,-1,-1,-1,-1,-1,-1],"split_conditions":[4.6666665E0,6E0,1.1860355E3,6.666667E-1,3.0333334E1,2.5E-3,3.2E0,6.474992E2,3.0333334E1,7.7987455E-2,-2.1161616E-2,2.439759E0,6.2E-1,1.75E0,2.6666667E0,1.25E-1,5E-1,6.931603E-3,-1.649617E-2,6.4793756E2,5.616207E2,1.0654465E3,3.9130435E0,2.5E0,1.229603E3,2.23E-3,1.2482605E3,-7.610555E-2,9.357882E-2,-4.1862443E-2,-9.6277334E-2,2.2029613E-1,3.0658236E-2,1.1181805E-1,-1.0471499E-4,4.5471158E-2,1.5576339E-1,4.9010456E-2,-3.571081E-2,2.0451084E-1,6.189424E-3,-7.780774E-2,-2.1650244E-2,2.1920617E-1,-2.2669649E-2,3.2349277E-2,-1.3447652E-2],"split_indices":[12,24,81,14,0,46,28,79,0,0,0,74,39,76,76,53,22,0,0,81,79,80,50,14,81,6,81,0,0,0,0,0,0,0,0,0,0,0,0,0,0,0,0,0,0,0,0],"split_type":[0,0,0,0,0,0,0,0,0,0,0,0,0,0,0,0,0,0,0,0,0,0,0,0,0,0,0,0,0,0,0,0,0,0,0,0,0,0,0,0,0,0,0,0,0,0,0],"sum_hessian":[1.84E3,1.53E2,1.687E3,1.5E2,3E0,1.221E3,4.66E2,1.48E2,2E0,2E0,1E0,1.062E3,1.59E2,2.22E2,2.44E2,8E0,1.4E2,1E0,1E0,2.93E2,7.69E2,8.8E1,7.1E1,1.5E1,2.07E2,5E0,2.39E2,7E0,1E0,4E0,1.36E2,5E0,2.88E2,1.6E1,7.53E2,6.2E1,2.6E1,4E1,3.1E1,4E0,1.1E1,4.6E1,1.61E2,4E0,1E0,8.2E1,1.57E2],"tree_param":{"num_deleted":"0","num_feature":"82","num_nodes":"47","size_leaf_vector":"1"}},{"base_weights":[3.5343315E-3,-1.5530106E0,1.5098469E-1,-1.6073709E0,1.7725675E-1,6.1062735E-1,1.2515669E-2,-4.386775E-1,-1.6745679E0,9.0375674E-1,-1.18520685E-1,-1.51083E-1,3.246793E-1,9.1239356E-2,-8.9292765E-1,-1.6974075E0,1.0368268E-2,-6.8160784E-1,1.1191983E0,1.6800746E-1,-2.1147104E-1,-4.617348E-1,1.4989592E-1,1.6424488E0,1.6203421E-1,-6.5211155E-2,-2.3495473E-2,-6.4339854E-2,-8.891983E-2,-7.7363255E-4,1.5512527E-3,-5.3401917E-2,8.866485E-2,4.618531E-2,1.24797575E-1,-2.2264395E-2,5.53796E-2,-8.9109264E-2,-1.938854E-2,2.6814258E-2,-1.9916078E-2,2.6378414E-1,6.0112864E-2,3.0834023E-2,-7.405584E-3],"categories":[],"categories_nodes":[],"categories_segments":[],"categories_sizes":[],"default_left":[0,0,0,0,0,0,1,0,0,0,0,0,0,0,0,0,0,0,0,0,0,0,1,0,0,0,0,0,0,0,0,0,0,0,0,0,0,0,0,0,0,0,0,0,0],"id":10,"left_children":[1,3,5,7,-1,9,11,13,15,17,19,21,23,-1,25,27,29,31,33,-1,35,37,39,41,43,-1,-1,-1,-1,-1,-1,-1,-1,-1,-1,-1,-1,-1,-1,-1,-1,-1,-1,-1,-1],"loss_changes":[4.2437473E2,5.004019E1,1.07490906E2,1.1752106E1,0E0,8.367738E1,6.63884E1,1.1911194E1,5.7900696E0,9.605626E1,3.7248398E1,7.982441E1,9.553881E1,0E0,9.530015E-1,2.6333008E0,2.0814105E-3,3.414806E1,6.3904022E1,0E0,3.4727722E1,4.0328568E1,9.21458E1,7.2023895E1,5.6352993E1,0E0,0E0,0E0,0E0,0E0,0E0,0E0,0E0,0E0,0E0,0E0,0E0,0E0,0E0,0E0,0E0,0E0,0E0,0E0,0E0],"parents":[2147483647,0,0,1,1,2,2,3,3,5,5,6,6,7,7,8,8,9,9,10,10,11,11,12,12,14,14,15,15,16,16,17,17,18,18,20,20,21,21,22,22,23,23,24,24],"right_children":[2,4,6,8,-1,10,12,14,16,18,20,22,24,-1,26,28,30,32,34,-1,36,38,40,42,44,-1,-1,-1,-1,-1,-1,-1,-1,-1,-1,-1,-1,-1,-1,-1,-1,-1,-1,-1,-1],"split_conditions":[5E-1,2.2366667E0,2.4E0,6.474992E2,1.7725675E-1,1.1178546E3,8.75E-5,1.2E0,6.3333335E0,1.5E0,-2E0,1E0,7.4839667E2,9.1239356E-2,2.4161074E0,7E0,6.7333336E1,1.01150726E3,2.375E0,1.6800746E-1,3.7425E-3,6.1E1,1.534E0,6.666667E-1,9.021382E2,-6.5211155E-2,-2.3495473E-2,-6.4339854E-2,-8.891983E-2,-7.7363255E-4,1.5512527E-3,-5.3401917E-2,8.866485E-2,4.618531E-2,1.24797575E-1,-2.2264395E-2,5.53796E-2,-8.9109264E-2,-1.938854E-2,2.6814258E-2,-1.9916078E-2,2.6378414E-1,6.0112864E-2,3.0834023E-2,-7.405584E-3],"split_indices":[2,16,74,79,0,79,59,74,9,24,9,78,80,0,48,77,0,79,74,0,72,0,49,53,79,0,0,0,0,0,0,0,0,0,0,0,0,0,0,0,0,0,0,0,0],"split_type":[0,0,0,0,0,0,0,0,0,0,0,0,0,0,0,0,0,0,0,0,0,0,0,0,0,0,0,0,0,0,0,0,0,0,0,0,0,0,0,0,0,0,0,0,0],"sum_hessian":[1.847E3,1.59E2,1.688E3,1.58E2,1E0,3.9E2,1.298E3,9E0,1.49E2,2.78E2,1.12E2,8.52E2,4.46E2,1E0,8E0,1.47E2,2E0,3.3E1,2.45E2,2E0,1.1E2,4.19E2,4.33E2,4.8E1,3.98E2,3E0,5E0,2.7E1,1.2E2,1E0,1E0,2.9E1,4E0,2.16E2,2.9E1,9.4E1,1.6E1,2.1E1,3.98E2,2.54E2,1.79E2,4E0,4.4E1,1.61E2,2.37E2],"tree_param":{"num_deleted":"0","num_feature":"82","num_nodes":"45","size_leaf_vector":"1"}},{"base_weights":[-1.9301992E-2,-1.5645014E0,1.1713074E-1,5.552687E-2,-1.589908E0,1.9638339E-1,-4.5191768E-1,-4.0386677E-2,-1.6214708E0,9.728252E-2,6.326492E-1,-3.280371E-1,-1.3880005E0,8.895837E-2,-6.199802E-2,-1.6308511E0,-6.533152E-3,9.7541744E-1,5.010117E-2,2.1324565E0,4.7477016E-1,-4.8490497E-1,1.2507102E0,-2.0611656E-1,-1.547026E0,-8.205836E-2,-2.9774878E-2,-4.7262013E-2,7.2764E-2,1.8496236E-2,-5.535319E-3,6.682738E-2,2.281364E-1,8.6842105E-2,1.5425761E-2,-1.3871531E-2,-5.9642233E-2,1.3518076E-1,-1.7058117E-2,-1.9608868E-2,-6.685257E-4,-2.948661E-2,-8.3690606E-2],"categories":[],"categories_nodes":[],"categories_segments":[],"categories_sizes":[],"default_left":[0,0,1,0,0,1,0,0,1,0,0,0,0,0,0,1,0,0,0,0,0,0,0,0,0,0,0,0,0,0,0,0,0,0,0,0,0,0,0,0,0,0,0],"id":11,"left_children":[1,3,5,-1,7,9,11,13,15,17,19,21,23,-1,-1,25,-1,27,29,31,33,35,37,39,41,-1,-1,-1,-1,-1,-1,-1,-1,-1,-1,-1,-1,-1,-1,-1,-1,-1,-1],"loss_changes":[3.8977084E2,1.1960175E1,7.671126E1,0E0,7.22171E0,6.444406E1,2.3664883E1,1.0936854E1,1.8285828E0,5.0373383E1,6.434109E1,4.64226E1,4.191925E0,0E0,0E0,5.7144165E-1,0E0,5.851801E1,5.9494076E1,4.4192833E1,5.213042E1,2.4491669E1,4.024063E1,1.3820632E-1,1.5617027E0,0E0,0E0,0E0,0E0,0E0,0E0,0E0,0E0,0E0,0E0,0E0,0E0,0E0,0E0,0E0,0E0,0E0,0E0],"parents":[2147483647,0,0,1,1,2,2,4,4,5,5,6,6,7,7,8,8,9,9,10,10,11,11,12,12,15,15,17,17,18,18,19,19,20,20,21,21,22,22,23,23,24,24],"right_children":[2,4,6,-1,8,10,12,14,16,18,20,22,24,-1,-1,26,-1,28,30,32,34,36,38,40,42,-1,-1,-1,-1,-1,-1,-1,-1,-1,-1,-1,-1,-1,-1,-1,-1,-1,-1],"split_conditions":[2.3333334E1,1.21E0,1.96125E0,5.552687E-2,1.1428572E0,6.466667E-4,5.76E0,8.9352136E2,2.1686747E-3,1.9325154E0,8E0,2.5483334E0,6.897921E2,8.895837E-2,-6.199802E-2,8.666667E0,-6.533152E-3,1.5125E0,9.8E-1,3.5714285E0,1.0275E-3,1.25E-2,2.735E0,1E1,2.082E0,-8.205836E-2,-2.9774878E-2,-4.7262013E-2,7.2764E-2,1.8496236E-2,-5.535319E-3,6.682738E-2,2.281364E-1,8.6842105E-2,1.5425761E-2,-1.3871531E-2,-5.9642233E-2,1.3518076E-1,-1.7058117E-2,-1.9608868E-2,-6.685257E-4,-2.948661E-2,-8.3690606E-2],"split_indices":[0,23,68,0,76,6,22,80,72,76,9,75,80,0,0,76,0,60,23,54,72,65,42,9,42,0,0,0,0,0,0,0,0,0,0,0,0,0,0,0,0,0,0],"split_type":[0,0,0,0,0,0,0,0,0,0,0,0,0,0,0,0,0,0,0,0,0,0,0,0,0,0,0,0,0,0,0,0,0,0,0,0,0,0,0,0,0,0,0],"sum_hessian":[1.847E3,1.49E2,1.698E3,1E0,1.48E2,1.491E3,2.07E2,3E0,1.45E2,1.216E3,2.75E2,1.84E2,2.3E1,1E0,2E0,1.44E2,1E0,6.1E1,1.155E3,2.5E1,2.5E2,1.68E2,1.6E1,3E0,2E1,1.42E2,2E0,1.2E1,4.9E1,3.86E2,7.69E2,2E1,5E0,2.8E1,2.22E2,1.31E2,3.7E1,8E0,8E0,1E0,2E0,3E0,1.7E1],"tree_param":{"num_deleted":"0","num_feature":"82","num_nodes":"43","size_leaf_vector":"1"}},{"base_weights":[6.1619882E-3,-1.3662226E0,1.598325E-1,-1.4961388E0,-2.066158E-1,5.073489E-1,5.212967E-2,7.845849E-2,-1.5238901E0,2.2156425E0,-9.50658E-1,4.27748E-1,3.5292103E0,-4.520319E-1,1.3695456E-1,-1.5459027E0,1.9476509E-1,1.4722745E-1,-1.7499585E-2,-1.7330002E0,6.42079E-1,1.1933029E0,1.7721558E-1,4.040179E0,-2.6737655E-2,4.496351E-1,-6.7439437E-1,6.8348396E-1,3.8348988E-2,-2.2423206E-2,-7.8869745E-2,1.3965661E-2,6.417215E-4,-1.9417198E-2,-9.943317E-2,-1.752697E-2,8.7577194E-2,5.0934076E-2,2.4556337E-1,1.3950852E-2,-7.429927E-2,7.4439816E-2,2.891763E-1,-1.2501448E-2,1.3270745E-1,-6.6538514E-3,-5.3702023E-2,4.1362938E-2,-5.4166485E-2,1.9753377E-1,1.2809453E-3],"categories":[],"categories_nodes":[],"categories_segments":[],"categories_sizes":[],"default_left":[0,1,0,0,0,1,1,0,1,0,0,1,0,0,0,0,0,0,0,0,0,1,0,0,0,0,1,0,0,0,0,0,0,0,0,0,0,0,0,0,0,0,0,0,0,0,0,0,0,0,0],"id":12,"left_children":[1,3,5,7,9,11,13,-1,15,17,19,21,23,25,27,29,31,-1,-1,33,35,37,39,41,-1,43,45,47,49,-1,-1,-1,-1,-1,-1,-1,-1,-1,-1,-1,-1,-1,-1,-1,-1,-1,-1,-1,-1,-1,-1],"loss_changes":[3.916396E2,2.7862732E1,6.2479156E1,1.6682404E1,3.8151566E1,9.350489E1,5.463062E1,0E0,6.619049E0,1.03811035E1,2.1049767E1,7.3821915E1,2.2926064E1,3.719466E1,5.887648E1,4.9950867E0,4.256086E-2,0E0,0E0,3.009285E0,7.221636E0,5.6674377E1,4.9854965E1,3.142099E1,0E0,5.7733124E1,3.187471E1,4.3318085E1,4.606732E1,0E0,0E0,0E0,0E0,0E0,0E0,0E0,0E0,0E0,0E0,0E0,0E0,0E0,0E0,0E0,0E0,0E0,0E0,0E0,0E0,0E0,0E0],"parents":[2147483647,0,0,1,1,2,2,3,3,4,4,5,5,6,6,8,8,9,9,10,10,11,11,12,12,13,13,14,14,15,15,16,16,19,19,20,20,21,21,22,22,23,23,25,25,26,26,27,27,28,28],"right_children":[2,4,6,8,10,12,14,-1,16,18,20,22,24,26,28,30,32,-1,-1,34,36,38,40,42,-1,44,46,48,50,-1,-1,-1,-1,-1,-1,-1,-1,-1,-1,-1,-1,-1,-1,-1,-1,-1,-1,-1,-1,-1,-1],"split_conditions":[6E1,4E0,7.5605725E2,-2.6666667E0,4.125E0,3.3333334E-1,1.6666666E0,7.845849E-2,5E0,3.3333334E-1,9.4097334E-1,1.9375E0,4.6666665E0,1.05E1,2.3746703E0,1E0,7.3333335E-1,1.4722745E-1,-1.7499585E-2,5.4E-1,4.7333333E-1,7.5E-1,3.88E0,1.9E1,-2.6737655E-2,1.3E0,6.2E-1,1.25E-1,4.477612E-1,-2.2423206E-2,-7.8869745E-2,1.3965661E-2,6.417215E-4,-1.9417198E-2,-9.943317E-2,-1.752697E-2,8.7577194E-2,5.0934076E-2,2.4556337E-1,1.3950852E-2,-7.429927E-2,7.4439816E-2,2.891763E-1,-1.2501448E-2,1.3270745E-1,-6.6538514E-3,-5.3702023E-2,4.1362938E-2,-5.4166485E-2,1.9753377E-1,1.2809453E-3],"split_indices":[0,76,79,9,76,4,14,0,50,10,75,60,8,9,48,24,8,0,0,23,16,67,34,9,0,8,68,56,24,0,0,0,0,0,0,0,0,0,0,0,0,0,0,0,0,0,0,0,0,0,0],"split_type":[0,0,0,0,0,0,0,0,0,0,0,0,0,0,0,0,0,0,0,0,0,0,0,0,0,0,0,0,0,0,0,0,0,0,0,0,0,0,0,0,0,0,0,0,0,0,0,0,0,0,0],"sum_hessian":[1.855E3,1.86E2,1.669E3,1.67E2,1.9E1,3.94E2,1.275E3,1E0,1.66E2,4E0,1.5E1,3.85E2,9E0,1.83E2,1.092E3,1.64E2,2E0,3E0,1E0,1E1,5E0,9.4E1,2.91E2,8E0,1E0,3.6E1,1.47E2,1.66E2,9.26E2,5E0,1.59E2,1E0,1E0,2E0,8E0,3E0,2E0,9.1E1,3E0,2.75E2,1.6E1,4E0,4E0,2.8E1,8E0,6.3E1,8.4E1,1.54E2,1.2E1,2E0,9.24E2],"tree_param":{"num_deleted":"0","num_feature":"82","num_nodes":"51","size_leaf_vector":"1"}},{"base_weights":[6.996248E-2,-1.1389843E0,2.3601234E-1,-1.2374175E0,2.11734E0,3.430798E-1,-2.3932639E-1,1.9504984E-1,-1.3816395E0,1.9577475E-1,-7.926824E-2,5.1868254E-1,5.9744418E-2,-4.36094E-1,7.1884215E-1,-1.1860213E0,1.1361723E0,-1.4421803E0,8.1620985E-1,5.636962E-1,-1.0146385E0,-2.4808738E-2,1.7905947E0,-5.2225584E-1,7.856873E-1,2.6513436E0,1.9559555E-1,-3.8433832E-3,-7.459707E-2,1.485803E-1,-4.3078594E-2,-7.356292E-2,4.5462262E-2,1.3986886E-1,-4.368591E-2,2.3475094E-2,8.151441E-2,-7.469137E-2,1.8125486E-2,6.826072E-2,-4.3300213E-3,2.3537031E-1,3.876273E-2,1.494476E-1,-2.7495805E-2,4.0277033E-3,1.032503E-1,-2.827268E-2,1.9641621E-1,-2.83261E-2,9.696413E-2],"categories":[],"categories_nodes":[],"categories_segments":[],"categories_sizes":[],"default_left":[0,1,0,0,0,1,0,0,1,0,0,1,0,1,0,0,0,1,0,1,0,0,0,0,0,0,1,0,0,0,0,0,0,0,0,0,0,0,0,0,0,0,0,0,0,0,0,0,0,0,0],"id":13,"left_children":[1,3,5,7,9,11,13,15,17,-1,-1,19,21,23,25,27,29,31,33,35,37,39,41,43,45,47,49,-1,-1,-1,-1,-1,-1,-1,-1,-1,-1,-1,-1,-1,-1,-1,-1,-1,-1,-1,-1,-1,-1,-1,-1],"loss_changes":[3.756628E2,7.5059814E1,8.3801605E1,4.572003E1,5.2813747E1,6.678926E1,5.7440056E1,2.8642424E1,2.7789032E1,0E0,0E0,5.7789886E1,7.541408E1,2.6938599E1,5.2062492E1,2.939128E0,5.0227703E1,1.4670929E1,2.25323E1,8.021088E1,1.6379461E1,4.2377026E1,6.742789E1,2.4564209E1,1.5169189E1,4.740695E1,5.6912216E1,0E0,0E0,0E0,0E0,0E0,0E0,0E0,0E0,0E0,0E0,0E0,0E0,0E0,0E0,0E0,0E0,0E0,0E0,0E0,0E0,0E0,0E0,0E0,0E0],"parents":[2147483647,0,0,1,1,2,2,3,3,4,4,5,5,6,6,7,7,8,8,11,11,12,12,13,13,14,14,15,15,16,16,17,17,18,18,19,19,20,20,21,21,22,22,23,23,24,24,25,25,26,26],"right_children":[2,4,6,8,10,12,14,16,18,-1,-1,20,22,24,26,28,30,32,34,36,38,40,42,44,46,48,50,-1,-1,-1,-1,-1,-1,-1,-1,-1,-1,-1,-1,-1,-1,-1,-1,-1,-1,-1,-1,-1,-1,-1,-1],"split_conditions":[6.1333332E1,3.3333334E-1,1.2557068E3,5.9E-1,1.241517E3,1.47E0,1.7391978E3,5.177778E-1,2.735E0,1.9577475E-1,-7.926824E-2,7.3333335E0,7.142857E-3,3.3333333E0,2.2222223E0,3.0333334E1,2.5E0,8E0,3.0766666E0,2.4E1,8.2E0,1.0933334E0,2E-2,2.6E0,1.59875E0,1.32E1,9.8E-4,-3.8433832E-3,-7.459707E-2,1.485803E-1,-4.3078594E-2,-7.356292E-2,4.5462262E-2,1.3986886E-1,-4.368591E-2,2.3475094E-2,8.151441E-2,-7.469137E-2,1.8125486E-2,6.826072E-2,-4.3300213E-3,2.3537031E-1,3.876273E-2,1.494476E-1,-2.7495805E-2,4.0277033E-3,1.032503E-1,-2.827268E-2,1.9641621E-1,-2.83261E-2,9.696413E-2],"split_indices":[0,70,81,23,81,68,79,49,49,0,0,2,72,13,50,0,2,24,23,9,50,16,65,35,68,35,72,0,0,0,0,0,0,0,0,0,0,0,0,0,0,0,0,0,0,0,0,0,0,0,0],"split_type":[0,0,0,0,0,0,0,0,0,0,0,0,0,0,0,0,0,0,0,0,0,0,0,0,0,0,0,0,0,0,0,0,0,0,0,0,0,0,0,0,0,0,0,0,0,0,0,0,0,0,0],"sum_hessian":[1.869E3,2.25E2,1.644E3,2.19E2,6E0,1.342E3,3.02E2,2E1,1.99E2,4E0,2E0,8.28E2,5.14E2,2.51E2,5.1E1,8E0,1.2E1,1.94E2,5E0,8.05E2,2.3E1,4.91E2,2.3E1,2.35E2,1.6E1,1E1,4.1E1,2E0,6E0,6E0,6E0,1.92E2,2E0,2E0,3E0,7.41E2,6.4E1,1.7E1,6E0,2E1,4.71E2,5E0,1.8E1,1E0,2.34E2,1.1E1,5E0,3E0,7E0,2.9E1,1.2E1],"tree_param":{"num_deleted":"0","num_feature":"82","num_nodes":"51","size_leaf_vector":"1"}},{"base_weights":[1.1030391E-2,-1.0221541E0,1.6188124E-1,-1.1910374E0,4.007033E-1,4.4119957E-1,-3.3025276E-2,6.009449E-1,-1.2548472E0,-2.249059E-1,1.8364372E0,5.6074774E-1,-2.7077818E-1,-9.932799E-2,1.0609672E0,2.0136123E0,-6.575628E-2,-1.2829224E0,1.1251434E-1,-7.1005356E-1,1.2755183E0,2.2168164E-1,2.317665E-1,4.981647E-1,2.581958E0,-4.6648136E-1,3.4234564E0,1.4154781E0,-1.4919153E-1,3.1139257E0,2.8400764E-1,3.3100606E-3,1.2419575E-1,-6.571159E-2,3.0946547E-2,-6.721923E-2,2.3275346E-2,-3.7152728E-3,1.1000847E-1,-6.1789174E-2,6.372436E-2,2.2077372E-2,1.1942389E-1,1.6633113E-1,6.4719366E-3,2.720104E-2,-4.5507208E-2,2.2655375E-1,-2.517547E-2,2.2682737E-1,2.020225E-2,-3.8635635E-3,-3.3930533E-2,-5.9468816E-3,2.1501625E-1,1.4199404E-1,-7.493015E-3],"categories":[],"categories_nodes":[],"categories_segments":[],"categories_sizes":[],"default_left":[0,0,0,0,0,0,1,0,0,1,0,0,1,0,0,0,0,1,0,0,0,0,0,0,0,0,0,0,1,0,0,0,0,0,0,0,0,0,0,0,0,0,0,0,0,0,0,0,0,0,0,0,0,0,0,0,0],"id":14,"left_children":[1,3,5,7,9,11,13,15,17,19,21,23,25,27,29,31,-1,33,-1,35,37,-1,39,41,43,45,47,49,51,53,55,-1,-1,-1,-1,-1,-1,-1,-1,-1,-1,-1,-1,-1,-1,-1,-1,-1,-1,-1,-1,-1,-1,-1,-1,-1,-1],"loss_changes":[2.9115005E2,5.766794E1,8.875333E1,2.5109802E1,2.3766445E1,5.717932E1,6.98112E1,2.4302319E1,2.3158844E1,1.4736305E1,3.2313583E1,7.1320984E1,7.17254E1,6.8720146E1,8.684424E1,4.4149227E0,0E0,1.3020294E1,0E0,1.1811235E1,6.404064E0,0E0,1.0756459E1,5.8664948E1,3.061657E1,4.2189106E1,2.4029339E1,8.9712875E1,3.3416332E1,5.804344E1,4.5890945E1,0E0,0E0,0E0,0E0,0E0,0E0,0E0,0E0,0E0,0E0,0E0,0E0,0E0,0E0,0E0,0E0,0E0,0E0,0E0,0E0,0E0,0E0,0E0,0E0,0E0,0E0],"parents":[2147483647,0,0,1,1,2,2,3,3,4,4,5,5,6,6,7,7,8,8,9,9,10,10,11,11,12,12,13,13,14,14,15,15,17,17,19,19,20,20,22,22,23,23,24,24,25,25,26,26,27,27,28,28,29,29,30,30],"right_children":[2,4,6,8,10,12,14,16,18,20,22,24,26,28,30,32,-1,34,-1,36,38,-1,40,42,44,46,48,50,52,54,56,-1,-1,-1,-1,-1,-1,-1,-1,-1,-1,-1,-1,-1,-1,-1,-1,-1,-1,-1,-1,-1,-1,-1,-1,-1,-1],"split_conditions":[1.3333334E0,2E-1,8.9037384E2,6.401493E2,1.3866667E0,3.5333333E0,2.02E0,2.4161074E0,2.7933333E0,2E0,1.904E0,3.3533333E1,6E0,1.75E0,2.06E0,5E-1,-6.575628E-2,3.9852397E0,1.1251434E-1,9.458321E2,4.6666665E0,2.2168164E-1,8.5E0,8E-1,7.909736E2,3.2459016E0,6.6666666E-6,1.425E0,1.99875E0,2.8571428E-3,7.164862E2,3.3100606E-3,1.2419575E-1,-6.571159E-2,3.0946547E-2,-6.721923E-2,2.3275346E-2,-3.7152728E-3,1.1000847E-1,-6.1789174E-2,6.372436E-2,2.2077372E-2,1.1942389E-1,1.6633113E-1,6.4719366E-3,2.720104E-2,-4.5507208E-2,2.2655375E-1,-2.517547E-2,2.2682737E-1,2.020225E-2,-3.8635635E-3,-3.3930533E-2,-5.9468816E-3,2.1501625E-1,1.4199404E-1,-7.493015E-3],"split_indices":[2,67,79,80,16,8,39,48,16,24,49,12,66,76,39,2,0,50,0,79,9,0,35,41,79,50,6,75,75,58,80,0,0,0,0,0,0,0,0,0,0,0,0,0,0,0,0,0,0,0,0,0,0,0,0,0,0],"split_type":[0,0,0,0,0,0,0,0,0,0,0,0,0,0,0,0,0,0,0,0,0,0,0,0,0,0,0,0,0,0,0,0,0,0,0,0,0,0,0,0,0,0,0,0,0,0,0,0,0,0,0,0,0,0,0,0,0],"sum_hessian":[1.866E3,2.37E2,1.629E3,2.12E2,2.5E1,6.69E2,9.6E2,7E0,2.05E2,1.8E1,7E0,5.73E2,9.6E1,9.06E2,5.4E1,4E0,3E0,2.04E2,1E0,1.4E1,4E0,2E0,5E0,5.57E2,1.6E1,9.2E1,4E0,2.8E1,8.78E2,1.4E1,4E1,1E0,3E0,2.01E2,3E0,9E0,5E0,2E0,2E0,2E0,3E0,5.42E2,1.5E1,1.2E1,4E0,2.8E1,6.4E1,3E0,1E0,6E0,2.2E1,7.74E2,1.04E2,4E0,1E1,5E0,3.5E1],"tree_param":{"num_deleted":"0","num_feature":"82","num_nodes":"57","size_leaf_vector":"1"}},{"base_weights":[-4.626409E-3,-1.2898282E0,1.2299035E-1,-1.3400104E0,9.6679755E-2,4.3873724E-1,-2.8390738E-3,-1.3816066E0,1.3944443E0,5.862482E-1,-7.2518945E-1,2.2939918E0,-2.18345E-2,-1.4059955E0,4.0406165E-1,1.4205301E-2,9.037803E-2,5.075194E-1,3.8499777E0,-1.0109555E0,1.378771E0,4.6847105E0,-5.1683456E-2,8.4774673E-1,-7.278822E-2,-7.057023E-2,-1.3242811E-2,-2.2362024E-2,5.2666645E-2,1.9059293E-2,9.058847E-2,2.4807917E-1,-1.9881455E-2,-1.6160501E-2,-7.178769E-2,-2.3736529E-2,2.004175E-1,6.478109E-2,2.551702E-1,1.4054172E-1,1.1370844E-2,-4.5210384E-2,-4.2617306E-4],"categories":[],"categories_nodes":[],"categories_segments":[],"categories_sizes":[],"default_left":[0,1,0,0,0,0,0,1,0,0,1,0,0,0,0,0,0,0,0,1,0,0,0,0,0,0,0,0,0,0,0,0,0,0,0,0,0,0,0,0,0,0,0],"id":15,"left_children":[1,3,5,7,-1,9,11,13,15,17,19,21,23,25,27,-1,-1,29,31,33,35,37,-1,39,41,-1,-1,-1,-1,-1,-1,-1,-1,-1,-1,-1,-1,-1,-1,-1,-1,-1,-1],"loss_changes":[3.0686346E2,2.9928253E1,6.762213E1,2.09216E1,0E0,8.369574E1,5.319055E1,7.7539673E0,8.6255693E-1,1.0879129E2,3.446209E1,8.439747E1,5.363056E1,6.322937E-1,2.1292713E0,0E0,0E0,6.884255E1,4.918947E1,1.3851456E1,3.6020386E1,1.9018402E0,0E0,8.095081E1,6.1063896E1,0E0,0E0,0E0,0E0,0E0,0E0,0E0,0E0,0E0,0E0,0E0,0E0,0E0,0E0,0E0,0E0,0E0,0E0],"parents":[2147483647,0,0,1,1,2,2,3,3,5,5,6,6,7,7,8,8,9,9,10,10,11,11,12,12,13,13,14,14,17,17,18,18,19,19,20,20,21,21,23,23,24,24],"right_children":[2,4,6,8,-1,10,12,14,16,18,20,22,24,26,28,-1,-1,30,32,34,36,38,-1,40,42,-1,-1,-1,-1,-1,-1,-1,-1,-1,-1,-1,-1,-1,-1,-1,-1,-1,-1],"split_conditions":[5.6666666E-1,2.1686747E-3,7.909736E2,6.6666666E-6,9.6679755E-2,3.3875E1,3E0,1.5E1,5E-1,3.2375E1,2.8571428E-3,2.4E0,6.066667E-1,1.3E1,5E-2,1.4205301E-2,9.037803E-2,2.175E1,2.45E1,1.6333334E1,7.118748E2,1.575E0,-5.1683456E-2,9.1782916E2,1E0,-7.057023E-2,-1.3242811E-2,-2.2362024E-2,5.2666645E-2,1.9059293E-2,9.058847E-2,2.4807917E-1,-1.9881455E-2,-1.6160501E-2,-7.178769E-2,-2.3736529E-2,2.004175E-1,6.478109E-2,2.551702E-1,1.4054172E-1,1.1370844E-2,-4.5210384E-2,-4.2617306E-4],"split_indices":[8,72,79,7,0,64,35,50,1,64,58,22,23,9,8,0,0,61,9,9,79,60,0,80,27,0,0,0,0,0,0,0,0,0,0,0,0,0,0,0,0,0,0],"split_type":[0,0,0,0,0,0,0,0,0,0,0,0,0,0,0,0,0,0,0,0,0,0,0,0,0,0,0,0,0,0,0,0,0,0,0,0,0,0,0,0,0,0,0],"sum_hessian":[1.869E3,1.68E2,1.701E3,1.66E2,2E0,4.84E2,1.217E3,1.64E2,2E0,4.3E2,5.4E1,9E0,1.208E3,1.62E2,2E0,1E0,1E0,4.21E2,9E0,4.8E1,6E0,5E0,4E0,6.6E1,1.142E3,1.61E2,1E0,1E0,1E0,3.85E2,3.6E1,7E0,2E0,1.9E1,2.9E1,4E0,2E0,1E0,4E0,1.5E1,5.1E1,8.1E1,1.061E3],"tree_param":{"num_deleted":"0","num_feature":"82","num_nodes":"43","size_leaf_vector":"1"}},{"base_weights":[-1.2782505E-2,-1.1898655E0,1.0789733E-1,1.7070591E-2,-1.2570229E0,2.634178E-1,-2.0615105E-1,-6.913494E-1,9.5025025E-2,-1.2729702E0,1.2512366E-2,4.3896648E-1,-1.9238813E-1,-2.9252228E-1,1.1637148E0,4.346789E-1,-7.2695106E-2,-9.7533405E-1,-1.342629E0,1.385017E-2,-1.29117435E-2,1.1888484E0,3.2371458E-1,-3.1273428E-1,1.6736017E0,-5.3278893E-1,2.1007143E-2,-2.2349632E-1,2.0765767E0,-3.9968126E-2,5.562401E-2,1.1408738E-1,-5.715887E-2,-6.750869E-2,-9.799681E-3,1.0215711E-1,1.7200226E-2,1.48177715E-2,2.5050583E-1,-1.9409692E-2,9.307954E-2,4.0827196E-2,2.3417163E-1,-1.3720587E-2,-6.0029652E-2,4.4140052E-2,-1.8442756E-2,3.241409E-2,-7.46957E-2,1.9387914E-1,1.2525948E-2],"categories":[],"categories_nodes":[],"categories_segments":[],"categories_sizes":[],"default_left":[0,0,0,0,0,0,1,0,0,0,0,0,1,1,0,0,0,0,0,0,0,0,0,1,0,1,0,0,0,0,0,0,0,0,0,0,0,0,0,0,0,0,0,0,0,0,0,0,0,0,0],"id":16,"left_children":[1,3,5,7,9,11,13,15,-1,17,19,21,23,25,27,29,-1,31,33,-1,-1,35,37,39,41,43,45,47,49,-1,-1,-1,-1,-1,-1,-1,-1,-1,-1,-1,-1,-1,-1,-1,-1,-1,-1,-1,-1,-1,-1],"loss_changes":[2.6121658E2,1.388179E1,8.152101E1,1.4656502E1,3.2957306E0,8.9382454E1,6.576972E1,7.501229E0,0E0,2.007782E0,2.863626E-1,6.927396E1,7.0363014E1,3.9258472E1,4.225308E1,4.235014E0,0E0,2.1195538E1,8.3406067E-1,0E0,0E0,7.6523834E1,8.826639E1,4.8796223E1,4.518815E1,5.057141E1,7.6593285E1,1.647379E1,6.4803406E1,0E0,0E0,0E0,0E0,0E0,0E0,0E0,0E0,0E0,0E0,0E0,0E0,0E0,0E0,0E0,0E0,0E0,0E0,0E0,0E0,0E0,0E0],"parents":[2147483647,0,0,1,1,2,2,3,3,4,4,5,5,6,6,7,7,9,9,10,10,11,11,12,12,13,13,14,14,15,15,17,17,18,18,21,21,22,22,23,23,24,24,25,25,26,26,27,27,28,28],"right_children":[2,4,6,8,10,12,14,16,-1,18,20,22,24,26,28,30,-1,32,34,-1,-1,36,38,40,42,44,46,48,50,-1,-1,-1,-1,-1,-1,-1,-1,-1,-1,-1,-1,-1,-1,-1,-1,-1,-1,-1,-1,-1,-1],"split_conditions":[4.6666667E-1,6.474992E2,1.158135E3,1.25E-1,6.666667E-1,3.6666667E0,6E0,8.3512494E2,9.5025025E-2,7E0,3.0333334E1,6.918551E2,6.762E-3,3.125E0,2.6333334E0,5.576786E2,-7.2695106E-2,7.1901483E2,9.4E-1,1.385017E-2,-1.29117435E-2,2E-1,4.5E0,4.38E0,1.1040931E3,2.8366761E0,3.3488371E0,7.76E-1,3.25E0,-3.9968126E-2,5.562401E-2,1.1408738E-1,-5.715887E-2,-6.750869E-2,-9.799681E-3,1.0215711E-1,1.7200226E-2,1.48177715E-2,2.5050583E-1,-1.9409692E-2,9.307954E-2,4.0827196E-2,2.3417163E-1,-1.3720587E-2,-6.0029652E-2,4.4140052E-2,-1.8442756E-2,3.241409E-2,-7.46957E-2,1.9387914E-1,1.2525948E-2],"split_indices":[8,79,81,53,14,66,50,80,0,77,0,79,46,66,8,79,0,79,42,0,0,36,40,60,80,48,22,42,8,0,0,0,0,0,0,0,0,0,0,0,0,0,0,0,0,0,0,0,0,0,0],"split_type":[0,0,0,0,0,0,0,0,0,0,0,0,0,0,0,0,0,0,0,0,0,0,0,0,0,0,0,0,0,0,0,0,0,0,0,0,0,0,0,0,0,0,0,0,0,0,0,0,0,0,0],"sum_hessian":[1.837E3,1.7E2,1.667E3,9E0,1.61E2,1.115E3,5.52E2,7E0,2E0,1.59E2,2E0,8.05E2,3.1E2,5.2E2,3.2E1,3E0,4E0,3.3E1,1.26E2,1E0,1E0,1.06E2,6.99E2,2.92E2,1.8E1,2.94E2,2.26E2,1.3E1,1.9E1,1E0,2E0,1E0,3.2E1,1.25E2,1E0,5.2E1,5.4E1,6.96E2,3E0,2.83E2,9E0,1.5E1,3E0,2.13E2,8.1E1,7E1,1.56E2,8E0,5E0,9E0,1E1],"tree_param":{"num_deleted":"0","num_feature":"82","num_nodes":"51","size_leaf_vector":"1"}},{"base_weights":[-2.2735395E-2,-1.003257E0,1.12002164E-1,-1.1314294E0,1.5698318E0,3.5946438E-1,-4.012871E-2,-1.1817712E0,1.1991408E0,8.539319E-2,3.3340795E0,4.2726517E-1,-8.9548934E-1,-7.484591E-2,1.5918374E0,2.6833495E-2,-1.2490513E0,1.3713118E-1,-3.720278E-2,-1.1300592E0,1.2794973E0,-2.0374E-2,2.1856697E-1,4.777061E-1,-1.4027029E0,-1.2843993E0,4.3179062E-1,2.0439003E0,-9.426705E-2,3.922559E0,1.4629374E-1,-4.147924E-2,9.7353324E-2,-5.6383837E-2,-1.0043094E-1,-1.7257959E-2,-6.383198E-2,7.244468E-2,1.9282712E-2,2.1722926E-2,1.9531709E-1,6.1520845E-2,-8.301361E-2,-8.627216E-3,-7.439824E-2,-2.9808069E-2,4.3690078E-2,2.1120372E-1,-2.7252702E-2,-2.7185464E-3,-5.1423587E-2,3.3180512E-2,2.4491368E-1,1.8771324E-1,-5.8949757E-2],"categories":[],"categories_nodes":[],"categories_segments":[],"categories_sizes":[],"default_left":[0,1,0,1,0,0,1,0,0,0,0,0,0,0,0,0,0,0,0,0,0,0,0,0,0,0,0,0,1,0,0,0,0,0,0,0,0,0,0,0,0,0,0,0,0,0,0,0,0,0,0,0,0,0,0],"id":17,"left_children":[1,3,5,7,9,11,13,15,17,19,21,23,25,27,29,31,33,-1,-1,35,37,-1,-1,39,41,43,45,47,49,51,53,-1,-1,-1,-1,-1,-1,-1,-1,-1,-1,-1,-1,-1,-1,-1,-1,-1,-1,-1,-1,-1,-1,-1,-1],"loss_changes":[2.4386102E2,7.5321304E1,6.111493E1,2.6407349E1,2.8523386E1,5.296627E1,5.7116375E1,1.7028381E1,1.7037113E1,1.1605544E1,2.1186077E1,5.4853325E1,1.7072754E1,4.0765045E1,7.017851E1,2.134953E1,1.5988953E1,0E0,0E0,1.9559383E-2,4.6883106E-2,0E0,0E0,8.311922E1,1.289419E1,5.401642E0,4.155854E0,5.310169E1,3.6395256E1,2.2187897E1,7.1368706E1,0E0,0E0,0E0,0E0,0E0,0E0,0E0,0E0,0E0,0E0,0E0,0E0,0E0,0E0,0E0,0E0,0E0,0E0,0E0,0E0,0E0,0E0,0E0,0E0],"parents":[2147483647,0,0,1,1,2,2,3,3,4,4,5,5,6,6,7,7,8,8,9,9,10,10,11,11,12,12,13,13,14,14,15,15,16,16,19,19,20,20,23,23,24,24,25,25,26,26,27,27,28,28,29,29,30,30],"right_children":[2,4,6,8,10,12,14,16,18,20,22,24,26,28,30,32,34,-1,-1,36,38,-1,-1,40,42,44,46,48,50,52,54,-1,-1,-1,-1,-1,-1,-1,-1,-1,-1,-1,-1,-1,-1,-1,-1,-1,-1,-1,-1,-1,-1,-1,-1],"split_conditions":[6.1333332E1,6.5E0,1.20375E0,2.735E0,1.0578762E3,3.8533333E1,1.4E-2,6.2068963E-1,3.0766666E0,1E0,6E0,1.46E0,1.04875E0,7.5E-1,7.766667E-3,2.5E-6,5E-1,1.3713118E-1,-3.720278E-2,4.3333334E-1,1.45E1,-2.0374E-2,2.1856697E-1,1.41712E0,5.604858E2,2.94E0,1.0266666E0,2.125E0,5.5E0,4.2E0,8.85373E2,-4.147924E-2,9.7353324E-2,-5.6383837E-2,-1.0043094E-1,-1.7257959E-2,-6.383198E-2,7.244468E-2,1.9282712E-2,2.1722926E-2,1.9531709E-1,6.1520845E-2,-8.301361E-2,-8.627216E-3,-7.439824E-2,-2.9808069E-2,4.3690078E-2,2.1120372E-1,-2.7252702E-2,-2.7185464E-3,-5.1423587E-2,3.3180512E-2,2.4491368E-1,1.8771324E-1,-5.8949757E-2],"split_indices":[0,50,68,49,79,12,46,22,23,78,0,42,68,27,6,58,1,0,0,8,9,0,0,42,79,34,16,54,28,28,81,0,0,0,0,0,0,0,0,0,0,0,0,0,0,0,0,0,0,0,0,0,0,0,0],"split_type":[0,0,0,0,0,0,0,0,0,0,0,0,0,0,0,0,0,0,0,0,0,0,0,0,0,0,0,0,0,0,0,0,0,0,0,0,0,0,0,0,0,0,0,0,0,0,0,0,0,0,0,0,0,0,0],"sum_hessian":[1.844E3,2.22E2,1.622E3,2.12E2,1E1,6.17E2,1.005E3,2.08E2,4E0,6E0,4E0,5.86E2,3.1E1,9.85E2,2E1,1.1E1,1.97E2,2E0,2E0,3E0,3E0,1E0,3E0,5.71E2,1.5E1,2.4E1,7E0,8E0,9.77E2,7E0,1.3E1,8E0,3E0,1.72E2,2.5E1,1E0,2E0,2E0,1E0,5.65E2,6E0,1E0,1.4E1,4E0,2E1,2E0,5E0,4E0,4E0,9.38E2,3.9E1,2E0,5E0,3E0,1E1],"tree_param":{"num_deleted":"0","num_feature":"82","num_nodes":"55","size_leaf_vector":"1"}},{"base_weights":[2.4457874E-2,-7.9203045E-1,1.8305945E-1,-3.7645215E-1,-1.2133722E0,3.5269523E-1,-7.467794E-2,-5.2400756E-1,1.4255838E0,7.7021545E-1,-1.2451668E0,8.0661875E-1,1.9486846E-1,-1.547697E-1,1.4118564E0,-2.2279647E-1,-1.4919611E0,2.5194616E0,-6.0973734E-1,9.298624E-2,-3.522008E-2,-1.2544369E0,3.1698525E-3,8.832447E-1,-1.5642529E0,2.5292048E0,1.644031E-1,-1.9530153E-1,1.1508471E0,2.3353083E-1,6.353964E-1,1.078419E-1,-1.5443407E-2,-8.141496E-2,-1.8777026E-2,1.6730607E-1,1.3160865E-3,4.8148252E-2,-6.2182713E-2,-2.0576274E-2,-6.345191E-2,3.0715609E-2,9.383831E-2,2.4483502E-3,-9.008541E-2,1.7554413E-1,5.2084297E-2,6.9141216E-3,1.3578339E-1,-6.472959E-2,-6.8385513E-3,1.6996467E-1,-2.9450461E-2,1.6938907E-1,-1.5616109E-2],"categories":[],"categories_nodes":[],"categories_segments":[],"categories_sizes":[],"default_left":[0,0,0,0,0,0,1,0,0,0,0,0,0,1,0,0,0,0,0,0,0,0,0,0,0,0,1,0,0,0,0,0,0,0,0,0,0,0,0,0,0,0,0,0,0,0,0,0,0,0,0,0,0,0,0],"id":18,"left_children":[1,3,5,7,9,11,13,15,17,19,21,23,25,27,29,31,33,35,37,-1,-1,39,-1,41,43,45,47,49,51,-1,53,-1,-1,-1,-1,-1,-1,-1,-1,-1,-1,-1,-1,-1,-1,-1,-1,-1,-1,-1,-1,-1,-1,-1,-1],"loss_changes":[2.4282112E2,5.2948883E1,6.866907E1,4.1961548E1,1.0482193E1,6.768709E1,7.451143E1,4.1651993E1,2.825292E1,6.12982E0,1.8869781E0,4.5709198E1,4.9650146E1,3.1605747E1,7.80018E1,2.3401104E1,4.563675E0,1.6399742E1,6.1824083E0,0E0,0E0,1.2992859E0,0E0,6.2171173E1,3.1527653E0,9.485138E0,4.600641E1,3.6883945E1,7.241775E1,0E0,7.1487206E1,0E0,0E0,0E0,0E0,0E0,0E0,0E0,0E0,0E0,0E0,0E0,0E0,0E0,0E0,0E0,0E0,0E0,0E0,0E0,0E0,0E0,0E0,0E0,0E0],"parents":[2147483647,0,0,1,1,2,2,3,3,4,4,5,5,6,6,7,7,8,8,9,9,10,10,11,11,12,12,13,13,14,14,15,15,16,16,17,17,18,18,21,21,23,23,24,24,25,25,26,26,27,27,28,28,30,30],"right_children":[2,4,6,8,10,12,14,16,18,20,22,24,26,28,30,32,34,36,38,-1,-1,40,-1,42,44,46,48,50,52,-1,54,-1,-1,-1,-1,-1,-1,-1,-1,-1,-1,-1,-1,-1,-1,-1,-1,-1,-1,-1,-1,-1,-1,-1,-1],"split_conditions":[8.2333336E1,5.5E0,1.0558875E3,6.125E0,1.2E0,1.956E1,2.02E0,2.5E-1,7.6666665E0,2.095E0,4.2E0,1.994E0,1.2E1,1.625E-2,1E-1,7.0370667E2,2.125E1,5E-1,1.6333333E-1,9.298624E-2,-3.522008E-2,5.992994E2,3.1698525E-3,1.3141E0,1.3333334E0,8.2909705E2,1.6E-2,7.9E-1,1.300254E3,2.3353083E-1,1.006E0,1.078419E-1,-1.5443407E-2,-8.141496E-2,-1.8777026E-2,1.6730607E-1,1.3160865E-3,4.8148252E-2,-6.2182713E-2,-2.0576274E-2,-6.345191E-2,3.0715609E-2,9.383831E-2,2.4483502E-3,-9.008541E-2,1.7554413E-1,5.2084297E-2,6.9141216E-3,1.3578339E-1,-6.472959E-2,-6.8385513E-3,1.6996467E-1,-2.9450461E-2,1.6938907E-1,-1.5616109E-2],"split_indices":[0,22,79,76,74,38,39,36,24,75,28,42,12,59,13,81,61,41,16,0,0,79,0,16,14,79,32,75,79,0,49,0,0,0,0,0,0,0,0,0,0,0,0,0,0,0,0,0,0,0,0,0,0,0,0],"split_type":[0,0,0,0,0,0,0,0,0,0,0,0,0,0,0,0,0,0,0,0,0,0,0,0,0,0,0,0,0,0,0,0,0,0,0,0,0,0,0,0,0,0,0,0,0,0,0,0,0,0,0,0,0,0,0],"sum_hessian":[1.873E3,3.04E2,1.569E3,1.54E2,1.5E2,9.46E2,6.23E2,1.43E2,1.1E1,2E0,1.48E2,2.43E2,7.03E2,5.92E2,3.1E1,1.1E2,3.3E1,7E0,4E0,1E0,1E0,1.47E2,1E0,2.36E2,7E0,8E0,6.95E2,5.75E2,1.7E1,5E0,2.6E1,3E0,1.07E2,2.9E1,4E0,5E0,2E0,1E0,3E0,3E0,1.44E2,1.87E2,4.9E1,1E0,6E0,4E0,4E0,6.89E2,6E0,2.8E1,5.47E2,7E0,1E1,6E0,2E1],"tree_param":{"num_deleted":"0","num_feature":"82","num_nodes":"55","size_leaf_vector":"1"}},{"base_weights":[2.0287436E-2,-8.563081E-1,1.4304143E-1,-9.702517E-1,1.2755302E0,1.1779263E-1,1.3986443E0,5.972937E-2,-1.0751215E0,-1.7023733E-1,3.3336523E0,1.9397193E-1,-3.3125356E-1,3.7352512E0,7.1576387E-1,-1.0386341E0,1.3717924E0,-1.0016619E0,-1.0620759E-1,4.6944547E-2,-4.628115E-1,7.1412325E-2,2.0639203E-1,3.53459E-1,-6.0607027E-2,-4.7047073E-1,1.4571089E0,2.3055783E-1,-3.800447E-2,3.3229527E0,-2.3254047E-1,-1.4365517E-2,-8.710363E-2,1.1282845E-1,-7.2243795E-2,-5.3080708E-2,3.4153186E-2,-3.325325E-2,1.8767739E-2,-4.9979832E-2,1.9468663E-2,-6.6457144E-3,8.0260746E-2,-3.8439292E-2,1.4145263E-2,1.4684175E-1,-9.225917E-3,1.779956E-1,4.7529936E-2,9.456677E-2,-5.332941E-2],"categories":[],"categories_nodes":[],"categories_segments":[],"categories_sizes":[],"default_left":[0,1,1,0,0,1,0,0,0,0,0,0,0,0,0,0,0,0,0,0,0,0,0,0,1,0,0,0,0,0,0,0,0,0,0,0,0,0,0,0,0,0,0,0,0,0,0,0,0,0,0],"id":19,"left_children":[1,3,5,7,9,11,13,15,17,19,21,23,25,27,29,31,33,35,-1,-1,37,-1,-1,39,41,43,45,-1,-1,47,49,-1,-1,-1,-1,-1,-1,-1,-1,-1,-1,-1,-1,-1,-1,-1,-1,-1,-1,-1,-1],"loss_changes":[1.9973091E2,5.662088E1,5.144686E1,2.350325E1,3.62743E1,5.4694473E1,4.8386395E1,3.1688353E1,1.30533905E1,3.0305476E0,1.6706848E0,5.5483826E1,5.8446743E1,3.1067337E1,6.505534E1,5.841607E0,2.8181683E1,1.951175E1,0E0,0E0,1.4362899E0,0E0,0E0,4.1208145E1,6.369104E1,4.876207E1,4.18376E1,0E0,0E0,5.5101013E-1,3.744555E1,0E0,0E0,0E0,0E0,0E0,0E0,0E0,0E0,0E0,0E0,0E0,0E0,0E0,0E0,0E0,0E0,0E0,0E0,0E0,0E0],"parents":[2147483647,0,0,1,1,2,2,3,3,4,4,5,5,6,6,7,7,8,8,9,9,10,10,11,11,12,12,13,13,14,14,15,15,16,16,17,17,20,20,23,23,24,24,25,25,26,26,29,29,30,30],"right_children":[2,4,6,8,10,12,14,16,18,20,22,24,26,28,30,32,34,36,-1,-1,38,-1,-1,40,42,44,46,-1,-1,48,50,-1,-1,-1,-1,-1,-1,-1,-1,-1,-1,-1,-1,-1,-1,-1,-1,-1,-1,-1,-1],"split_conditions":[6.1333332E1,6.125E0,1.4E-2,5.9E-1,9.3333334E-1,3.5333333E0,2.8571429E-2,5.177778E-1,6.775E1,6.156446E2,5E-1,1.0558875E3,3.3333334E-1,1.6666668E-2,8.195212E2,1.075E1,5.239726E0,1.2549666E0,-1.0620759E-1,4.6944547E-2,4.8333332E1,7.1412325E-2,2.0639203E-1,5.6515906E2,2.02E0,4.8333335E0,3.58E0,2.3055783E-1,-3.800447E-2,2.55E1,2.9189188E0,-1.4365517E-2,-8.710363E-2,1.1282845E-1,-7.2243795E-2,-5.3080708E-2,3.4153186E-2,-3.325325E-2,1.8767739E-2,-4.9979832E-2,1.9468663E-2,-6.6457144E-3,8.0260746E-2,-3.8439292E-2,1.4145263E-2,1.4684175E-1,-9.225917E-3,1.779956E-1,4.7529936E-2,9.456677E-2,-5.332941E-2],"split_indices":[0,76,32,23,8,8,65,49,26,79,44,79,18,6,80,61,76,16,0,0,0,0,0,80,39,66,34,0,0,9,76,0,0,0,0,0,0,0,0,0,0,0,0,0,0,0,0,0,0,0,0],"split_type":[0,0,0,0,0,0,0,0,0,0,0,0,0,0,0,0,0,0,0,0,0,0,0,0,0,0,0,0,0,0,0,0,0,0,0,0,0,0,0,0,0,0,0,0,0,0,0,0,0,0,0],"sum_hessian":[1.854E3,2.27E2,1.627E3,2.16E2,1.1E1,1.596E3,3.1E1,2E1,1.96E2,7E0,4E0,1.365E3,2.31E2,6E0,2.5E1,1.1E1,9E0,1.85E2,1.1E1,1E0,6E0,2E0,2E0,8.39E2,5.26E2,2.15E2,1.6E1,5E0,1E0,6E0,1.9E1,6E0,5E0,7E0,2E0,1.79E2,6E0,5E0,1E0,2.1E1,8.18E2,5.05E2,2.1E1,1.54E2,6.1E1,8E0,8E0,5E0,1E0,5E0,1.4E1],"tree_param":{"num_deleted":"0","num_feature":"82","num_nodes":"51","size_leaf_vector":"1"}},{"base_weights":[2.4286361E-2,-9.358677E-1,1.4136387E-1,-9.66206E-1,1.3132848E-1,6.529181E-1,5.153755E-2,2.5402424E-1,-1.0044656E0,1.2165585E0,1.9734211E-1,-6.9512874E-1,1.0335863E-1,6.5593496E-2,-4.3148798E-1,-5.0069934E-1,-1.071073E0,9.905122E-1,4.0313463E0,-4.420974E-1,8.073975E-1,-1.4505835E-1,-1.4874659E0,2.2693934E0,8.699494E-2,-3.1933263E-2,-4.024069E-3,7.787351E-2,-3.7369337E-2,2.1678595E-2,-5.5451345E-2,3.8592536E-2,2.2348921E-1,2.997987E-2,2.985238E-1,-5.3005885E-2,6.8392776E-2,1.1018747E-1,-9.27891E-3,-1.66368E-2,1.640746E-1,-2.4194956E-2,-8.302564E-2,2.2785547E-1,-4.648722E-2,1.0266745E-2,-8.766768E-3],"categories":[],"categories_nodes":[],"categories_segments":[],"categories_sizes":[],"default_left":[0,0,0,0,0,0,0,0,0,0,0,0,0,0,0,0,0,0,0,0,0,0,0,0,0,0,0,0,0,0,0,0,0,0,0,0,0,0,0,0,0,0,0,0,0,0,0],"id":20,"left_children":[1,3,5,7,-1,9,11,13,15,17,19,21,23,-1,25,27,29,31,33,35,37,39,41,43,45,-1,-1,-1,-1,-1,-1,-1,-1,-1,-1,-1,-1,-1,-1,-1,-1,-1,-1,-1,-1,-1,-1],"loss_changes":[2.1202979E2,2.4693817E1,7.721004E1,9.779007E0,0E0,6.4211945E1,5.5441605E1,5.642219E0,6.1075287E0,6.7269424E1,5.4970036E1,4.0317467E1,4.7262516E1,0E0,3.1220227E-1,1.38571415E1,1.041748E1,7.643216E1,4.965695E1,7.863263E1,1.002401E2,3.7104736E1,5.7957077E0,7.742413E1,4.132473E1,0E0,0E0,0E0,0E0,0E0,0E0,0E0,0E0,0E0,0E0,0E0,0E0,0E0,0E0,0E0,0E0,0E0,0E0,0E0,0E0,0E0,0E0],"parents":[2147483647,0,0,1,1,2,2,3,3,5,5,6,6,7,7,8,8,9,9,10,10,11,11,12,12,14,14,15,15,16,16,17,17,18,18,19,19,20,20,21,21,22,22,23,23,24,24],"right_children":[2,4,6,8,-1,10,12,14,16,18,20,22,24,-1,26,28,30,32,34,36,38,40,42,44,46,-1,-1,-1,-1,-1,-1,-1,-1,-1,-1,-1,-1,-1,-1,-1,-1,-1,-1,-1,-1,-1,-1],"split_conditions":[6E1,2.4125E0,6.2E-1,3.3333334E-1,1.3132848E-1,2.2E0,1.2E0,7.909736E2,7.1901483E2,2.4466667E1,3.6666667E0,1.04E1,3E0,6.5593496E-2,3.3333334E-1,4E0,5.0333333E-1,1.0033333E0,2.142857E0,2.775E0,3.8333333E0,1.0333333E0,7E0,2.2333333E0,1.158135E3,-3.1933263E-2,-4.024069E-3,7.787351E-2,-3.7369337E-2,2.1678595E-2,-5.5451345E-2,3.8592536E-2,2.2348921E-1,2.997987E-2,2.985238E-1,-5.3005885E-2,6.8392776E-2,1.1018747E-1,-9.27891E-3,-1.66368E-2,1.640746E-1,-2.4194956E-2,-8.302564E-2,2.2785547E-1,-4.648722E-2,1.0266745E-2,-8.766768E-3],"split_indices":[0,60,75,22,0,34,8,79,79,12,22,12,35,0,1,51,23,16,66,60,66,8,77,8,81,0,0,0,0,0,0,0,0,0,0,0,0,0,0,0,0,0,0,0,0,0,0],"split_type":[0,0,0,0,0,0,0,0,0,0,0,0,0,0,0,0,0,0,0,0,0,0,0,0,0,0,0,0,0,0,0,0,0,0,0,0,0,0,0,0,0,0,0,0,0,0,0],"sum_hessian":[1.884E3,2.04E2,1.68E3,2.03E2,1E0,2.5E2,1.43E3,6E0,1.97E2,1.11E2,1.39E2,9.2E1,1.338E3,2E0,4E0,2.4E1,1.73E2,1.04E2,7E0,6.8E1,7.1E1,5.5E1,3.7E1,9E0,1.329E3,2E0,2E0,2E0,2.2E1,4E0,1.69E2,9.9E1,5E0,3E0,4E0,5.1E1,1.7E1,2.9E1,4.2E1,5.3E1,2E0,6E0,3.1E1,5E0,4E0,9.16E2,4.13E2],"tree_param":{"num_deleted":"0","num_feature":"82","num_nodes":"47","size_leaf_vector":"1"}},{"base_weights":[1.2465767E-3,-7.7611834E-1,9.55999E-2,-8.2142895E-1,1.6607893E0,4.0058017E-2,6.1828E-1,-8.9315087E-1,7.8396946E-1,9.724722E-2,2.0208096E-2,5.20522E-3,1.2481644E0,2.2978132E0,4.0102732E-1,-9.898379E-1,8.573813E-2,1.4371849E0,-1.0015231E0,9.174427E-2,-5.5532825E-1,3.69042E-1,3.6921418E0,2.9418218E0,-9.514184E-2,9.0660906E-1,-1.0310227E-1,7.014338E-2,-5.059526E-2,6.618788E-2,-5.1852662E-2,8.690708E-2,-9.213859E-3,-1.2522292E-2,-6.259195E-2,1.6428048E-2,-5.9842295E-3,3.7796162E-2,-3.9447803E-2,-2.1291675E-2,1.6343582E-1,-3.307863E-2,2.0968352E-1,1.8035488E-1,2.2110136E-3,2.5481227E-1,2.5599826E-2,4.3305717E-2,-2.5958706E-2],"categories":[],"categories_nodes":[],"categories_segments":[],"categories_sizes":[],"default_left":[0,1,1,0,0,1,0,0,0,0,0,1,0,0,0,0,0,0,0,0,0,0,0,0,0,0,0,0,0,0,0,0,0,0,0,0,0,0,0,0,0,0,0,0,0,0,0,0,0],"id":21,"left_children":[1,3,5,7,9,11,13,15,17,-1,-1,19,21,23,25,27,29,31,33,35,37,39,41,43,-1,45,47,-1,-1,-1,-1,-1,-1,-1,-1,-1,-1,-1,-1,-1,-1,-1,-1,-1,-1,-1,-1,-1,-1],"loss_changes":[1.3620615E2,2.355822E1,4.804997E1,2.3498367E1,6.4223576E-1,6.306812E1,5.709492E1,1.8067566E1,1.1936178E1,0E0,0E0,7.072716E1,8.8876755E1,5.4292397E1,3.628625E1,1.0554062E1,2.6393484E1,3.736228E0,2.5050163E-1,6.327758E1,6.033363E1,7.5148094E1,2.679306E1,3.0683762E1,0E0,1.147738E2,2.948465E1,0E0,0E0,0E0,0E0,0E0,0E0,0E0,0E0,0E0,0E0,0E0,0E0,0E0,0E0,0E0,0E0,0E0,0E0,0E0,0E0,0E0,0E0],"parents":[2147483647,0,0,1,1,2,2,3,3,4,4,5,5,6,6,7,7,8,8,11,11,12,12,13,13,14,14,15,15,16,16,17,17,18,18,19,19,20,20,21,21,22,22,23,23,25,25,26,26],"right_children":[2,4,6,8,10,12,14,16,18,-1,-1,20,22,24,26,28,30,32,34,36,38,40,42,44,-1,46,48,-1,-1,-1,-1,-1,-1,-1,-1,-1,-1,-1,-1,-1,-1,-1,-1,-1,-1,-1,-1,-1,-1],"split_conditions":[1.06E0,7E0,2.4E1,1.62E1,2.1666667E-1,8.333334E-3,2.4333334E1,3.75E-5,9.6666664E-1,9.724722E-2,2.0208096E-2,2.025E1,1.61E0,3.3333334E-3,6.5625E0,-2.6666667E0,9.5E-1,2.15E1,1E0,9.2810504E2,1.8666666E1,2.025E1,1.4666667E0,5.125E0,-9.514184E-2,5.616207E2,1.01992664E3,7.014338E-2,-5.059526E-2,6.618788E-2,-5.1852662E-2,8.690708E-2,-9.213859E-3,-1.2522292E-2,-6.259195E-2,1.6428048E-2,-5.9842295E-3,3.7796162E-2,-3.9447803E-2,-2.1291675E-2,1.6343582E-1,-3.307863E-2,2.0968352E-1,1.8035488E-1,2.2110136E-3,2.5481227E-1,2.5599826E-2,4.3305717E-2,-2.5958706E-2],"split_indices":[34,24,9,35,16,72,9,59,8,0,0,61,68,6,24,9,60,9,8,79,12,61,8,54,0,79,81,0,0,0,0,0,0,0,0,0,0,0,0,0,0,0,0,0,0,0,0,0,0],"split_type":[0,0,0,0,0,0,0,0,0,0,0,0,0,0,0,0,0,0,0,0,0,0,0,0,0,0,0,0,0,0,0,0,0,0,0,0,0,0,0,0,0,0,0,0,0,0,0,0,0],"sum_hessian":[1.855E3,2E2,1.655E3,1.97E2,3E0,1.497E3,1.58E2,1.89E2,8E0,2E0,1E0,1.456E3,4.1E1,1.7E1,1.41E2,1.72E2,1.7E1,6E0,2E0,1.262E3,1.94E2,3.1E1,1E1,1.5E1,2E0,7E1,7.1E1,1E0,1.71E2,8E0,9E0,5E0,1E0,1E0,1E0,5.95E2,6.67E2,2.9E1,1.65E2,2.5E1,6E0,1E0,9E0,1.2E1,3E0,5E0,6.5E1,2.1E1,5E1],"tree_param":{"num_deleted":"0","num_feature":"82","num_nodes":"49","size_leaf_vector":"1"}},{"base_weights":[-7.948115E-3,8.407478E-2,-7.4275255E-1,2.4881138E-1,-1.4773908E-1,-9.8437494E-1,-7.797168E-2,2.412712E0,2.096622E-1,-1.8198776E-1,1.9642017E0,-8.736241E-1,-2.0057495E0,1.9665564E0,-3.626462E-1,1.0280776E-1,3.3666048E0,3.2378256E-1,-4.3343174E-1,9.192398E-1,-2.329255E-1,2.7791035E0,-5.6761887E-2,-9.213032E-1,5.789018E-1,-1.04441784E-1,-2.3140747E-2,-3.7302542E-1,1.4884971E-1,1.2933668E-1,-1.04821E0,7.777444E-2,-5.0620247E-2,2.3153201E-1,3.3541374E-2,1.140131E-2,4.5068026E-2,-2.624157E-2,5.872711E-2,1.10753E-1,-1.0098961E-2,-6.890909E-2,-9.032998E-3,5.1546283E-2,1.9857304E-1,-1.569232E-3,-4.8877846E-2,6.587721E-2,-1.7635388E-2,-2.7011622E-2,-9.652853E-4,-1.2968433E-2,1.8570706E-1,4.8582185E-2,-6.559827E-2],"categories":[],"categories_nodes":[],"categories_segments":[],"categories_sizes":[],"default_left":[0,0,0,0,0,0,0,0,0,0,0,1,0,0,0,0,0,0,0,0,0,0,0,0,0,0,0,0,0,0,0,0,0,0,0,0,0,0,0,0,0,0,0,0,0,0,0,0,0,0,0,0,0,0,0],"id":22,"left_children":[1,3,5,7,9,11,13,15,17,19,21,23,25,27,29,31,33,35,37,39,41,43,-1,45,47,-1,-1,49,-1,51,53,-1,-1,-1,-1,-1,-1,-1,-1,-1,-1,-1,-1,-1,-1,-1,-1,-1,-1,-1,-1,-1,-1,-1,-1],"loss_changes":[1.2515729E2,6.2856396E1,3.3012177E1,8.098991E1,4.9831985E1,1.53285675E1,3.3306564E1,3.7111702E1,6.956738E1,3.8021492E1,3.0938076E1,1.0090569E1,8.280029E-1,1.7658506E1,1.6999853E1,1.1295075E1,3.7784332E1,4.4261124E1,2.1632912E1,4.4034344E1,3.835906E1,1.4665794E1,0E0,6.677513E0,3.90534E0,0E0,0E0,1.6700369E-1,0E0,4.276631E1,1.2462456E1,0E0,0E0,0E0,0E0,0E0,0E0,0E0,0E0,0E0,0E0,0E0,0E0,0E0,0E0,0E0,0E0,0E0,0E0,0E0,0E0,0E0,0E0,0E0,0E0],"parents":[2147483647,0,0,1,1,2,2,3,3,4,4,5,5,6,6,7,7,8,8,9,9,10,10,11,11,12,12,13,13,14,14,15,15,16,16,17,17,18,18,19,19,20,20,21,21,23,23,24,24,27,27,29,29,30,30],"right_children":[2,4,6,8,10,12,14,16,18,20,22,24,26,28,30,32,34,36,38,40,42,44,-1,46,48,-1,-1,50,-1,52,54,-1,-1,-1,-1,-1,-1,-1,-1,-1,-1,-1,-1,-1,-1,-1,-1,-1,-1,-1,-1,-1,-1,-1,-1],"split_conditions":[1.6666668E-2,1.4653333E0,2.7125E0,6.544866E2,1.25E-2,1.7833333E0,8.734748E2,3.3333334E-1,1.2896202E3,1.0633334E0,2.2875E1,9.3E-1,2.05E1,7.1270294E2,1.1291339E3,8.5E-1,1.4233333E0,3.3333335E-2,5.6666665E0,3.125E0,1.1966667E0,7.8545E2,-5.6761887E-2,6.474992E2,1.0150375E0,-1.04441784E-1,-2.3140747E-2,6.3717755E2,1.4884971E-1,1.0921191E3,1.9333334E1,7.777444E-2,-5.0620247E-2,2.3153201E-1,3.3541374E-2,1.140131E-2,4.5068026E-2,-2.624157E-2,5.872711E-2,1.10753E-1,-1.0098961E-2,-6.890909E-2,-9.032998E-3,5.1546283E-2,1.9857304E-1,-1.569232E-3,-4.8877846E-2,6.587721E-2,-1.7635388E-2,-2.7011622E-2,-9.652853E-4,-1.2968433E-2,1.8570706E-1,4.8582185E-2,-6.559827E-2],"split_indices":[21,75,60,81,58,60,81,15,81,23,61,23,9,81,79,23,23,13,54,66,23,79,0,79,22,0,0,79,0,79,9,0,0,0,0,0,0,0,0,0,0,0,0,0,0,0,0,0,0,0,0,0,0,0,0],"split_type":[0,0,0,0,0,0,0,0,0,0,0,0,0,0,0,0,0,0,0,0,0,0,0,0,0,0,0,0,0,0,0,0,0,0,0,0,0,0,0,0,0,0,0,0,0,0,0,0,0,0,0,0,0,0,0],"sum_hessian":[1.849E3,1.644E3,2.05E2,9.61E2,6.83E2,1.5E2,5.5E1,1.6E1,9.45E2,6.73E2,1E1,1.37E2,1.3E1,6E0,4.9E1,5E0,1.1E1,8.03E2,1.42E2,2.9E1,6.44E2,8E0,2E0,1.33E2,4E0,1.2E1,1E0,2E0,4E0,2.9E1,2E1,2E0,3E0,7E0,4E0,6.9E2,1.13E2,1.35E2,7E0,1.3E1,1.6E1,2.7E1,6.17E2,4E0,4E0,8E0,1.25E2,2E0,2E0,1E0,1E0,2.7E1,2E0,2E0,1.8E1],"tree_param":{"num_deleted":"0","num_feature":"82","num_nodes":"55","size_leaf_vector":"1"}},{"base_weights":[3.3153746E-2,-7.440005E-1,1.3885298E-1,-8.356091E-1,1.3091446E0,4.5842794E-1,4.0548477E-2,-7.693693E-2,-9.300424E-1,2.2291784E0,-7.9033025E-2,3.046209E0,4.0993476E-1,-1.08176045E-1,2.9784426E-1,-1.0126653E0,2.0380688E0,-8.2150674E-1,-1.0362951E-1,-4.5438834E-2,2.807283E0,-6.5100335E-2,3.987913E0,-5.72991E-1,5.55852E-1,-3.7598625E-1,6.098653E-2,1.5225618E0,1.8502307E-1,9.902352E-2,-6.526151E-2,1.7176335E-1,-1.0897291E-2,-4.2768046E-2,1.284207E-1,7.75991E-2,1.981845E-1,2.4673192E-1,6.9815375E-2,7.1794908E-3,-5.9436496E-2,1.3145918E-1,2.2505898E-2,-5.4532178E-2,-6.808019E-3,3.1323187E-2,-5.057897E-3,-2.6363468E-2,1.1237909E-1,-7.3490106E-2,1.3508088E-2],"categories":[],"categories_nodes":[],"categories_segments":[],"categories_sizes":[],"default_left":[0,1,0,0,0,0,0,0,0,0,0,0,0,0,0,0,0,0,0,0,0,0,0,0,0,0,0,0,0,0,0,0,0,0,0,0,0,0,0,0,0,0,0,0,0,0,0,0,0,0,0],"id":23,"left_children":[1,3,5,7,9,11,13,15,17,19,-1,21,23,25,27,29,31,33,-1,-1,35,-1,37,39,41,43,45,47,49,-1,-1,-1,-1,-1,-1,-1,-1,-1,-1,-1,-1,-1,-1,-1,-1,-1,-1,-1,-1,-1,-1],"loss_changes":[1.543709E2,4.3413223E1,5.194291E1,1.5403519E1,3.0110756E1,4.756678E1,4.847722E1,5.1540653E1,2.210672E1,1.706372E1,0E0,3.3855408E1,5.5250587E1,3.640162E1,6.3831074E1,1.8347334E1,2.5965496E1,2.2509964E1,0E0,0E0,4.0098953E0,0E0,7.830963E0,2.2232021E1,7.2036606E1,5.315482E1,4.526604E1,5.9145653E1,6.041607E1,0E0,0E0,0E0,0E0,0E0,0E0,0E0,0E0,0E0,0E0,0E0,0E0,0E0,0E0,0E0,0E0,0E0,0E0,0E0,0E0,0E0,0E0],"parents":[2147483647,0,0,1,1,2,2,3,3,4,4,5,5,6,6,7,7,8,8,9,9,11,11,12,12,13,13,14,14,15,15,16,16,17,17,20,20,22,22,23,23,24,24,25,25,26,26,27,27,28,28],"right_children":[2,4,6,8,10,12,14,16,18,20,-1,22,24,26,28,30,32,34,-1,-1,36,-1,38,40,42,44,46,48,50,-1,-1,-1,-1,-1,-1,-1,-1,-1,-1,-1,-1,-1,-1,-1,-1,-1,-1,-1,-1,-1,-1],"split_conditions":[6.1333332E1,2.0930232E-1,2.439759E0,5.9E-1,1.3795768E3,1.6666666E0,8.75E-5,6.22E-1,5.5E1,2.9333332E-1,-7.9033025E-2,-3E0,1.4754099E0,3.1111112E0,7.213229E2,2.25E1,6.3333335E0,1.72E0,-1.0362951E-1,-4.5438834E-2,5E-1,-6.5100335E-2,2.3333333E0,1.4038125E0,1.75E0,8E0,3.2E0,6.0881665E2,7.3E-1,9.902352E-2,-6.526151E-2,1.7176335E-1,-1.0897291E-2,-4.2768046E-2,1.284207E-1,7.75991E-2,1.981845E-1,2.4673192E-1,6.9815375E-2,7.1794908E-3,-5.9436496E-2,1.3145918E-1,2.2505898E-2,-5.4532178E-2,-6.808019E-3,3.1323187E-2,-5.057897E-3,-2.6363468E-2,1.1237909E-1,-7.3490106E-2,1.3508088E-2],"split_indices":[0,70,74,23,80,9,72,49,26,23,0,9,24,48,80,26,9,34,0,0,44,0,14,75,28,77,74,80,16,0,0,0,0,0,0,0,0,0,0,0,0,0,0,0,0,0,0,0,0,0,0],"split_type":[0,0,0,0,0,0,0,0,0,0,0,0,0,0,0,0,0,0,0,0,0,0,0,0,0,0,0,0,0,0,0,0,0,0,0,0,0,0,0,0,0,0,0,0,0,0,0,0,0,0,0],"sum_hessian":[1.877E3,2.24E2,1.653E3,2.15E2,9E0,3.88E2,1.265E3,2.4E1,1.91E2,7E0,2E0,6E0,3.82E2,8.02E2,4.63E2,1.7E1,7E0,1.76E2,1.5E1,1E0,6E0,1E0,5E0,4.9E1,3.33E2,3.1E2,4.92E2,3.8E1,4.25E2,1E0,1.6E1,4E0,3E0,1.75E2,1E0,4E0,2E0,3E0,2E0,2.3E1,2.6E1,1.5E1,3.18E2,7.7E1,2.33E2,1.09E2,3.83E2,1E1,2.8E1,2E1,4.05E2],"tree_param":{"num_deleted":"0","num_feature":"82","num_nodes":"51","size_leaf_vector":"1"}},{"base_weights":[4.5028873E-2,-7.742027E-1,1.2639248E-1,-8.4357506E-1,7.186909E-1,4.9887562E-1,2.132422E-2,-8.602168E-1,4.547763E-2,-4.4408384E-1,1.9924866E0,1.5432584E0,3.6127764E-1,1.2635256E-2,1.9157836E-1,-8.128378E-1,-1.4896188E0,-9.799456E-1,4.2484082E-2,1.1854702E-1,2.1428132E-2,7.105723E-1,3.9010205E0,2.0815958E-1,1.4661796E0,-6.0711485E-1,7.808025E-2,3.8745769E-3,-4.349064E-2,-8.030754E-2,-1.10207265E-2,-2.118349E-2,-6.621932E-2,6.334743E-3,2.456005E-1,3.00893E-1,9.158519E-2,2.7367568E-3,7.465898E-2,1.7756908E-1,1.6533053E-2,-3.4564298E-3,-5.8962286E-2,1.39645785E-2,-5.13911E-3],"categories":[],"categories_nodes":[],"categories_segments":[],"categories_sizes":[],"default_left":[0,1,0,0,0,0,1,0,0,0,0,0,0,0,0,0,0,0,0,0,0,0,0,0,0,0,0,0,0,0,0,0,0,0,0,0,0,0,0,0,0,0,0,0,0],"id":24,"left_children":[1,3,5,7,9,11,13,15,-1,17,19,21,23,25,-1,27,29,31,-1,-1,-1,33,35,37,39,41,43,-1,-1,-1,-1,-1,-1,-1,-1,-1,-1,-1,-1,-1,-1,-1,-1,-1,-1],"loss_changes":[1.23944046E2,1.800528E1,6.61686E1,5.4796066E0,1.2733931E1,5.290071E1,4.3652905E1,3.5604553E0,0E0,4.2990394E0,1.3513956E0,8.164889E1,5.5524353E1,5.3504883E1,0E0,7.727112E0,1.1250134E0,2.0531392E-1,0E0,0E0,0E0,8.033079E1,3.716159E1,5.728993E1,9.353709E1,3.8701088E1,4.3443848E1,0E0,0E0,0E0,0E0,0E0,0E0,0E0,0E0,0E0,0E0,0E0,0E0,0E0,0E0,0E0,0E0,0E0,0E0],"parents":[2147483647,0,0,1,1,2,2,3,3,4,4,5,5,6,6,7,7,9,9,10,10,11,11,12,12,13,13,15,15,16,16,17,17,21,21,22,22,23,23,24,24,25,25,26,26],"right_children":[2,4,6,8,10,12,14,16,-1,18,20,22,24,26,-1,28,30,32,-1,-1,-1,34,36,38,40,42,44,-1,-1,-1,-1,-1,-1,-1,-1,-1,-1,-1,-1,-1,-1,-1,-1,-1,-1],"split_conditions":[7.4E0,4.3333335E0,2.3746703E0,1.5E0,2.26025E-1,1.0375E1,5E-1,6.0333332E1,4.547763E-2,1E0,3.3333334E-1,1.8266666E1,1.6016309E3,2.375E0,1.9157836E-1,6.501157E2,1.6174348E3,4.3333334E-1,4.2484082E-2,1.1854702E-1,2.1428132E-2,3E0,1.915E1,2.2857143E1,1.749559E3,1.984E1,1.4466667E0,3.8745769E-3,-4.349064E-2,-8.030754E-2,-1.10207265E-2,-2.118349E-2,-6.621932E-2,6.334743E-3,2.456005E-1,3.00893E-1,9.158519E-2,2.7367568E-3,7.465898E-2,1.7756908E-1,1.6533053E-2,-3.4564298E-3,-5.8962286E-2,1.39645785E-2,-5.13911E-3],"split_indices":[38,50,48,8,68,61,70,0,0,78,10,12,80,66,0,79,79,8,0,0,0,54,64,64,80,38,23,0,0,0,0,0,0,0,0,0,0,0,0,0,0,0,0,0,0],"split_type":[0,0,0,0,0,0,0,0,0,0,0,0,0,0,0,0,0,0,0,0,0,0,0,0,0,0,0,0,0,0,0,0,0,0,0,0,0,0,0,0,0,0,0,0,0],"sum_hessian":[1.857E3,1.67E2,1.69E3,1.6E2,7E0,3.71E2,1.319E3,1.59E2,1E0,4E0,3E0,4.2E1,3.29E2,1.317E3,2E0,1.5E2,9E0,3E0,1E0,2E0,1E0,3.2E1,1E1,2.9E2,3.9E1,1.25E2,1.192E3,9E0,1.41E2,8E0,1E0,2E0,1E0,2.9E1,3E0,4E0,6E0,2.6E2,3E1,1.3E1,2.6E1,6.5E1,6E1,5.64E2,6.28E2],"tree_param":{"num_deleted":"0","num_feature":"82","num_nodes":"45","size_leaf_vector":"1"}},{"base_weights":[-2.469144E-2,-7.276577E-1,6.414123E-2,-6.681148E-1,-2.155043E0,7.970464E-1,3.0140527E-2,-8.135973E-1,6.3840437E-1,-1.2131142E-1,-6.4186337E-3,-1.0118187E-1,2.6725714E0,-6.214113E-1,7.222606E-2,-9.163708E-1,-9.0259045E-2,2.106758E-1,1.5672752E-1,-4.3982574E-1,1.5511535E-1,3.3754191E0,-6.7333364E-1,-7.242394E-1,1.4209743E-1,-1.2798512E-1,2.2447088E-1,-4.181416E-2,-9.662241E-2,-2.4632059E-2,3.880427E-2,4.4148907E-2,-4.120561E-2,-2.797005E-2,1.265159E-1,-6.287052E-2,1.980017E-1,-6.4332895E-2,8.221758E-3,-6.88387E-2,-1.773583E-2,2.6641026E-2,-1.4806434E-2,5.108214E-2,6.3377717E-3],"categories":[],"categories_nodes":[],"categories_segments":[],"categories_sizes":[],"default_left":[0,0,0,1,0,0,0,1,0,0,0,0,0,0,1,0,0,0,0,0,0,0,0,0,0,0,0,0,0,0,0,0,0,0,0,0,0,0,0,0,0,0,0,0,0],"id":25,"left_children":[1,3,5,7,9,11,13,15,17,-1,-1,19,21,23,25,27,29,31,-1,33,-1,35,37,39,-1,41,43,-1,-1,-1,-1,-1,-1,-1,-1,-1,-1,-1,-1,-1,-1,-1,-1,-1,-1],"loss_changes":[1.1744585E2,1.6493187E1,4.15912E1,3.9294846E1,4.0853653E0,1.2493447E2,4.383607E1,1.3595856E1,2.1760757E1,0E0,0E0,5.6691414E1,5.871266E1,3.6602932E1,4.5780884E1,1.1485321E1,8.748768E0,1.3945791E1,0E0,1.8107777E1,0E0,5.9147842E1,2.7806911E0,2.241864E1,0E0,7.226831E1,6.63158E1,0E0,0E0,0E0,0E0,0E0,0E0,0E0,0E0,0E0,0E0,0E0,0E0,0E0,0E0,0E0,0E0,0E0,0E0],"parents":[2147483647,0,0,1,1,2,2,3,3,4,4,5,5,6,6,7,7,8,8,11,11,12,12,13,13,14,14,15,15,16,16,17,17,19,19,21,21,22,22,23,23,25,25,26,26],"right_children":[2,4,6,8,10,12,14,16,18,-1,-1,20,22,24,26,28,30,32,-1,34,-1,36,38,40,-1,42,44,-1,-1,-1,-1,-1,-1,-1,-1,-1,-1,-1,-1,-1,-1,-1,-1,-1,-1],"split_conditions":[6.1333332E1,5E0,1.7142857E0,4E0,6.5E0,1.6E0,8.2666664E1,1.6118797E0,6.666667E-1,-1.2131142E-1,-6.4186337E-3,1.4666667E1,2.8333333E0,2.534E0,3.2E0,1.62E0,9.2333335E-1,1.0992664E3,1.5672752E-1,7.766667E-3,1.5511535E-1,1E0,2.78E1,8E-1,1.4209743E-1,2.439759E0,3.125E0,-4.181416E-2,-9.662241E-2,-2.4632059E-2,3.880427E-2,4.4148907E-2,-4.120561E-2,-2.797005E-2,1.265159E-1,-6.287052E-2,1.980017E-1,-6.4332895E-2,8.221758E-3,-6.88387E-2,-1.773583E-2,2.6641026E-2,-1.4806434E-2,5.108214E-2,6.3377717E-3],"split_indices":[52,2,54,76,2,76,0,75,27,0,0,35,8,49,50,34,16,81,0,20,0,8,12,27,0,74,54,0,0,0,0,0,0,0,0,0,0,0,0,0,0,0,0,0,0],"split_type":[0,0,0,0,0,0,0,0,0,0,0,0,0,0,0,0,0,0,0,0,0,0,0,0,0,0,0,0,0,0,0,0,0,0,0,0,0,0,0,0,0,0,0,0,0],"sum_hessian":[1.879E3,2.1E2,1.669E3,2.03E2,7E0,7.3E1,1.596E3,1.83E2,2E1,6E0,1E0,5E1,2.3E1,9.6E1,1.5E3,1.6E2,2.3E1,1.8E1,2E0,4.6E1,4E0,1.9E1,4E0,9.4E1,2E0,6.48E2,8.52E2,1.5E2,1E1,1.6E1,7E0,1.1E1,7E0,4.5E1,1E0,2E0,1.7E1,2E0,2E0,3.3E1,6.1E1,1.31E2,5.17E2,9.2E1,7.6E2],"tree_param":{"num_deleted":"0","num_feature":"82","num_nodes":"45","size_leaf_vector":"1"}},{"base_weights":[-5.350323E-3,-6.3973194E-1,8.331733E-2,-7.1430016E-1,2.2134857E0,2.4340892E0,6.864629E-2,-6.388283E-1,-1.4408509E0,1.5456684E-1,-5.439421E-2,3.836537E0,-3.1435844E-2,2.2307515E0,5.644154E-2,-7.4407107E-1,7.0859104E-2,-1.6634828E0,-1.3445216E-1,4.7753002E-2,4.157606E0,3.3959002E0,-7.465923E-2,1.1232258E-1,-3.4442222E-1,1.9512407E-2,-4.0376943E-2,3.5021562E-2,-7.559643E-2,-8.784842E-2,-4.192895E-3,-2.2809427E-2,2.0768924E-2,5.106451E-2,2.290306E-1,2.0774046E-1,-9.966063E-3,6.244659E-2,-4.660834E-2,9.020969E-3,-1.9678561E-2,-3.395672E-2,2.630031E-2],"categories":[],"categories_nodes":[],"categories_segments":[],"categories_sizes":[],"default_left":[0,1,0,0,0,0,0,0,0,0,0,0,0,0,0,0,0,0,0,0,0,0,0,1,1,0,0,0,0,0,0,0,0,0,0,0,0,0,0,0,0,0,0],"id":26,"left_children":[1,3,5,7,9,11,13,15,17,-1,-1,19,-1,21,23,25,27,29,31,-1,33,35,37,39,41,-1,-1,-1,-1,-1,-1,-1,-1,-1,-1,-1,-1,-1,-1,-1,-1,-1,-1],"loss_changes":[1.0366419E2,4.9664703E1,5.560044E1,1.1197891E1,2.075168E1,4.536635E1,4.230591E1,1.5139992E1,5.5932655E0,0E0,0E0,2.5053177E0,0E0,2.4428852E1,3.5879776E1,1.2985863E1,2.7963936E1,2.3630867E0,8.970929E-1,0E0,3.2819366E0,1.7198807E1,5.70417E0,4.8472908E1,5.746046E1,0E0,0E0,0E0,0E0,0E0,0E0,0E0,0E0,0E0,0E0,0E0,0E0,0E0,0E0,0E0,0E0,0E0,0E0],"parents":[2147483647,0,0,1,1,2,2,3,3,4,4,5,5,6,6,7,7,8,8,11,11,13,13,14,14,15,15,16,16,17,17,18,18,20,20,21,21,22,22,23,23,24,24],"right_children":[2,4,6,8,10,12,14,16,18,-1,-1,20,-1,22,24,26,28,30,32,-1,34,36,38,40,42,-1,-1,-1,-1,-1,-1,-1,-1,-1,-1,-1,-1,-1,-1,-1,-1,-1,-1],"split_conditions":[6.1333332E1,3.3333334E-1,3E0,3E0,5.3333335E0,2.5E0,6.15372E2,1.0125E1,5E-1,1.5456684E-1,-5.439421E-2,1E0,-3.1435844E-2,1.426E0,1.3973728E3,6.501157E2,1.2062811E3,1.7198269E3,3.6666667E0,4.7753002E-2,1.575E0,3E0,3.3333334E-1,2.014E0,1.702E0,1.9512407E-2,-4.0376943E-2,3.5021562E-2,-7.559643E-2,-8.784842E-2,-4.192895E-3,-2.2809427E-2,2.0768924E-2,5.106451E-2,2.290306E-1,2.0774046E-1,-9.966063E-3,6.244659E-2,-4.660834E-2,9.020969E-3,-1.9678561E-2,-3.395672E-2,2.630031E-2],"split_indices":[0,70,35,2,2,14,81,61,41,0,0,2,0,42,79,79,80,80,2,0,60,14,10,49,42,0,0,0,0,0,0,0,0,0,0,0,0,0,0,0,0,0,0],"split_type":[0,0,0,0,0,0,0,0,0,0,0,0,0,0,0,0,0,0,0,0,0,0,0,0,0,0,0,0,0,0,0,0,0,0,0,0,0,0,0,0,0,0,0],"sum_hessian":[1.841E3,2.25E2,1.616E3,2.2E2,5E0,9E0,1.607E3,2.01E2,1.9E1,4E0,1E0,6E0,3E0,8E0,1.599E3,1.75E2,2.6E1,1.6E1,3E0,1E0,5E0,5E0,3E0,1.404E3,1.95E2,9E0,1.66E2,1.9E1,7E0,1.5E1,1E0,2E0,1E0,1E0,4E0,4E0,1E0,1E0,2E0,1.238E3,1.66E2,1.41E2,5.4E1],"tree_param":{"num_deleted":"0","num_feature":"82","num_nodes":"43","size_leaf_vector":"1"}},{"base_weights":[1.0184201E-2,-7.1867496E-1,8.965154E-2,-8.0623674E-1,2.675313E-1,2.2549978E-1,-1.19478375E-1,-7.480954E-1,-1.5191138E0,1.9459138E0,-6.722711E-1,3.6475235E-1,-1.4112718E-1,8.796857E-1,-2.0241766E-1,-7.6892364E-1,6.0516787E-1,-1.6806549E0,6.445968E-3,-2.9375587E-2,1.6797523E-1,-9.0100574E-1,4.0376898E-2,3.4397796E-1,2.086979E-1,-4.3518722E-1,3.7272152E-1,3.2523377E0,2.3733194E-1,-2.7505946E-1,1.1090673E0,-6.8146694E-3,-4.0076893E-2,6.566898E-2,-2.0281387E-2,-8.9284346E-2,-1.5758395E-2,5.2632927E-3,-5.1225495E-2,8.919423E-3,3.935553E-2,1.2956507E-2,-5.7776388E-2,-2.0585634E-2,4.839545E-2,2.9842988E-1,4.237663E-2,-2.6131174E-2,7.524617E-2,-8.806357E-3,-3.7199922E-2,-5.0667446E-2,9.735982E-2],"categories":[],"categories_nodes":[],"categories_segments":[],"categories_sizes":[],"default_left":[0,0,0,0,0,1,0,0,1,0,0,1,0,0,1,0,0,0,0,0,0,0,0,1,0,0,0,0,0,1,0,0,0,0,0,0,0,0,0,0,0,0,0,0,0,0,0,0,0,0,0,0,0],"id":27,"left_children":[1,3,5,7,9,11,13,15,17,19,21,23,25,27,29,31,33,35,-1,-1,-1,37,-1,39,-1,41,43,45,47,49,51,-1,-1,-1,-1,-1,-1,-1,-1,-1,-1,-1,-1,-1,-1,-1,-1,-1,-1,-1,-1,-1,-1],"loss_changes":[1.101713E2,1.6363876E1,4.8749973E1,5.9925613E0,2.6545746E1,5.3147377E1,5.619816E1,5.003296E0,3.4113712E0,2.346111E1,4.450916E0,5.8231262E1,4.3528584E1,7.848037E1,5.9847954E1,3.1713638E0,2.680315E0,1.0148239E0,0E0,0E0,0E0,1.3506336E0,0E0,5.4966553E1,0E0,9.182594E1,4.942148E1,6.6794235E1,4.124565E1,2.7380142E1,6.067553E1,0E0,0E0,0E0,0E0,0E0,0E0,0E0,0E0,0E0,0E0,0E0,0E0,0E0,0E0,0E0,0E0,0E0,0E0,0E0,0E0,0E0,0E0],"parents":[2147483647,0,0,1,1,2,2,3,3,4,4,5,5,6,6,7,7,8,8,9,9,10,10,11,11,12,12,13,13,14,14,15,15,16,16,17,17,21,21,23,23,25,25,26,26,27,27,28,28,29,29,30,30],"right_children":[2,4,6,8,10,12,14,16,18,20,22,24,26,28,30,32,34,36,-1,-1,-1,38,-1,40,-1,42,44,46,48,50,52,-1,-1,-1,-1,-1,-1,-1,-1,-1,-1,-1,-1,-1,-1,-1,-1,-1,-1,-1,-1,-1,-1],"split_conditions":[1E0,2E-1,1.0558875E3,1.8E0,2.625E0,1.57E0,1.9325154E0,2.6666667E0,3.55E0,3.3333334E-1,1.25E1,6E0,9.775E-4,1.3526E0,2.02E0,8E-1,1.7E0,1.42E1,6.445968E-3,-2.9375587E-2,1.6797523E-1,3.36E1,4.0376898E-2,1.2966666E0,2.086979E-1,2E-1,8.21863E2,1.1325402E3,1.42E1,4.5E0,6E0,-6.8146694E-3,-4.0076893E-2,6.566898E-2,-2.0281387E-2,-8.9284346E-2,-1.5758395E-2,5.2632927E-3,-5.1225495E-2,8.919423E-3,3.935553E-2,1.2956507E-2,-5.7776388E-2,-2.0585634E-2,4.839545E-2,2.9842988E-1,4.237663E-2,-2.6131174E-2,7.524617E-2,-8.806357E-3,-3.7199922E-2,-5.0667446E-2,9.735982E-2],"split_indices":[2,67,79,54,54,42,76,14,23,1,9,40,58,23,39,50,8,35,0,0,0,26,0,23,0,62,79,81,35,76,77,0,0,0,0,0,0,0,0,0,0,0,0,0,0,0,0,0,0,0,0,0,0],"split_type":[0,0,0,0,0,0,0,0,0,0,0,0,0,0,0,0,0,0,0,0,0,0,0,0,0,0,0,0,0,0,0,0,0,0,0,0,0,0,0,0,0,0,0,0,0,0,0,0,0,0,0,0,0],"sum_hessian":[1.9E3,1.86E2,1.714E3,1.71E2,1.5E1,1.039E3,6.75E2,1.6E2,1.1E1,5E0,1E1,7.53E2,2.86E2,5.1E1,6.24E2,1.58E2,2E0,1E1,1E0,2E0,3E0,9E0,1E0,7.5E2,3E0,1.82E2,1.04E2,1E1,4.1E1,5.92E2,3.2E1,8E0,1.5E2,1E0,1E0,9E0,1E0,1E0,8E0,5.47E2,2.03E2,9.3E1,8.9E1,4.5E1,5.9E1,4E0,6E0,2.6E1,1.5E1,4.9E2,1.02E2,9E0,2.3E1],"tree_param":{"num_deleted":"0","num_feature":"82","num_nodes":"53","size_leaf_vector":"1"}},{"base_weights":[-1.29321525E-2,8.396581E-2,-4.7915608E-1,5.324371E-1,-7.950031E-4,-6.384439E-1,3.854632E-2,4.6147022E-1,3.2705457E0,-1.0719052E-1,3.6718947E-1,-6.6942644E-1,1.0368153E-1,2.5185695E-1,-1.6462024E-1,3.7621072E-1,2.8763115E0,2.0488219E-1,5.3878304E-2,-1.2984428E-1,2.1553125E0,7.2132874E-1,-1.194982E-1,-6.9653577E-1,1.117712E0,1.7579157E0,-3.6010745E-1,3.2797184E-2,-2.5733156E-2,1.9338275E-1,-3.2573063E-3,-7.588511E-3,8.385378E-2,-6.9712475E-2,1.9378659E-1,7.992781E-3,7.723369E-2,3.5904553E-2,-2.8933927E-2,-2.7939713E-2,-5.4907568E-2,-1.9650908E-2,1.4124756E-1,-2.6055083E-2,1.3868715E-1,8.456333E-2,-2.9295301E-2],"categories":[],"categories_nodes":[],"categories_segments":[],"categories_sizes":[],"default_left":[0,0,0,0,0,0,0,0,0,0,0,0,0,0,0,0,0,0,0,0,0,0,0,0,0,0,0,0,0,0,0,0,0,0,0,0,0,0,0,0,0,0,0,0,0,0,0],"id":28,"left_children":[1,3,5,7,9,11,13,15,17,19,21,23,-1,-1,25,27,29,-1,-1,31,33,35,37,39,41,43,45,-1,-1,-1,-1,-1,-1,-1,-1,-1,-1,-1,-1,-1,-1,-1,-1,-1,-1,-1,-1],"loss_changes":[8.3751625E1,5.835005E1,2.6330528E1,4.5903625E1,5.062361E1,2.1890732E1,7.801077E1,4.812516E1,6.4673767E0,5.168782E1,5.0069206E1,1.2502968E1,0E0,0E0,2.8444548E1,5.815355E1,2.3579926E1,0E0,0E0,3.9635227E1,6.6471085E1,7.741714E1,4.7721897E1,1.26076355E1,1.1426968E1,1.7651018E1,3.248834E1,0E0,0E0,0E0,0E0,0E0,0E0,0E0,0E0,0E0,0E0,0E0,0E0,0E0,0E0,0E0,0E0,0E0,0E0,0E0,0E0],"parents":[2147483647,0,0,1,1,2,2,3,3,4,4,5,5,6,6,7,7,8,8,9,9,10,10,11,11,14,14,15,15,16,16,19,19,20,20,21,21,22,22,23,23,24,24,25,25,26,26],"right_children":[2,4,6,8,10,12,14,16,18,20,22,24,-1,-1,26,28,30,-1,-1,32,34,36,38,40,42,44,46,-1,-1,-1,-1,-1,-1,-1,-1,-1,-1,-1,-1,-1,-1,-1,-1,-1,-1,-1,-1],"split_conditions":[2.2766666E0,6.8848663E2,3.482857E1,6.666667E-1,1.4333334E-4,3.9475E-3,1.812E0,3.3333334E-1,1E0,2.2366667E0,2.5533333E1,2.3177024E3,1.0368153E-1,2.5185695E-1,3.6E0,4.25E0,6.3333335E0,2.0488219E-1,5.3878304E-2,5.4E0,2.572E1,3.25E0,2.857143E-1,1.4125E1,2.8E0,3.1E0,6.897921E2,3.2797184E-2,-2.5733156E-2,1.9338275E-1,-3.2573063E-3,-7.588511E-3,8.385378E-2,-6.9712475E-2,1.9378659E-1,7.992781E-3,7.723369E-2,3.5904553E-2,-2.8933927E-2,-2.7939713E-2,-5.4907568E-2,-1.9650908E-2,1.4124756E-1,-2.6055083E-2,1.3868715E-1,8.456333E-2,-2.9295301E-2],"split_indices":[23,79,64,41,21,58,42,4,15,16,12,79,0,0,8,28,2,0,0,66,38,28,62,61,22,8,80,0,0,0,0,0,0,0,0,0,0,0,0,0,0,0,0,0,0,0,0],"split_type":[0,0,0,0,0,0,0,0,0,0,0,0,0,0,0,0,0,0,0,0,0,0,0,0,0,0,0,0,0,0,0,0,0,0,0,0,0,0,0,0,0,0,0,0,0,0,0],"sum_hessian":[1.852E3,1.534E3,3.18E2,2.43E2,1.291E3,2.43E2,7.5E1,2.38E2,5E0,1.002E3,2.89E2,2.41E2,2E0,2E0,7.3E1,2.31E2,7E0,3E0,2E0,9.93E2,9E0,1.67E2,1.22E2,2.38E2,3E0,6E0,6.7E1,1.76E2,5.5E1,5E0,2E0,9.82E2,1.1E1,3E0,6E0,1E2,6.7E1,4.3E1,7.9E1,1.79E2,5.9E1,2E0,1E0,2E0,4E0,6E0,6.1E1],"tree_param":{"num_deleted":"0","num_feature":"82","num_nodes":"47","size_leaf_vector":"1"}},{"base_weights":[-4.9253743E-2,-4.9992654E-1,5.4643437E-2,2.4133666E0,-5.319761E-1,-1.3568264E-1,2.1038216E-1,-3.3753198E-2,1.8339324E-1,-8.29245E-2,-4.7979143E-1,-1.7816441E-1,1.4507607E0,8.5089034E-1,6.3779436E-2,7.647865E-1,-5.3663164E-1,5.5594367E-1,-2.6351342E-1,-4.4377372E-1,2.435009E0,-7.313214E-1,1.0243974E0,1.8564706E-1,4.2219985E-2,4.002924E-3,1.3138871E-1,-3.6638733E-3,-3.466807E-2,-3.23147E-2,5.2488234E-2,-6.0092576E-2,-1.04266675E-2,-4.69062E-2,2.6403401E-2,1.8332057E-1,-1.1118221E-3,-8.2425974E-2,1.9597076E-2,6.825241E-2,3.2566325E-3,2.5637442E-2,-4.595801E-3],"categories":[],"categories_nodes":[],"categories_segments":[],"categories_sizes":[],"default_left":[1,0,0,0,0,0,0,0,0,0,0,0,0,0,0,0,0,0,0,0,0,0,0,0,0,0,0,0,0,0,0,0,0,0,0,0,0,0,0,0,0,0,0],"id":29,"left_children":[1,3,5,7,9,11,13,-1,-1,-1,15,17,19,21,23,25,27,29,31,33,35,37,39,-1,41,-1,-1,-1,-1,-1,-1,-1,-1,-1,-1,-1,-1,-1,-1,-1,-1,-1,-1],"loss_changes":[8.772798E1,3.4056633E1,4.5172E1,1.7973764E1,1.9662071E1,4.6491383E1,7.863414E1,0E0,0E0,0E0,2.4038277E1,4.206295E1,3.4645058E1,4.357505E1,5.357753E1,1.8924217E1,2.3188042E1,4.223677E1,3.07033E1,3.8584046E0,3.6391823E1,1.7130196E1,4.598625E1,0E0,4.296523E1,0E0,0E0,0E0,0E0,0E0,0E0,0E0,0E0,0E0,0E0,0E0,0E0,0E0,0E0,0E0,0E0,0E0,0E0],"parents":[2147483647,0,0,1,1,2,2,3,3,4,4,5,5,6,6,10,10,11,11,12,12,13,13,14,14,15,15,16,16,17,17,18,18,19,19,20,20,21,21,22,22,24,24],"right_children":[2,4,6,8,10,12,14,-1,-1,-1,16,18,20,22,24,26,28,30,32,34,36,38,40,-1,42,-1,-1,-1,-1,-1,-1,-1,-1,-1,-1,-1,-1,-1,-1,-1,-1,-1,-1],"split_conditions":[8.8666664E1,5.052745E2,3.142857E0,1.8333334E1,5.6971924E2,1.7836523E3,3.4468086E0,-3.3753198E-2,1.8339324E-1,-8.29245E-2,6.501157E2,6.7477856E2,1.3857142E1,1.5E0,2.75E0,6.3717755E2,3.2E0,8E0,7.025E-1,1.946E0,2.76E0,4E-1,1.67125E0,1.8564706E-1,6.2E-1,4.002924E-3,1.3138871E-1,-3.6638733E-3,-3.466807E-2,-3.23147E-2,5.2488234E-2,-6.0092576E-2,-1.04266675E-2,-4.69062E-2,2.6403401E-2,1.8332057E-1,-1.1118221E-3,-8.2425974E-2,1.9597076E-2,6.825241E-2,3.2566325E-3,2.5637442E-2,-4.595801E-3],"split_indices":[0,79,50,0,79,79,50,0,0,0,79,79,61,14,76,79,24,77,68,42,34,41,68,0,68,0,0,0,0,0,0,0,0,0,0,0,0,0,0,0,0,0,0],"split_type":[0,0,0,0,0,0,0,0,0,0,0,0,0,0,0,0,0,0,0,0,0,0,0,0,0,0,0,0,0,0,0,0,0,0,0,0,0,0,0,0,0,0,0],"sum_hessian":[1.872E3,3.5E2,1.522E3,3E0,3.47E2,6.85E2,8.37E2,1E0,2E0,1.4E1,3.33E2,6.68E2,1.7E1,1.55E2,6.82E2,1.4E1,3.19E2,6.9E1,5.99E2,6E0,1.1E1,1.5E1,1.4E2,3E0,6.79E2,1.1E1,3E0,8.1E1,2.38E2,2E1,4.9E1,3.2E1,5.67E2,4E0,2E0,7E0,4E0,8E0,7E0,1.03E2,3.7E1,1.5E2,5.29E2],"tree_param":{"num_deleted":"0","num_feature":"82","num_nodes":"43","size_leaf_vector":"1"}},{"base_weights":[-1.1147715E-3,-5.65298E-1,6.3907005E-2,-6.0883224E-1,9.07502E-1,2.8621998E-1,-7.608971E-2,-6.4218014E-1,1.1023892E0,1.298546E-1,-5.8656603E-1,2.5264195E-1,4.5941195E0,-8.039943E-1,4.006617E-3,-6.646454E-1,4.78618E-2,-2.3215065E-2,8.896933E-2,7.0749107E-3,-4.382101E-2,4.7243166E-1,-6.6424526E-2,-3.2364156E-2,3.0331454E-1,6.3578254E-1,-1.0376197E0,8.361415E-1,-1.1342849E-1,-3.042367E-2,-8.477559E-2,1.9387709E-2,1.658108E-1,-2.8052986E-2,1.880305E-2,1.3114007E-1,-7.153546E-2,-5.801922E-2,6.2845305E-2,1.2769711E-1,2.1476677E-2,9.765844E-2,-7.45257E-3],"categories":[],"categories_nodes":[],"categories_segments":[],"categories_sizes":[],"default_left":[0,0,1,1,0,1,0,1,0,0,0,0,0,0,0,0,0,0,0,0,0,0,1,0,0,0,0,0,0,0,0,0,0,0,0,0,0,0,0,0,0,0,0],"id":30,"left_children":[1,3,5,7,9,11,13,15,17,-1,19,21,23,25,27,29,-1,-1,-1,-1,-1,31,33,-1,-1,35,37,39,41,-1,-1,-1,-1,-1,-1,-1,-1,-1,-1,-1,-1,-1,-1],"loss_changes":[6.922253E1,1.305537E1,5.2682045E1,1.15504E1,1.6669538E1,9.344095E1,6.0579506E1,7.355362E0,5.068752E0,0E0,9.681418E-1,4.5614273E1,4.2507812E1,3.530565E1,9.166022E1,9.680908E0,0E0,0E0,0E0,0E0,0E0,9.142385E1,5.8430122E1,0E0,0E0,6.5344826E1,2.6528633E1,7.992568E1,6.0805286E1,0E0,0E0,0E0,0E0,0E0,0E0,0E0,0E0,0E0,0E0,0E0,0E0,0E0,0E0],"parents":[2147483647,0,0,1,1,2,2,3,3,4,4,5,5,6,6,7,7,8,8,10,10,11,11,12,12,13,13,14,14,15,15,21,21,22,22,25,25,26,26,27,27,28,28],"right_children":[2,4,6,8,10,12,14,16,18,-1,20,22,24,26,28,30,-1,-1,-1,-1,-1,32,34,-1,-1,36,38,40,42,-1,-1,-1,-1,-1,-1,-1,-1,-1,-1,-1,-1,-1,-1],"split_conditions":[6E1,1.37E0,1.0933334E0,7E0,3.0766666E0,1.765E0,1.1933334E0,2.9302325E-2,4E0,1.298546E-1,4.1666668E1,1.1329128E3,2.0666666E1,7.1625E-1,1.2E0,1.5E0,4.78618E-2,-2.3215065E-2,8.896933E-2,7.0749107E-3,-4.382101E-2,1.1318785E3,3.6E0,-3.2364156E-2,3.0331454E-1,1.4228965E3,1.6965859E3,1.3333333E1,1.2133334E0,-3.042367E-2,-8.477559E-2,1.9387709E-2,1.658108E-1,-2.8052986E-2,1.880305E-2,1.3114007E-1,-7.153546E-2,-5.801922E-2,6.2845305E-2,1.2769711E-1,2.1476677E-2,9.765844E-2,-7.45257E-3],"split_indices":[0,42,23,50,23,68,16,72,0,0,0,81,12,68,68,2,0,0,0,0,0,81,24,0,0,80,80,35,16,0,0,0,0,0,0,0,0,0,0,0,0,0,0],"split_type":[0,0,0,0,0,0,0,0,0,0,0,0,0,0,0,0,0,0,0,0,0,0,0,0,0,0,0,0,0,0,0,0,0,0,0,0,0,0,0,0,0,0,0],"sum_hessian":[1.885E3,1.94E2,1.691E3,1.89E2,5E0,6.53E2,1.038E3,1.86E2,3E0,2E0,3E0,6.49E2,4E0,1.02E2,9.36E2,1.84E2,2E0,1E0,2E0,1E0,2E0,3.84E2,2.65E2,1E0,3E0,1.4E1,8.8E1,1.15E2,8.21E2,1.76E2,8E0,3.74E2,1E1,1.25E2,1.4E2,7E0,7E0,8.4E1,4E0,2.1E1,9.4E1,1.3E1,8.08E2],"tree_param":{"num_deleted":"0","num_feature":"82","num_nodes":"43","size_leaf_vector":"1"}},{"base_weights":[-2.4161007E-2,-5.1346546E-1,5.8110297E-2,-5.970051E-1,1.196825E0,3.7002108E-1,-3.530931E-2,1.4374131E-1,-6.3506126E-1,2.5341341E0,4.4240028E-2,5.980522E-1,-1.9503728E-1,-6.6594595E-1,3.685941E-2,-6.7598075E-1,1.06616095E-1,3.31029E0,-3.3666123E-2,-3.1617165E-2,6.9133006E-2,1.9116422E0,2.5444138E-1,4.9504615E-2,-1.7144973E0,-4.5023713E-1,-1.7435939E0,1.2687026E-2,1.8151011E0,-2.885068E-2,-7.451664E-2,4.995655E-2,1.8191485E-1,5.1323313E-2,1.5492812E-1,-2.4996448E-2,3.189236E-2,-1.0825346E-2,8.618077E-2,-2.4036543E-2,-9.3366414E-2,1.3011551E-1,-2.8111834E-2,-9.5211916E-2,-2.9239807E-2,-7.8487117E-4,5.732719E-2,5.2595655E-3,1.8771283E-1],"categories":[],"categories_nodes":[],"categories_segments":[],"categories_sizes":[],"default_left":[0,0,0,0,0,0,0,0,0,0,0,0,0,0,1,0,0,0,0,0,0,0,0,0,0,0,0,1,0,0,0,0,0,0,0,0,0,0,0,0,0,0,0,0,0,0,0,0,0],"id":31,"left_children":[1,3,5,7,9,11,13,-1,15,17,19,21,23,25,27,29,-1,31,-1,-1,-1,33,35,37,39,41,43,45,47,-1,-1,-1,-1,-1,-1,-1,-1,-1,-1,-1,-1,-1,-1,-1,-1,-1,-1,-1,-1],"loss_changes":[7.607288E1,3.9577072E1,4.7159298E1,3.6178085E1,1.9925606E1,4.817802E1,5.6732796E1,0E0,3.065731E1,1.716581E1,8.118737E0,1.1957636E2,4.0214615E1,2.8969612E1,4.8076454E1,1.9691559E1,0E0,1.5524673E-1,0E0,0E0,0E0,5.4604248E1,6.1635628E1,4.2234455E1,1.9306793E0,3.8386574E1,2.7956505E0,3.5581207E1,4.9341797E1,0E0,0E0,0E0,0E0,0E0,0E0,0E0,0E0,0E0,0E0,0E0,0E0,0E0,0E0,0E0,0E0,0E0,0E0,0E0,0E0],"parents":[2147483647,0,0,1,1,2,2,3,3,4,4,5,5,6,6,8,8,9,9,10,10,11,11,12,12,13,13,14,14,15,15,17,17,21,21,22,22,23,23,24,24,25,25,26,26,27,27,28,28],"right_children":[2,4,6,8,10,12,14,-1,16,18,20,22,24,26,28,30,-1,32,-1,-1,-1,34,36,38,40,42,44,46,48,-1,-1,-1,-1,-1,-1,-1,-1,-1,-1,-1,-1,-1,-1,-1,-1,-1,-1,-1,-1],"split_conditions":[1.3333334E0,1.825E1,1.956E1,-2E0,1.9E1,1.42286E0,2.07E1,1.4374131E-1,7.5E-1,1.9333334E1,1.2E1,2.75E0,2.8571428E-3,4.25E0,1.4E-2,1.04E1,1.06616095E-1,4.668E-1,-3.3666123E-2,-3.1617165E-2,6.9133006E-2,1.28875E0,1.8333334E0,2.0666666E1,1.44E0,1.8E0,3.2727273E0,2.50375E0,1.0699668E3,-2.885068E-2,-7.451664E-2,4.995655E-2,1.8191485E-1,5.1323313E-2,1.5492812E-1,-2.4996448E-2,3.189236E-2,-1.0825346E-2,8.618077E-2,-2.4036543E-2,-9.3366414E-2,1.3011551E-1,-2.8111834E-2,-9.5211916E-2,-2.9239807E-2,-7.8487117E-4,5.732719E-2,5.2595655E-3,1.8771283E-1],"split_indices":[14,35,38,9,61,49,64,0,62,9,12,76,59,76,32,12,0,23,0,0,0,75,66,12,34,66,48,75,80,0,0,0,0,0,0,0,0,0,0,0,0,0,0,0,0,0,0,0,0],"split_type":[0,0,0,0,0,0,0,0,0,0,0,0,0,0,0,0,0,0,0,0,0,0,0,0,0,0,0,0,0,0,0,0,0,0,0,0,0,0,0,0,0,0,0,0,0,0,0,0,0],"sum_hessian":[1.888E3,2.71E2,1.617E3,2.59E2,1.2E1,3.72E2,1.245E3,2E0,2.57E2,5E0,7E0,2.65E2,1.07E2,1.27E2,1.118E3,2.54E2,3E0,4E0,1E0,5E0,2E0,5.4E1,2.11E2,9.3E1,1.4E1,1.07E2,2E1,1.104E3,1.4E1,2.28E2,2.6E1,1E0,3E0,3.2E1,2.2E1,7.1E1,1.4E2,8.1E1,1.2E1,2E0,1.2E1,3E0,1.04E2,1.7E1,3E0,1.078E3,2.6E1,8E0,6E0],"tree_param":{"num_deleted":"0","num_feature":"82","num_nodes":"49","size_leaf_vector":"1"}},{"base_weights":[-6.014534E-3,7.473719E-2,-4.6445438E-1,1.3746624E-1,-3.7018827E-1,-6.2994E-1,1.9112015E-1,4.2217854E-1,3.5191674E-2,-6.257413E-1,3.3112925E-1,-5.348332E-1,-1.3299862E0,9.7666305E-1,-6.573587E-1,6.7130536E-1,-1.2266751E-1,-1.1991316E-1,3.2992297E-1,-6.8502325E-1,1.6203818E0,8.9994943E-1,-3.9369306E-1,-6.29477E-1,1.3074176E0,-2.99905E-1,-1.5036417E0,6.630377E-1,1.7891392E-1,-1.4357228E0,1.6147077E-2,1.8659173E-1,3.0344715E-2,6.360731E-2,-1.8751547E-2,-7.323079E-3,8.24792E-2,2.8002752E-2,-7.561018E-3,-3.650908E-2,8.178278E-2,2.2224916E-2,1.2870081E-1,-7.400296E-3,9.78886E-2,7.1599945E-2,-6.1484188E-2,1.3402614E-2,-3.4864742E-2,-1.9725496E-2,1.04658686E-1,9.6200703E-4,-2.5954092E-2,-2.9705638E-2,-8.0799125E-2,-7.8123234E-2,4.9629834E-2,-7.909389E-2,-3.557025E-2,4.604451E-2,-6.3932486E-2],"categories":[],"categories_nodes":[],"categories_segments":[],"categories_sizes":[],"default_left":[0,0,0,0,0,0,0,0,0,0,0,1,0,0,0,0,0,0,0,0,0,0,0,0,0,0,0,0,0,0,0,0,0,0,0,0,0,0,0,0,0,0,0,0,0,0,0,0,0,0,0,0,0,0,0,0,0,0,0,0,0],"id":32,"left_children":[1,3,5,7,9,11,13,15,17,19,21,23,25,27,29,31,33,35,37,39,41,43,45,47,49,51,53,55,-1,57,59,-1,-1,-1,-1,-1,-1,-1,-1,-1,-1,-1,-1,-1,-1,-1,-1,-1,-1,-1,-1,-1,-1,-1,-1,-1,-1,-1,-1,-1,-1],"loss_changes":[6.896559E1,4.425994E1,3.0388588E1,4.04312E1,3.533507E1,1.4135826E1,3.8633457E1,4.9897377E1,4.6805244E1,2.0284245E1,2.2205864E1,3.5345795E1,4.199909E0,2.210544E1,1.47017E1,4.7412437E1,4.1309097E1,3.1763407E1,3.9171158E1,1.5970848E1,3.3413057E0,3.354628E1,3.8391186E1,1.1691048E1,1.4198778E1,3.5973334E-1,1.2878227E0,2.2087051E1,0E0,2.508564E-1,1.9920832E1,0E0,0E0,0E0,0E0,0E0,0E0,0E0,0E0,0E0,0E0,0E0,0E0,0E0,0E0,0E0,0E0,0E0,0E0,0E0,0E0,0E0,0E0,0E0,0E0,0E0,0E0,0E0,0E0,0E0,0E0],"parents":[2147483647,0,0,1,1,2,2,3,3,4,4,5,5,6,6,7,7,8,8,9,9,10,10,11,11,12,12,13,13,14,14,15,15,16,16,17,17,18,18,19,19,20,20,21,21,22,22,23,23,24,24,25,25,26,26,27,27,29,29,30,30],"right_children":[2,4,6,8,10,12,14,16,18,20,22,24,26,28,30,32,34,36,38,40,42,44,46,48,50,52,54,56,-1,58,60,-1,-1,-1,-1,-1,-1,-1,-1,-1,-1,-1,-1,-1,-1,-1,-1,-1,-1,-1,-1,-1,-1,-1,-1,-1,-1,-1,-1,-1,-1],"split_conditions":[2.1526E0,1.3973728E3,2.275E1,2.4285715E0,1.7391978E3,3E0,1.0600996E3,4.4E-4,2.025E-4,5E0,3.75E0,2.4456522E0,2.775E0,1.0487102E3,1.29784E3,6.4793756E2,7.7E-1,5.125E0,3.875E-1,3.3333334E-3,3E0,1.2684265E3,1.445372E3,2.0666666E0,4.8E1,5E0,1.768E0,8.68576E2,1.7891392E-1,1.1889143E3,1.5512662E3,1.8659173E-1,3.0344715E-2,6.360731E-2,-1.8751547E-2,-7.323079E-3,8.24792E-2,2.8002752E-2,-7.561018E-3,-3.650908E-2,8.178278E-2,2.2224916E-2,1.2870081E-1,-7.400296E-3,9.78886E-2,7.1599945E-2,-6.1484188E-2,1.3402614E-2,-3.4864742E-2,-1.9725496E-2,1.04658686E-1,9.6200703E-4,-2.5954092E-2,-2.9705638E-2,-8.0799125E-2,-7.8123234E-2,4.9629834E-2,-7.909389E-2,-3.557025E-2,4.604451E-2,-6.3932486E-2],"split_indices":[75,79,35,74,79,2,80,59,59,66,76,24,60,80,80,81,49,66,65,5,2,80,81,23,0,14,42,79,0,81,80,0,0,0,0,0,0,0,0,0,0,0,0,0,0,0,0,0,0,0,0,0,0,0,0,0,0,0,0,0,0],"split_type":[0,0,0,0,0,0,0,0,0,0,0,0,0,0,0,0,0,0,0,0,0,0,0,0,0,0,0,0,0,0,0,0,0,0,0,0,0,0,0,0,0,0,0,0,0,0,0,0,0,0,0,0,0,0,0,0,0,0,0,0,0],"sum_hessian":[1.861E3,1.583E3,2.78E2,1.388E3,1.95E2,2.22E2,5.6E1,3.66E2,1.022E3,1.43E2,5.2E1,1.97E2,2.5E1,2.9E1,2.7E1,2.51E2,1.15E2,6.7E2,3.52E2,1.4E2,3E0,2.9E1,2.3E1,1.88E2,9E0,4E0,2.1E1,2.7E1,2E0,1.2E1,1.5E1,4E0,2.47E2,1.7E1,9.8E1,6.61E2,9E0,2.38E2,1.14E2,1.38E2,2E0,2E0,1E0,1.5E1,1.4E1,7E0,1.6E1,1.3E1,1.75E2,3E0,6E0,2E0,2E0,3E0,1.8E1,3E0,2.4E1,9E0,3E0,9E0,6E0],"tree_param":{"num_deleted":"0","num_feature":"82","num_nodes":"61","size_leaf_vector":"1"}},{"base_weights":[7.762095E-3,-5.0406265E-1,7.116123E-2,-4.397987E-1,-2.0476527E0,8.1897277E-1,3.84409E-2,-5.5583364E-1,6.948411E-1,-1.1440968E-1,-9.096706E-3,1.3968121E0,-4.2256036E-1,1.9637346E0,2.7546246E-2,-4.8148048E-1,-1.931569E0,-2.2308178E-1,2.7208543E0,-2.7100796E-1,1.8999751E0,-9.1729546E-1,6.1972976E-1,-2.595358E-1,3.1186256E0,3.7391447E-2,-1.9289392E0,-2.6557226E-2,4.988177E-2,-1.02206185E-1,-2.577827E-2,-3.905065E-2,1.04150176E-1,2.6226057E-2,1.5276083E-1,-4.0085744E-2,7.941756E-2,1.4496706E-1,4.0030513E-2,2.1662032E-2,-7.852805E-2,7.42554E-2,-9.825933E-3,4.890771E-2,-4.9907528E-2,1.914097E-1,-1.073041E-2,4.3743285E-3,-1.4849933E-2,-1.0980993E-1,-3.757205E-2],"categories":[],"categories_nodes":[],"categories_segments":[],"categories_sizes":[],"default_left":[0,0,0,1,0,0,0,0,0,0,0,0,0,0,1,0,0,0,0,0,0,0,0,0,0,1,0,0,0,0,0,0,0,0,0,0,0,0,0,0,0,0,0,0,0,0,0,0,0,0,0],"id":33,"left_children":[1,3,5,7,9,11,13,15,17,-1,-1,19,21,23,25,27,29,31,33,35,37,39,41,43,45,47,49,-1,-1,-1,-1,-1,-1,-1,-1,-1,-1,-1,-1,-1,-1,-1,-1,-1,-1,-1,-1,-1,-1,-1,-1],"loss_changes":[6.0943104E1,1.9633255E1,4.0855614E1,2.6717793E1,3.1739502E0,5.0808712E1,3.3548523E1,1.7686817E1,3.5941727E1,0E0,0E0,4.0795807E1,1.24285965E1,2.3918114E1,3.077575E1,1.3311722E1,3.8052368E-1,1.963977E1,2.8036995E0,1.3114702E1,3.8329468E1,1.4796568E1,5.9427595E0,4.633049E0,1.5012501E1,2.661032E1,8.672657E-1,0E0,0E0,0E0,0E0,0E0,0E0,0E0,0E0,0E0,0E0,0E0,0E0,0E0,0E0,0E0,0E0,0E0,0E0,0E0,0E0,0E0,0E0,0E0,0E0],"parents":[2147483647,0,0,