{"learner":{"attributes":{"scikit_learn":"{\"_estimator_type\": \"regressor\"}"},"feature_names":["roll_3_minutes","roll_3_starts","roll_3_total_points","roll_3_goals_scored","roll_3_assists","roll_3_expected_goals","roll_3_expected_assists","roll_3_expected_goal_involvements","roll_3_ict_index","roll_3_bps","roll_3_bonus","roll_3_threat","roll_3_influence","roll_3_creativity","roll_3_us_key_passes","roll_3_us_xGChain","roll_3_us_xGBuildup","roll_3_goals_scored_per90","roll_3_assists_per90","roll_3_expected_goals_per90","roll_3_expected_assists_per90","roll_3_expected_goal_involvements_per90","roll_3_us_key_passes_per90","roll_3_us_xGChain_per90","roll_3_us_xGBuildup_per90","roll_3_total_points_per90","roll_hist_count_3","roll_5_minutes","roll_5_starts","roll_5_total_points","roll_5_goals_scored","roll_5_assists","roll_5_expected_goals","roll_5_expected_assists","roll_5_expected_goal_involvements","roll_5_ict_index","roll_5_bps","roll_5_bonus","roll_5_threat","roll_5_influence","roll_5_creativity","roll_5_us_key_passes","roll_5_us_xGChain","roll_5_us_xGBuildup","roll_5_goals_scored_per90","roll_5_assists_per90","roll_5_expected_goals_per90","roll_5_expected_assists_per90","roll_5_expected_goal_involvements_per90","roll_5_us_key_passes_per90","roll_5_us_xGChain_per90","roll_5_us_xGBuildup_per90","roll_5_total_points_per90","roll_hist_count_5","roll_8_minutes","roll_8_starts","roll_8_total_points","roll_8_goals_scored","roll_8_assists","roll_8_expected_goals","roll_8_expected_assists","roll_8_expected_goal_involvements","roll_8_ict_index","roll_8_bps","roll_8_bonus","roll_8_threat","roll_8_influence","roll_8_creativity","roll_8_us_key_passes","roll_8_us_xGChain","roll_8_us_xGBuildup","roll_8_goals_scored_per90","roll_8_assists_per90","roll_8_expected_goals_per90","roll_8_expected_assists_per90","roll_8_expected_goal_involvements_per90","roll_8_us_key_passes_per90","roll_8_us_xGChain_per90","roll_8_us_xGBuildup_per90","roll_8_total_points_per90","roll_hist_count_8","was_home","opp_dyn_attack","opp_dyn_defence","opp_dyn_overall"],"feature_types":["float","float","float","float","float","float","float","float","float","float","float","float","float","float","float","float","float","float","float","float","float","float","float","float","float","float","float","float","float","float","float","float","float","float","float","float","float","float","float","float","float","float","float","float","float","float","float","float","float","float","float","float","float","float","float","float","float","float","float","float","float","float","float","float","float","float","float","float","float","float","float","float","float","float","float","float","float","float","float","float","float","i","float","float","float"],"gradient_booster":{"model":{"cats":{"enc":[],"feature_segments":[],"sorted_idx":[]},"gbtree_model_param":{"num_parallel_tree":"1","num_trees":"300"},"iteration_indptr":[0,1,2,3,4,5,6,7,8,9,10,11,12,13,14,15,16,17,18,19,20,21,22,23,24,25,26,27,28,29,30,31,32,33,34,35,36,37,38,39,40,41,42,43,44,45,46,47,48,49,50,51,52,53,54,55,56,57,58,59,60,61,62,63,64,65,66,67,68,69,70,71,72,73,74,75,76,77,78,79,80,81,82,83,84,85,86,87,88,89,90,91,92,93,94,95,96,97,98,99,100,101,102,103,104,105,106,107,108,109,110,111,112,113,114,115,116,117,118,119,120,121,122,123,124,125,126,127,128,129,130,131,132,133,134,135,136,137,138,139,140,141,142,143,144,145,146,147,148,149,150,151,152,153,154,155,156,157,158,159,160,161,162,163,164,165,166,167,168,169,170,171,172,173,174,175,176,177,178,179,180,181,182,183,184,185,186,187,188,189,190,191,192,193,194,195,196,197,198,199,200,201,202,203,204,205,206,207,208,209,210,211,212,213,214,215,216,217,218,219,220,221,222,223,224,225,226,227,228,229,230,231,232,233,234,235,236,237,238,239,240,241,242,243,244,245,246,247,248,249,250,251,252,253,254,255,256,257,258,259,260,261,262,263,264,265,266,267,268,269,270,271,272,273,274,275,276,277,278,279,280,281,282,283,284,285,286,287,288,289,290,291,292,293,294,295,296,297,298,299,300],"tree_info":[0,0,0,0,0,0,0,0,0,0,0,0,0,0,0,0,0,0,0,0,0,0,0,0,0,0,0,0,0,0,0,0,0,0,0,0,0,0,0,0,0,0,0,0,0,0,0,0,0,0,0,0,0,0,0,0,0,0,0,0,0,0,0,0,0,0,0,0,0,0,0,0,0,0,0,0,0,0,0,0,0,0,0,0,0,0,0,0,0,0,0,0,0,0,0,0,0,0,0,0,0,0,0,0,0,0,0,0,0,0,0,0,0,0,0,0,0,0,0,0,0,0,0,0,0,0,0,0,0,0,0,0,0,0,0,0,0,0,0,0,0,0,0,0,0,0,0,0,0,0,0,0,0,0,0,0,0,0,0,0,0,0,0,0,0,0,0,0,0,0,0,0,0,0,0,0,0,0,0,0,0,0,0,0,0,0,0,0,0,0,0,0,0,0,0,0,0,0,0,0,0,0,0,0,0,0,0,0,0,0,0,0,0,0,0,0,0,0,0,0,0,0,0,0,0,0,0,0,0,0,0,0,0,0,0,0,0,0,0,0,0,0,0,0,0,0,0,0,0,0,0,0,0,0,0,0,0,0,0,0,0,0,0,0,0,0,0,0,0,0,0,0,0,0,0,0,0,0,0,0,0,0,0,0,0,0,0,0,0,0,0,0,0,0,0,0,0,0,0,0],"trees":[{"base_weights":[1.7457426E-2,-9.027337E-1,9.2818767E-1,-1.2813567E0,-5.7545718E-2,6.0439414E-1,2.3869898E0,-1.4045392E-1,-1.1238735E0,-1.0882037E0,1.8703485E-1,-3.171652E-1,7.937417E-1,3.063388E0,9.407819E-1,-1.23969E0,7.296218E-2,4.0285683E0,-1.301071E0,1.190923E-1,2.5160697E-1,7.247339E-1,-6.591063E-1,6.337651E-1,1.7947527E0,2.5384388E0,5.8590865E0,1.9747572E0,1.4178088E-1,6.138755E-3,-6.5911934E-2,-6.626215E-2,6.180532E-2,2.510713E-1,5.1071305E-2,-7.061713E-2,1.5107131E-1,3.6741514E-2,-1.9254513E-2,-3.490707E-2,1.2045091E-1,-7.088827E-2,-1.663174E-2,1.388443E-1,2.6068999E-2,5.1456522E-2,1.7266785E-1,2.3801315E-1,8.690193E-2,3.171409E-2,3.4924582E-1,2.3523788E-1,3.8408857E-2,-2.2920411E-2,1.5183653E-1],"categories":[],"categories_nodes":[],"categories_segments":[],"categories_sizes":[],"default_left":[1,1,0,0,0,0,0,0,1,0,0,0,0,0,0,0,0,0,0,0,0,0,0,0,0,0,0,0,0,0,0,0,0,0,0,0,0,0,0,0,0,0,0,0,0,0,0,0,0,0,0,0,0,0,0],"id":0,"left_children":[1,3,5,7,9,11,13,-1,15,17,19,21,23,25,27,29,31,33,35,37,-1,39,41,43,45,47,49,51,53,-1,-1,-1,-1,-1,-1,-1,-1,-1,-1,-1,-1,-1,-1,-1,-1,-1,-1,-1,-1,-1,-1,-1,-1,-1,-1],"loss_changes":[1.9492946E3,3.70175E2,5.507353E2,1.890747E2,9.069985E1,1.6741803E2,2.0449902E2,0E0,1.0072363E2,8.0395805E1,9.5194626E1,5.8905647E1,1.2617255E2,1.9646143E2,5.6724186E1,7.100903E1,1.0734856E2,3.8279839E0,3.649234E1,8.9690956E1,0E0,9.993941E1,3.0240807E1,1.6401956E2,1.3486124E2,2.1046326E2,1.2497894E2,9.520484E1,7.0892746E1,0E0,0E0,0E0,0E0,0E0,0E0,0E0,0E0,0E0,0E0,0E0,0E0,0E0,0E0,0E0,0E0,0E0,0E0,0E0,0E0,0E0,0E0,0E0,0E0,0E0,0E0],"parents":[2147483647,0,0,1,1,2,2,3,3,4,4,5,5,6,6,8,8,9,9,10,10,11,11,12,12,13,13,14,14,15,15,16,16,17,17,18,18,19,19,21,21,22,22,23,23,24,24,25,25,26,26,27,27,28,28],"right_children":[2,4,6,8,10,12,14,-1,16,18,20,22,24,26,28,30,32,34,36,38,-1,40,42,44,46,48,50,52,54,-1,-1,-1,-1,-1,-1,-1,-1,-1,-1,-1,-1,-1,-1,-1,-1,-1,-1,-1,-1,-1,-1,-1,-1,-1,-1],"split_conditions":[5.4666668E1,1.28E1,5.6E0,1E0,9.473684E-3,5.6E0,1.1895198E3,-1.4045392E-1,3.503309E-1,1.9536903E0,7.2375E1,2.0689654E0,8.65E1,1.7625E-1,3.3933334E1,6.685678E2,1.5333333E1,4.1333332E1,1.8947369E1,1.8E1,2.5160697E-1,3.25E-2,2.7135677E0,2.8767123E0,5.4333335E-1,3.625E-2,6.606245E-1,3.9336735E-1,1.1622047E0,6.138755E-3,-6.5911934E-2,-6.626215E-2,6.180532E-2,2.510713E-1,5.1071305E-2,-7.061713E-2,1.5107131E-1,3.6741514E-2,-1.9254513E-2,-3.490707E-2,1.2045091E-1,-7.088827E-2,-1.663174E-2,1.388443E-1,2.6068999E-2,5.1456522E-2,1.7266785E-1,2.3801315E-1,8.690193E-2,3.171409E-2,3.4924582E-1,2.3523788E-1,3.8408857E-2,-2.2920411E-2,1.5183653E-1],"split_indices":[0,38,56,0,47,36,83,0,78,79,54,52,54,60,12,83,0,0,25,38,0,60,79,52,7,60,69,73,21,0,0,0,0,0,0,0,0,0,0,0,0,0,0,0,0,0,0,0,0,0,0,0,0,0,0],"split_type":[0,0,0,0,0,0,0,0,0,0,0,0,0,0,0,0,0,0,0,0,0,0,0,0,0,0,0,0,0,0,0,0,0,0,0,0,0,0,0,0,0,0,0,0,0,0,0,0,0,0,0,0,0,0,0],"sum_hessian":[2.324E3,1.156E3,1.168E3,7.98E2,3.58E2,9.57E2,2.11E2,7.3E1,7.25E2,6.8E1,2.9E2,1.63E2,7.94E2,1.43E2,6.8E1,6.61E2,6.4E1,2E0,6.6E1,2.87E2,3E0,4E1,1.23E2,6.86E2,1.08E2,1.22E2,2.1E1,2.9E1,3.9E1,3.6E1,6.25E2,2.9E1,3.5E1,1E0,1E0,6.5E1,1E0,1.29E2,1.58E2,2.2E1,1.8E1,3.6E1,8.7E1,3.3E1,6.53E2,7.5E1,3.3E1,3.1E1,9.1E1,4E0,1.7E1,8E0,2.1E1,3.3E1,6E0],"tree_param":{"num_deleted":"0","num_feature":"85","num_nodes":"55","size_leaf_vector":"1"}},{"base_weights":[-3.598E-3,-1.0924025E0,7.359699E-1,-2.536564E0,-9.599962E-1,1.5735711E-1,1.4620562E0,-1.7600179E0,-2.6789331E0,-1.2262757E0,-6.3814175E-1,1.7565044E0,-1.0595645E-2,1.1444328E0,2.6399634E0,-9.851277E-2,2.958265E-2,-1.3542463E-1,-2.0417351E-2,-1.3030285E0,-9.9801235E-2,-7.1093553E-1,2.5305433E0,5.6129396E-1,3.4509296E0,-5.11954E-1,4.2744756E-1,9.2826784E-1,3.1299567E0,2.174218E0,5.3912706E0,-6.813296E-2,-2.5601888E-3,1.02145605E-1,-4.6695754E-2,-3.8530722E-2,1.0914204E-1,1.9207025E-1,-6.858242E-2,1.477728E-1,-1.6315969E-2,2.811583E-1,8.45187E-2,2.3393105E-1,-2.9560462E-2,1.2553655E-1,6.6539557E-3,2.060981E-2,7.420769E-2,2.395252E-1,6.694975E-2,3.7763543E-2,1.5579848E-1,3.6266553E-1,-4.5034777E-2],"categories":[],"categories_nodes":[],"categories_segments":[],"categories_sizes":[],"default_left":[1,0,0,0,1,0,0,0,0,1,0,0,0,0,0,0,0,0,0,1,0,0,0,0,0,0,0,0,0,0,0,0,0,0,0,0,0,0,0,0,0,0,0,0,0,0,0,0,0,0,0,0,0,0,0],"id":1,"left_children":[1,3,5,7,9,11,13,15,17,19,21,23,25,27,29,-1,-1,-1,-1,31,33,35,37,39,41,43,45,47,49,51,53,-1,-1,-1,-1,-1,-1,-1,-1,-1,-1,-1,-1,-1,-1,-1,-1,-1,-1,-1,-1,-1,-1,-1,-1],"loss_changes":[1.8633354E3,1.7654309E2,5.786991E2,3.9084167E0,7.283649E1,2.0628897E2,2.2557275E2,8.581844E0,3.1894836E0,4.041974E1,9.198735E1,1.4590225E2,1.53072E2,2.0439838E2,1.5357996E2,0E0,0E0,0E0,0E0,3.2700317E1,5.7313175E1,6.782526E1,5.1306156E1,9.446839E1,1.05225006E2,1.3646458E2,2.2779597E2,1.2475351E2,1.3336246E2,1.473117E2,2.1741913E2,0E0,0E0,0E0,0E0,0E0,0E0,0E0,0E0,0E0,0E0,0E0,0E0,0E0,0E0,0E0,0E0,0E0,0E0,0E0,0E0,0E0,0E0,0E0,0E0],"parents":[2147483647,0,0,1,1,2,2,3,3,4,4,5,5,6,6,7,7,8,8,9,9,10,10,11,11,12,12,13,13,14,14,19,19,20,20,21,21,22,22,23,23,24,24,25,25,26,26,27,27,28,28,29,29,30,30],"right_children":[2,4,6,8,10,12,14,16,18,20,22,24,26,28,30,-1,-1,-1,-1,32,34,36,38,40,42,44,46,48,50,52,54,-1,-1,-1,-1,-1,-1,-1,-1,-1,-1,-1,-1,-1,-1,-1,-1,-1,-1,-1,-1,-1,-1,-1,-1],"split_conditions":[2.9375E0,1.6666666E0,4E0,6E0,6E-2,7.86138E2,5.9125E-1,3E0,2.4625E1,5.4666668E1,2.1746315E-1,6.532258E-2,5.3285E-2,8.9875E1,1.214845E0,-9.851277E-2,2.958265E-2,-1.3542463E-1,-2.0417351E-2,3.6E-1,4.2E0,2.5714285E0,8.62E0,1.8907791E-1,1.0546875E0,2.2E1,9.453183E-2,1E0,4.0978724E-1,5.4E0,8.9333336E1,-6.813296E-2,-2.5601888E-3,1.02145605E-1,-4.6695754E-2,-3.8530722E-2,1.0914204E-1,1.9207025E-1,-6.858242E-2,1.477728E-1,-1.6315969E-2,2.811583E-1,8.45187E-2,2.3393105E-1,-2.9560462E-2,1.2553655E-1,6.6539557E-3,2.060981E-2,7.420769E-2,2.395252E-1,6.694975E-2,3.7763543E-2,1.5579848E-1,3.6266553E-1,-4.5034777E-2],"split_indices":[62,0,56,80,5,84,59,53,54,0,70,47,16,54,23,0,0,0,0,19,39,18,40,23,76,54,24,81,73,56,0,0,0,0,0,0,0,0,0,0,0,0,0,0,0,0,0,0,0,0,0,0,0,0,0],"split_type":[0,0,0,0,0,0,0,0,0,0,0,0,0,0,0,0,0,0,0,0,0,0,0,0,0,0,0,0,0,0,0,0,0,0,0,0,0,0,0,0,0,0,0,0,0,0,0,0,0,0,0,0,0,0,0],"sum_hessian":[2.312E3,9.35E2,1.377E3,7.7E1,8.58E2,7.67E2,6.1E2,1.4E1,6.3E1,4.68E2,3.9E2,7.2E1,6.95E2,4.82E2,1.28E2,1.3E1,1E0,6.2E1,1E0,4.38E2,3E1,3.82E2,8E0,4.3E1,2.9E1,3.24E2,3.71E2,4.36E2,4.6E1,1.11E2,1.7E1,4.18E2,2E1,8E0,2.2E1,3.75E2,7E0,6E0,2E0,1.1E1,3.2E1,1.2E1,1.7E1,4E0,3.2E2,4.5E1,3.26E2,2.27E2,2.09E2,2.3E1,2.3E1,4.5E1,6.6E1,1.3E1,4E0],"tree_param":{"num_deleted":"0","num_feature":"85","num_nodes":"55","size_leaf_vector":"1"}},{"base_weights":[-2.5117235E-2,-9.443111E-1,7.8313404E-1,-7.663166E-1,-2.0236309E0,1.5341106E-1,1.2561067E0,-1.0285476E0,-2.2021398E-1,-2.4261227E0,-1.5302792E0,-1.9416454E0,2.5287127E-1,2.179557E0,8.745374E-1,-1.0625358E0,2.2611132E-1,-5.58861E-1,1.126881E0,-1.4010578E0,-2.47449E0,5.443118E-2,-1.5832438E0,-1.0582155E-1,5.1960565E-2,3.4743387E-1,2.2574507E-1,3.554989E0,1.5397896E0,5.175464E-1,1.7811676E0,-5.4258894E-2,1.3563183E-1,1.0274339E-1,-3.8273774E-2,1.5063035E-2,1.9385439E-1,5.7968266E-2,-1.0725077E-1,-1.2698504E-1,-7.972916E-2,-8.0835216E-2,-3.1348515E-2,9.855633E-3,2.4660543E-1,1.5009941E-1,4.7400013E-1,9.480446E-3,1.3798441E-1,5.915788E-2,-2.2451847E-3,1.4237605E-1,1.767359E-2],"categories":[],"categories_nodes":[],"categories_segments":[],"categories_sizes":[],"default_left":[1,0,0,0,0,0,0,0,0,0,0,0,0,0,0,0,0,0,0,0,1,0,1,0,0,0,0,0,0,0,0,0,0,0,0,0,0,0,0,0,0,0,0,0,0,0,0,0,0,0,0,0,0],"id":2,"left_children":[1,3,5,7,9,11,13,15,17,19,21,23,25,27,29,31,-1,33,35,37,39,-1,41,-1,-1,-1,43,45,47,49,51,-1,-1,-1,-1,-1,-1,-1,-1,-1,-1,-1,-1,-1,-1,-1,-1,-1,-1,-1,-1,-1,-1],"loss_changes":[1.7117295E3,2.0554712E2,3.649613E2,1.325246E2,2.6470032E1,1.10304474E2,2.447461E2,1.2290619E2,1.3839906E2,5.986023E-1,1.1571915E1,1.4703674E1,8.997381E1,1.7403717E2,1.5993658E2,5.6196533E1,0E0,1.3226123E2,1.373402E2,1.39159355E1,3.6846924E-1,0E0,1.2261963E0,0E0,0E0,0E0,6.680933E1,1.812395E2,2.3171555E2,1.3407867E2,2.1213342E2,0E0,0E0,0E0,0E0,0E0,0E0,0E0,0E0,0E0,0E0,0E0,0E0,0E0,0E0,0E0,0E0,0E0,0E0,0E0,0E0,0E0,0E0],"parents":[2147483647,0,0,1,1,2,2,3,3,4,4,5,5,6,6,7,7,8,8,9,9,10,10,11,11,12,12,13,13,14,14,15,15,17,17,18,18,19,19,20,20,22,22,26,26,27,27,28,28,29,29,30,30],"right_children":[2,4,6,8,10,12,14,16,18,20,22,24,26,28,30,32,-1,34,36,38,40,-1,42,-1,-1,-1,44,46,48,50,52,-1,-1,-1,-1,-1,-1,-1,-1,-1,-1,-1,-1,-1,-1,-1,-1,-1,-1,-1,-1,-1,-1],"split_conditions":[3.275E0,4E0,1.656E1,6.325E0,8.8E-4,1.7E1,9.139749E2,3.857143E0,1.03987E-1,2.356021E0,5E-1,3.5E0,6.125E0,5.9E0,5.6E0,3.2266915E-1,2.2611132E-1,2.2E0,1.422023E3,5.125E-1,4.285714E0,5.443118E-2,1.7333333E-1,-1.0582155E-1,5.1960565E-2,3.4743387E-1,2.8975E1,2.0333334E1,1E0,5.2519894E0,1.1895198E3,-5.4258894E-2,1.3563183E-1,1.0274339E-1,-3.8273774E-2,1.5063035E-2,1.9385439E-1,5.7968266E-2,-1.0725077E-1,-1.2698504E-1,-7.972916E-2,-8.0835216E-2,-3.1348515E-2,9.855633E-3,2.4660543E-1,1.5009941E-1,4.7400013E-1,9.480446E-3,1.3798441E-1,5.915788E-2,-2.2451847E-3,1.4237605E-1,1.767359E-2],"split_indices":[62,22,39,66,7,0,83,22,16,79,2,2,65,8,56,16,0,36,82,62,22,0,6,0,0,0,66,9,55,79,83,0,0,0,0,0,0,0,0,0,0,0,0,0,0,0,0,0,0,0,0,0,0],"split_type":[0,0,0,0,0,0,0,0,0,0,0,0,0,0,0,0,0,0,0,0,0,0,0,0,0,0,0,0,0,0,0,0,0,0,0,0,0,0,0,0,0,0,0,0,0,0,0,0,0,0,0,0,0],"sum_hessian":[2.302E3,1.077E3,1.225E3,9.26E2,1.51E2,5.26E2,6.99E2,6.25E2,3.01E2,8.1E1,7E1,2.3E1,5.03E2,2.03E2,4.96E2,6.22E2,3E0,2.41E2,6E1,5E0,7.6E1,1E0,6.9E1,2.2E1,1E0,1E0,5.02E2,6.3E1,1.4E2,3.57E2,1.39E2,6.19E2,3E0,1.7E1,2.24E2,4.7E1,1.3E1,1E0,4E0,6.9E1,7E0,6.6E1,3E0,5E2,2E0,5.9E1,4E0,6.7E1,7.3E1,1.63E2,1.94E2,7.9E1,6E1],"tree_param":{"num_deleted":"0","num_feature":"85","num_nodes":"53","size_leaf_vector":"1"}},{"base_weights":[1.0577575E-3,-8.271761E-1,8.166887E-1,-1.2732714E0,-3.3288458E-1,5.2758944E-1,2.1232755E0,-1.3073424E0,4.232344E0,2.1448678E-1,-6.99544E-1,7.4814147E-1,-4.4454527E-1,1.2601485E0,3.0586686E0,-2.267337E0,-1.1408416E0,-5.2575417E-2,3.1720656E-1,-4.689037E-2,4.1198235E0,-7.845416E-1,1.6324366E0,-3.7875557E-1,9.384591E-1,1.802796E0,-5.5955416E-1,3.475115E0,3.4219736E-1,5.394556E0,2.2302043E0,-8.1240684E-2,-1.1828053E-1,-5.868442E-2,7.193591E-2,-4.131051E-2,3.555088E-2,3.245505E-1,4.106748E-2,8.6574696E-2,-4.271906E-2,1.6844657E-1,-3.3277337E-2,-3.7526723E-2,1.2980059E-1,4.069659E-2,1.0802808E-1,-6.838309E-2,1.8079844E-1,-4.594546E-2,2.3752293E-2,2.4280222E-1,-9.331308E-3,4.0760424E-2,-6.2210914E-2,3.713935E-1,1.3949335E-1,1.5788335E-1,2.524435E-3],"categories":[],"categories_nodes":[],"categories_segments":[],"categories_sizes":[],"default_left":[1,1,0,1,0,0,0,0,0,0,0,0,0,0,0,0,1,0,0,0,0,0,0,0,0,0,0,0,0,0,0,0,0,0,0,0,0,0,0,0,0,0,0,0,0,0,0,0,0,0,0,0,0,0,0,0,0,0,0],"id":3,"left_children":[1,3,5,7,9,11,13,15,17,19,21,23,25,27,29,31,33,-1,-1,35,37,39,41,43,45,47,49,51,53,55,57,-1,-1,-1,-1,-1,-1,-1,-1,-1,-1,-1,-1,-1,-1,-1,-1,-1,-1,-1,-1,-1,-1,-1,-1,-1,-1,-1,-1],"loss_changes":[1.5861519E3,2.5645996E2,4.4573822E2,1.2033307E2,1.11337204E2,2.0830667E2,1.689212E2,9.475574E1,5.130439E1,2.2782396E2,6.708734E1,1.6999994E2,4.7532314E1,2.2856592E2,1.8535938E2,1.7760315E0,4.5833008E1,0E0,0E0,1.2462453E2,1.0416678E2,5.788507E1,5.012741E1,1.2913329E2,1.0127075E2,5.668271E1,6.4384186E1,1.677742E2,6.179606E1,1.1697705E2,1.5550409E2,0E0,0E0,0E0,0E0,0E0,0E0,0E0,0E0,0E0,0E0,0E0,0E0,0E0,0E0,0E0,0E0,0E0,0E0,0E0,0E0,0E0,0E0,0E0,0E0,0E0,0E0,0E0,0E0],"parents":[2147483647,0,0,1,1,2,2,3,3,4,4,5,5,6,6,7,7,8,8,9,9,10,10,11,11,12,12,13,13,14,14,15,15,16,16,19,19,20,20,21,21,22,22,23,23,24,24,25,25,26,26,27,27,28,28,29,29,30,30],"right_children":[2,4,6,8,10,12,14,16,18,20,22,24,26,28,30,32,34,-1,-1,36,38,40,42,44,46,48,50,52,54,56,58,-1,-1,-1,-1,-1,-1,-1,-1,-1,-1,-1,-1,-1,-1,-1,-1,-1,-1,-1,-1,-1,-1,-1,-1,-1,-1,-1,-1],"split_conditions":[5.4666668E1,6E-2,5.4E0,3.9375E-1,4.35E-1,1.269096E3,4.9625E-1,1.6666666E0,6E0,1.4125E1,3.3333334E-1,5.175E1,2E-1,6.3380283E-1,9.153549E2,6E0,2.1746315E-1,-5.2575417E-2,3.1720656E-1,1.2625E-1,4E1,1.932559E-1,2.5E-1,7.16E0,7.8434944E-1,2.125E0,8.6666664E1,5E-1,4.1095892E-1,6.3375E-1,8.75E1,-8.1240684E-2,-1.1828053E-1,-5.868442E-2,7.193591E-2,-4.131051E-2,3.555088E-2,3.245505E-1,4.106748E-2,8.6574696E-2,-4.271906E-2,1.6844657E-1,-3.3277337E-2,-3.7526723E-2,1.2980059E-1,4.069659E-2,1.0802808E-1,-6.838309E-2,1.8079844E-1,-4.594546E-2,2.3752293E-2,2.4280222E-1,-9.331308E-3,4.0760424E-2,-6.2210914E-2,3.713935E-1,1.3949335E-1,1.5788335E-1,2.524435E-3],"split_indices":[0,5,56,59,19,84,59,0,11,63,58,54,41,71,84,80,70,0,0,61,0,23,30,35,69,56,0,31,45,59,54,0,0,0,0,0,0,0,0,0,0,0,0,0,0,0,0,0,0,0,0,0,0,0,0,0,0,0,0],"split_type":[0,0,0,0,0,0,0,0,0,0,0,0,0,0,0,0,0,0,0,0,0,0,0,0,0,0,0,0,0,0,0,0,0,0,0,0,0,0,0,0,0,0,0,0,0,0,0,0,0,0,0,0,0,0,0,0,0,0,0],"sum_hessian":[2.346E3,1.164E3,1.182E3,6.11E2,5.53E2,9.69E2,2.13E2,6.08E2,3E0,2.22E2,3.31E2,7.9E2,1.79E2,1.12E2,1.01E2,8.8E1,5.2E2,1E0,2E0,2.09E2,1.3E1,3.2E2,1.1E1,1.14E2,6.76E2,8E0,1.71E2,3.2E1,8E1,2.5E1,7.6E1,1.4E1,7.4E1,5.14E2,6E0,1.03E2,1.06E2,7E0,6E0,8E0,3.12E2,6E0,5E0,1.02E2,1.2E1,6.15E2,6.1E1,3E0,5E0,1.27E2,4.4E1,2.3E1,9E0,6.2E1,1.8E1,1.3E1,1.2E1,5.3E1,2.3E1],"tree_param":{"num_deleted":"0","num_feature":"85","num_nodes":"59","size_leaf_vector":"1"}},{"base_weights":[-2.0277273E-2,-7.578274E-1,8.030837E-1,-2.066196E0,-6.245724E-1,3.0573067E-1,1.4912333E0,-2.1914358E0,-6.942759E-1,-8.6783326E-1,-1.0310816E-1,1.8795525E-1,2.713862E0,1.2792535E0,3.981793E0,-1.1274197E0,-2.2565975E0,-8.3935425E-2,1.2452234E-1,-1.3015064E0,-7.2076064E-1,1.51671E0,-3.762492E-1,5.602738E-1,-3.2060176E-1,4.9531913E0,7.100694E-1,1.9606888E0,8.841272E-1,7.633263E0,2.2837944E0,3.4048725E-2,-7.4152194E-2,-1.7753994E-2,-1.1363532E-1,-6.747498E-2,1.0939493E-1,-3.848871E-2,4.1934993E-2,1.4006566E-1,-1.1240166E-2,2.4647565E-1,-2.1351844E-2,1.450861E-1,1.9867947E-2,1.8131225E-1,-2.3797523E-2,3.3838078E-1,1.6685292E-2,-2.9054636E-2,1.5870243E-1,7.975498E-2,3.3340225E-1,5.1487517E-2,-6.2208336E-2,1.6463299E-1,4.4247037E-1,1.8526422E-2,2.084279E-1],"categories":[],"categories_nodes":[],"categories_segments":[],"categories_sizes":[],"default_left":[1,0,0,0,1,0,0,0,0,0,0,0,0,0,0,0,0,0,0,1,0,0,0,0,0,0,0,0,0,0,0,0,0,0,0,0,0,0,0,0,0,0,0,0,0,0,0,0,0,0,0,0,0,0,0,0,0,0,0],"id":4,"left_children":[1,3,5,7,9,11,13,15,17,19,21,23,25,27,29,31,33,-1,-1,35,37,39,41,43,45,47,49,51,53,55,57,-1,-1,-1,-1,-1,-1,-1,-1,-1,-1,-1,-1,-1,-1,-1,-1,-1,-1,-1,-1,-1,-1,-1,-1,-1,-1,-1,-1],"loss_changes":[1.425264E3,2.1455066E2,3.791029E2,1.8065857E1,1.4261887E2,1.82424E2,2.4040247E2,4.6665344E0,3.8667328E1,4.79823E1,1.5940619E2,1.16816284E2,1.3109744E2,1.1404529E2,2.0577411E2,6.154784E0,2.1642456E0,0E0,0E0,3.5273865E1,4.459549E1,1.1696172E2,8.510106E1,1.346456E2,1.6175478E2,1.1508548E2,5.592816E1,2.5955426E2,8.620174E1,2.892871E1,9.2212845E1,0E0,0E0,0E0,0E0,0E0,0E0,0E0,0E0,0E0,0E0,0E0,0E0,0E0,0E0,0E0,0E0,0E0,0E0,0E0,0E0,0E0,0E0,0E0,0E0,0E0,0E0,0E0,0E0],"parents":[2147483647,0,0,1,1,2,2,3,3,4,4,5,5,6,6,7,7,8,8,9,9,10,10,11,11,12,12,13,13,14,14,15,15,16,16,19,19,20,20,21,21,22,22,23,23,24,24,25,25,26,26,27,27,28,28,29,29,30,30],"right_children":[2,4,6,8,10,12,14,16,18,20,22,24,26,28,30,32,34,-1,-1,36,38,40,42,44,46,48,50,52,54,56,58,-1,-1,-1,-1,-1,-1,-1,-1,-1,-1,-1,-1,-1,-1,-1,-1,-1,-1,-1,-1,-1,-1,-1,-1,-1,-1,-1,-1],"split_conditions":[3.7E0,6.666667E-1,8.2666664E1,1.3333334E0,1.6156624E-1,6.875E0,1.7625E-1,6E0,1.0084034E-1,8E0,3.6713696E-1,1.0876602E3,1E0,4.4E-2,8.8396313E2,1E0,-1.6666666E0,-8.3935425E-2,1.2452234E-1,2.4324324E0,8.9758754E-1,1.0458906E3,1E0,1.9504967E-1,8.421974E-3,1.6888762E-1,1.15E1,4E-2,7.375E0,2.3333333E-1,8.9125E1,3.4048725E-2,-7.4152194E-2,-1.7753994E-2,-1.1363532E-1,-6.747498E-2,1.0939493E-1,-3.848871E-2,4.1934993E-2,1.4006566E-1,-1.1240166E-2,2.4647565E-1,-2.1351844E-2,1.450861E-1,1.9867947E-2,1.8131225E-1,-2.3797523E-2,3.3838078E-1,1.6685292E-2,-2.9054636E-2,1.5870243E-1,7.975498E-2,3.3340225E-1,5.1487517E-2,-6.2208336E-2,1.6463299E-1,4.4247037E-1,1.8526422E-2,2.084279E-1],"split_indices":[35,2,0,9,61,56,60,80,74,80,77,84,49,33,84,0,9,0,0,45,24,82,56,23,70,24,35,33,56,5,54,0,0,0,0,0,0,0,0,0,0,0,0,0,0,0,0,0,0,0,0,0,0,0,0,0,0,0,0],"split_type":[0,0,0,0,0,0,0,0,0,0,0,0,0,0,0,0,0,0,0,0,0,0,0,0,0,0,0,0,0,0,0,0,0,0,0,0,0,0,0,0,0,0,0,0,0,0,0,0,0,0,0,0,0,0,0,0,0,0,0],"sum_hessian":[2.345E3,1.237E3,1.108E3,1.13E2,1.124E3,6.44E2,4.64E2,1.03E2,1E1,7.66E2,3.58E2,6.15E2,2.9E1,4.29E2,3.5E1,7E0,9.6E1,8E0,2E0,1.92E2,5.74E2,5.1E1,3.07E2,3.55E2,2.6E2,1.3E1,1.6E1,1.56E2,2.73E2,1E1,2.5E1,1E0,6E0,1E0,9.5E1,1.9E2,2E0,5.57E2,1.7E1,2.9E1,2.2E1,2E0,3.05E2,2.2E1,3.33E2,9E0,2.51E2,9E0,4E0,1.1E1,5E0,1.46E2,1E1,2.56E2,1.7E1,3E0,7E0,1.3E1,1.2E1],"tree_param":{"num_deleted":"0","num_feature":"85","num_nodes":"59","size_leaf_vector":"1"}},{"base_weights":[-3.248684E-2,-8.0374676E-1,6.3718843E-1,-1.113504E0,-2.3724636E-1,2.1398388E-1,1.2929794E0,-1.9975054E0,-1.0022888E0,-1.4105892E0,6.253212E-2,1.4629157E-1,3.844413E0,1.6116221E0,2.639851E-1,-2.0530856E0,5.70539E-2,-1.070445E0,1.5202293E-1,1.2017887E0,-1.5659398E0,1.8817003E0,-2.0621054E-1,-9.640696E-1,3.0589464E-1,1.1369358E0,5.732904E0,1.409989E0,4.8011575E0,1.1847755E0,-5.868058E-1,-4.5336302E-2,-1.05173945E-1,6.759582E-2,-5.445638E-2,-6.0332417E-2,1.06730305E-1,1.4397043E-1,-4.3821376E-2,-8.5226305E-2,6.6004924E-2,-7.778322E-2,1.464914E-1,5.8934283E-2,-2.6630616E-2,7.088741E-2,-5.9969164E-2,-7.457878E-3,3.9492685E-2,1.4796083E-1,-4.8478946E-2,3.464006E-1,1.4028968E-1,8.174711E-2,-3.3760765E-3,4.0445778E-1,1.1722525E-1,2.403838E-2,3.072361E-1,-3.7286438E-2,2.2768734E-1],"categories":[],"categories_nodes":[],"categories_segments":[],"categories_sizes":[],"default_left":[1,1,0,0,1,0,0,0,1,0,0,0,0,0,0,0,0,0,0,0,0,0,0,0,0,0,0,0,0,0,0,0,0,0,0,0,0,0,0,0,0,0,0,0,0,0,0,0,0,0,0,0,0,0,0,0,0,0,0,0,0],"id":5,"left_children":[1,3,5,7,9,11,13,15,17,19,21,23,25,27,29,31,-1,33,35,37,39,41,43,45,47,49,51,53,55,57,59,-1,-1,-1,-1,-1,-1,-1,-1,-1,-1,-1,-1,-1,-1,-1,-1,-1,-1,-1,-1,-1,-1,-1,-1,-1,-1,-1,-1,-1,-1],"loss_changes":[1.2158217E3,1.9170844E2,3.4941574E2,6.7506165E1,1.3656445E2,1.8792946E2,1.6154816E2,1.594928E1,4.972699E1,3.394287E1,1.5194334E2,1.3391655E2,6.50647E1,2.3568518E2,9.313644E1,2.540924E0,0E0,2.8399597E1,9.9548164E1,1.9955875E1,3.2247543E1,1.4866966E2,1.23128624E2,5.494548E1,1.4546738E2,2.9739826E1,8.54715E0,1.18434265E2,1.5873926E2,1.9608081E2,5.4046867E1,0E0,0E0,0E0,0E0,0E0,0E0,0E0,0E0,0E0,0E0,0E0,0E0,0E0,0E0,0E0,0E0,0E0,0E0,0E0,0E0,0E0,0E0,0E0,0E0,0E0,0E0,0E0,0E0,0E0,0E0],"parents":[2147483647,0,0,1,1,2,2,3,3,4,4,5,5,6,6,7,7,8,8,9,9,10,10,11,11,12,12,13,13,14,14,15,15,17,17,18,18,19,19,20,20,21,21,22,22,23,23,24,24,25,25,26,26,27,27,28,28,29,29,30,30],"right_children":[2,4,6,8,10,12,14,16,18,20,22,24,26,28,30,32,-1,34,36,38,40,42,44,46,48,50,52,54,56,58,60,-1,-1,-1,-1,-1,-1,-1,-1,-1,-1,-1,-1,-1,-1,-1,-1,-1,-1,-1,-1,-1,-1,-1,-1,-1,-1,-1,-1,-1,-1],"split_conditions":[5.0333332E1,1.2125E-1,8.2666664E1,1.6666666E0,1.8E-1,1.6564417E0,1.9550717E-1,6.666667E-3,4.633149E-1,2.6627219E0,7.830808E2,1.4237246E-2,1.0143345E-1,1.7506582E-1,3.409091E-1,2.356021E0,5.70539E-2,5.057862E2,1.6E1,3.9E1,1.4E1,2.6064146E-2,1.0253333E-1,8.1829486E2,1E0,3.9333335E-1,3.3333334E-1,8.466667E-1,9.5680347E2,4.2755345E-1,1.1966667E0,-4.5336302E-2,-1.05173945E-1,6.759582E-2,-5.445638E-2,-6.0332417E-2,1.06730305E-1,1.4397043E-1,-4.3821376E-2,-8.5226305E-2,6.6004924E-2,-7.778322E-2,1.464914E-1,5.8934283E-2,-2.6630616E-2,7.088741E-2,-5.9969164E-2,-7.457878E-3,3.9492685E-2,1.4796083E-1,-4.8478946E-2,3.464006E-1,1.4028968E-1,8.174711E-2,-3.3760765E-3,4.0445778E-1,1.1722525E-1,2.403838E-2,3.072361E-1,-3.7286438E-2,2.2768734E-1],"split_indices":[0,59,0,0,21,17,78,5,78,79,84,24,70,74,17,79,0,83,27,0,11,70,5,84,81,7,4,7,84,44,7,0,0,0,0,0,0,0,0,0,0,0,0,0,0,0,0,0,0,0,0,0,0,0,0,0,0,0,0,0,0],"split_type":[0,0,0,0,0,0,0,0,0,0,0,0,0,0,0,0,0,0,0,0,0,0,0,0,0,0,0,0,0,0,0,0,0,0,0,0,0,0,0,0,0,0,0,0,0,0,0,0,0,0,0,0,0,0,0,0,0,0,0,0,0],"sum_hessian":[2.352E3,1.093E3,1.259E3,7.06E2,3.87E2,7.66E2,4.93E2,7.7E1,6.29E2,7.8E1,3.09E2,7.53E2,1.3E1,3.76E2,1.17E2,7.6E1,1E0,5.94E2,3.5E1,4E0,7.4E1,3.9E1,2.7E2,9.4E1,6.59E2,6E0,7E0,3.55E2,2.1E1,5.6E1,6.1E1,4E0,7.2E1,4E0,5.9E2,2.1E1,1.4E1,2E0,2E0,7.1E1,3E0,9E0,3E1,5.1E1,2.19E2,8E0,8.6E1,3.4E2,3.19E2,3E0,3E0,4E0,3E0,3.08E2,4.7E1,8E0,1.3E1,5E1,6E0,6E1,1E0],"tree_param":{"num_deleted":"0","num_feature":"85","num_nodes":"61","size_leaf_vector":"1"}},{"base_weights":[-2.0496577E-2,-6.679534E-1,7.3769677E-1,-1.0878878E0,-2.5554043E-1,2.437524E-1,1.1644464E0,-1.7915863E0,-9.628279E-1,-8.373785E-1,-2.4537731E-2,1.7834824E-1,4.2438145E0,5.450229E-1,1.7884455E0,-1.1406496E0,-1.9021426E0,4.3746373E-1,-9.9874556E-1,-1.4061216E-1,-1.5403243E0,-8.872637E-2,3.1804886E0,-8.4033936E-1,3.3777148E-1,-6.0882427E-2,3.1336218E-1,4.545912E0,4.158603E-1,2.0604339E0,-7.023618E-1,6.345036E-2,-6.929469E-2,-6.9511645E-2,-9.962003E-2,-6.222446E-2,1.4437412E-1,-4.5817062E-2,-8.128444E-2,-1.7197995E-2,2.2095142E-1,4.2872176E-2,-8.022814E-2,-3.024056E-2,9.678151E-3,2.907775E-1,-4.5335246E-3,-6.60864E-2,-8.198876E-3,9.848104E-2,1.0252596E-2,-6.570297E-2,3.8474536E-1,1.0471339E-2,1.0142642E-1,2.002337E-1,8.435177E-2,-6.1191447E-2,1.0227231E-1],"categories":[],"categories_nodes":[],"categories_segments":[],"categories_sizes":[],"default_left":[1,1,0,0,0,0,0,0,0,0,1,0,0,0,0,0,0,0,1,0,0,0,0,0,0,0,0,0,0,0,0,0,0,0,0,0,0,0,0,0,0,0,0,0,0,0,0,0,0,0,0,0,0,0,0,0,0,0,0],"id":6,"left_children":[1,3,5,7,9,11,13,15,17,19,21,23,25,27,29,31,33,35,37,39,41,43,45,47,49,-1,-1,51,53,55,57,-1,-1,-1,-1,-1,-1,-1,-1,-1,-1,-1,-1,-1,-1,-1,-1,-1,-1,-1,-1,-1,-1,-1,-1,-1,-1,-1,-1],"loss_changes":[1.1467383E3,2.1793683E2,2.2652686E2,5.318982E1,8.559618E1,1.3005345E2,2.2204712E2,4.5230713E0,2.719397E1,8.843522E1,9.42991E1,8.034826E1,9.603836E1,1.4848824E2,1.9588116E2,1.1213978E1,8.340149E-1,6.1284863E1,2.5323303E1,8.682169E1,1.5238403E1,6.552976E1,7.810465E1,2.1597988E1,9.207507E1,0E0,0E0,1.7618875E2,9.378836E1,1.8127173E2,4.4057125E1,0E0,0E0,0E0,0E0,0E0,0E0,0E0,0E0,0E0,0E0,0E0,0E0,0E0,0E0,0E0,0E0,0E0,0E0,0E0,0E0,0E0,0E0,0E0,0E0,0E0,0E0,0E0,0E0],"parents":[2147483647,0,0,1,1,2,2,3,3,4,4,5,5,6,6,7,7,8,8,9,9,10,10,11,11,12,12,13,13,14,14,15,15,16,16,17,17,18,18,19,19,20,20,21,21,22,22,23,23,24,24,27,27,28,28,29,29,30,30],"right_children":[2,4,6,8,10,12,14,16,18,20,22,24,26,28,30,32,34,36,38,40,42,44,46,48,50,-1,-1,52,54,56,58,-1,-1,-1,-1,-1,-1,-1,-1,-1,-1,-1,-1,-1,-1,-1,-1,-1,-1,-1,-1,-1,-1,-1,-1,-1,-1,-1,-1],"split_conditions":[5.85E1,1.5937926E-1,1.25E1,3.3333334E-1,5.25E0,2.5851065E-1,1E0,2.558654E-1,5E-1,3.75E0,1.8367347E0,6.325E0,5E-1,5.2751575E2,5E-1,1E0,5.960265E-1,2.8571428E-3,2.7284E-2,2.7863777E-1,2.8E0,7.758621E-1,2.5E0,1.5375E-1,2.0689654E0,-6.0882427E-2,3.1336218E-1,6.7625E1,1.13669E0,3.4615386E0,8.6333334E-1,6.345036E-2,-6.929469E-2,-6.9511645E-2,-9.962003E-2,-6.222446E-2,1.4437412E-1,-4.5817062E-2,-8.128444E-2,-1.7197995E-2,2.2095142E-1,4.2872176E-2,-8.022814E-2,-3.024056E-2,9.678151E-3,2.907775E-1,-4.5335246E-3,-6.60864E-2,-8.198876E-3,9.848104E-2,1.0252596E-2,-6.570297E-2,3.8474536E-1,1.0471339E-2,1.0142642E-1,2.002337E-1,8.435177E-2,-6.1191447E-2,1.0227231E-1],"split_indices":[54,69,36,9,63,47,81,77,56,63,44,66,1,82,45,27,49,60,33,71,66,76,17,59,52,0,0,54,23,25,7,0,0,0,0,0,0,0,0,0,0,0,0,0,0,0,0,0,0,0,0,0,0,0,0,0,0,0,0],"split_type":[0,0,0,0,0,0,0,0,0,0,0,0,0,0,0,0,0,0,0,0,0,0,0,0,0,0,0,0,0,0,0,0,0,0,0,0,0,0,0,0,0,0,0,0,0,0,0,0,0,0,0,0,0,0,0,0,0,0,0],"sum_hessian":[2.334E3,1.259E3,1.075E3,6.23E2,6.36E2,4.99E2,5.76E2,9.2E1,5.31E2,1.8E2,4.56E2,4.92E2,7E0,2.9E2,2.86E2,1.5E1,7.7E1,1.3E1,5.18E2,9.1E1,8.9E1,4.48E2,8E0,6.6E1,4.26E2,2E0,5E0,8E0,2.82E2,2.58E2,2.8E1,1E0,1.4E1,1.4E1,6.3E1,8E0,5E0,4.6E2,5.8E1,8.8E1,3E0,2E0,8.7E1,1.58E2,2.9E2,4E0,4E0,3.8E1,2.8E1,3.1E1,3.95E2,3E0,5E0,2.51E2,3.1E1,4E1,2.18E2,2.4E1,4E0],"tree_param":{"num_deleted":"0","num_feature":"85","num_nodes":"59","size_leaf_vector":"1"}},{"base_weights":[-3.2181136E-2,-5.02587E-1,9.961175E-1,-8.340863E-1,1.1093034E-1,7.6516896E-1,1.9841897E0,-1.8572553E0,-7.322899E-1,-1.8776642E-1,9.041699E-1,-5.7787246E-1,9.213076E-1,2.497764E0,6.032868E-1,-6.567258E-3,-1.8744012E0,2.0481022E-1,-8.302549E-1,-2.5652418E-1,4.507597E0,2.649205E0,4.286388E-1,-8.1913024E-1,2.2601628E-1,2.9100387E0,7.5539356E-1,1.0142342E0,3.4145937E0,2.6288347E0,-2.8635117E-1,-6.479978E-2,-9.720455E-2,-4.928675E-2,8.736993E-2,-4.3458115E-2,4.2657387E-2,1.2377655E-1,-1.6933298E-2,2.9282162E-1,6.0330898E-2,1.9520737E-1,-1.0780136E-2,8.294061E-3,2.379605E-1,-6.2763594E-2,4.43899E-2,1.0517503E-1,4.1482058E-1,6.3203536E-2,1.3579196E-2,2.1992233E-2,2.4734962E-1,3.1214088E-2,2.0710702E-1,-8.466774E-2,2.1288577E-1,-6.3306436E-2,9.613745E-2],"categories":[],"categories_nodes":[],"categories_segments":[],"categories_sizes":[],"default_left":[1,1,0,0,0,0,0,0,0,0,0,0,0,0,0,0,0,1,1,0,0,0,0,0,0,0,0,0,0,0,0,0,0,0,0,0,0,0,0,0,0,0,0,0,0,0,0,0,0,0,0,0,0,0,0,0,0,0,0],"id":7,"left_children":[1,3,5,7,9,11,13,15,17,19,21,23,25,27,29,-1,31,33,35,37,39,41,43,45,-1,47,49,51,53,55,57,-1,-1,-1,-1,-1,-1,-1,-1,-1,-1,-1,-1,-1,-1,-1,-1,-1,-1,-1,-1,-1,-1,-1,-1,-1,-1,-1,-1],"loss_changes":[1.1357861E3,3.2773868E2,1.6666058E2,1.07586E2,1.3427672E2,1.2614307E2,9.707141E1,2.535492E0,8.7658356E1,1.3416751E2,1.274863E2,8.119145E1,1.7498947E2,1.3391144E2,7.103094E1,0E0,1.2292175E0,1.688459E2,5.726526E1,9.2175606E1,1.9648384E1,1.1948233E2,1.3917105E2,4.652663E1,0E0,1.6066537E2,1.2196985E2,8.818151E1,1.2327911E2,9.1693794E1,6.3038387E1,0E0,0E0,0E0,0E0,0E0,0E0,0E0,0E0,0E0,0E0,0E0,0E0,0E0,0E0,0E0,0E0,0E0,0E0,0E0,0E0,0E0,0E0,0E0,0E0,0E0,0E0,0E0,0E0],"parents":[2147483647,0,0,1,1,2,2,3,3,4,4,5,5,6,6,7,7,8,8,9,9,10,10,11,11,12,12,13,13,14,14,16,16,17,17,18,18,19,19,20,20,21,21,22,22,23,23,25,25,26,26,27,27,28,28,29,29,30,30],"right_children":[2,4,6,8,10,12,14,16,18,20,22,24,26,28,30,-1,32,34,36,38,40,42,44,46,-1,48,50,52,54,56,58,-1,-1,-1,-1,-1,-1,-1,-1,-1,-1,-1,-1,-1,-1,-1,-1,-1,-1,-1,-1,-1,-1,-1,-1,-1,-1,-1,-1],"split_conditions":[1.65E1,4.8794087E-2,6.666667E-1,3.3333335E-2,1.56E1,4.3333335E0,4.9333332E1,1.7777778E0,7.830808E2,2.28E1,5.4E0,1.92E1,7.8021796E2,5.4896265E-1,3.625E-2,-6.567258E-3,8E0,1.3E1,1.0875E-1,4.984654E-2,6.46E0,4.7244096E-1,4.0875E1,5.55E-1,2.2601628E-1,1.815562E0,2.2333334E1,2E0,7.3125E1,5.307659E2,9.6E0,-6.479978E-2,-9.720455E-2,-4.928675E-2,8.736993E-2,-4.3458115E-2,4.2657387E-2,1.2377655E-1,-1.6933298E-2,2.9282162E-1,6.0330898E-2,1.9520737E-1,-1.0780136E-2,8.294061E-3,2.379605E-1,-6.2763594E-2,4.43899E-2,1.0517503E-1,4.1482058E-1,6.3203536E-2,1.3579196E-2,2.1992233E-2,2.4734962E-1,3.1214088E-2,2.0710702E-1,-8.466774E-2,2.1288577E-1,-6.3306436E-2,9.613745E-2],"split_indices":[66,16,57,13,12,9,11,52,84,40,40,36,84,73,60,0,80,65,60,78,35,45,65,61,0,49,12,37,54,82,29,0,0,0,0,0,0,0,0,0,0,0,0,0,0,0,0,0,0,0,0,0,0,0,0,0,0,0,0],"split_type":[0,0,0,0,0,0,0,0,0,0,0,0,0,0,0,0,0,0,0,0,0,0,0,0,0,0,0,0,0,0,0,0,0,0,0,0,0,0,0,0,0,0,0,0,0,0,0,0,0,0,0,0,0,0,0,0,0,0,0],"sum_hessian":[2.346E3,1.61E3,7.36E2,1.045E3,5.65E2,5.98E2,1.38E2,9.3E1,9.52E2,4.11E2,1.54E2,6.2E1,5.36E2,1E2,3.8E1,1E0,9.2E1,9E1,8.62E2,4.06E2,5E0,3.2E1,1.22E2,6E1,2E0,4E1,4.96E2,3.9E1,6.1E1,1.1E1,2.7E1,1.2E1,8E1,5.1E1,3.9E1,8.43E2,1.9E1,1.1E1,3.95E2,3E0,2E0,2.2E1,1E1,1.16E2,6E0,4.8E1,1.2E1,3.6E1,4E0,2.41E2,2.55E2,3.5E1,4E0,1.3E1,4.8E1,3E0,8E0,1.9E1,8E0],"tree_param":{"num_deleted":"0","num_feature":"85","num_nodes":"59","size_leaf_vector":"1"}},{"base_weights":[3.6698177E-3,-7.6186395E-1,4.9518085E-1,-9.0582466E-1,3.9474815E-2,1.3966364E-1,1.0021309E0,-6.096318E-1,-1.2555177E0,2.3729663E0,-2.595279E-1,1.3223563E0,-6.3784425E-3,2.3150034E0,7.465922E-1,-6.6038185E-1,1.8724254E-1,-1.2877182E0,1.2496152E0,4.3024406E0,-7.224207E-1,-9.872877E-1,5.7131E-1,3.400622E0,7.3485404E-1,-4.1571167E-1,4.0187734E-1,1.4728655E0,6.7082148E0,3.5064372E-1,7.0670354E-1,-8.879215E-3,-4.479868E-2,-6.993996E-2,-3.8473424E-2,2.3010321E-1,-3.695065E-2,4.9185953E-3,2.6705807E-1,-6.9628686E-2,8.246243E-2,-7.030607E-2,-8.914454E-3,-7.883712E-2,5.482104E-2,-5.680066E-2,1.9839022E-1,2.075634E-2,2.117977E-1,2.0190768E-2,-3.2042574E-2,5.9734385E-2,3.563486E-3,-3.001673E-2,1.01646975E-1,3.7865305E-1,3.622379E-2,1.1305105E-1,2.8737962E-2],"categories":[],"categories_nodes":[],"categories_segments":[],"categories_sizes":[],"default_left":[1,1,0,0,0,0,0,0,1,0,0,0,0,0,0,0,0,1,0,0,0,0,0,0,0,0,0,0,0,0,0,0,0,0,0,0,0,0,0,0,0,0,0,0,0,0,0,0,0,0,0,0,0,0,0,0,0,0,0],"id":8,"left_children":[1,3,5,7,9,11,13,15,17,19,21,23,25,27,29,31,-1,33,35,37,39,41,43,45,47,49,51,53,55,-1,57,-1,-1,-1,-1,-1,-1,-1,-1,-1,-1,-1,-1,-1,-1,-1,-1,-1,-1,-1,-1,-1,-1,-1,-1,-1,-1,-1,-1],"loss_changes":[8.7858746E2,1.05360596E2,2.5614636E2,7.940283E1,9.82967E1,1.4457751E2,1.9486859E2,9.550993E1,3.016504E1,9.866769E1,7.614534E1,1.09831726E2,1.2483311E2,3.415902E2,1.1802112E2,4.727176E1,0E0,1.9072388E1,3.6734863E1,4.3143127E1,1.3422369E1,2.245131E1,6.827873E1,5.5969467E1,7.9957535E1,6.908035E1,9.794369E1,9.5273224E1,7.213873E1,0E0,9.919127E1,0E0,0E0,0E0,0E0,0E0,0E0,0E0,0E0,0E0,0E0,0E0,0E0,0E0,0E0,0E0,0E0,0E0,0E0,0E0,0E0,0E0,0E0,0E0,0E0,0E0,0E0,0E0,0E0],"parents":[2147483647,0,0,1,1,2,2,3,3,4,4,5,5,6,6,7,7,8,8,9,9,10,10,11,11,12,12,13,13,14,14,15,15,17,17,18,18,19,19,20,20,21,21,22,22,23,23,24,24,25,25,26,26,27,27,28,28,30,30],"right_children":[2,4,6,8,10,12,14,16,18,20,22,24,26,28,30,32,-1,34,36,38,40,42,44,46,48,50,52,54,56,-1,58,-1,-1,-1,-1,-1,-1,-1,-1,-1,-1,-1,-1,-1,-1,-1,-1,-1,-1,-1,-1,-1,-1,-1,-1,-1,-1,-1,-1],"split_conditions":[2.2813445E-1,2.4372913E-1,1.4375E1,2.7223888E-1,2.6029432E-1,2.0454545E0,8.606389E2,2.6673517E-1,3.1E-1,3.74E0,5.43694E-2,7.9773627E2,4.1E0,1.6363636E0,8.421974E-3,8.4431067E2,1.8724254E-1,7.926306E-1,1.7666666E1,1.25E0,7.4666664E1,8.433333E0,6.666667E-2,4.64E0,3.7008125E-1,8.710955E2,3.9130435E0,4.9846153E0,4.1929471E-1,3.5064372E-1,5.232558E-1,-8.879215E-3,-4.479868E-2,-6.993996E-2,-3.8473424E-2,2.3010321E-1,-3.695065E-2,4.9185953E-3,2.6705807E-1,-6.9628686E-2,8.246243E-2,-7.030607E-2,-8.914454E-3,-7.883712E-2,5.482104E-2,-5.680066E-2,1.9839022E-1,2.075634E-2,2.117977E-1,2.0190768E-2,-3.2042574E-2,5.9734385E-2,3.563486E-3,-3.001673E-2,1.01646975E-1,3.7865305E-1,3.622379E-2,1.1305105E-1,2.8737962E-2],"split_indices":[69,15,63,23,15,25,84,23,5,40,16,83,8,76,70,82,0,23,0,29,0,13,7,40,16,83,25,52,24,0,76,0,0,0,0,0,0,0,0,0,0,0,0,0,0,0,0,0,0,0,0,0,0,0,0,0,0,0,0],"split_type":[0,0,0,0,0,0,0,0,0,0,0,0,0,0,0,0,0,0,0,0,0,0,0,0,0,0,0,0,0,0,0,0,0,0,0,0,0,0,0,0,0,0,0,0,0,0,0,0,0,0,0,0,0,0,0,0,0,0,0],"sum_hessian":[2.333E3,9.12E2,1.421E3,7.73E2,1.39E2,8.36E2,5.85E2,4.2E2,3.53E2,1.5E1,1.24E2,9.1E1,7.45E2,9.4E1,4.91E2,4.16E2,4E0,3.49E2,4E0,9E0,6E0,6.6E1,5.8E1,1.9E1,7.2E1,3.72E2,3.73E2,8E1,1.4E1,2E0,4.89E2,1.37E2,2.79E2,2.86E2,6.3E1,1E0,3E0,2E0,7E0,5E0,1E0,4.3E1,2.3E1,1.1E1,4.7E1,2E0,1.7E1,6.7E1,5E0,8E1,2.92E2,1.09E2,2.64E2,1.7E1,6.3E1,1.2E1,2E0,3.7E1,4.52E2],"tree_param":{"num_deleted":"0","num_feature":"85","num_nodes":"59","size_leaf_vector":"1"}},{"base_weights":[3.4514822E-2,-7.911664E-1,5.4092395E-1,-1.2802358E0,-6.0317886E-1,1.7131966E-1,1.1117085E0,-1.2992573E0,8.3549954E-2,1.6501914E-1,-6.20616E-1,1.4716942E0,7.087969E-3,6.109762E-1,1.5396037E0,-1.0496842E0,-1.5463223E0,-1.552395E0,-5.281341E-1,3.2432427E0,6.036158E-1,-2.3185536E-1,5.362885E-1,4.7686574E-1,4.327986E0,5.501233E0,1.3720981E0,-1.1178009E-2,-6.280216E-2,-5.43557E-2,-8.8116884E-2,-3.6355246E-2,-8.361487E-2,1.5912364E-1,-2.7968654E-2,5.258156E-2,2.5575787E-1,-2.871815E-2,1.2416444E-1,-1.33649735E-2,3.07724E-1,1.908314E-2,1.7340717E-1,5.492981E-2,-2.2263462E-2,4.142514E-1,-2.473269E-2,-5.045391E-2,3.8917282E-1,2.0472649E-1,5.841864E-2],"categories":[],"categories_nodes":[],"categories_segments":[],"categories_sizes":[],"default_left":[1,1,0,1,0,0,0,0,0,0,0,0,0,0,0,0,0,0,0,0,0,0,0,0,0,0,0,0,0,0,0,0,0,0,0,0,0,0,0,0,0,0,0,0,0,0,0,0,0,0,0],"id":9,"left_children":[1,3,5,7,9,11,13,15,-1,-1,17,19,21,23,25,27,29,31,33,35,37,39,41,43,45,47,49,-1,-1,-1,-1,-1,-1,-1,-1,-1,-1,-1,-1,-1,-1,-1,-1,-1,-1,-1,-1,-1,-1,-1,-1],"loss_changes":[9.700773E2,8.031799E1,3.0317636E2,1.5868469E1,4.5543243E1,1.8664339E2,1.2011682E2,1.3360443E1,0E0,0E0,5.4072174E1,1.4875095E2,9.837516E1,1.2854048E2,1.9418475E2,2.0858475E1,9.98764E0,4.4244537E0,6.912718E1,1.2590103E2,1.497787E2,1.2297293E2,1.0838467E2,1.461123E2,1.7584872E2,1.8614993E2,1.5772205E2,0E0,0E0,0E0,0E0,0E0,0E0,0E0,0E0,0E0,0E0,0E0,0E0,0E0,0E0,0E0,0E0,0E0,0E0,0E0,0E0,0E0,0E0,0E0,0E0],"parents":[2147483647,0,0,1,1,2,2,3,3,4,4,5,5,6,6,7,7,10,10,11,11,12,12,13,13,14,14,15,15,16,16,17,17,18,18,19,19,20,20,21,21,22,22,23,23,24,24,25,25,26,26],"right_children":[2,4,6,8,10,12,14,16,-1,-1,18,20,22,24,26,28,30,32,34,36,38,40,42,44,46,48,50,-1,-1,-1,-1,-1,-1,-1,-1,-1,-1,-1,-1,-1,-1,-1,-1,-1,-1,-1,-1,-1,-1,-1,-1],"split_conditions":[2.6875E0,1.1166581E-2,1.4375E1,6E0,8.571429E-2,8.0163007E2,7.8E1,4.0640008E-1,8.3549954E-2,1.6501914E-1,6.666667E-2,3.8047177E-1,4.8056445E-1,8.2E0,6.7333336E1,7.559987E2,7E0,6.25E-1,1.4372501E-2,2.2574875E-1,8.443936E-2,2E-1,2.5E0,2.4933332E1,4.24E1,6.3666668E1,8.0125E0,-1.1178009E-2,-6.280216E-2,-5.43557E-2,-8.8116884E-2,-3.6355246E-2,-8.361487E-2,1.5912364E-1,-2.7968654E-2,5.258156E-2,2.5575787E-1,-2.871815E-2,1.2416444E-1,-1.33649735E-2,3.07724E-1,1.908314E-2,1.7340717E-1,5.492981E-2,-2.2263462E-2,4.142514E-1,-2.473269E-2,-5.045391E-2,3.8917282E-1,2.0472649E-1,5.841864E-2],"split_indices":[62,78,63,71,67,84,54,50,0,0,12,50,15,29,0,82,80,63,69,61,47,60,22,12,38,0,67,0,0,0,0,0,0,0,0,0,0,0,0,0,0,0,0,0,0,0,0,0,0,0,0],"split_type":[0,0,0,0,0,0,0,0,0,0,0,0,0,0,0,0,0,0,0,0,0,0,0,0,0,0,0,0,0,0,0,0,0,0,0,0,0,0,0,0,0,0,0,0,0,0,0,0,0,0,0],"sum_hessian":[2.318E3,8.81E2,1.437E3,2.43E2,6.38E2,8.73E2,5.64E2,2.42E2,1E0,2E0,6.36E2,9.7E1,7.76E2,2.61E2,3.03E2,1.23E2,1.19E2,5.6E1,5.8E2,3.1E1,6.6E1,5.35E2,2.41E2,2.53E2,8E0,1.1E1,2.92E2,2.5E1,9.8E1,4E1,7.9E1,8E0,4.8E1,4E0,5.76E2,1.5E1,1.6E1,4.1E1,2.5E1,5.33E2,2E0,2.3E2,1.1E1,1.51E2,1.02E2,4E0,4E0,3E0,8E0,1.9E1,2.73E2],"tree_param":{"num_deleted":"0","num_feature":"85","num_nodes":"51","size_leaf_vector":"1"}},{"base_weights":[8.763794E-3,-3.9647594E-1,8.799621E-1,-7.705247E-1,-4.8007056E-2,3.3121976E-1,1.3373339E0,-8.027355E-1,2.7630314E-1,1.1761922E0,-1.8785022E-1,9.637264E-1,-3.583447E-1,7.0233023E-1,2.0425372E0,-1.5873137E0,-7.206021E-1,-7.389455E-1,2.0474427E0,-5.439781E-2,-1.2953235E0,3.1013186E0,6.520981E-1,-5.906706E-1,1.9423386E0,1.8930562E-1,2.837401E0,3.1218343E0,1.1679761E0,-3.836383E-2,-8.189061E-2,-1.2162938E-2,-4.289037E-2,1.6330308E-1,-5.9499424E-2,2.5045034E-1,5.402842E-2,6.558639E-3,-5.5083305E-2,-7.347348E-2,1.8031023E-1,6.188202E-2,2.6069844E-1,9.516304E-2,-2.1281166E-3,8.470424E-2,-3.9396178E-2,2.509285E-1,1.8373765E-2,1.662433E-1,-2.1107234E-4,2.239279E-1,2.4577891E-2,4.8273268E-1,1.3372551E-1,2.0409296E-1,3.4009557E-2],"categories":[],"categories_nodes":[],"categories_segments":[],"categories_sizes":[],"default_left":[1,1,0,1,0,0,0,0,0,0,0,0,0,0,0,0,0,0,0,0,0,0,0,0,0,0,0,0,0,0,0,0,0,0,0,0,0,0,0,0,0,0,0,0,0,0,0,0,0,0,0,0,0,0,0,0,0],"id":10,"left_children":[1,3,5,7,9,11,13,15,-1,17,19,21,23,25,27,29,31,33,35,37,39,41,43,45,47,49,51,53,55,-1,-1,-1,-1,-1,-1,-1,-1,-1,-1,-1,-1,-1,-1,-1,-1,-1,-1,-1,-1,-1,-1,-1,-1,-1,-1,-1,-1],"loss_changes":[8.1623395E2,2.0564636E2,1.8377588E2,1.5878079E2,1.402592E2,1.4645697E2,1.7768817E2,4.7701782E1,0E0,1.4167238E2,1.0855884E2,1.145511E2,8.720312E1,2.3167575E2,1.7475299E2,1.6835022E0,4.4851196E1,5.26602E1,1.6066809E2,1.27827324E2,7.273224E1,8.016759E1,1.3392752E2,6.758398E1,7.082547E1,1.0438636E2,1.5564435E2,2.196507E2,1.478865E2,0E0,0E0,0E0,0E0,0E0,0E0,0E0,0E0,0E0,0E0,0E0,0E0,0E0,0E0,0E0,0E0,0E0,0E0,0E0,0E0,0E0,0E0,0E0,0E0,0E0,0E0,0E0,0E0],"parents":[2147483647,0,0,1,1,2,2,3,3,4,4,5,5,6,6,7,7,9,9,10,10,11,11,12,12,13,13,14,14,15,15,16,16,17,17,18,18,19,19,20,20,21,21,22,22,23,23,24,24,25,25,26,26,27,27,28,28],"right_children":[2,4,6,8,10,12,14,16,-1,18,20,22,24,26,28,30,32,34,36,38,40,42,44,46,48,50,52,54,56,-1,-1,-1,-1,-1,-1,-1,-1,-1,-1,-1,-1,-1,-1,-1,-1,-1,-1,-1,-1,-1,-1,-1,-1,-1,-1,-1,-1],"split_conditions":[1.65E1,6.325E0,7.625E1,3.2927796E-1,7.830808E2,6.4666667E0,1E0,1.6666666E0,2.7630314E-1,1.6E-1,7.407407E-1,5.0976562E0,1.3333334E0,9.644934E-1,9.885146E2,2.356021E0,8.8396313E2,8.559409E-2,2.16E-1,1.4675E1,5.6666665E0,2.76E1,5.135594E-2,3.4351146E-1,1.6744185E-2,1.57E-1,1.0082868E3,6.8E1,3.824071E-2,-3.836383E-2,-8.189061E-2,-1.2162938E-2,-4.289037E-2,1.6330308E-1,-5.9499424E-2,2.5045034E-1,5.402842E-2,6.558639E-3,-5.5083305E-2,-7.347348E-2,1.8031023E-1,6.188202E-2,2.6069844E-1,9.516304E-2,-2.1281166E-3,8.470424E-2,-3.9396178E-2,2.509285E-1,1.8373765E-2,1.662433E-1,-2.1107234E-4,2.239279E-1,2.4577891E-2,4.8273268E-1,1.3372551E-1,2.0409296E-1,3.4009557E-2],"split_indices":[66,66,54,70,84,8,81,0,0,61,18,79,3,15,84,79,84,23,46,66,2,38,24,17,20,61,84,0,70,0,0,0,0,0,0,0,0,0,0,0,0,0,0,0,0,0,0,0,0,0,0,0,0,0,0,0,0],"split_type":[0,0,0,0,0,0,0,0,0,0,0,0,0,0,0,0,0,0,0,0,0,0,0,0,0,0,0,0,0,0,0,0,0,0,0,0,0,0,0,0,0,0,0,0,0,0,0,0,0,0,0,0,0,0,0,0,0],"sum_hessian":[2.31E3,1.577E3,7.33E2,7.6E2,8.17E2,3.34E2,3.99E2,7.57E2,3E0,8.3E1,7.34E2,1.74E2,1.6E2,2.11E2,1.88E2,7E1,6.87E2,2.6E1,5.7E1,6.56E2,7.8E1,2.1E1,1.53E2,1.46E2,1.4E1,1.71E2,4E1,8.3E1,1.05E2,5E0,6.5E1,1.54E2,5.33E2,2E0,2.4E1,1.3E1,4.4E1,5.58E2,9.8E1,7.6E1,2E0,1.2E1,9E0,5.4E1,9.9E1,1.1E1,1.35E2,4E0,1E1,9E0,1.62E2,2.3E1,1.7E1,4E0,7.9E1,1.4E1,9.1E1],"tree_param":{"num_deleted":"0","num_feature":"85","num_nodes":"57","size_leaf_vector":"1"}},{"base_weights":[1.54017E-2,-3.6520267E-1,8.5030526E-1,-8.5522294E-1,-7.492653E-2,4.1244677E-1,1.316846E0,-1.325026E0,-6.3270986E-1,-8.252447E-1,1.18615985E-1,1.33192E-1,2.1552277E0,-3.3072856E-1,1.5907184E0,8.763138E-1,-1.4140189E0,-3.4151204E-2,-8.846147E-1,3.0235844E0,-8.9701843E-1,1.0127196E0,-5.6639917E-2,-1.4092245E-2,1.987106E0,5.6020985E0,7.3790425E-1,1.3108401E0,-1.1186125E0,3.376102E0,1.2731487E0,-4.6121273E-2,1.4528297E-1,-7.231025E-2,1.1109624E-1,-9.713399E-3,1.5335658E-1,1.8214984E-2,-4.9012356E-2,-9.4203595E-3,2.0785253E-1,-4.910295E-2,8.122059E-2,8.978845E-2,-1.9019328E-4,-5.8707497E-3,1.2155408E-1,-4.212191E-3,1.7362253E-1,2.4879599E-1,3.571974E-2,3.4096497E-1,2.7498594E-2,2.1082686E-1,-1.651412E-2,1.3120294E-2,2.326325E-1,-7.023638E-2,1.1326112E-2,2.3543897E-1,1.9841423E-2,4.13259E-2,1.1373361E-1],"categories":[],"categories_nodes":[],"categories_segments":[],"categories_sizes":[],"default_left":[1,1,0,1,0,0,0,0,0,0,0,0,0,0,0,0,1,0,0,0,0,0,0,0,0,0,0,0,0,0,0,0,0,0,0,0,0,0,0,0,0,0,0,0,0,0,0,0,0,0,0,0,0,0,0,0,0,0,0,0,0,0,0],"id":11,"left_children":[1,3,5,7,9,11,13,15,17,19,21,23,25,27,29,31,33,35,37,39,41,43,45,47,49,51,53,55,57,59,61,-1,-1,-1,-1,-1,-1,-1,-1,-1,-1,-1,-1,-1,-1,-1,-1,-1,-1,-1,-1,-1,-1,-1,-1,-1,-1,-1,-1,-1,-1,-1,-1],"loss_changes":[7.388032E2,2.270951E2,1.4817181E2,6.1256836E1,1.4589722E2,1.8319127E2,1.593573E2,3.8460815E1,6.1035614E1,5.9618652E1,1.25258224E2,8.904306E1,2.4990338E2,6.742797E1,1.6693085E2,3.1882366E1,2.4629272E1,6.0680496E1,3.439653E1,1.5345955E1,4.5123306E1,1.0428125E2,1.0143254E2,7.440223E1,8.773875E1,8.8491394E1,1.4259416E2,5.8341476E1,1.378841E1,1.7679993E2,1.13526215E2,0E0,0E0,0E0,0E0,0E0,0E0,0E0,0E0,0E0,0E0,0E0,0E0,0E0,0E0,0E0,0E0,0E0,0E0,0E0,0E0,0E0,0E0,0E0,0E0,0E0,0E0,0E0,0E0,0E0,0E0,0E0,0E0],"parents":[2147483647,0,0,1,1,2,2,3,3,4,4,5,5,6,6,7,7,8,8,9,9,10,10,11,11,12,12,13,13,14,14,15,15,16,16,17,17,18,18,19,19,20,20,21,21,22,22,23,23,24,24,25,25,26,26,27,27,28,28,29,29,30,30],"right_children":[2,4,6,8,10,12,14,16,18,20,22,24,26,28,30,32,34,36,38,40,42,44,46,48,50,52,54,56,58,60,62,-1,-1,-1,-1,-1,-1,-1,-1,-1,-1,-1,-1,-1,-1,-1,-1,-1,-1,-1,-1,-1,-1,-1,-1,-1,-1,-1,-1,-1,-1,-1,-1],"split_conditions":[1.65E1,6.8520666E-3,1E0,2.857143E0,2.6E1,9.644934E-1,5.74E1,-6.666667E-1,9.2493134E2,1.037176E-2,8.2700116E2,8.314088E0,9.011958E2,4.8875E-1,8.102115E2,3.68E1,1.0333333E-1,1.0585706E3,5.316822E2,1.3333334E0,4E0,4.1968913E0,9.4381E-1,1.9824391E3,2.5E-1,2.0378397E-1,2.2333334E1,4.428571E0,3.503309E-1,6.441739E-1,6.949807E-1,-4.6121273E-2,1.4528297E-1,-7.231025E-2,1.1109624E-1,-9.713399E-3,1.5335658E-1,1.8214984E-2,-4.9012356E-2,-9.4203595E-3,2.0785253E-1,-4.910295E-2,8.122059E-2,8.978845E-2,-1.9019328E-4,-5.8707497E-3,1.2155408E-1,-4.212191E-3,1.7362253E-1,2.4879599E-1,3.571974E-2,3.4096497E-1,2.7498594E-2,2.1082686E-1,-1.651412E-2,1.3120294E-2,2.326325E-1,-7.023638E-2,1.1326112E-2,2.3543897E-1,1.9841423E-2,4.13259E-2,1.1373361E-1],"split_indices":[66,16,81,25,27,15,27,9,84,42,84,79,83,75,83,27,6,82,82,2,49,79,15,83,28,51,12,56,78,19,44,0,0,0,0,0,0,0,0,0,0,0,0,0,0,0,0,0,0,0,0,0,0,0,0,0,0,0,0,0,0,0,0],"split_type":[0,0,0,0,0,0,0,0,0,0,0,0,0,0,0,0,0,0,0,0,0,0,0,0,0,0,0,0,0,0,0,0,0,0,0,0,0,0,0,0,0,0,0,0,0,0,0,0,0,0,0,0,0,0,0,0,0,0,0,0,0,0,0],"sum_hessian":[2.323E3,1.596E3,7.27E2,5.93E2,1.003E3,3.76E2,3.51E2,1.89E2,4.04E2,2.05E2,7.98E2,3.25E2,5.1E1,5E1,3.01E2,7E0,1.82E2,1.2E2,2.84E2,3E0,2.02E2,1.3E2,6.68E2,3.02E2,2.3E1,1.4E1,3.7E1,1.6E1,3.4E1,4.4E1,2.57E2,4E0,3E0,1.81E2,1E0,1.15E2,5E0,2E1,2.64E2,1E0,2E0,1.96E2,6E0,7.3E1,5.7E1,6.53E2,1.5E1,2.97E2,5E0,6E0,1.7E1,1.1E1,3E0,8E0,2.9E1,1.3E1,3E0,2.8E1,6E0,3E1,1.4E1,1.79E2,7.8E1],"tree_param":{"num_deleted":"0","num_feature":"85","num_nodes":"63","size_leaf_vector":"1"}},{"base_weights":[4.337551E-2,-5.085807E-1,6.467757E-1,-7.320373E-1,2.5754833E-1,4.9130538E-1,1.7260064E0,-7.466961E-1,2.0574193E-1,1.0171689E0,-4.769619E-1,7.039808E-1,-2.4272464E-1,-5.139583E-1,2.081984E0,-8.69324E-1,-2.567722E-1,1.944311E0,-1.5463383E-1,-7.045212E-1,2.5745168E0,8.306433E-1,-6.347227E-1,-5.172406E-1,1.8254806E0,1.9682517E0,-1.0677749E0,5.0874276E0,1.7351903E0,-3.3989027E-2,-5.9815656E-2,9.922625E-2,-2.8866861E-2,2.5915143E-1,5.6469526E-2,2.4695721E-1,-2.0550929E-2,-4.1394737E-2,1.2973723E-1,2.6392913E-1,-5.39788E-3,5.1196832E-2,-1.1785833E-2,-4.7863293E-2,1.7458783E-1,1.0407838E-2,-4.5806702E-2,7.7004964E-3,2.783519E-1,1.1356504E-1,2.647761E-2,6.9157328E-3,-7.909192E-2,4.8934907E-2,3.5097274E-1,7.552551E-2,3.075686E-1],"categories":[],"categories_nodes":[],"categories_segments":[],"categories_sizes":[],"default_left":[1,1,0,1,0,0,0,1,0,0,0,0,0,0,0,0,0,0,0,0,0,0,0,0,0,0,0,0,0,0,0,0,0,0,0,0,0,0,0,0,0,0,0,0,0,0,0,0,0,0,0,0,0,0,0,0,0],"id":12,"left_children":[1,3,5,7,9,11,13,15,-1,17,19,21,23,25,27,29,31,33,35,37,39,41,43,45,47,49,51,53,55,-1,-1,-1,-1,-1,-1,-1,-1,-1,-1,-1,-1,-1,-1,-1,-1,-1,-1,-1,-1,-1,-1,-1,-1,-1,-1,-1,-1],"loss_changes":[7.773357E2,2.0887723E2,1.8623605E2,7.014316E1,1.544791E2,1.5253436E2,1.1270288E2,5.6370605E1,0E0,1.4805482E2,9.9723114E1,1.2888684E2,1.2585038E2,2.9595432E1,1.17286865E2,4.585675E1,1.3765723E2,1.9473294E2,8.169407E1,5.5877724E1,7.3105736E1,1.4287662E2,9.11864E1,5.6615173E1,1.6174414E2,5.41214E-1,1.0758905E1,8.8388214E1,9.9853485E1,0E0,0E0,0E0,0E0,0E0,0E0,0E0,0E0,0E0,0E0,0E0,0E0,0E0,0E0,0E0,0E0,0E0,0E0,0E0,0E0,0E0,0E0,0E0,0E0,0E0,0E0,0E0,0E0],"parents":[2147483647,0,0,1,1,2,2,3,3,4,4,5,5,6,6,7,7,9,9,10,10,11,11,12,12,13,13,14,14,15,15,16,16,17,17,18,18,19,19,20,20,21,21,22,22,23,23,24,24,25,25,26,26,27,27,28,28],"right_children":[2,4,6,8,10,12,14,16,-1,18,20,22,24,26,28,30,32,34,36,38,40,42,44,46,48,50,52,54,56,-1,-1,-1,-1,-1,-1,-1,-1,-1,-1,-1,-1,-1,-1,-1,-1,-1,-1,-1,-1,-1,-1,-1,-1,-1,-1,-1,-1],"split_conditions":[3.7E0,1.6571428E-1,6.666667E-1,5.766667E0,3.0405405E-1,3.4155598E-1,1.8365158E-2,3.5666665E-1,2.0574193E-1,2.17E-1,1.3434782E0,9.4186044E-1,7.381967E-1,2.775E1,6.1120546E-1,2.612903E-1,4.197479E-1,8.2700116E2,1.9536903E0,1.1533334E1,8.5714287E-1,1.3098787E3,3.656E1,6.1546856E-1,4E-1,1.3333334E0,7.34E0,3.34E1,2.7062938E-1,-3.3989027E-2,-5.9815656E-2,9.922625E-2,-2.8866861E-2,2.5915143E-1,5.6469526E-2,2.4695721E-1,-2.0550929E-2,-4.1394737E-2,1.2973723E-1,2.6392913E-1,-5.39788E-3,5.1196832E-2,-1.1785833E-2,-4.7863293E-2,1.7458783E-1,1.0407838E-2,-4.5806702E-2,7.7004964E-3,2.783519E-1,1.1356504E-1,2.647761E-2,6.9157328E-3,-7.909192E-2,4.8934907E-2,3.5097274E-1,7.552551E-2,3.075686E-1],"split_indices":[35,59,57,8,71,72,16,19,0,32,46,21,7,65,76,48,21,84,79,13,71,84,39,50,58,3,35,38,47,0,0,0,0,0,0,0,0,0,0,0,0,0,0,0,0,0,0,0,0,0,0,0,0,0,0,0,0],"split_type":[0,0,0,0,0,0,0,0,0,0,0,0,0,0,0,0,0,0,0,0,0,0,0,0,0,0,0,0,0,0,0,0,0,0,0,0,0,0,0,0,0,0,0,0,0,0,0,0,0,0,0,0,0,0,0,0,0],"sum_hessian":[2.332E3,1.218E3,1.114E3,9.43E2,2.75E2,9.75E2,1.39E2,9.41E2,2E0,1.35E2,1.4E2,7.56E2,2.19E2,1.9E1,1.2E2,7.52E2,1.89E2,7.5E1,6E1,1.31E2,9E0,6.91E2,6.5E1,1.94E2,2.5E1,3E0,1.6E1,1.1E1,1.09E2,4.78E2,2.74E2,2.3E1,1.66E2,1.4E1,6.1E1,2E0,5.8E1,1.27E2,4E0,4E0,5E0,5.85E2,1.06E2,6.1E1,4E0,6.9E1,1.25E2,1.8E1,7E0,2E0,1E0,5E0,1.1E1,4E0,7E0,1.05E2,4E0],"tree_param":{"num_deleted":"0","num_feature":"85","num_nodes":"57","size_leaf_vector":"1"}},{"base_weights":[2.0267364E-2,-3.1027976E-1,8.7803644E-1,-4.5750254E-1,6.565978E-1,1.4075482E0,4.4730106E-1,-7.3118204E-1,-1.4746268E-1,2.836075E-1,1.626611E0,1.0059077E0,3.3788285E0,3.2758972E-1,3.9504263E-1,-8.570647E-1,-1.9232939E-1,1.2532893E0,-3.177694E-1,-2.7343526E-1,1.0464402E0,2.5775921E0,-2.1960878E-1,2.7853465E0,6.845368E-1,4.3458897E-1,4.122618E0,6.1958486E-1,-8.0550736E-1,-6.8886034E-2,-3.823369E-2,2.0081758E-1,-1.3845624E-2,2.1577988E-2,1.4907417E-1,-1.7526893E-2,2.3917167E-1,1.1436689E-1,-3.180024E-2,1.4835149E-1,1.2863779E-2,3.0005544E-2,2.2161654E-1,-6.549945E-2,7.504695E-2,2.0856796E-1,-4.7159903E-3,-1.5265556E-3,7.677063E-2,-5.368222E-2,1.22959904E-1,3.3844692E-1,1.184961E-1,2.321614E-1,2.7511386E-2,2.0946305E-1,-4.8475396E-2],"categories":[],"categories_nodes":[],"categories_segments":[],"categories_sizes":[],"default_left":[1,1,0,1,0,0,0,1,0,0,0,0,0,0,0,0,0,0,0,0,0,0,0,0,0,0,0,0,0,0,0,0,0,0,0,0,0,0,0,0,0,0,0,0,0,0,0,0,0,0,0,0,0,0,0,0,0],"id":13,"left_children":[1,3,5,7,9,11,13,15,17,19,21,23,25,-1,27,29,31,33,35,37,39,41,43,45,47,49,51,53,55,-1,-1,-1,-1,-1,-1,-1,-1,-1,-1,-1,-1,-1,-1,-1,-1,-1,-1,-1,-1,-1,-1,-1,-1,-1,-1,-1,-1],"loss_changes":[6.6459045E2,2.4115054E2,1.4807825E2,1.2453909E2,8.058309E1,2.2779108E2,1.1257485E2,5.2744293E1,1.6500293E2,6.9549805E1,1.09420715E2,1.3762712E2,1.0551318E2,0E0,9.727622E1,2.9348145E1,5.4153687E1,1.0522143E2,1.0464635E2,8.96583E1,1.0381729E2,1.4771628E2,4.323933E1,1.4806982E2,1.2660116E2,3.6229713E1,1.6484784E2,8.200295E1,5.0752773E1,0E0,0E0,0E0,0E0,0E0,0E0,0E0,0E0,0E0,0E0,0E0,0E0,0E0,0E0,0E0,0E0,0E0,0E0,0E0,0E0,0E0,0E0,0E0,0E0,0E0,0E0,0E0,0E0],"parents":[2147483647,0,0,1,1,2,2,3,3,4,4,5,5,6,6,7,7,8,8,9,9,10,10,11,11,12,12,14,14,15,15,16,16,17,17,18,18,19,19,20,20,21,21,22,22,23,23,24,24,25,25,26,26,27,27,28,28],"right_children":[2,4,6,8,10,12,14,16,18,20,22,24,26,-1,28,30,32,34,36,38,40,42,44,46,48,50,52,54,56,-1,-1,-1,-1,-1,-1,-1,-1,-1,-1,-1,-1,-1,-1,-1,-1,-1,-1,-1,-1,-1,-1,-1,-1,-1,-1,-1,-1],"split_conditions":[1.7725E1,5.1818365E-1,9.97964E2,1.2875E-1,1.6E1,1.3333334E0,8.421974E-3,6.385686E-2,7.830808E2,6.666667E-1,3.3333333E0,5.1E0,1.36E1,3.2758972E-1,2.1488304E-1,3.3333334E-1,6.425607E-2,7.084436E-2,2E-1,2.030075E0,1.16E1,1.02E1,3.75E-1,2.59366E-1,1.5006351E-1,8.86E1,2.601156E-1,1.25E-1,1.6875E1,-6.8886034E-2,-3.823369E-2,2.0081758E-1,-1.3845624E-2,2.1577988E-2,1.4907417E-1,-1.7526893E-2,2.3917167E-1,1.1436689E-1,-3.180024E-2,1.4835149E-1,1.2863779E-2,3.0005544E-2,2.2161654E-1,-6.549945E-2,7.504695E-2,2.0856796E-1,-4.7159903E-3,-1.5265556E-3,7.677063E-2,-5.368222E-2,1.22959904E-1,3.3844692E-1,1.184961E-1,2.321614E-1,2.7511386E-2,2.0946305E-1,-4.8475396E-2],"split_indices":[66,15,84,61,13,68,70,70,84,10,56,13,36,0,70,9,70,47,60,25,36,36,17,45,24,27,72,64,65,0,0,0,0,0,0,0,0,0,0,0,0,0,0,0,0,0,0,0,0,0,0,0,0,0,0,0,0],"split_type":[0,0,0,0,0,0,0,0,0,0,0,0,0,0,0,0,0,0,0,0,0,0,0,0,0,0,0,0,0,0,0,0,0,0,0,0,0,0,0,0,0,0,0,0,0,0,0,0,0,0,0,0,0,0,0,0,0],"sum_hessian":[2.342E3,1.691E3,6.51E2,1.468E3,2.23E2,2.91E2,3.6E2,7.79E2,6.89E2,1.62E2,6.1E1,2.43E2,4.8E1,2E0,3.58E2,6.31E2,1.48E2,7.4E1,6.15E2,9.4E1,6.8E1,4E1,2.1E1,3.6E1,2.07E2,1E1,3.8E1,3.02E2,5.6E1,9.3E1,5.38E2,2E0,1.46E2,5.1E1,2.3E1,6.12E2,3E0,1.1E1,8.3E1,1.9E1,4.9E1,2E1,2E1,1.3E1,8E0,2.4E1,1.2E1,1.13E2,9.4E1,6E0,4E0,1.4E1,2.4E1,4E0,2.98E2,1E0,5.5E1],"tree_param":{"num_deleted":"0","num_feature":"85","num_nodes":"57","size_leaf_vector":"1"}},{"base_weights":[-7.2275978E-3,-3.316448E-1,8.0406946E-1,-5.7451415E-1,1.1659417E-1,3.4786868E-1,1.2524462E0,-1.149914E0,-4.6823907E-1,-6.3008183E-1,3.7663582E-1,8.5537665E-2,2.0630002E0,1.9350939E0,7.240744E-1,-1.2112588E0,7.082687E-1,-4.05472E-1,-1.4238006E0,-7.497293E-1,2.4062939E0,5.164345E-1,-9.82801E-1,-3.6825433E-2,2.686233E0,3.7014787E0,-8.824775E-2,4.51957E-1,2.5498798E0,2.035902E-2,1.5650634E0,-6.1979424E-2,8.4453814E-2,8.4925555E-2,-4.2407207E-2,-2.1426134E-2,1.8109486E-1,-7.6858066E-2,5.4564726E-2,1.09202944E-1,-4.1300844E-2,1.6010478E-1,-3.9317876E-2,2.856614E-5,5.4358687E-2,-6.4610146E-2,7.5166695E-2,-6.521027E-3,1.7959516E-1,-9.126166E-2,2.4470666E-1,2.695816E-1,-2.8202534E-2,-4.246055E-2,1.182242E-1,-6.298768E-2,6.4637356E-2,2.1532786E-1,8.1092834E-2,-1.1574357E-2,1.7896374E-1,2.391283E-1,5.4254737E-2],"categories":[],"categories_nodes":[],"categories_segments":[],"categories_sizes":[],"default_left":[1,1,0,0,0,0,0,0,1,0,0,0,0,0,0,1,0,1,0,0,0,0,0,0,0,0,0,0,0,0,0,0,0,0,0,0,0,0,0,0,0,0,0,0,0,0,0,0,0,0,0,0,0,0,0,0,0,0,0,0,0,0,0],"id":14,"left_children":[1,3,5,7,9,11,13,15,17,19,21,23,25,27,29,31,33,35,37,39,41,43,45,47,49,51,53,55,57,59,61,-1,-1,-1,-1,-1,-1,-1,-1,-1,-1,-1,-1,-1,-1,-1,-1,-1,-1,-1,-1,-1,-1,-1,-1,-1,-1,-1,-1,-1,-1,-1,-1],"loss_changes":[6.145725E2,1.816513E2,1.3599905E2,6.562659E1,1.1421326E2,1.4920102E2,1.1979126E2,2.0008163E1,5.4302353E1,5.7024837E1,8.336825E1,9.206715E1,1.5541666E2,1.319721E2,1.13005165E2,1.5486755E1,1.068794E1,8.138893E1,1.7643852E1,3.4704414E1,1.7762299E1,1.1659099E2,3.348043E1,9.454632E1,1.384242E2,1.8327615E2,3.933672E1,6.4952866E1,1.6092981E2,9.493998E1,1.291646E2,0E0,0E0,0E0,0E0,0E0,0E0,0E0,0E0,0E0,0E0,0E0,0E0,0E0,0E0,0E0,0E0,0E0,0E0,0E0,0E0,0E0,0E0,0E0,0E0,0E0,0E0,0E0,0E0,0E0,0E0,0E0,0E0],"parents":[2147483647,0,0,1,1,2,2,3,3,4,4,5,5,6,6,7,7,8,8,9,9,10,10,11,11,12,12,13,13,14,14,15,15,16,16,17,17,18,18,19,19,20,20,21,21,22,22,23,23,24,24,25,25,26,26,27,27,28,28,29,29,30,30],"right_children":[2,4,6,8,10,12,14,16,18,20,22,24,26,28,30,32,34,36,38,40,42,44,46,48,50,52,54,56,58,60,62,-1,-1,-1,-1,-1,-1,-1,-1,-1,-1,-1,-1,-1,-1,-1,-1,-1,-1,-1,-1,-1,-1,-1,-1,-1,-1,-1,-1,-1,-1,-1,-1],"split_conditions":[1.7625E1,5.3285E-2,1E0,7.5E0,3.9333332E1,9.644934E-1,1.4876033E-1,1.8832551E3,4.32E-1,1.8348387E0,3.875E0,1.9283579E3,8.55E-1,5.025292E-1,1E0,6E0,6.75E-1,4.26E-1,1.5220674E3,7.174779E-2,2.2333333E-1,3.646434E-1,1E0,1.5217391E0,4E-1,2.3107679E-1,3.7815127E-1,2.5E-1,6.133333E0,6.8625E-1,3.625E-2,-6.1979424E-2,8.4453814E-2,8.4925555E-2,-4.2407207E-2,-2.1426134E-2,1.8109486E-1,-7.6858066E-2,5.4564726E-2,1.09202944E-1,-4.1300844E-2,1.6010478E-1,-3.9317876E-2,2.856614E-5,5.4358687E-2,-6.4610146E-2,7.5166695E-2,-6.521027E-3,1.7959516E-1,-9.126166E-2,2.4470666E-1,2.695816E-1,-2.8202534E-2,-4.246055E-2,1.182242E-1,-6.298768E-2,6.4637356E-2,2.1532786E-1,8.1092834E-2,-1.1574357E-2,1.7896374E-1,2.391283E-1,5.4254737E-2],"split_indices":[66,16,81,0,0,15,72,83,34,19,56,83,19,50,28,71,66,34,82,78,7,75,64,44,64,78,72,37,8,59,60,0,0,0,0,0,0,0,0,0,0,0,0,0,0,0,0,0,0,0,0,0,0,0,0,0,0,0,0,0,0,0,0],"split_type":[0,0,0,0,0,0,0,0,0,0,0,0,0,0,0,0,0,0,0,0,0,0,0,0,0,0,0,0,0,0,0,0,0,0,0,0,0,0,0,0,0,0,0,0,0,0,0,0,0,0,0,0,0,0,0,0,0,0,0,0,0,0,0],"sum_hessian":[2.333E3,1.667E3,6.66E2,1.081E3,5.86E2,3.31E2,3.35E2,1.67E2,9.14E2,1.51E2,4.35E2,2.88E2,4.3E1,1.45E2,1.9E2,1.62E2,5E0,8.59E2,5.5E1,1.46E2,5E0,3.95E2,4E1,2.76E2,1.2E1,2.4E1,1.9E1,4.3E1,1.02E2,1.04E2,8.6E1,1.61E2,1E0,3E0,2E0,8.55E2,4E0,5.3E1,2E0,3E0,1.43E2,4E0,1E0,2.08E2,1.87E2,3.6E1,4E0,2.7E2,6E0,4E0,8E0,1.7E1,7E0,1.5E1,4E0,1.4E1,2.9E1,3.4E1,6.8E1,9.8E1,6E0,1E1,7.6E1],"tree_param":{"num_deleted":"0","num_feature":"85","num_nodes":"63","size_leaf_vector":"1"}},{"base_weights":[1.8425953E-2,-4.6368045E-1,5.466154E-1,-4.8276675E-1,4.2937417E0,3.3411667E-1,1.3360238E0,-1.2113814E0,-3.59826E-1,2.740701E-1,8.3741695E-2,7.0307165E-1,1.8605556E-2,-8.965102E-2,1.481766E0,-1.2432035E0,1.089372E-1,-5.976206E-1,-2.124977E-2,3.6578095E-1,1.6697004E0,-1.1189384E-1,1.1108533E0,3.0886896E0,1.1319855E0,-5.424748E-2,-8.448553E-2,-3.083635E-2,1.2375323E-1,4.9722787E-2,-1.5483566E-2,1.495529E-1,1.23621775E-2,3.1587434E-1,5.8408167E-2,1.5410383E-2,-2.5993198E-2,1.6208526E-1,1.084857E-2,-6.2131215E-2,1.7367308E-1,4.877871E-2,2.2646478E-1],"categories":[],"categories_nodes":[],"categories_segments":[],"categories_sizes":[],"default_left":[1,1,0,1,0,0,0,1,0,0,0,0,0,0,0,1,0,0,0,0,0,0,0,0,0,0,0,0,0,0,0,0,0,0,0,0,0,0,0,0,0,0,0],"id":15,"left_children":[1,3,5,7,9,11,13,15,17,-1,-1,19,21,-1,23,25,-1,27,29,31,33,35,37,39,41,-1,-1,-1,-1,-1,-1,-1,-1,-1,-1,-1,-1,-1,-1,-1,-1,-1,-1],"loss_changes":[5.971379E2,1.1339548E2,1.8726398E2,1.0902649E2,6.3714294E0,1.0277643E2,1.1073682E2,2.1695648E1,8.428296E1,0E0,0E0,1.3208545E2,6.811476E1,0E0,1.240936E2,1.0532532E1,0E0,3.7631805E1,1.27155876E2,9.355209E1,2.3737909E2,7.334327E1,9.643788E1,7.097894E1,9.548038E1,0E0,0E0,0E0,0E0,0E0,0E0,0E0,0E0,0E0,0E0,0E0,0E0,0E0,0E0,0E0,0E0,0E0,0E0],"parents":[2147483647,0,0,1,1,2,2,3,3,4,4,5,5,6,6,7,7,8,8,11,11,12,12,14,14,15,15,17,17,18,18,19,19,20,20,21,21,22,22,23,23,24,24],"right_children":[2,4,6,8,10,12,14,16,18,-1,-1,20,22,-1,24,26,-1,28,30,32,34,36,38,40,42,-1,-1,-1,-1,-1,-1,-1,-1,-1,-1,-1,-1,-1,-1,-1,-1,-1,-1],"split_conditions":[8.6E0,3.86982E-1,5.428571E0,6.666667E-2,7.2333336E1,5.0976562E0,1.4654647E-1,1.57083E0,6.425E0,2.740701E-1,8.3741695E-2,6.425E0,3.024E1,-8.965102E-2,2.42E1,2.325E0,1.089372E-1,1.6363636E0,8.2412067E2,8.8E0,1.210084E-1,5.1E0,9.196986E2,1.2333333E0,2.2E0,-5.424748E-2,-8.448553E-2,-3.083635E-2,1.2375323E-1,4.9722787E-2,-1.5483566E-2,1.495529E-1,1.23621775E-2,3.1587434E-1,5.8408167E-2,1.5410383E-2,-2.5993198E-2,1.6208526E-1,1.084857E-2,-6.2131215E-2,1.7367308E-1,4.877871E-2,2.2646478E-1],"split_indices":[36,43,56,12,0,79,15,50,66,0,0,62,39,0,39,66,0,72,83,36,19,35,83,13,41,0,0,0,0,0,0,0,0,0,0,0,0,0,0,0,0,0,0],"split_type":[0,0,0,0,0,0,0,0,0,0,0,0,0,0,0,0,0,0,0,0,0,0,0,0,0,0,0,0,0,0,0,0,0,0,0,0,0,0,0,0,0,0,0],"sum_hessian":[2.343E3,1.225E3,1.118E3,1.221E3,4E0,8.82E2,2.36E2,1.75E2,1.046E3,2E0,2E0,4.06E2,4.76E2,1E1,2.26E2,1.74E2,1E0,6.14E2,4.32E2,3.02E2,1.04E2,4.26E2,5E1,3.9E1,1.87E2,1.31E2,4.3E1,6.11E2,3E0,9.5E1,3.37E2,1.2E1,2.9E2,9E0,9.5E1,2.1E2,2.16E2,1.4E1,3.6E1,3E0,3.6E1,1.8E2,7E0],"tree_param":{"num_deleted":"0","num_feature":"85","num_nodes":"43","size_leaf_vector":"1"}},{"base_weights":[1.9773843E-2,-3.706139E-1,5.600114E-1,-6.591731E-1,-1.742305E-2,4.436472E-1,1.7199341E0,-1.2054908E0,-5.6258464E-1,-1.538664E-1,1.2696792E0,1.0647485E-1,7.821102E-1,1.043179E0,3.3836298E0,-2.807953E-1,-1.3265243E0,5.929976E-1,-6.358102E-1,3.030552E-1,-5.338651E-1,8.313732E-1,2.8747243E-1,4.2556205E-1,-5.259896E-1,1.4349463E0,2.614389E-1,1.02938935E-1,2.105353E0,5.3644423E0,1.4441028E0,-5.133456E-2,1.3981932E-1,-6.817831E-2,5.5737387E-2,-2.1190336E-4,2.8352803E-1,1.1662733E-2,-3.3968445E-2,5.4387846E-3,1.05994664E-1,-2.8601645E-2,1.7113516E-1,-8.640882E-3,1.2088084E-1,6.545478E-2,-4.2131706E-3,1.4243834E-1,-3.3147585E-2,5.5974223E-2,2.1490991E-1,-3.4065263E-3,8.479153E-2,-2.0552916E-2,1.10882536E-1,1.8926747E-1,8.650012E-3,3.6525375E-1,1.1031487E-1,-4.4323366E-2,1.23248875E-1],"categories":[],"categories_nodes":[],"categories_segments":[],"categories_sizes":[],"default_left":[1,1,0,0,0,0,0,0,0,0,0,0,0,0,0,0,1,0,0,0,0,0,0,0,0,0,0,0,0,0,0,0,0,0,0,0,0,0,0,0,0,0,0,0,0,0,0,0,0,0,0,0,0,0,0,0,0,0,0,0,0],"id":16,"left_children":[1,3,5,7,9,11,13,15,17,19,21,23,25,27,29,31,33,35,37,39,41,43,-1,45,47,49,51,53,55,57,59,-1,-1,-1,-1,-1,-1,-1,-1,-1,-1,-1,-1,-1,-1,-1,-1,-1,-1,-1,-1,-1,-1,-1,-1,-1,-1,-1,-1,-1,-1],"loss_changes":[4.8718054E2,1.3665851E2,1.3002621E2,3.8264557E1,1.0626775E2,1.0057089E2,9.555075E1,1.1938644E1,5.3601852E1,9.513719E1,1.0910363E2,8.962624E1,1.4918658E2,6.3699997E1,8.8299194E1,3.5004627E1,1.02916565E1,1.1525909E2,2.2568787E1,8.7660034E1,4.7110947E1,8.643394E1,0E0,1.3299243E2,7.075845E1,1.7132129E2,1.1640753E2,3.8955044E1,9.673549E1,5.7428406E1,3.54942E1,0E0,0E0,0E0,0E0,0E0,0E0,0E0,0E0,0E0,0E0,0E0,0E0,0E0,0E0,0E0,0E0,0E0,0E0,0E0,0E0,0E0,0E0,0E0,0E0,0E0,0E0,0E0,0E0,0E0,0E0],"parents":[2147483647,0,0,1,1,2,2,3,3,4,4,5,5,6,6,7,7,8,8,9,9,10,10,11,11,12,12,13,13,14,14,15,15,16,16,17,17,18,18,19,19,20,20,21,21,23,23,24,24,25,25,26,26,27,27,28,28,29,29,30,30],"right_children":[2,4,6,8,10,12,14,16,18,20,22,24,26,28,30,32,34,36,38,40,42,44,-1,46,48,50,52,54,56,58,60,-1,-1,-1,-1,-1,-1,-1,-1,-1,-1,-1,-1,-1,-1,-1,-1,-1,-1,-1,-1,-1,-1,-1,-1,-1,-1,-1,-1,-1,-1],"split_conditions":[4.1E0,3.975E1,8.9625E1,6.666667E-1,6.013363E-1,1E0,1.3333334E0,2.226548E-1,8E-1,1.0336633E3,1.5785007E-1,1.2061776E3,1.4754099E-1,4.9333334E-1,7.5E0,1.3090909E-1,6.5172416E-1,2.64E1,5.336435E2,1.25E1,2.4666667E-1,7.399724E-1,2.8747243E-1,3.6E-2,3.55E0,3.4360027E-1,1.9852941E0,1.25E0,6.44E-1,5.981331E-1,3.94E-1,-5.133456E-2,1.3981932E-1,-6.817831E-2,5.5737387E-2,-2.1190336E-4,2.8352803E-1,1.1662733E-2,-3.3968445E-2,5.4387846E-3,1.05994664E-1,-2.8601645E-2,1.7113516E-1,-8.640882E-3,1.2088084E-1,6.545478E-2,-4.2131706E-3,1.4243834E-1,-3.3147585E-2,5.5974223E-2,2.1490991E-1,-3.4065263E-3,8.479153E-2,-2.0552916E-2,1.10882536E-1,1.8926747E-1,8.650012E-3,3.6525375E-1,1.1031487E-1,-4.4323366E-2,1.23248875E-1],"split_indices":[8,54,54,2,44,81,68,77,56,84,74,84,72,7,35,73,20,27,82,36,6,77,0,33,67,51,22,41,34,15,34,0,0,0,0,0,0,0,0,0,0,0,0,0,0,0,0,0,0,0,0,0,0,0,0,0,0,0,0,0,0],"split_type":[0,0,0,0,0,0,0,0,0,0,0,0,0,0,0,0,0,0,0,0,0,0,0,0,0,0,0,0,0,0,0,0,0,0,0,0,0,0,0,0,0,0,0,0,0,0,0,0,0,0,0,0,0,0,0,0,0,0,0,0,0],"sum_hessian":[2.308E3,1.34E3,9.68E2,7.37E2,6.03E2,8.81E2,8.7E1,1.09E2,6.28E2,5.46E2,5.7E1,4.42E2,4.39E2,6.3E1,2.4E1,1.3E1,9.6E1,3.7E1,5.91E2,2.48E2,2.98E2,5.3E1,4E0,2.94E2,1.48E2,1.94E2,2.45E2,3.4E1,2.9E1,1.1E1,1.3E1,1.1E1,2E0,9.5E1,1E0,3.4E1,3E0,2.8E1,5.63E2,2.25E2,2.3E1,2.96E2,2E0,3.3E1,2E1,1.07E2,1.87E2,5E0,1.43E2,1.76E2,1.8E1,2E2,4.5E1,2.8E1,6E0,1.5E1,1.4E1,6E0,5E0,4E0,9E0],"tree_param":{"num_deleted":"0","num_feature":"85","num_nodes":"61","size_leaf_vector":"1"}},{"base_weights":[5.9642315E-2,-5.79252E-1,3.617234E-1,-1.0717934E0,-4.6775874E-1,3.074293E-1,2.9565344E0,-1.111117E0,1.05922185E-1,-4.9662048E-1,2.0729263E0,-6.3225925E-1,3.918499E-1,4.0011868E-1,1.2236043E0,-5.2135324E-1,-1.2675492E0,-5.580116E-1,5.751003E-1,1.997491E-1,-3.6736095E-1,-8.496312E-1,7.312505E-1,1.1288703E-1,6.803109E-1,-5.275453E-1,3.5002987E0,1.3515869E-1,-4.2410925E-2,-6.510266E-2,-3.1091482E-3,1.3887654E-2,-3.1784665E-2,1.3725238E-1,-1.765034E-2,1.2301273E-2,-3.269158E-2,-4.751802E-2,5.2736726E-2,1.8944274E-1,-6.643032E-3,2.3282587E-3,1.2751913E-1,4.4752937E-2,-7.231532E-3,1.1708818E-1,-5.7455655E-2,5.647924E-2,2.643815E-1],"categories":[],"categories_nodes":[],"categories_segments":[],"categories_sizes":[],"default_left":[1,0,0,1,1,0,0,0,0,1,0,0,0,0,0,0,0,0,0,0,0,0,0,0,0,0,0,0,0,0,0,0,0,0,0,0,0,0,0,0,0,0,0,0,0,0,0,0,0],"id":17,"left_children":[1,3,5,7,9,11,13,15,-1,17,19,21,23,-1,25,27,29,31,33,-1,35,37,39,41,43,45,47,-1,-1,-1,-1,-1,-1,-1,-1,-1,-1,-1,-1,-1,-1,-1,-1,-1,-1,-1,-1,-1,-1],"loss_changes":[4.4545563E2,4.0190704E1,2.1985448E2,1.9415222E1,4.5466568E1,1.2209718E2,2.70019E2,1.1793991E1,0E0,3.9797394E1,3.430017E1,3.826267E1,1.1338579E2,0E0,1.0151738E2,3.3912453E1,4.3275757E0,3.7053177E1,6.742915E1,0E0,8.637279E-1,2.210315E1,4.8061367E1,1.15952576E2,1.228974E2,2.9443E1,4.0636932E1,0E0,0E0,0E0,0E0,0E0,0E0,0E0,0E0,0E0,0E0,0E0,0E0,0E0,0E0,0E0,0E0,0E0,0E0,0E0,0E0,0E0,0E0],"parents":[2147483647,0,0,1,1,2,2,3,3,4,4,5,5,6,6,7,7,9,9,10,10,11,11,12,12,14,14,15,15,16,16,17,17,18,18,20,20,21,21,22,22,23,23,24,24,25,25,26,26],"right_children":[2,4,6,8,10,12,14,16,-1,18,20,22,24,-1,26,28,30,32,34,-1,36,38,40,42,44,46,48,-1,-1,-1,-1,-1,-1,-1,-1,-1,-1,-1,-1,-1,-1,-1,-1,-1,-1,-1,-1,-1,-1],"split_conditions":[3.4E1,6.666667E-2,8.2E0,3.3832734E0,2.088E1,1.5063959E-2,9.34E0,2.226548E-1,1.05922185E-1,8.9758754E-1,4.75E0,7.46888E-1,1E0,4.0011868E-1,1.02E0,2.8854961E0,1.5E-1,7.830808E2,5.521472E-1,1.997491E-1,2.3E1,1.175E-1,5.960265E-1,1.9802205E3,3.4155598E-1,6.646154E0,1.1819716E-1,1.3515869E-1,-4.2410925E-2,-6.510266E-2,-3.1091482E-3,1.3887654E-2,-3.1784665E-2,1.3725238E-1,-1.765034E-2,1.2301273E-2,-3.269158E-2,-4.751802E-2,5.2736726E-2,1.8944274E-1,-6.643032E-3,2.3282587E-3,1.2751913E-1,4.4752937E-2,-7.231532E-3,1.1708818E-1,-5.7455655E-2,5.647924E-2,2.643815E-1],"split_indices":[0,12,29,23,39,51,35,77,0,24,29,17,81,0,5,79,5,84,49,0,0,60,44,83,72,79,70,0,0,0,0,0,0,0,0,0,0,0,0,0,0,0,0,0,0,0,0,0,0],"split_type":[0,0,0,0,0,0,0,0,0,0,0,0,0,0,0,0,0,0,0,0,0,0,0,0,0,0,0,0,0,0,0,0,0,0,0,0,0,0,0,0,0,0,0,0,0,0,0,0,0],"sum_hessian":[2.306E3,7.4E2,1.566E3,1.35E2,6.05E2,1.535E3,3.1E1,1.34E2,1E0,5.99E2,6E0,1.26E2,1.409E3,7E0,2.4E1,2.9E1,1.05E2,5.67E2,3.2E1,3E0,3E0,1.09E2,1.7E1,7.17E2,6.92E2,1.4E1,1E1,2E0,2.7E1,1.02E2,3E0,4.8E1,5.19E2,9E0,2.3E1,1E0,2E0,1.04E2,5E0,3E0,1.4E1,6.99E2,1.8E1,5.49E2,1.43E2,2E0,1.2E1,5E0,5E0],"tree_param":{"num_deleted":"0","num_feature":"85","num_nodes":"49","size_leaf_vector":"1"}},{"base_weights":[-2.0866172E-2,-2.2707853E-1,7.590874E-1,-5.4610884E-1,2.516802E-2,1.8659832E0,4.9230105E-1,-1.1225164E0,-4.4472423E-1,-2.572947E-2,1.8620322E0,1.4099663E0,6.0668154E0,-9.4024336E-1,6.2475765E-1,1.08090416E-1,-1.1675258E0,1.6275191E0,-4.6803814E-1,2.0520875E-1,-3.5653102E-1,5.6279907E0,5.791348E-1,3.995353E0,5.785769E-1,1.099839E-1,3.8168857E-1,-1.2071682E0,1.9670694E-1,2.0625818E0,2.6930344E-1,-2.5267795E-2,-6.2472094E-2,-6.0483463E-2,2.3835626E-1,-1.32300975E-2,-3.582065E-2,9.804189E-2,5.760574E-3,4.2045984E-2,-2.3956716E-2,7.4837625E-2,4.1761157E-1,1.4093222E-1,-2.1842329E-2,-7.4598948E-3,2.649925E-1,-5.5666115E-2,6.611109E-2,9.604978E-4,-8.339303E-2,6.155445E-2,1.8902485E-1,-6.217631E-5,7.616042E-2],"categories":[],"categories_nodes":[],"categories_segments":[],"categories_sizes":[],"default_left":[1,1,0,0,0,0,0,0,0,0,0,0,0,0,0,0,0,0,0,0,0,0,0,0,0,0,0,0,0,0,0,0,0,0,0,0,0,0,0,0,0,0,0,0,0,0,0,0,0,0,0,0,0,0,0],"id":18,"left_children":[1,3,5,7,9,11,13,15,17,19,21,23,25,27,29,-1,31,33,35,37,39,41,43,45,47,-1,-1,49,-1,51,53,-1,-1,-1,-1,-1,-1,-1,-1,-1,-1,-1,-1,-1,-1,-1,-1,-1,-1,-1,-1,-1,-1,-1,-1],"loss_changes":[3.7765463E2,1.494545E2,1.4407599E2,4.742064E1,9.709237E1,1.7343277E2,7.591817E1,2.0558655E1,3.4531876E1,7.730823E1,1.3201811E2,1.8469171E2,3.7744873E1,4.898635E1,1.8547789E2,0E0,5.9319153E0,7.702786E1,3.4776123E1,9.394318E1,6.147645E1,6.628017E1,5.128791E1,1.1432834E2,8.576958E1,0E0,0E0,1.867648E1,0E0,9.8193146E1,9.939926E1,0E0,0E0,0E0,0E0,0E0,0E0,0E0,0E0,0E0,0E0,0E0,0E0,0E0,0E0,0E0,0E0,0E0,0E0,0E0,0E0,0E0,0E0,0E0,0E0],"parents":[2147483647,0,0,1,1,2,2,3,3,4,4,5,5,6,6,7,7,8,8,9,9,10,10,11,11,12,12,13,13,14,14,16,16,17,17,18,18,19,19,20,20,21,21,22,22,23,23,24,24,27,27,29,29,30,30],"right_children":[2,4,6,8,10,12,14,16,18,20,22,24,26,28,30,-1,32,34,36,38,40,42,44,46,48,-1,-1,50,-1,52,54,-1,-1,-1,-1,-1,-1,-1,-1,-1,-1,-1,-1,-1,-1,-1,-1,-1,-1,-1,-1,-1,-1,-1,-1],"split_conditions":[8.2666664E1,1.2875E-1,8.725135E2,6.666667E-1,7.025E-1,1.82E-1,4E0,-2.3333333E0,1.6666666E0,1.0840919E3,7.9646015E-1,2.6058E-2,5.0333333E-1,6.666667E-1,3.387097E0,1.08090416E-1,2.2759669E-1,5.5666668E1,3.3333334E-1,2.9282218E-1,2.2232778E-1,3.3333334E-1,6.666667E-2,1.7016279E-2,8.108108E-1,1.099839E-1,3.8168857E-1,2.25E0,1.9670694E-1,1.0619469E0,7.7777777E0,-2.5267795E-2,-6.2472094E-2,-6.0483463E-2,2.3835626E-1,-1.32300975E-2,-3.582065E-2,9.804189E-2,5.760574E-3,4.2045984E-2,-2.3956716E-2,7.4837625E-2,4.1761157E-1,1.4093222E-1,-2.1842329E-2,-7.4598948E-3,2.649925E-1,-5.5666115E-2,6.611109E-2,9.604978E-4,-8.339303E-2,6.155445E-2,1.8902485E-1,-6.217631E-5,7.616042E-2],"split_indices":[0,61,84,9,59,33,9,9,25,84,71,33,7,57,25,0,77,0,1,77,48,4,20,16,76,0,0,29,0,76,25,0,0,0,0,0,0,0,0,0,0,0,0,0,0,0,0,0,0,0,0,0,0,0,0],"split_type":[0,0,0,0,0,0,0,0,0,0,0,0,0,0,0,0,0,0,0,0,0,0,0,0,0,0,0,0,0,0,0,0,0,0,0,0,0,0,0,0,0,0,0,0,0,0,0,0,0,0,0,0,0,0,0],"sum_hessian":[2.346E3,1.856E3,4.9E2,8.19E2,1.037E3,9.4E1,3.96E2,1.21E2,6.98E2,1.01E3,2.7E1,8.6E1,8E0,3.3E1,3.63E2,1E0,1.2E2,7E0,6.91E2,5.95E2,4.15E2,6E0,2.1E1,2E1,6.6E1,3E0,5E0,3.2E1,1E0,7.1E1,2.92E2,1.4E1,1.06E2,4E0,3E0,3.81E2,3.1E2,2.8E1,5.67E2,3.8E1,3.77E2,3E0,3E0,6E0,1.5E1,5E0,1.5E1,2E1,4.6E1,9E0,2.3E1,4.9E1,2.2E1,2.41E2,5.1E1],"tree_param":{"num_deleted":"0","num_feature":"85","num_nodes":"55","size_leaf_vector":"1"}},{"base_weights":[2.0727493E-2,-3.6372483E-1,5.322762E-1,3.181507E-1,-4.7166845E-1,1.9846086E-1,9.7351086E-1,4.453784E0,1.2617819E-1,-4.8413947E-1,2.2081132E-1,1.38684E-1,3.8825746E0,1.124034E0,-8.577059E-1,2.7249357E-1,-6.297072E-2,-3.9655623E-1,1.0308242E0,-7.0650536E-1,-2.6364514E-1,-2.7674893E-1,5.641508E-1,3.3870742E-1,2.1448573E-1,1.8654698E0,6.525784E-1,1.9059974E-1,-1.1227589E0,-2.6465354E-2,2.2794549E-1,3.381724E-2,1.9103393E-1,-3.679743E-2,1.3721052E-1,1.2819298E-1,-1.5157203E-2,3.0966965E-2,-2.2664322E-2,6.789891E-2,1.4970035E-3,-7.1757E-2,8.963081E-2,7.5825095E-2,2.1233979E-1,4.6493825E-2,-2.0479998E-2,7.113484E-2,-8.2341604E-2],"categories":[],"categories_nodes":[],"categories_segments":[],"categories_sizes":[],"default_left":[1,0,0,0,1,0,0,0,0,1,0,0,0,0,0,0,0,0,0,1,0,0,0,0,0,0,0,0,0,0,0,0,0,0,0,0,0,0,0,0,0,0,0,0,0,0,0,0,0],"id":19,"left_children":[1,3,5,7,9,11,13,15,17,19,-1,21,23,25,27,-1,-1,29,31,33,35,37,39,-1,41,43,45,-1,47,-1,-1,-1,-1,-1,-1,-1,-1,-1,-1,-1,-1,-1,-1,-1,-1,-1,-1,-1,-1],"loss_changes":[4.5468893E2,9.7307495E1,1.4591937E2,1.4313898E2,7.162904E1,1.2410875E2,1.1866254E2,5.239041E1,8.269157E1,5.561035E1,0E0,9.8784256E1,9.4006E1,1.368565E2,4.5124645E1,0E0,0E0,7.543356E1,6.0708435E1,5.9525238E1,6.4771805E1,4.5049416E1,1.1700297E2,0E0,1.5589277E1,1.20703674E2,7.195409E1,0E0,4.5031105E1,0E0,0E0,0E0,0E0,0E0,0E0,0E0,0E0,0E0,0E0,0E0,0E0,0E0,0E0,0E0,0E0,0E0,0E0,0E0,0E0],"parents":[2147483647,0,0,1,1,2,2,3,3,4,4,5,5,6,6,7,7,8,8,9,9,11,11,12,12,13,13,14,14,17,17,18,18,19,19,20,20,21,21,22,22,24,24,25,25,26,26,28,28],"right_children":[2,4,6,8,10,12,14,16,18,20,-1,22,24,26,28,-1,-1,30,32,34,36,38,40,-1,42,44,46,-1,48,-1,-1,-1,-1,-1,-1,-1,-1,-1,-1,-1,-1,-1,-1,-1,-1,-1,-1,-1,-1],"split_conditions":[4.1E0,2.2360249E0,8.2666664E1,6.7905743E2,2.2666666E1,1.2E0,3.476344E-1,1.6E-1,1.2729844E-1,1.5455395E-1,2.2081132E-1,1E0,7.875E0,9.7488367E2,5.960871E-1,2.7249357E-1,-6.297072E-2,5.939086E-1,5.729581E-1,3.9375E-1,4.614857E-2,1.78E1,1.3677812E-1,3.3870742E-1,1.0666667E1,1.575E-1,6.977709E-1,1.9059974E-1,3.3333333E0,-2.6465354E-2,2.2794549E-1,3.381724E-2,1.9103393E-1,-3.679743E-2,1.3721052E-1,1.2819298E-1,-1.5157203E-2,3.0966965E-2,-2.2664322E-2,6.789891E-2,1.4970035E-3,-7.1757E-2,8.963081E-2,7.5825095E-2,2.1233979E-1,4.6493825E-2,-2.0479998E-2,7.113484E-2,-8.2341604E-2],"split_indices":[8,25,0,84,9,30,51,5,72,19,0,81,56,84,50,0,0,46,15,59,23,38,72,0,2,60,48,0,2,0,0,0,0,0,0,0,0,0,0,0,0,0,0,0,0,0,0,0,0],"split_type":[0,0,0,0,0,0,0,0,0,0,0,0,0,0,0,0,0,0,0,0,0,0,0,0,0,0,0,0,0,0,0,0,0,0,0,0,0,0,0,0,0,0,0,0,0,0,0,0,0],"sum_hessian":[2.31E3,1.319E3,9.91E2,1.8E2,1.139E3,5.65E2,4.26E2,7E0,1.73E2,1.137E3,2E0,5.57E2,8E0,3.94E2,3.2E1,6E0,1E0,1.1E2,6.3E1,5.65E2,5.72E2,2.82E2,2.75E2,4E0,4E0,1.52E2,2.42E2,1E0,3.1E1,1.08E2,2E0,5.7E1,6E0,5.61E2,4E0,7E0,5.65E2,4.6E1,2.36E2,1.1E2,1.65E2,2E0,2E0,1.34E2,1.8E1,1.92E2,5E1,5E0,2.6E1],"tree_param":{"num_deleted":"0","num_feature":"85","num_nodes":"49","size_leaf_vector":"1"}},{"base_weights":[5.309964E-2,-2.0887898E-1,7.284569E-1,-4.3561965E-1,1.6911364E-1,4.742886E-2,9.961102E-1,-3.8365838E-1,-1.3696153E0,1.2697772E0,2.2844424E-2,2.8128228E-1,-7.542991E-2,2.0650864E0,7.3963535E-1,-4.127673E-1,2.040094E0,-1.4320048E0,4.998544E-2,-2.0555459E-1,2.0266924E0,-2.4977576E-2,2.9427617E0,1.7892566E0,-3.166829E-1,1.2386504E0,4.5632224E0,1.0902746E0,-1.7371154E-1,-1.4767155E-2,-4.1876286E-2,2.4834783E-1,-2.2103637E-3,-2.7780437E-3,-7.705046E-2,-4.7598243E-2,2.0688465E-1,1.4735249E-1,3.8160317E-2,-2.5565634E-2,1.0846815E-2,2.624011E-1,4.5773067E-2,2.453966E-1,-6.0323793E-3,-3.0570855E-2,6.242599E-2,1.8379971E-1,2.4676824E-2,4.5647677E-2,2.9375067E-1,4.803981E-3,7.462791E-2,1.9187672E-1,-1.6390078E-2],"categories":[],"categories_nodes":[],"categories_segments":[],"categories_sizes":[],"default_left":[1,1,0,1,0,0,0,1,0,0,0,0,0,0,0,0,0,0,0,0,0,0,0,0,0,0,0,0,0,0,0,0,0,0,0,0,0,0,0,0,0,0,0,0,0,0,0,0,0,0,0,0,0,0,0],"id":20,"left_children":[1,3,5,7,9,11,13,15,17,19,21,-1,23,25,27,29,31,33,-1,35,37,39,41,43,45,47,49,51,53,-1,-1,-1,-1,-1,-1,-1,-1,-1,-1,-1,-1,-1,-1,-1,-1,-1,-1,-1,-1,-1,-1,-1,-1,-1,-1],"loss_changes":[4.1275098E2,1.4414597E2,1.1879895E2,5.0481262E1,1.01557686E2,1.2721092E2,1.2678201E2,7.118315E1,9.561729E0,8.30525E1,7.7990555E1,0E0,8.244136E1,1.8015723E2,1.2156615E2,4.8931274E1,7.342514E1,8.016449E0,0E0,8.822689E1,5.4730865E1,6.481909E1,3.725673E1,1.2567591E2,7.549702E1,1.2349659E2,9.998102E1,1.09442444E2,6.677581E1,0E0,0E0,0E0,0E0,0E0,0E0,0E0,0E0,0E0,0E0,0E0,0E0,0E0,0E0,0E0,0E0,0E0,0E0,0E0,0E0,0E0,0E0,0E0,0E0,0E0,0E0],"parents":[2147483647,0,0,1,1,2,2,3,3,4,4,5,5,6,6,7,7,8,8,9,9,10,10,12,12,13,13,14,14,15,15,16,16,17,17,19,19,20,20,21,21,22,22,23,23,24,24,25,25,26,26,27,27,28,28],"right_children":[2,4,6,8,10,12,14,16,18,20,22,-1,24,26,28,30,32,34,-1,36,38,40,42,44,46,48,50,52,54,-1,-1,-1,-1,-1,-1,-1,-1,-1,-1,-1,-1,-1,-1,-1,-1,-1,-1,-1,-1,-1,-1,-1,-1,-1,-1],"split_conditions":[1.7725E1,4.825668E-2,6.9125E1,3.84E-1,7.384507E-2,1.2693378E-2,2.7625E-1,5.5697757E-1,1.8125E-1,5.7939917E-1,3.9168072E-1,2.8128228E-1,1.8875E1,2.6074E-1,1.1848928E3,3.7656903E-1,5.0901115E-2,3.3733875E-1,4.998544E-2,4.090909E-1,1.4802632E-1,7.75E0,6.46E0,1.0140755E3,4.7134024E-1,3.3333333E0,2.2125E-1,5.300518E-1,3.8E0,-1.4767155E-2,-4.1876286E-2,2.4834783E-1,-2.2103637E-3,-2.7780437E-3,-7.705046E-2,-4.7598243E-2,2.0688465E-1,1.4735249E-1,3.8160317E-2,-2.5565634E-2,1.0846815E-2,2.624011E-1,4.5773067E-2,2.453966E-1,-6.0323793E-3,-3.0570855E-2,6.242599E-2,1.8379971E-1,2.4676824E-2,4.5647677E-2,2.9375067E-1,4.803981E-3,7.462791E-2,1.9187672E-1,-1.6390078E-2],"split_indices":[66,16,54,32,78,70,59,15,60,76,70,0,65,32,83,18,78,50,0,18,72,66,35,83,24,2,59,75,40,0,0,0,0,0,0,0,0,0,0,0,0,0,0,0,0,0,0,0,0,0,0,0,0,0,0],"split_type":[0,0,0,0,0,0,0,0,0,0,0,0,0,0,0,0,0,0,0,0,0,0,0,0,0,0,0,0,0,0,0,0,0,0,0,0,0,0,0,0,0,0,0,0,0,0,0,0,0,0,0,0,0,0,0],"sum_hessian":[2.331E3,1.68E3,6.51E2,1.05E3,6.3E2,1.84E2,4.67E2,9.96E2,5.4E1,7.3E1,5.57E2,3E0,1.81E2,8.9E1,3.78E2,9.85E2,1.1E1,5.3E1,1E0,2.5E1,4.8E1,5.49E2,8E0,2E1,1.61E2,6.8E1,2.1E1,2.73E2,1.05E2,7.73E2,2.12E2,4E0,7E0,4E0,4.9E1,2.2E1,3E0,2.7E1,2.1E1,1.82E2,3.67E2,3E0,5E0,7E0,1.3E1,1.36E2,2.5E1,1.5E1,5.3E1,6E0,1.5E1,7.9E1,1.94E2,3E0,1.02E2],"tree_param":{"num_deleted":"0","num_feature":"85","num_nodes":"55","size_leaf_vector":"1"}},{"base_weights":[4.2759288E-2,-2.3823485E-1,6.395771E-1,-2.7485582E-1,1.7222574E0,1.635211E0,5.149081E-1,-4.4860634E-1,2.7618246E-2,3.650666E0,5.1516515E-1,1.2220705E0,3.3323234E-1,4.5225117E-1,2.7245462E0,-4.864318E-1,1.0815283E0,1.7901649E-1,-8.79243E-1,-6.287196E-1,3.0929232E-1,1.1902022E0,-5.7289105E-2,3.0195813E0,5.3838974E-1,1.1051182E0,2.4438484E-1,4.500662E0,-7.094449E-1,-2.484576E-2,2.3891614E-1,1.9306007E-1,-2.9770264E-3,6.191636E-3,2.2819407E-1,2.9443199E-2,-5.8428515E-2,-5.0396927E-2,2.2203898E-2,1.1082313E-1,-2.7377767E-2,2.1525823E-1,-9.776586E-2,-5.7473904E-3,1.27664E-1,4.122157E-2,2.5463167E-1,-5.1242203E-2,2.0215012E-2,4.507363E-3,2.6868752E-1,4.508711E-2,-1.0716354E-1],"categories":[],"categories_nodes":[],"categories_segments":[],"categories_sizes":[],"default_left":[1,1,0,1,0,0,0,1,0,0,0,0,0,0,0,1,0,0,0,0,0,0,0,0,0,0,0,0,0,0,0,0,0,0,0,0,0,0,0,0,0,0,0,0,0,0,0,0,0,0,0,0,0],"id":21,"left_children":[1,3,5,7,9,11,13,15,17,19,21,23,-1,25,27,29,31,33,35,37,-1,39,-1,41,43,45,47,49,51,-1,-1,-1,-1,-1,-1,-1,-1,-1,-1,-1,-1,-1,-1,-1,-1,-1,-1,-1,-1,-1,-1,-1,-1],"loss_changes":[3.8821548E2,1.1347894E2,9.113446E1,8.1262474E1,6.5624535E1,1.6224016E2,9.0144226E1,5.736235E1,7.7730316E1,1.2322832E2,2.266653E1,9.3001396E1,0E0,8.6990875E1,1.1297797E2,5.530397E1,7.635305E1,1.1679191E2,3.5093964E1,2.481729E0,0E0,2.6181118E1,0E0,1.427265E2,7.532849E1,1.6928413E2,9.966631E1,4.5724777E1,1.810381E1,0E0,0E0,0E0,0E0,0E0,0E0,0E0,0E0,0E0,0E0,0E0,0E0,0E0,0E0,0E0,0E0,0E0,0E0,0E0,0E0,0E0,0E0,0E0,0E0],"parents":[2147483647,0,0,1,1,2,2,3,3,4,4,5,5,6,6,7,7,8,8,9,9,10,10,11,11,13,13,14,14,15,15,16,16,17,17,18,18,19,19,21,21,23,23,24,24,25,25,26,26,27,27,28,28],"right_children":[2,4,6,8,10,12,14,16,18,20,22,24,-1,26,28,30,32,34,36,38,-1,40,-1,42,44,46,48,50,52,-1,-1,-1,-1,-1,-1,-1,-1,-1,-1,-1,-1,-1,-1,-1,-1,-1,-1,-1,-1,-1,-1,-1,-1],"split_conditions":[1.64E1,2E0,8.111498E2,4.3143634E-2,1.4375E-1,2.432E1,6.3E1,8.12E1,1.4525E1,1.00489453E3,3.5856575E-1,4.053435E-1,3.3323234E-1,8.571946E-2,2.5E-1,7.5E0,3E0,8.766666E0,8.7195544E2,1.7333333E-1,3.0929232E-1,1.72E-1,-5.7289105E-2,5.6626433E-1,7.86138E2,1.8849098E3,1.58E-1,9.2268445E2,3.8190488E-2,-2.484576E-2,2.3891614E-1,1.9306007E-1,-2.9770264E-3,6.191636E-3,2.2819407E-1,2.9443199E-2,-5.8428515E-2,-5.0396927E-2,2.2203898E-2,1.1082313E-1,-2.7377767E-2,2.1525823E-1,-9.776586E-2,-5.7473904E-3,1.27664E-1,4.122157E-2,2.5463167E-1,-5.1242203E-2,2.0215012E-2,4.507363E-3,2.6868752E-1,4.508711E-2,-1.0716354E-1],"split_indices":[66,14,84,16,59,40,38,27,66,84,44,48,0,78,31,35,8,8,84,6,0,33,0,15,84,83,32,83,16,0,0,0,0,0,0,0,0,0,0,0,0,0,0,0,0,0,0,0,0,0,0,0,0],"split_type":[0,0,0,0,0,0,0,0,0,0,0,0,0,0,0,0,0,0,0,0,0,0,0,0,0,0,0,0,0,0,0,0,0,0,0,0,0,0,0,0,0,0,0,0,0,0,0,0,0,0,0,0,0],"sum_hessian":[2.313E3,1.573E3,7.4E2,1.545E3,2.8E1,8.1E1,6.59E2,9.81E2,5.64E2,1E1,1.8E1,7.6E1,5E0,6.42E2,1.7E1,9.58E2,2.3E1,4.84E2,8E1,4E0,6E0,1.3E1,5E0,2E1,5.6E1,1.54E2,4.88E2,1.1E1,6E0,9.57E2,1E0,6E0,1.7E1,4.79E2,5E0,1.3E1,6.7E1,3E0,1E0,8E0,5E0,1.6E1,4E0,4.3E1,1.3E1,1.45E2,9E0,5.4E1,4.34E2,2E0,9E0,3E0,3E0],"tree_param":{"num_deleted":"0","num_feature":"85","num_nodes":"53","size_leaf_vector":"1"}},{"base_weights":[-1.0993725E-2,-4.8170096E-1,2.718972E-1,-4.96925E-1,2.2301252E0,3.664505E-1,-7.776251E-1,-2.6154667E-1,-6.7703724E-1,-4.6992082E-2,1.6287887E-1,2.9488268E-1,2.3390453E0,-9.2121285E-1,2.080146E0,-4.4265458E-1,7.747922E-1,-6.0226625E-1,-1.3626163E0,-8.333011E-3,5.9763545E-1,3.9258316E0,1.0770168E0,-1.5358594E-1,-1.4975226E0,2.9764194E0,-6.0030498E-2,-2.4419196E-2,2.2684811E-1,1.6329696E-2,3.2598606E-1,-5.16656E-2,-2.3372805E-2,-7.2142415E-2,5.820129E-2,-4.109071E-3,1.9223933E-1,2.7034393E-2,2.5037766E-1,2.5034162E-1,6.0149856E-2,2.0012105E-1,-7.349787E-3,-6.891152E-2,2.8917313E-2,4.9748104E-2,-7.7600695E-2,4.0541112E-2,1.6575566E-1],"categories":[],"categories_nodes":[],"categories_segments":[],"categories_sizes":[],"default_left":[1,1,0,0,0,0,0,0,1,0,0,0,0,0,0,0,0,0,0,0,0,0,0,0,0,0,0,0,0,0,0,0,0,0,0,0,0,0,0,0,0,0,0,0,0,0,0,0,0],"id":22,"left_children":[1,3,5,7,9,11,13,15,17,-1,-1,19,21,23,25,27,29,31,33,35,37,39,41,43,45,47,-1,-1,-1,-1,-1,-1,-1,-1,-1,-1,-1,-1,-1,-1,-1,-1,-1,-1,-1,-1,-1,-1,-1],"loss_changes":[3.061299E2,3.673706E1,1.4278757E2,3.6239838E1,1.9346554E1,1.8537799E2,5.0746826E1,7.053873E1,2.4092407E1,0E0,0E0,1.16865616E2,8.789003E1,5.0202545E1,2.1216238E1,7.4856705E1,1.4206326E2,2.5085083E1,1.1207222E1,1.8157227E2,1.5726495E2,5.2844482E1,9.72681E1,4.5614933E1,1.0372437E1,9.7940445E-1,0E0,0E0,0E0,0E0,0E0,0E0,0E0,0E0,0E0,0E0,0E0,0E0,0E0,0E0,0E0,0E0,0E0,0E0,0E0,0E0,0E0,0E0,0E0],"parents":[2147483647,0,0,1,1,2,2,3,3,4,4,5,5,6,6,7,7,8,8,11,11,12,12,13,13,14,14,15,15,16,16,17,17,18,18,19,19,20,20,21,21,22,22,23,23,24,24,25,25],"right_children":[2,4,6,8,10,12,14,16,18,-1,-1,20,22,24,26,28,30,32,34,36,38,40,42,44,46,48,-1,-1,-1,-1,-1,-1,-1,-1,-1,-1,-1,-1,-1,-1,-1,-1,-1,-1,-1,-1,-1,-1,-1],"split_conditions":[2.6875E0,3.1653175E-1,5.714286E-1,3.6713696E-1,3.584154E-1,2.1E-1,8.6333334E-1,3.2450292E-1,2.15E-1,-4.6992082E-2,1.6287887E-1,1E0,1.9229186E-1,9.575E0,6.4666664E1,9.375E0,1.9565217E0,4.6770875E-3,1.32E-1,1.2162162E0,3.4965575E-1,1.06087E0,3.4615386E0,2.9E1,2E0,3.2193333E-2,-6.0030498E-2,-2.4419196E-2,2.2684811E-1,1.6329696E-2,3.2598606E-1,-5.16656E-2,-2.3372805E-2,-7.2142415E-2,5.820129E-2,-4.109071E-3,1.9223933E-1,2.7034393E-2,2.5037766E-1,2.5034162E-1,6.0149856E-2,2.0012105E-1,-7.349787E-3,-6.891152E-2,2.8917313E-2,4.9748104E-2,-7.7600695E-2,4.0541112E-2,1.6575566E-1],"split_indices":[62,70,45,77,51,33,7,77,61,0,0,81,78,67,11,63,76,70,33,71,70,7,25,0,26,6,0,0,0,0,0,0,0,0,0,0,0,0,0,0,0,0,0,0,0,0,0,0,0],"split_type":[0,0,0,0,0,0,0,0,0,0,0,0,0,0,0,0,0,0,0,0,0,0,0,0,0,0,0,0,0,0,0,0,0,0,0,0,0,0,0,0,0,0,0,0,0,0,0,0,0],"sum_hessian":[2.297E3,8.62E2,1.435E3,8.58E2,4E0,1.317E3,1.18E2,3.73E2,4.85E2,1E0,3E0,1.272E3,4.5E1,1.13E2,5E0,3.18E2,5.5E1,4.39E2,4.6E1,6.36E2,6.36E2,1.9E1,2.6E1,4.9E1,6.4E1,4E0,1E0,3.16E2,2E0,5.2E1,3E0,1.03E2,3.36E2,4.5E1,1E0,6.25E2,1.1E1,6.29E2,7E0,1.3E1,6E0,7E0,1.9E1,1.8E1,3.1E1,1E0,6.3E1,1E0,3E0],"tree_param":{"num_deleted":"0","num_feature":"85","num_nodes":"49","size_leaf_vector":"1"}},{"base_weights":[-1.9008122E-2,-3.5982013E-1,2.6924244E-1,-5.143895E-1,-4.6654012E-2,4.0940738E-1,-3.809011E-1,-2.987106E-1,-6.878034E-1,3.4380093E-1,-5.4307675E-1,-6.24972E-1,5.1166093E-1,-6.956732E-1,8.074299E-1,4.5098695E-1,-4.9224174E-1,-7.088704E-1,2.3363528E0,2.1054436E-1,2.762675E-1,2.0488618E-1,-6.2884164E-1,-1.0226806E0,1.0196882E0,4.74548E-1,3.1701248E0,9.439734E-1,-8.836832E-1,1.5979664E-1,3.2524567E0,5.9838064E-2,-2.837511E-2,-4.035573E-2,1.9351533E-3,-4.4064604E-2,-2.1498013E-2,-2.7806142E-2,2.0303261E-1,-4.418067E-3,8.772691E-2,-5.2111935E-2,1.6029669E-3,-2.742855E-2,-7.602028E-2,1.479116E-1,-3.2954592E-2,1.995304E-2,9.0889394E-2,3.6802515E-1,5.8848053E-2,-4.501156E-2,1.18352614E-1,-4.6803374E-2,1.10235214E-1,2.1581922E-1,-1.5324262E-2,2.2521427E-1,1.24321105E-2],"categories":[],"categories_nodes":[],"categories_segments":[],"categories_sizes":[],"default_left":[1,1,0,0,0,0,0,0,1,0,0,0,0,0,0,0,0,0,0,0,0,0,0,0,0,0,0,0,0,0,0,0,0,0,0,0,0,0,0,0,0,0,0,0,0,0,0,0,0,0,0,0,0,0,0,0,0,0,0],"id":23,"left_children":[1,3,5,7,9,11,13,15,17,19,21,23,25,27,29,31,33,35,37,39,-1,-1,41,43,45,47,49,51,53,55,57,-1,-1,-1,-1,-1,-1,-1,-1,-1,-1,-1,-1,-1,-1,-1,-1,-1,-1,-1,-1,-1,-1,-1,-1,-1,-1,-1,-1],"loss_changes":[2.3154857E2,5.2254364E1,1.1652553E2,2.6835983E1,6.95781E1,1.11482956E2,8.5471855E1,4.723109E1,2.7140137E1,1.3762222E2,6.546362E1,6.31819E1,9.29164E1,5.6322746E1,7.548735E1,5.156989E1,4.31637E1,1.876094E1,1.7220705E1,9.107222E1,0E0,0E0,4.2654873E1,1.7336113E1,6.3783127E1,9.509517E1,9.99144E1,5.1995426E1,2.827259E1,7.691043E1,3.648266E1,0E0,0E0,0E0,0E0,0E0,0E0,0E0,0E0,0E0,0E0,0E0,0E0,0E0,0E0,0E0,0E0,0E0,0E0,0E0,0E0,0E0,0E0,0E0,0E0,0E0,0E0,0E0,0E0],"parents":[2147483647,0,0,1,1,2,2,3,3,4,4,5,5,6,6,7,7,8,8,9,9,10,10,11,11,12,12,13,13,14,14,15,15,16,16,17,17,18,18,19,19,22,22,23,23,24,24,25,25,26,26,27,27,28,28,29,29,30,30],"right_children":[2,4,6,8,10,12,14,16,18,20,22,24,26,28,30,32,34,36,38,40,-1,-1,42,44,46,48,50,52,54,56,58,-1,-1,-1,-1,-1,-1,-1,-1,-1,-1,-1,-1,-1,-1,-1,-1,-1,-1,-1,-1,-1,-1,-1,-1,-1,-1,-1,-1],"split_conditions":[5.0333332E1,1.22E-1,1.269096E3,7.7363896E-1,2.4E-1,8.807437E-3,9E1,8.775023E2,1.7307693E0,5.82E0,1.0949416E-1,3.0625E1,1.3034483E0,2.5862068E-1,1.772E1,6.2752295E0,5.070422E-1,4.3333335E0,1E0,9.063232E-2,2.762675E-1,2.0488618E-1,5E-1,2.325E-1,7.9646015E-1,1.7625E-1,1.024138E0,2.857143E-1,1.5126051E0,3.7666667E0,5.6582594E-1,5.9838064E-2,-2.837511E-2,-4.035573E-2,1.9351533E-3,-4.4064604E-2,-2.1498013E-2,-2.7806142E-2,2.0303261E-1,-4.418067E-3,8.772691E-2,-5.2111935E-2,1.6029669E-3,-2.742855E-2,-7.602028E-2,1.479116E-1,-3.2954592E-2,1.995304E-2,9.0889394E-2,3.6802515E-1,5.8848053E-2,-4.501156E-2,1.18352614E-1,-4.6803374E-2,1.10235214E-1,2.1581922E-1,-1.5324262E-2,2.2521427E-1,1.24321105E-2],"split_indices":[0,32,84,49,34,16,0,84,72,35,42,65,21,49,40,79,76,36,0,47,0,0,41,61,49,60,48,64,17,13,42,0,0,0,0,0,0,0,0,0,0,0,0,0,0,0,0,0,0,0,0,0,0,0,0,0,0,0,0],"split_type":[0,0,0,0,0,0,0,0,0,0,0,0,0,0,0,0,0,0,0,0,0,0,0,0,0,0,0,0,0,0,0,0,0,0,0,0,0,0,0,0,0,0,0,0,0,0,0,0,0,0,0,0,0,0,0,0,0,0,0],"sum_hessian":[2.355E3,1.079E3,1.276E3,7.22E2,3.57E2,1.05E3,2.26E2,3.23E2,3.99E2,2E2,1.57E2,9.4E1,9.56E2,1.79E2,4.7E1,6.6E1,2.57E2,3.97E2,2E0,1.96E2,4E0,2E0,1.55E2,7.6E1,1.8E1,9.44E2,1.2E1,1.8E1,1.61E2,3.8E1,9E0,3.8E1,2.8E1,1.61E2,9.6E1,2.44E2,1.53E2,1E0,1E0,1.65E2,3.1E1,9.5E1,6E1,4E1,3.6E1,8E0,1E1,8.95E2,4.9E1,3E0,9E0,8E0,1E1,1.59E2,2E0,3E0,3.5E1,6E0,3E0],"tree_param":{"num_deleted":"0","num_feature":"85","num_nodes":"59","size_leaf_vector":"1"}},{"base_weights":[1.5934097E-2,-3.3349568E-1,3.9358E-1,-4.5913103E-1,9.259298E-2,5.717111E-1,-2.6096585E-1,-4.7068465E-1,2.3332026E0,8.4650874E-1,-5.696364E-1,5.233827E-1,5.1691933E0,-3.486498E-1,3.9123726E0,-4.2144728E-1,-1.1508281E0,1.8361934E-1,-4.2108733E-2,2.8858056E0,4.2325833E-1,2.4222784E-1,-6.777257E-1,1.4233956E-1,9.408978E-1,3.3574802E-1,-1.6066019E-1,-5.7555366E-1,5.244047E-1,2.6118943E-1,6.484162E-2,-2.1574503E-2,2.0663846E-1,-6.715338E-2,9.862049E-2,-3.2299004E-2,2.1252994E-1,-4.2750563E-2,4.8636362E-2,1.4175902E-1,-3.8595404E-2,-1.31861335E-2,3.7924927E-2,4.277153E-2,1.9971697E-1,3.6218848E-2,-4.826836E-2,-6.7356206E-3,-5.7539698E-2,2.3740582E-1,2.1725004E-3],"categories":[],"categories_nodes":[],"categories_segments":[],"categories_sizes":[],"default_left":[1,1,0,1,0,0,0,1,0,0,0,0,0,0,0,1,0,0,0,0,0,0,0,0,0,0,0,0,0,0,0,0,0,0,0,0,0,0,0,0,0,0,0,0,0,0,0,0,0,0,0],"id":24,"left_children":[1,3,5,7,9,11,13,15,17,19,21,23,25,27,29,31,33,-1,-1,35,37,-1,39,41,43,-1,45,47,49,-1,-1,-1,-1,-1,-1,-1,-1,-1,-1,-1,-1,-1,-1,-1,-1,-1,-1,-1,-1,-1,-1],"loss_changes":[3.0588422E2,6.44948E1,1.3003604E2,3.1101456E1,1.3778012E2,1.9193204E2,8.882245E1,3.0558823E1,2.010245E1,1.1012276E2,8.931006E1,1.3795729E2,7.52272E1,4.6855194E1,1.0375931E1,4.1391388E1,3.987446E1,0E0,0E0,1.0878926E2,7.6687584E1,0E0,5.01623E1,1.1404052E2,1.0462433E2,0E0,2.8358765E0,4.726624E1,9.9332985E1,0E0,0E0,0E0,0E0,0E0,0E0,0E0,0E0,0E0,0E0,0E0,0E0,0E0,0E0,0E0,0E0,0E0,0E0,0E0,0E0,0E0,0E0],"parents":[2147483647,0,0,1,1,2,2,3,3,4,4,5,5,6,6,7,7,8,8,9,9,10,10,11,11,12,12,13,13,14,14,15,15,16,16,19,19,20,20,22,22,23,23,24,24,26,26,27,27,28,28],"right_children":[2,4,6,8,10,12,14,16,18,20,22,24,26,28,30,32,34,-1,-1,36,38,-1,40,42,44,-1,46,48,50,-1,-1,-1,-1,-1,-1,-1,-1,-1,-1,-1,-1,-1,-1,-1,-1,-1,-1,-1,-1,-1,-1],"split_conditions":[3.7E0,1.6571428E-1,3.3771107E-1,5E-1,2.970297E-1,2E0,3.6933334E1,9.75E0,3.1666666E1,7.185739E2,1.1516114E-1,1E0,8.333333E0,6.2564105E-1,3.146E1,5.6666665E0,1.2419688E0,1.8361934E-1,-4.2108733E-2,9.3333334E-1,2.5625E0,2.4222784E-1,8E-1,8.3333336E1,3.4965575E-1,3.3574802E-1,8.4333336E1,5.4100186E-1,5.350969E-1,2.6118943E-1,6.484162E-2,-2.1574503E-2,2.0663846E-1,-6.715338E-2,9.862049E-2,-3.2299004E-2,2.1252994E-1,-4.2750563E-2,4.8636362E-2,1.4175902E-1,-3.8595404E-2,-1.31861335E-2,3.7924927E-2,4.277153E-2,1.9971697E-1,3.6218848E-2,-4.826836E-2,-6.7356206E-3,-5.7539698E-2,2.3740582E-1,2.1725004E-3],"split_indices":[35,59,72,57,71,37,13,63,0,83,69,81,2,73,40,2,50,0,0,8,62,0,35,0,70,0,0,75,23,0,0,0,0,0,0,0,0,0,0,0,0,0,0,0,0,0,0,0,0,0,0],"split_type":[0,0,0,0,0,0,0,0,0,0,0,0,0,0,0,0,0,0,0,0,0,0,0,0,0,0,0,0,0,0,0,0,0,0,0,0,0,0,0,0,0,0,0,0,0,0,0,0,0,0,0],"sum_hessian":[2.316E3,1.203E3,1.113E3,9.29E2,2.74E2,8.75E2,2.38E2,9.26E2,3E0,1.28E2,1.46E2,8.67E2,8E0,2.34E2,4E0,8.65E2,6.1E1,2E0,1E0,2.1E1,1.07E2,2E0,1.44E2,4.54E2,4.13E2,6E0,2E0,1.86E2,4.8E1,2E0,2E0,8.64E2,1E0,5.8E1,3E0,6E0,1.5E1,3.2E1,7.5E1,3E0,1.41E2,2.74E2,1.8E2,4.03E2,1E1,1E0,1E0,1.06E2,8E1,4E0,4.4E1],"tree_param":{"num_deleted":"0","num_feature":"85","num_nodes":"51","size_leaf_vector":"1"}},{"base_weights":[1.6318763E-2,-3.02067E-1,3.5765204E-1,-3.132989E-1,2.1775134E-1,2.0786352E-1,9.7065127E-1,-3.3940443E-1,1.6674613E0,9.208283E-1,3.8012642E-2,-3.4134334E-1,1.3135501E0,-2.950612E-1,-1.334385E0,2.7720857E0,-6.5856464E-2,6.5137625E-1,2.8786228E0,-5.0871108E-2,1.2924931E0,-6.161544E-1,1.9473016E-1,1.8223492E0,-9.181311E-2,-1.9101767E-2,1.4876683E-2,-7.2835244E-2,1.19540095E-1,2.3421316E-1,3.9598844E-3,2.2881404E-1,2.589911E-2,2.7286783E-1,2.4489645E-2,-3.85614E-3,2.2418506E-1,8.667653E-2,-5.922575E-2,-4.6109714E-2,1.0083019E-1,1.18685365E-1,6.487999E-3,1.0097499E-1,-2.8228162E-2],"categories":[],"categories_nodes":[],"categories_segments":[],"categories_sizes":[],"default_left":[1,1,0,1,0,0,0,1,0,0,0,0,0,1,0,0,0,0,0,0,0,0,0,0,0,0,0,0,0,0,0,0,0,0,0,0,0,0,0,0,0,0,0,0,0],"id":25,"left_children":[1,3,5,7,-1,9,11,13,15,17,19,21,23,25,27,29,-1,31,33,35,37,39,-1,41,43,-1,-1,-1,-1,-1,-1,-1,-1,-1,-1,-1,-1,-1,-1,-1,-1,-1,-1,-1,-1],"loss_changes":[2.560392E2,6.512785E1,1.04197845E2,6.3495583E1,0E0,1.1076939E2,1.0077194E2,5.2639313E1,5.6400814E1,9.097052E1,8.257792E1,5.7111664E1,1.2673074E2,5.948822E1,2.6721558E1,6.1420364E1,0E0,7.9304756E1,1.2669029E2,8.272161E1,5.558362E1,3.81175E1,0E0,1.2101099E2,4.9050056E1,0E0,0E0,0E0,0E0,0E0,0E0,0E0,0E0,0E0,0E0,0E0,0E0,0E0,0E0,0E0,0E0,0E0,0E0,0E0,0E0],"parents":[2147483647,0,0,1,1,2,2,3,3,5,5,6,6,7,7,8,8,9,9,10,10,11,11,12,12,13,13,14,14,15,15,17,17,18,18,19,19,20,20,21,21,23,23,24,24],"right_children":[2,4,6,8,-1,10,12,14,16,18,20,22,24,26,28,30,-1,32,34,36,38,40,-1,42,44,-1,-1,-1,-1,-1,-1,-1,-1,-1,-1,-1,-1,-1,-1,-1,-1,-1,-1,-1,-1],"split_conditions":[3.7E0,5.9666667E0,5.697188E-1,4.475E-1,2.1775134E-1,1.98E1,7.475E1,5.714286E-1,5.3047866E-1,3.2832792E-1,8.9625E1,3.3666668E1,1.1848928E3,7.5E-1,2.2333334E1,3.24E0,-6.5856464E-2,3.4351146E-1,6.644182E-1,3.678832E-1,7.2E0,2.451362E0,1.9473016E-1,4.74E1,1.1666667E1,-1.9101767E-2,1.4876683E-2,-7.2835244E-2,1.19540095E-1,2.3421316E-1,3.9598844E-3,2.2881404E-1,2.589911E-2,2.7286783E-1,2.4489645E-2,-3.85614E-3,2.2418506E-1,8.667653E-2,-5.922575E-2,-4.6109714E-2,1.0083019E-1,1.18685365E-1,6.487999E-3,1.0097499E-1,-2.8228162E-2],"split_indices":[35,8,61,61,0,38,54,64,46,16,54,9,83,55,9,35,0,49,15,47,29,22,0,38,9,0,0,0,0,0,0,0,0,0,0,0,0,0,0,0,0,0,0,0,0],"split_type":[0,0,0,0,0,0,0,0,0,0,0,0,0,0,0,0,0,0,0,0,0,0,0,0,0,0,0,0,0,0,0,0,0,0,0,0,0,0,0,0,0,0,0,0,0],"sum_hessian":[2.354E3,1.218E3,1.136E3,1.216E3,2E0,9.14E2,2.22E2,1.201E3,1.5E1,1.75E2,7.39E2,4.6E1,1.76E2,1.151E3,5E1,1.1E1,4E0,1.55E2,2E1,6.91E2,4.8E1,4.4E1,2E0,1.29E2,4.7E1,1.004E3,1.47E2,4.9E1,1E0,6E0,5E0,4E0,1.51E2,9E0,1.1E1,6.88E2,3E0,4.1E1,7E0,4E1,4E0,9.7E1,3.2E1,8E0,3.9E1],"tree_param":{"num_deleted":"0","num_feature":"85","num_nodes":"45","size_leaf_vector":"1"}},{"base_weights":[-1.7791724E-2,-3.5982254E-1,2.3565415E-1,-3.9374158E-1,1.5927327E0,1.6420773E-1,1.2050499E0,-4.0714267E-1,2.0263293E-1,2.7217245E-1,-4.653533E-1,6.676587E-1,2.442163E-2,8.6132044E-1,4.6635776E0,-4.17055E-1,2.2895677E-1,1.6567253E0,-6.7839675E-2,5.801645E-1,3.1595546E-1,-7.1421987E-1,1.7670743E-1,4.533365E0,5.7152826E-1,3.179237E-1,1.379063E0,-2.2926284E-2,2.5261505E-2,-2.4578357E-2,1.2683393E-1,9.653E-2,1.5555461E-2,-4.2706177E-2,1.0778215E-1,1.5343428E-2,-4.115474E-2,2.6801145E-1,9.976054E-3,-2.6346868E-2,7.2864175E-2,2.0608783E-2,7.819834E-2],"categories":[],"categories_nodes":[],"categories_segments":[],"categories_sizes":[],"default_left":[1,1,0,1,0,0,0,1,0,0,0,0,0,0,0,1,0,0,0,0,0,0,0,0,0,0,0,0,0,0,0,0,0,0,0,0,0,0,0,0,0,0,0],"id":26,"left_children":[1,3,5,7,9,11,13,15,-1,-1,17,19,21,23,25,27,-1,29,-1,31,-1,33,35,37,39,-1,41,-1,-1,-1,-1,-1,-1,-1,-1,-1,-1,-1,-1,-1,-1,-1,-1],"loss_changes":[2.0041684E2,6.579622E1,9.17792E1,5.9329865E1,1.3725992E2,8.710849E1,1.0416376E2,4.9655E1,0E0,0E0,2.4948307E1,1.293461E2,1.0923628E2,8.679596E1,3.576654E1,3.7140793E1,0E0,8.808535E0,0E0,9.6048294E1,0E0,6.84909E1,1.0501158E2,2.0431541E1,7.763265E1,0E0,7.049608E-2,0E0,0E0,0E0,0E0,0E0,0E0,0E0,0E0,0E0,0E0,0E0,0E0,0E0,0E0,0E0,0E0],"parents":[2147483647,0,0,1,1,2,2,3,3,4,4,5,5,6,6,7,7,10,10,11,11,12,12,13,13,14,14,15,15,17,17,19,19,21,21,22,22,23,23,24,24,26,26],"right_children":[2,4,6,8,10,12,14,16,-1,-1,18,20,22,24,26,28,-1,30,-1,32,-1,34,36,38,40,-1,42,-1,-1,-1,-1,-1,-1,-1,-1,-1,-1,-1,-1,-1,-1,-1,-1],"split_conditions":[2.7333333E0,4.55E-1,8.9625E1,2.2666666E1,2.6409265E-1,4.7368422E-1,2.1256523E-1,4.1666666E-1,2.0263293E-1,2.7217245E-1,7E0,1.0140772E0,7.5842696E-1,6.666667E-1,4.05E-1,7.1125E1,2.2895677E-1,1.5333333E1,-6.7839675E-2,1.54E1,3.1595546E-1,7.6666665E0,5.590062E-1,1.6629064E-1,9.605398E2,3.179237E-1,8E0,-2.2926284E-2,2.5261505E-2,-2.4578357E-2,1.2683393E-1,9.653E-2,1.5555461E-2,-4.2706177E-2,1.0778215E-1,1.5343428E-2,-4.115474E-2,2.6801145E-1,9.976054E-3,-2.6346868E-2,7.2864175E-2,2.0608783E-2,7.819834E-2],"split_indices":[8,61,54,9,19,22,47,5,0,0,80,42,76,28,59,54,0,0,0,38,0,2,45,16,82,0,2,0,0,0,0,0,0,0,0,0,0,0,0,0,0,0,0],"split_type":[0,0,0,0,0,0,0,0,0,0,0,0,0,0,0,0,0,0,0,0,0,0,0,0,0,0,0,0,0,0,0,0,0,0,0,0,0,0,0,0,0,0,0],"sum_hessian":[2.31E3,9.83E2,1.327E3,9.67E2,1.6E1,1.237E3,9E1,9.65E2,2E0,5E0,1.1E1,2.68E2,9.69E2,8.3E1,7E0,9.64E2,1E0,3E0,8E0,2.65E2,3E0,1.65E2,8.04E2,5E0,7.8E1,4E0,3E0,9.23E2,4.1E1,1E0,2E0,4.3E1,2.22E2,1.58E2,7E0,7.12E2,9.2E1,4E0,1E0,3.5E1,4.3E1,1E0,2E0],"tree_param":{"num_deleted":"0","num_feature":"85","num_nodes":"43","size_leaf_vector":"1"}},{"base_weights":[-3.545481E-2,-2.2036707E-1,3.5814214E-1,-4.1679764E-1,4.9290095E-2,5.5875874E-1,-4.8387763E-1,-4.436315E-1,3.1886494E0,1.311363E0,-9.102076E-2,8.4111357E-1,-6.652999E-2,1.3701043E0,-6.908917E-1,-4.718244E-1,1.7406976E0,2.4164994E-1,-6.148159E-1,2.552367E-1,3.3665998E0,-1.0912158E-1,2.742145E-1,2.1743953E0,5.7811767E-1,-1.7418404E-1,3.9730372E0,3.9557307E0,-7.931723E-1,-1.282711E0,2.7420792E-1,-1.3123058E-2,-3.8201217E-2,2.2098184E-1,-4.0210348E-2,-5.6212186E-3,-4.048997E-2,-1.7076207E-2,1.8144183E-1,7.864556E-2,2.770552E-1,-1.3728109E-2,2.3536144E-2,2.64526E-2,1.7915483E-1,1.2720096E-1,2.0374693E-2,-3.326747E-2,2.680608E-2,2.3093104E-1,3.4767605E-2,-2.9101087E-2,2.4045134E-1,8.7821774E-2,-6.6571385E-2,2.9168272E-2,-7.749953E-2,1.0970131E-1,-1.5429638E-2],"categories":[],"categories_nodes":[],"categories_segments":[],"categories_sizes":[],"default_left":[1,1,0,1,0,0,0,1,0,0,0,0,0,0,0,0,0,0,0,0,0,0,0,0,0,0,0,0,0,0,0,0,0,0,0,0,0,0,0,0,0,0,0,0,0,0,0,0,0,0,0,0,0,0,0,0,0,0,0],"id":27,"left_children":[1,3,5,7,9,11,13,15,17,19,21,23,25,27,29,31,33,-1,35,37,39,41,-1,43,45,47,49,51,53,55,57,-1,-1,-1,-1,-1,-1,-1,-1,-1,-1,-1,-1,-1,-1,-1,-1,-1,-1,-1,-1,-1,-1,-1,-1,-1,-1,-1,-1],"loss_changes":[1.7213297E2,8.524752E1,1.2797627E2,9.1487076E1,1.2035839E2,1.0793001E2,5.6981434E1,5.7785202E1,4.6750984E1,1.4674081E2,6.236009E1,1.4636563E2,8.37533E1,8.7038956E1,7.574544E1,5.5714264E1,8.536604E1,0E0,2.0283306E-1,9.384802E1,8.099313E1,5.874236E1,0E0,1.5803232E2,1.17369965E2,6.559681E1,7.3685303E0,2.9903282E1,1.4689627E1,4.1802887E1,5.7739502E1,0E0,0E0,0E0,0E0,0E0,0E0,0E0,0E0,0E0,0E0,0E0,0E0,0E0,0E0,0E0,0E0,0E0,0E0,0E0,0E0,0E0,0E0,0E0,0E0,0E0,0E0,0E0,0E0],"parents":[2147483647,0,0,1,1,2,2,3,3,4,4,5,5,6,6,7,7,8,8,9,9,10,10,11,11,12,12,13,13,14,14,15,15,16,16,18,18,19,19,20,20,21,21,23,23,24,24,25,25,26,26,27,27,28,28,29,29,30,30],"right_children":[2,4,6,8,10,12,14,16,18,20,22,24,26,28,30,32,34,-1,36,38,40,42,-1,44,46,48,50,52,54,56,58,-1,-1,-1,-1,-1,-1,-1,-1,-1,-1,-1,-1,-1,-1,-1,-1,-1,-1,-1,-1,-1,-1,-1,-1,-1,-1,-1,-1],"split_conditions":[1.26E1,2.5263157E-1,3.8626608E-1,1.7625E-1,2.7223888E-1,6.5381014E-1,3.5613105E-1,4.55E-1,2.6296297E-1,6.8E0,6.8666664E1,8.631892E2,2.7033333E1,4.2352942E-1,7.590909E-1,4.9926084E-1,8.6052875E2,2.4164994E-1,1.9E1,2.5204742E-1,5.590062E-1,1.044E1,2.742145E-1,1E0,8.6E-2,6.666667E-1,1.3333334E0,1.9666666E1,3.6666668E1,4.9778533E-1,7.62E0,-1.3123058E-2,-3.8201217E-2,2.2098184E-1,-4.0210348E-2,-5.6212186E-3,-4.048997E-2,-1.7076207E-2,1.8144183E-1,7.864556E-2,2.770552E-1,-1.3728109E-2,2.3536144E-2,2.64526E-2,1.7915483E-1,1.2720096E-1,2.0374693E-2,-3.326747E-2,2.680608E-2,2.3093104E-1,3.4767605E-2,-2.9101087E-2,2.4045134E-1,8.7821774E-2,-6.6571385E-2,2.9168272E-2,-7.749953E-2,1.0970131E-1,-1.5429638E-2],"split_indices":[36,19,72,60,23,19,23,61,20,36,11,84,13,45,21,77,82,0,0,23,49,40,0,81,34,30,3,0,0,50,40,0,0,0,0,0,0,0,0,0,0,0,0,0,0,0,0,0,0,0,0,0,0,0,0,0,0,0,0],"split_type":[0,0,0,0,0,0,0,0,0,0,0,0,0,0,0,0,0,0,0,0,0,0,0,0,0,0,0,0,0,0,0,0,0,0,0,0,0,0,0,0,0,0,0,0,0,0,0,0,0,0,0,0,0,0,0,0,0,0,0],"sum_hessian":[2.363E3,1.608E3,7.55E2,9.3E2,6.78E2,6.1E2,1.45E2,9.24E2,6E0,6.7E1,6.11E2,4.2E2,1.9E2,1.4E1,1.31E2,9.13E2,1.1E1,4E0,2E0,4.5E1,2.2E1,6.1E2,1E0,6.8E1,3.52E2,1.86E2,4E0,6E0,8E0,8.1E1,5E1,5.33E2,3.8E2,5E0,6E0,1E0,1E0,3.9E1,6E0,1.3E1,9E0,4.75E2,1.35E2,3.2E1,3.6E1,2.7E1,3.25E2,1.1E2,7.6E1,3E0,1E0,1E0,5E0,1E0,7E0,1E1,7.1E1,1.1E1,3.9E1],"tree_param":{"num_deleted":"0","num_feature":"85","num_nodes":"59","size_leaf_vector":"1"}},{"base_weights":[4.354064E-2,-2.702895E-1,3.1411833E-1,-2.371565E-1,-1.6005067E0,5.942058E-1,-4.5253024E-2,-2.5990006E-1,2.158713E0,1.8342203E-2,-1.6938745E0,4.9903545E-1,2.0778575E0,-6.4221394E-1,2.6324683E-1,-3.0005077E-1,7.041695E-1,3.446774E-1,1.1331099E-1,-1.7325732E0,-1.9127702E-2,1.3763874E0,3.4387225E-1,-6.245705E-1,2.8338099E0,-8.328664E-1,2.2075393E0,7.14957E-1,-2.626266E-1,-1.6323758E-2,1.0551132E-1,1.3892637E-1,-1.0909556E-2,6.1912384E-2,-4.0465023E-2,-8.834611E-2,-2.3563677E-2,4.5827843E-2,2.0513737E-1,1.3485997E-2,1.3548023E-1,7.858194E-2,-8.951615E-2,3.3510813E-1,9.518348E-2,-2.7734417E-2,-8.034816E-2,2.5724706E-1,4.7860444E-3,2.2631846E-2,1.1316718E-1,2.7626688E-2,-3.7231553E-2],"categories":[],"categories_nodes":[],"categories_segments":[],"categories_sizes":[],"default_left":[1,1,0,1,0,0,0,1,0,0,0,0,0,0,0,1,0,0,0,0,0,0,0,0,0,0,0,0,0,0,0,0,0,0,0,0,0,0,0,0,0,0,0,0,0,0,0,0,0,0,0,0,0],"id":28,"left_children":[1,3,5,7,9,11,13,15,17,-1,19,21,23,25,27,29,31,-1,33,35,-1,37,39,41,43,45,47,49,51,-1,-1,-1,-1,-1,-1,-1,-1,-1,-1,-1,-1,-1,-1,-1,-1,-1,-1,-1,-1,-1,-1,-1,-1],"loss_changes":[1.9751329E2,4.708825E1,1.257455E2,5.7885178E1,5.397255E0,9.8085205E1,1.01090034E2,4.0583824E1,9.606531E1,0E0,6.0585785E-1,8.951042E1,8.7571976E1,1.0343799E2,8.6178116E1,6.450643E1,8.09651E1,0E0,9.305149E0,2.0707703E-1,0E0,1.20352295E2,9.803317E1,2.8416103E1,1.0597897E2,3.7007904E1,7.3946625E1,7.8179245E1,6.642047E1,0E0,0E0,0E0,0E0,0E0,0E0,0E0,0E0,0E0,0E0,0E0,0E0,0E0,0E0,0E0,0E0,0E0,0E0,0E0,0E0,0E0,0E0,0E0,0E0],"parents":[2147483647,0,0,1,1,2,2,3,3,4,4,5,5,6,6,7,7,8,8,10,10,11,11,12,12,13,13,14,14,15,15,16,16,18,18,19,19,21,21,22,22,23,23,24,24,25,25,26,26,27,27,28,28],"right_children":[2,4,6,8,10,12,14,16,18,-1,20,22,24,26,28,30,32,-1,34,36,-1,38,40,42,44,46,48,50,52,-1,-1,-1,-1,-1,-1,-1,-1,-1,-1,-1,-1,-1,-1,-1,-1,-1,-1,-1,-1,-1,-1,-1,-1],"split_conditions":[5.0333332E1,2.95E1,1.0840919E3,2.825E1,1.5230769E-3,1.0544021E0,3.220713E-1,1.9730987E-1,8.421974E-3,1.8342203E-2,1.6337489E3,5.58E0,7.1076834E-1,7.06E0,1.5873016E-1,2.422938E-1,4.6701184E-1,3.446774E-1,3.0693768E-2,2.7333334E1,-1.9127702E-2,8.385093E-1,3.18E1,4.32E-1,1.03125E1,4.8625E0,6.666667E-1,5.4E0,3.8709676E-1,-1.6323758E-2,1.0551132E-1,1.3892637E-1,-1.0909556E-2,6.1912384E-2,-4.0465023E-2,-8.834611E-2,-2.3563677E-2,4.5827843E-2,2.0513737E-1,1.3485997E-2,1.3548023E-1,7.858194E-2,-8.951615E-2,3.3510813E-1,9.518348E-2,-2.7734417E-2,-8.034816E-2,2.5724706E-1,4.7860444E-3,2.2631846E-2,1.1316718E-1,2.7626688E-2,-3.7231553E-2],"split_indices":[0,65,84,65,20,15,15,43,70,0,83,40,69,35,72,16,51,0,43,9,0,76,36,34,67,62,37,56,71,0,0,0,0,0,0,0,0,0,0,0,0,0,0,0,0,0,0,0,0,0,0,0,0],"split_type":[0,0,0,0,0,0,0,0,0,0,0,0,0,0,0,0,0,0,0,0,0,0,0,0,0,0,0,0,0,0,0,0,0,0,0,0,0,0,0,0,0,0,0,0,0,0,0,0,0,0,0,0,0],"sum_hessian":[2.324E3,1.076E3,1.248E3,1.051E3,2.5E1,7.01E2,5.47E2,1.042E3,9E0,1E0,2.4E1,6.6E2,4.1E1,1.86E2,3.61E2,1.001E3,4.1E1,2E0,7E0,2.3E1,1E0,9.8E1,5.62E2,9E0,3.2E1,1.75E2,1.1E1,1.94E2,1.67E2,9.91E2,1E1,1.2E1,2.9E1,3E0,4E0,2.2E1,1E0,8.5E1,1.3E1,5.46E2,1.6E1,3E0,6E0,5E0,2.7E1,1.3E2,4.5E1,4E0,7E0,1.67E2,2.7E1,6.2E1,1.05E2],"tree_param":{"num_deleted":"0","num_feature":"85","num_nodes":"53","size_leaf_vector":"1"}},{"base_weights":[-2.326545E-2,-2.7401665E-1,2.4570243E-1,-2.8226283E-1,2.4280344E-1,1.1699265E-1,7.1750945E-1,-4.440552E-1,-8.373484E-2,3.1636938E-1,-3.3643314E-1,2.7552825E-1,6.3428885E-1,-4.1009066E-1,-1.5223039E0,6.015589E-1,-2.7657878E-1,2.836592E-1,5.266469E0,-5.104265E-1,1.4030385E0,1.3588258E0,9.416516E-2,-2.123922E-2,1.4453265E-1,-9.527611E-2,6.4221986E-2,-1.487678E-2,6.1312575E-2,2.2398415E-1,-1.4915521E-2,