{"learner":{"attributes":{"scikit_learn":"{\"_estimator_type\": \"regressor\"}"},"feature_names":["roll_3_minutes","roll_3_starts","roll_3_total_points","roll_3_goals_scored","roll_3_assists","roll_3_expected_goals","roll_3_expected_assists","roll_3_expected_goal_involvements","roll_3_ict_index","roll_3_bps","roll_3_bonus","roll_3_threat","roll_3_influence","roll_3_creativity","roll_3_us_key_passes","roll_3_us_xGChain","roll_3_us_xGBuildup","roll_3_goals_scored_per90","roll_3_assists_per90","roll_3_expected_goals_per90","roll_3_expected_assists_per90","roll_3_expected_goal_involvements_per90","roll_3_us_key_passes_per90","roll_3_us_xGChain_per90","roll_3_us_xGBuildup_per90","roll_3_total_points_per90","roll_hist_count_3","roll_5_minutes","roll_5_starts","roll_5_total_points","roll_5_goals_scored","roll_5_assists","roll_5_expected_goals","roll_5_expected_assists","roll_5_expected_goal_involvements","roll_5_ict_index","roll_5_bps","roll_5_bonus","roll_5_threat","roll_5_influence","roll_5_creativity","roll_5_us_key_passes","roll_5_us_xGChain","roll_5_us_xGBuildup","roll_5_goals_scored_per90","roll_5_assists_per90","roll_5_expected_goals_per90","roll_5_expected_assists_per90","roll_5_expected_goal_involvements_per90","roll_5_us_key_passes_per90","roll_5_us_xGChain_per90","roll_5_us_xGBuildup_per90","roll_5_total_points_per90","roll_hist_count_5","roll_8_minutes","roll_8_starts","roll_8_total_points","roll_8_goals_scored","roll_8_assists","roll_8_expected_goals","roll_8_expected_assists","roll_8_expected_goal_involvements","roll_8_ict_index","roll_8_bps","roll_8_bonus","roll_8_threat","roll_8_influence","roll_8_creativity","roll_8_us_key_passes","roll_8_us_xGChain","roll_8_us_xGBuildup","roll_8_goals_scored_per90","roll_8_assists_per90","roll_8_expected_goals_per90","roll_8_expected_assists_per90","roll_8_expected_goal_involvements_per90","roll_8_us_key_passes_per90","roll_8_us_xGChain_per90","roll_8_us_xGBuildup_per90","roll_8_total_points_per90","roll_hist_count_8","was_home","opp_dyn_attack","opp_dyn_defence","opp_dyn_overall"],"feature_types":["float","float","float","float","float","float","float","float","float","float","float","float","float","float","float","float","float","float","float","float","float","float","float","float","float","float","float","float","float","float","float","float","float","float","float","float","float","float","float","float","float","float","float","float","float","float","float","float","float","float","float","float","float","float","float","float","float","float","float","float","float","float","float","float","float","float","float","float","float","float","float","float","float","float","float","float","float","float","float","float","float","float","float","float","float"],"gradient_booster":{"model":{"cats":{"enc":[],"feature_segments":[],"sorted_idx":[]},"gbtree_model_param":{"num_parallel_tree":"1","num_trees":"300"},"iteration_indptr":[0,1,2,3,4,5,6,7,8,9,10,11,12,13,14,15,16,17,18,19,20,21,22,23,24,25,26,27,28,29,30,31,32,33,34,35,36,37,38,39,40,41,42,43,44,45,46,47,48,49,50,51,52,53,54,55,56,57,58,59,60,61,62,63,64,65,66,67,68,69,70,71,72,73,74,75,76,77,78,79,80,81,82,83,84,85,86,87,88,89,90,91,92,93,94,95,96,97,98,99,100,101,102,103,104,105,106,107,108,109,110,111,112,113,114,115,116,117,118,119,120,121,122,123,124,125,126,127,128,129,130,131,132,133,134,135,136,137,138,139,140,141,142,143,144,145,146,147,148,149,150,151,152,153,154,155,156,157,158,159,160,161,162,163,164,165,166,167,168,169,170,171,172,173,174,175,176,177,178,179,180,181,182,183,184,185,186,187,188,189,190,191,192,193,194,195,196,197,198,199,200,201,202,203,204,205,206,207,208,209,210,211,212,213,214,215,216,217,218,219,220,221,222,223,224,225,226,227,228,229,230,231,232,233,234,235,236,237,238,239,240,241,242,243,244,245,246,247,248,249,250,251,252,253,254,255,256,257,258,259,260,261,262,263,264,265,266,267,268,269,270,271,272,273,274,275,276,277,278,279,280,281,282,283,284,285,286,287,288,289,290,291,292,293,294,295,296,297,298,299,300],"tree_info":[0,0,0,0,0,0,0,0,0,0,0,0,0,0,0,0,0,0,0,0,0,0,0,0,0,0,0,0,0,0,0,0,0,0,0,0,0,0,0,0,0,0,0,0,0,0,0,0,0,0,0,0,0,0,0,0,0,0,0,0,0,0,0,0,0,0,0,0,0,0,0,0,0,0,0,0,0,0,0,0,0,0,0,0,0,0,0,0,0,0,0,0,0,0,0,0,0,0,0,0,0,0,0,0,0,0,0,0,0,0,0,0,0,0,0,0,0,0,0,0,0,0,0,0,0,0,0,0,0,0,0,0,0,0,0,0,0,0,0,0,0,0,0,0,0,0,0,0,0,0,0,0,0,0,0,0,0,0,0,0,0,0,0,0,0,0,0,0,0,0,0,0,0,0,0,0,0,0,0,0,0,0,0,0,0,0,0,0,0,0,0,0,0,0,0,0,0,0,0,0,0,0,0,0,0,0,0,0,0,0,0,0,0,0,0,0,0,0,0,0,0,0,0,0,0,0,0,0,0,0,0,0,0,0,0,0,0,0,0,0,0,0,0,0,0,0,0,0,0,0,0,0,0,0,0,0,0,0,0,0,0,0,0,0,0,0,0,0,0,0,0,0,0,0,0,0,0,0,0,0,0,0,0,0,0,0,0,0,0,0,0,0,0,0,0,0,0,0,0,0],"trees":[{"base_weights":[2.0984767E-2,6.711323E-1,-1.831383E0,-7.4622855E-2,1.6024987E0,-1.2105376E0,-1.9692371E0,-8.591708E-1,2.2652571E-1,1.2616638E0,2.5540378E0,-1.8193094E0,8.072619E-1,-9.876758E-2,1.308345E-1,-1.5523015E0,-5.962065E-1,-5.077146E-2,3.9927924E-1,9.0901953E-1,1.6300467E0,2.330115E0,4.0316772E0,-1.8326657E0,1.5052156E-1,5.854454E-1,4.907433E0,8.3448767E-4,-7.824184E-2,-3.9928596E-2,-1.9617133E-2,-1.7699266E-2,6.3824365E-3,2.9802868E-2,4.323038E-3,2.665759E-2,5.8215052E-2,1.0426086E-1,6.741354E-2,2.2479652E-1,1.1070571E-1,1.3055699E-1,2.9343498E-1,-9.29795E-2,-1.2688081E-2,-3.8182398E-4,7.7180915E-2,-4.9478445E-2,2.8841272E-1],"categories":[],"categories_nodes":[],"categories_segments":[],"categories_sizes":[],"default_left":[0,1,0,0,0,0,0,0,1,0,0,0,0,0,0,0,0,0,0,0,0,0,0,0,0,0,0,0,0,0,0,0,0,0,0,0,0,0,0,0,0,0,0,0,0,0,0,0,0],"id":0,"left_children":[1,3,5,7,9,11,13,15,17,19,21,23,25,-1,-1,27,29,31,33,35,37,39,41,43,-1,45,47,-1,-1,-1,-1,-1,-1,-1,-1,-1,-1,-1,-1,-1,-1,-1,-1,-1,-1,-1,-1,-1,-1],"loss_changes":[1.9450875E4,8.303719E3,3.5673535E2,1.5689974E3,1.7208516E3,9.4117896E2,1.014043E2,3.3481348E2,2.2991185E2,5.0723828E2,4.5416406E2,4.344751E1,1.5901541E2,0E0,0E0,9.977783E0,5.4844574E1,9.975051E1,1.8196906E2,1.9157129E2,2.4267041E2,2.9630225E2,4.6222534E2,2.4481934E1,0E0,9.6618515E1,5.139447E1,0E0,0E0,0E0,0E0,0E0,0E0,0E0,0E0,0E0,0E0,0E0,0E0,0E0,0E0,0E0,0E0,0E0,0E0,0E0,0E0,0E0,0E0],"parents":[2147483647,0,0,1,1,2,2,3,3,4,4,5,5,6,6,7,7,8,8,9,9,10,10,11,11,12,12,15,15,16,16,17,17,18,18,19,19,20,20,21,21,22,22,23,23,25,25,26,26],"right_children":[2,4,6,8,10,12,14,16,18,20,22,24,26,-1,-1,28,30,32,34,36,38,40,42,44,-1,46,48,-1,-1,-1,-1,-1,-1,-1,-1,-1,-1,-1,-1,-1,-1,-1,-1,-1,-1,-1,-1,-1,-1],"split_conditions":[3.151442E3,2.9E0,3.3726315E-3,8.333333E0,5.9875E0,1.5666667E0,1.8E2,1.25E-1,2E0,3.3069786E-1,8.588371E-1,7.866667E0,5E-1,-9.876758E-2,1.308345E-1,2E0,4.285714E-3,2.8333334E1,1.09532E3,9.6666664E-2,9.299591E2,7.4127954E2,3.86E-1,4.6E1,1.5052156E-1,3.8E0,2.1666666E1,8.3448767E-4,-7.824184E-2,-3.9928596E-2,-1.9617133E-2,-1.7699266E-2,6.3824365E-3,2.9802868E-2,4.323038E-3,2.665759E-2,5.8215052E-2,1.0426086E-1,6.741354E-2,2.2479652E-1,1.1070571E-1,1.3055699E-1,2.9343498E-1,-9.29795E-2,-1.2688081E-2,-3.8182398E-4,7.7180915E-2,-4.9478445E-2,2.8841272E-1],"split_indices":[82,62,48,0,62,8,0,54,11,15,69,13,3,0,0,26,60,0,83,7,82,82,32,0,0,62,0,0,0,0,0,0,0,0,0,0,0,0,0,0,0,0,0,0,0,0,0,0,0],"split_type":[0,0,0,0,0,0,0,0,0,0,0,0,0,0,0,0,0,0,0,0,0,0,0,0,0,0,0,0,0,0,0,0,0,0,0,0,0,0,0,0,0,0,0,0,0,0,0,0,0],"sum_hessian":[1.6149E4,1.1954E4,4.195E3,6.639E3,5.315E3,7.64E2,3.431E3,1.841E3,4.798E3,3.915E3,1.4E3,5.87E2,1.77E2,3.427E3,4E0,5.05E2,1.336E3,1.842E3,2.956E3,2.002E3,1.913E3,1.218E3,1.82E2,5.86E2,1E0,1.69E2,8E0,4E0,5.01E2,6.69E2,6.67E2,6.82E2,1.16E3,1.814E3,1.142E3,8.11E2,1.191E3,7.29E2,1.184E3,6E1,1.158E3,1.04E2,7.8E1,5.76E2,1E1,1.05E2,6.4E1,1E0,7E0],"tree_param":{"num_deleted":"0","num_feature":"85","num_nodes":"49","size_leaf_vector":"1"}},{"base_weights":[-5.3470465E-3,6.1007124E-1,-9.407711E-2,-8.5443266E-2,1.4719284E0,-9.1757876E-1,1.9173342E-1,1.1566399E0,2.360682E0,-1.4475809E0,-6.4223874E-1,-1.5499763E-1,3.47564E-1,6.788437E-1,1.3387134E0,2.2556136E0,5.69241E0,-7.290224E-2,5.202636E-2,-3.948397E-2,-1.864577E-2,-8.460491E-3,3.671923E-1,1.4234862E-2,4.8261467E-2,7.927763E-3,4.7889333E-2,7.2062686E-2,1.4923676E-2,1.22334205E-1,5.929869E-2,-1.2076813E-2,3.2397744E-1],"categories":[],"categories_nodes":[],"categories_segments":[],"categories_sizes":[],"default_left":[0,1,0,0,0,0,0,0,0,0,0,0,1,0,0,1,0,0,0,0,0,0,0,0,0,0,0,0,0,0,0,0,0],"id":1,"left_children":[1,3,-1,5,7,9,11,13,15,17,19,21,23,25,27,29,31,-1,-1,-1,-1,-1,-1,-1,-1,-1,-1,-1,-1,-1,-1,-1,-1],"loss_changes":[1.8736414E4,7.324612E3,0E0,1.5600521E3,1.5263955E3,2.4569348E2,2.7420874E2,3.4967725E2,4.870454E2,1.6539429E1,4.394156E1,1.6899147E2,1.3567126E2,1.6152386E2,3.1071582E2,2.8036475E2,2.0241113E2,0E0,0E0,0E0,0E0,0E0,0E0,0E0,0E0,0E0,0E0,0E0,0E0,0E0,0E0,0E0,0E0],"parents":[2147483647,0,0,1,1,3,3,4,4,5,5,6,6,7,7,8,8,9,9,10,10,11,11,12,12,13,13,14,14,15,15,16,16],"right_children":[2,4,-1,6,8,10,12,14,16,18,20,22,24,26,28,30,32,-1,-1,-1,-1,-1,-1,-1,-1,-1,-1,-1,-1,-1,-1,-1,-1],"split_conditions":[2.00001E0,2.9E0,-9.407711E-2,6.3333335E0,5.9875E0,3.75E-1,2.7E1,9.6666664E-2,9.731449E-1,3.3333334E-3,2E0,4.238094E0,1.1E-1,4.9666668E1,1.2821749E3,1.1761234E3,6.7125E0,-7.290224E-2,5.202636E-2,-3.948397E-2,-1.864577E-2,-8.460491E-3,3.671923E-1,1.4234862E-2,4.8261467E-2,7.927763E-3,4.7889333E-2,7.2062686E-2,1.4923676E-2,1.22334205E-1,5.929869E-2,-1.2076813E-2,3.2397744E-1],"split_indices":[81,62,0,0,62,54,0,7,75,5,65,24,6,0,84,84,62,0,0,0,0,0,0,0,0,0,0,0,0,0,0,0,0],"split_type":[0,0,0,0,0,0,0,0,0,0,0,0,0,0,0,0,0,0,0,0,0,0,0,0,0,0,0,0,0,0,0,0,0],"sum_hessian":[1.6225E4,1.2218E4,4.007E3,6.762E3,5.456E3,1.689E3,5.073E3,4.029E3,1.427E3,5.76E2,1.113E3,1.573E3,3.5E3,1.113E3,2.916E3,1.385E3,4.2E1,5.74E2,2E0,7.18E2,3.95E2,1.571E3,2E0,3.178E3,3.22E2,3.89E2,7.24E2,2.654E3,2.62E2,1.174E3,2.11E2,5E0,3.7E1],"tree_param":{"num_deleted":"0","num_feature":"85","num_nodes":"33","size_leaf_vector":"1"}},{"base_weights":[-3.3291788E-3,5.778526E-1,-8.937584E-2,-1.0236948E-1,1.3991013E0,-8.293743E-1,1.6504706E-1,1.1072985E0,2.273071E0,-5.815282E-1,-1.4265953E0,-3.6815453E-2,4.468772E-1,9.2895705E-1,1.5974201E0,2.176898E0,5.280463E0,-3.4585766E-2,1.5453154E-3,-3.4205325E-2,-7.183906E-2,-6.4098486E-3,1.3315784E-2,2.180812E-2,3.7705645E-1,3.788577E-2,6.9575675E-2,4.8365694E-2,9.908163E-2,1.934331E-1,1.016277E-1,1.0566663E-1,3.6747894E-1],"categories":[],"categories_nodes":[],"categories_segments":[],"categories_sizes":[],"default_left":[0,1,0,0,0,0,1,0,0,0,0,1,0,0,0,1,0,0,0,0,0,0,0,0,0,0,0,0,0,0,0,0,0],"id":2,"left_children":[1,3,-1,5,7,9,11,13,15,17,19,21,23,25,27,29,31,-1,-1,-1,-1,-1,-1,-1,-1,-1,-1,-1,-1,-1,-1,-1,-1],"loss_changes":[1.671646E4,6.7931025E3,0E0,1.2933729E3,1.4024268E3,2.639762E2,2.76734E2,3.5968994E2,3.8706445E2,8.54541E1,2.9799805E0,7.856529E1,1.5101834E2,2.3910669E2,2.6462915E2,3.1862598E2,2.5970056E2,0E0,0E0,0E0,0E0,0E0,0E0,0E0,0E0,0E0,0E0,0E0,0E0,0E0,0E0,0E0,0E0],"parents":[2147483647,0,0,1,1,3,3,4,4,5,5,6,6,7,7,8,8,9,9,10,10,11,11,12,12,13,13,14,14,15,15,16,16],"right_children":[2,4,-1,6,8,10,12,14,16,18,20,22,24,26,28,30,32,-1,-1,-1,-1,-1,-1,-1,-1,-1,-1,-1,-1,-1,-1,-1,-1],"split_conditions":[2.00001E0,2.85E0,-8.937584E-2,7.3333335E0,5.9875E0,5E0,4E0,2.5E-1,9.731449E-1,1.2733698E-1,2E0,8.5E0,2.7542171E0,1.6666666E1,6.8E-2,7.6337964E2,1.925E-1,-3.4585766E-2,1.5453154E-3,-3.4205325E-2,-7.183906E-2,-6.4098486E-3,1.3315784E-2,2.180812E-2,3.7705645E-1,3.788577E-2,6.9575675E-2,4.8365694E-2,9.908163E-2,1.934331E-1,1.016277E-1,1.0566663E-1,3.6747894E-1],"split_indices":[81,62,0,0,62,72,11,58,75,69,26,9,24,11,32,82,60,0,0,0,0,0,0,0,0,0,0,0,0,0,0,0,0],"split_type":[0,0,0,0,0,0,0,0,0,0,0,0,0,0,0,0,0,0,0,0,0,0,0,0,0,0,0,0,0,0,0,0,0],"sum_hessian":[1.6119E4,1.2159E4,3.96E3,6.651E3,5.508E3,1.788E3,4.863E3,4.131E3,1.377E3,1.265E3,5.23E2,2.834E3,2.029E3,3.031E3,1.1E3,1.336E3,4.1E1,1.072E3,1.93E2,8E0,5.15E2,2.178E3,6.56E2,2.027E3,2E0,2.214E3,8.17E2,4.18E2,6.82E2,1.03E2,1.233E3,1.7E1,2.4E1],"tree_param":{"num_deleted":"0","num_feature":"85","num_nodes":"33","size_leaf_vector":"1"}},{"base_weights":[7.400529E-3,5.689814E-1,-8.49025E-2,-2.4835275E-2,1.3505496E0,-7.6352936E-1,2.3227535E-1,1.163799E0,2.5445356E0,-1.2893776E0,-5.2037203E-1,-1.7643634E-2,4.8454604E-1,8.730869E-1,1.5438473E0,3.288201E0,1.8345554E0,-6.531062E-2,4.2867616E-2,-2.6821846E-2,1.4164463E-1,-1.55473E-3,1.5651317E-1,4.4952102E-2,1.130658E-2,2.0034784E-2,5.527506E-2,7.039585E-2,1.1141842E-1,1.5868373E-1,5.232086E-1,8.641691E-2,3.5175416E-1],"categories":[],"categories_nodes":[],"categories_segments":[],"categories_sizes":[],"default_left":[0,1,0,0,0,1,1,0,0,0,0,1,0,0,0,0,0,0,0,0,0,0,0,0,0,0,0,0,0,0,0,0,0],"id":3,"left_children":[1,3,-1,5,7,9,11,13,15,17,19,21,23,25,27,29,31,-1,-1,-1,-1,-1,-1,-1,-1,-1,-1,-1,-1,-1,-1,-1,-1],"loss_changes":[1.5519363E4,5.6575127E3,0E0,1.3159855E3,1.1705693E3,2.2807764E2,3.2407135E2,5.0168896E2,3.693672E2,2.1538818E1,6.7510345E1,1.0946772E2,2.737885E2,2.830359E2,1.8035107E2,2.5114624E2,1.9001428E2,0E0,0E0,0E0,0E0,0E0,0E0,0E0,0E0,0E0,0E0,0E0,0E0,0E0,0E0,0E0,0E0],"parents":[2147483647,0,0,1,1,3,3,4,4,5,5,6,6,7,7,8,8,9,9,10,10,11,11,12,12,13,13,14,14,15,15,16,16],"right_children":[2,4,-1,6,8,10,12,14,16,18,20,22,24,26,28,30,32,-1,-1,-1,-1,-1,-1,-1,-1,-1,-1,-1,-1,-1,-1,-1,-1],"split_conditions":[2.00001E0,2.25E0,-8.49025E-2,7.3333335E0,4.2375E-1,1.9148936E0,3.3333333E0,1.565E1,1.0368438E3,7.625E0,1.7375E1,3.01E1,1.00410767E3,1.9551396E-1,2.1666666E1,8.0243E-1,2.3333333E0,-6.531062E-2,4.2867616E-2,-2.6821846E-2,1.4164463E-1,-1.55473E-3,1.5651317E-1,4.4952102E-2,1.130658E-2,2.0034784E-2,5.527506E-2,7.039585E-2,1.1141842E-1,1.5868373E-1,5.232086E-1,8.641691E-2,3.5175416E-1],"split_indices":[81,56,0,0,61,79,11,67,84,65,65,67,84,15,65,78,10,0,0,0,0,0,0,0,0,0,0,0,0,0,0,0,0],"split_type":[0,0,0,0,0,0,0,0,0,0,0,0,0,0,0,0,0,0,0,0,0,0,0,0,0,0,0,0,0,0,0,0,0],"sum_hessian":[1.6202E4,1.2189E4,4.013E3,6.927E3,5.262E3,1.788E3,5.139E3,4.552E3,7.1E2,5.64E2,1.224E3,2.582E3,2.557E3,2.581E3,1.971E3,3.45E2,3.65E2,5.6E2,4E0,1.219E3,5E0,2.572E3,1E1,9.81E2,1.576E3,8.52E2,1.729E3,1.647E3,3.24E2,3.41E2,4E0,3.59E2,6E0],"tree_param":{"num_deleted":"0","num_feature":"85","num_nodes":"33","size_leaf_vector":"1"}},{"base_weights":[-1.7570594E-2,5.015908E-1,-8.066563E-2,-8.090518E-2,1.2211721E0,-7.308588E-1,1.7393208E-1,9.540426E-1,1.9988469E0,-1.2297333E0,-5.187004E-1,-1.0725018E-1,2.9580393E-1,4.0408427E-1,1.1193061E0,1.9101682E0,4.7364593E0,-6.241868E-2,3.574931E-2,-3.0178746E-2,8.749274E-4,-6.164316E-3,2.8863785E-1,1.2275393E-2,4.200408E-2,-3.9919806E-3,3.5735674E-2,7.477937E-2,4.48019E-2,1.7126366E-1,8.957239E-2,1.7032148E-1,4.3924567E-1],"categories":[],"categories_nodes":[],"categories_segments":[],"categories_sizes":[],"default_left":[0,1,0,0,0,1,0,0,0,0,0,0,1,0,0,1,0,0,0,0,0,0,0,0,0,0,0,0,0,0,0,0,0],"id":4,"left_children":[1,3,-1,5,7,9,11,13,15,17,19,21,23,25,27,29,31,-1,-1,-1,-1,-1,-1,-1,-1,-1,-1,-1,-1,-1,-1,-1,-1],"loss_changes":[1.3371127E4,5.104546E3,0E0,1.1149988E3,1.1298608E3,2.0003552E2,1.6575278E2,3.6828052E2,3.2888574E2,2.1373962E1,6.0629364E1,1.3866188E2,9.2157104E1,1.4120837E2,2.6069165E2,2.3669336E2,2.016109E2,0E0,0E0,0E0,0E0,0E0,0E0,0E0,0E0,0E0,0E0,0E0,0E0,0E0,0E0,0E0,0E0],"parents":[2147483647,0,0,1,1,3,3,4,4,5,5,6,6,7,7,8,8,9,9,10,10,11,11,12,12,13,13,14,14,15,15,16,16],"right_children":[2,4,-1,6,8,10,12,14,16,18,20,22,24,26,28,30,32,-1,-1,-1,-1,-1,-1,-1,-1,-1,-1,-1,-1,-1,-1,-1,-1],"split_conditions":[2.00001E0,2.875E0,-8.066563E-2,8.333333E0,5.9875E0,1.8848168E0,2.8333334E1,1.6837607E-1,9.731449E-1,1.7104413E-1,3E-2,4.5E0,1.1E-1,4.9666668E1,9.97538E2,7.6337964E2,1.1333333E1,-6.241868E-2,3.574931E-2,-3.0178746E-2,8.749274E-4,-6.164316E-3,2.8863785E-1,1.2275393E-2,4.200408E-2,-3.9919806E-3,3.5735674E-2,7.477937E-2,4.48019E-2,1.7126366E-1,8.957239E-2,1.7032148E-1,4.3924567E-1],"split_indices":[81,62,0,0,62,79,0,15,75,69,7,18,6,0,84,82,2,0,0,0,0,0,0,0,0,0,0,0,0,0,0,0,0],"split_type":[0,0,0,0,0,0,0,0,0,0,0,0,0,0,0,0,0,0,0,0,0,0,0,0,0,0,0,0,0,0,0,0,0],"sum_hessian":[1.6138E4,1.2177E4,3.961E3,6.73E3,5.447E3,1.895E3,4.835E3,4.056E3,1.391E3,5.64E2,1.331E3,1.462E3,3.373E3,9.38E2,3.118E3,1.349E3,4.2E1,5.59E2,5E0,1.149E3,1.82E2,1.459E3,3E0,3.089E3,2.84E2,3.67E2,5.71E2,1.159E3,1.959E3,9.6E1,1.253E3,3.3E1,9E0],"tree_param":{"num_deleted":"0","num_feature":"85","num_nodes":"33","size_leaf_vector":"1"}},{"base_weights":[8.0682023E-4,4.9646562E-1,-7.662331E-2,-8.8732205E-2,1.2262669E0,-7.133313E-1,1.3604651E-1,9.679498E-1,1.9945021E0,-5.138168E-1,-1.2080443E0,-1.9530505E-1,2.6413518E-1,1.3396212E0,7.481795E-1,1.8867527E0,4.546182E0,-2.8854081E-2,-7.2587575E-3,-3.0164419E-2,-6.1810195E-2,-2.3213213E-2,1.5396259E-3,6.0959198E-2,1.0483355E-2,2.675418E-2,7.628263E-2,4.397821E-3,4.146687E-2,1.8771076E-1,8.919912E-2,1.5925558E-1,3.3844E-1],"categories":[],"categories_nodes":[],"categories_segments":[],"categories_sizes":[],"default_left":[0,1,0,0,0,0,0,0,0,0,0,0,0,0,0,1,0,0,0,0,0,0,0,0,0,0,0,0,0,0,0,0,0],"id":5,"left_children":[1,3,-1,5,7,9,11,13,15,17,19,21,23,25,27,29,31,-1,-1,-1,-1,-1,-1,-1,-1,-1,-1,-1,-1,-1,-1,-1,-1],"loss_changes":[1.23565205E4,5.247617E3,0E0,9.576017E2,1.0831846E3,1.7753711E2,2.1294255E2,3.3340503E2,3.694673E2,2.9955048E1,8.075623E0,8.508891E1,1.8795149E2,2.2668115E2,1.3790125E2,2.468291E2,1.4482336E2,0E0,0E0,0E0,0E0,0E0,0E0,0E0,0E0,0E0,0E0,0E0,0E0,0E0,0E0,0E0,0E0],"parents":[2147483647,0,0,1,1,3,3,4,4,5,5,6,6,7,7,8,8,9,9,10,10,11,11,12,12,13,13,14,14,15,15,16,16],"right_children":[2,4,-1,6,8,10,12,14,16,18,20,22,24,26,28,30,32,-1,-1,-1,-1,-1,-1,-1,-1,-1,-1,-1,-1,-1,-1,-1,-1],"split_conditions":[2.00001E0,2.9E0,-7.662331E-2,7.3333335E0,6.0625E0,9E1,1.6E0,9.97538E2,9.153846E-1,1.292196E-1,7.4127954E2,2.8333334E1,8.709932E2,6.3333335E0,3.4333332E1,7.4127954E2,1.0514019E0,-2.8854081E-2,-7.2587575E-3,-3.0164419E-2,-6.1810195E-2,-2.3213213E-2,1.5396259E-3,6.0959198E-2,1.0483355E-2,2.675418E-2,7.628263E-2,4.397821E-3,4.146687E-2,1.8771076E-1,8.919912E-2,1.5925558E-1,3.3844E-1],"split_indices":[81,62,0,0,62,71,38,84,75,69,82,0,84,9,0,82,44,0,0,0,0,0,0,0,0,0,0,0,0,0,0,0,0],"split_type":[0,0,0,0,0,0,0,0,0,0,0,0,0,0,0,0,0,0,0,0,0,0,0,0,0,0,0,0,0,0,0,0,0],"sum_hessian":[1.6257E4,1.2286E4,3.971E3,6.819E3,5.467E3,1.804E3,5.015E3,4.093E3,1.374E3,1.287E3,5.17E2,1.398E3,3.617E3,1.519E3,2.574E3,1.32E3,5.4E1,1.098E3,1.89E2,2.4E1,4.93E2,6.38E2,7.6E2,1.94E2,3.423E3,2.86E2,1.233E3,2.82E2,2.292E3,6.7E1,1.253E3,3.5E1,1.9E1],"tree_param":{"num_deleted":"0","num_feature":"85","num_nodes":"33","size_leaf_vector":"1"}},{"base_weights":[5.960673E-3,4.8459408E-1,-7.279815E-2,-7.7174115E-3,1.2460512E0,-6.16199E-1,2.2366881E-1,1.0771514E0,2.2139697E0,-1.1194462E0,-3.993797E-1,8.468508E-2,6.114611E-1,1.3130354E0,7.3995334E-1,2.008034E0,4.1836176E0,-5.643598E-2,2.8498173E-2,-2.769727E-2,-5.0437865E-3,-6.1515826E-3,1.6851597E-2,2.7119223E-2,1.4234143E-1,3.681719E-2,7.550748E-2,2.4477674E-2,6.1311252E-2,7.77116E-2,1.349817E-1,1.11031614E-1,2.7428344E-1],"categories":[],"categories_nodes":[],"categories_segments":[],"categories_sizes":[],"default_left":[0,1,0,0,0,0,1,1,0,0,0,1,0,0,0,0,0,0,0,0,0,0,0,0,0,0,0,0,0,0,0,0,0],"id":6,"left_children":[1,3,-1,5,7,9,11,13,15,17,19,21,23,25,27,29,31,-1,-1,-1,-1,-1,-1,-1,-1,-1,-1,-1,-1,-1,-1,-1,-1],"loss_changes":[1.1271184E4,4.549107E3,0E0,1.0379324E3,7.76603E2,2.211629E2,2.8781113E2,3.2188037E2,2.783728E2,1.0215515E1,6.55069E1,2.061962E2,2.160221E2,2.7022803E2,2.0310815E2,1.9729565E2,1.5650818E2,0E0,0E0,0E0,0E0,0E0,0E0,0E0,0E0,0E0,0E0,0E0,0E0,0E0,0E0,0E0,0E0],"parents":[2147483647,0,0,1,1,3,3,4,4,5,5,6,6,7,7,8,8,9,9,10,10,11,11,12,12,13,13,14,14,15,15,16,16],"right_children":[2,4,-1,6,8,10,12,14,16,18,20,22,24,26,28,30,32,-1,-1,-1,-1,-1,-1,-1,-1,-1,-1,-1,-1,-1,-1,-1,-1],"split_conditions":[2.00001E0,3.26E0,-7.279815E-2,6E-1,4.2375E-1,7.5E-1,9.125E0,1.0540939E3,1.0640394E1,3E-2,1.9E-2,3.6666667E0,1.6875E1,2.5870773E-1,2.84E-1,8.3E1,1.7685589E-1,-5.643598E-2,2.8498173E-2,-2.769727E-2,-5.0437865E-3,-6.1515826E-3,1.6851597E-2,2.7119223E-2,1.4234143E-1,3.681719E-2,7.550748E-2,2.4477674E-2,6.1311252E-2,7.77116E-2,1.349817E-1,1.11031614E-1,2.7428344E-1],"split_indices":[81,35,0,13,61,54,63,82,25,5,59,11,65,69,34,54,20,0,0,0,0,0,0,0,0,0,0,0,0,0,0,0,0],"split_type":[0,0,0,0,0,0,0,0,0,0,0,0,0,0,0,0,0,0,0,0,0,0,0,0,0,0,0,0,0,0,0,0,0],"sum_hessian":[1.6106E4,1.2134E4,3.972E3,7.37E3,4.764E3,2.03E3,5.34E3,4.058E3,7.06E2,6.1E2,1.42E3,3.932E3,1.408E3,2.386E3,1.672E3,6.41E2,6.5E1,6.07E2,3E0,9.35E2,4.85E2,2.157E3,1.775E3,1.367E3,4.1E1,6.09E2,1.777E3,1.105E3,5.67E2,3.89E2,2.52E2,2.7E1,3.8E1],"tree_param":{"num_deleted":"0","num_feature":"85","num_nodes":"33","size_leaf_vector":"1"}},{"base_weights":[-5.402476E-3,4.401291E-1,-6.9160245E-2,-5.316168E-2,1.0628399E0,-7.7066934E-1,1.14400275E-1,7.439776E-1,1.4772749E0,-4.952584E-1,-1.0990124E0,-2.1243359E-1,2.468132E-1,5.0820285E-1,9.8424435E-1,2.9448156E0,1.3701996E0,-2.5542751E-2,1.18288316E-1,-3.0549595E-2,-5.6205507E-2,-2.8432717E-3,-2.421896E-2,8.7794075E-3,3.3736907E-2,1.0919008E-2,4.026681E-2,5.5337887E-2,-9.004208E-3,1.0179476E-1,2.0074093E-1,6.575995E-2,2.1124926E-1],"categories":[],"categories_nodes":[],"categories_segments":[],"categories_sizes":[],"default_left":[0,1,0,0,0,0,0,0,0,0,0,0,1,0,0,0,0,0,0,0,0,0,0,0,0,0,0,0,0,0,0,0,0],"id":7,"left_children":[1,3,-1,5,7,9,11,13,15,17,19,21,23,25,27,29,31,-1,-1,-1,-1,-1,-1,-1,-1,-1,-1,-1,-1,-1,-1,-1,-1],"loss_changes":[9.940754E3,3.7589873E3,0E0,8.211183E2,7.136875E2,1.163808E2,2.396773E2,1.7278845E2,3.6539502E2,3.2667343E1,6.5273438E0,6.7535255E1,1.19999146E2,1.3295944E2,2.1616528E2,1.464613E2,3.3877783E2,0E0,0E0,0E0,0E0,0E0,0E0,0E0,0E0,0E0,0E0,0E0,0E0,0E0,0E0,0E0,0E0],"parents":[2147483647,0,0,1,1,3,3,4,4,5,5,6,6,7,7,8,8,9,9,10,10,11,11,12,12,13,13,14,14,15,15,16,16],"right_children":[2,4,-1,6,8,10,12,14,16,18,20,22,24,26,28,30,32,-1,-1,-1,-1,-1,-1,-1,-1,-1,-1,-1,-1,-1,-1,-1,-1],"split_conditions":[2.00001E0,2.9E0,-6.9160245E-2,3.125E-1,5.1E0,7.2E1,1E0,1.2730263E-1,7.6337964E2,7E-2,7.4127954E2,9.683544E-2,1.1E1,2.6666667E0,1.2821749E3,2.2E1,4.475E1,-2.5542751E-2,1.18288316E-1,-3.0549595E-2,-5.6205507E-2,-2.8432717E-3,-2.421896E-2,8.7794075E-3,3.3736907E-2,1.0919008E-2,4.026681E-2,5.5337887E-2,-9.004208E-3,1.0179476E-1,2.0074093E-1,6.575995E-2,2.1124926E-1],"split_indices":[81,62,0,62,35,79,11,73,82,6,82,21,36,56,84,11,65,0,0,0,0,0,0,0,0,0,0,0,0,0,0,0,0],"split_type":[0,0,0,0,0,0,0,0,0,0,0,0,0,0,0,0,0,0,0,0,0,0,0,0,0,0,0,0,0,0,0,0,0],"sum_hessian":[1.6192E4,1.2236E4,3.956E3,6.828E3,5.408E3,1.292E3,5.536E3,3.058E3,2.35E3,7.04E2,5.88E2,1.596E3,3.94E3,1.545E3,1.513E3,1.58E2,2.192E3,7.01E2,3E0,3E1,5.58E2,1.016E3,5.8E2,3.379E3,5.61E2,7.83E2,7.62E2,1.369E3,1.44E2,8.7E1,7.1E1,2.152E3,4E1],"tree_param":{"num_deleted":"0","num_feature":"85","num_nodes":"33","size_leaf_vector":"1"}},{"base_weights":[-2.138505E-5,4.2837074E-1,-1.2038779E0,-6.598459E-2,1.0484521E0,-7.1393317E-1,-1.3081021E0,-6.188861E-1,1.21562555E-1,8.6722594E-1,1.7843201E0,-1.1462533E0,1.0735373E0,-6.566022E-2,9.40988E-2,-4.3270648E-1,-1.0238622E0,5.493318E-2,6.2550336E-1,1.2273471E0,6.466181E-1,1.6301415E0,3.5287907E0,-1.2232943E0,1.7676191E-1,5.0375137E0,6.48205E-1,-1.0032328E-2,-2.8850649E-2,-5.1694464E-2,1.0675981E-1,3.6828116E-2,4.0184986E-4,2.3120077E-1,2.9482294E-2,5.359554E-2,1.2070497E-1,1.8773444E-2,4.3848712E-2,5.158607E-3,8.833196E-2,1.10397294E-1,2.4301074E-1,-6.28436E-2,-3.6737792E-2,2.373244E-1,-2.092911E-2,-3.389508E-2,3.3289453E-1,8.417244E-4,9.846433E-2],"categories":[],"categories_nodes":[],"categories_segments":[],"categories_sizes":[],"default_left":[0,1,0,0,0,0,0,0,1,0,0,0,0,0,0,0,1,0,0,0,0,0,0,0,0,0,0,0,0,0,0,0,0,0,0,0,0,0,0,0,0,0,0,0,0,0,0,0,0,0,0],"id":8,"left_children":[1,3,5,7,9,11,13,15,17,19,21,23,25,-1,-1,27,29,31,33,35,37,39,41,43,45,47,49,-1,-1,-1,-1,-1,-1,-1,-1,-1,-1,-1,-1,-1,-1,-1,-1,-1,-1,-1,-1,-1,-1,-1,-1],"loss_changes":[8.343361E3,3.6577112E3,2.1588477E2,6.886108E2,7.043198E2,5.7848193E2,5.9439453E1,1.2637689E2,1.6647528E2,3.367705E2,2.7531128E2,6.1575867E1,2.4289177E2,0E0,0E0,3.85291E1,1.8964111E1,1.4003629E2,8.028854E1,2.9495337E2,1.6437988E2,2.0032495E2,1.369917E2,8.410339E0,9.448581E1,1.3416919E2,1.1090108E2,0E0,0E0,0E0,0E0,0E0,0E0,0E0,0E0,0E0,0E0,0E0,0E0,0E0,0E0,0E0,0E0,0E0,0E0,0E0,0E0,0E0,0E0,0E0,0E0],"parents":[2147483647,0,0,1,1,2,2,3,3,4,4,5,5,6,6,7,7,8,8,9,9,10,10,11,11,12,12,15,15,16,16,17,17,18,18,19,19,20,20,21,21,22,22,23,23,24,24,25,25,26,26],"right_children":[2,4,6,8,10,12,14,16,18,20,22,24,26,-1,-1,28,30,32,34,36,38,40,42,44,46,48,50,-1,-1,-1,-1,-1,-1,-1,-1,-1,-1,-1,-1,-1,-1,-1,-1,-1,-1,-1,-1,-1,-1,-1,-1],"split_conditions":[3.151442E3,2.9E0,1.760584E-3,6.3333335E0,2.1666666E1,2.4E0,1.8E2,1.125E1,2.2857144E0,9.97538E2,1.00875E1,6.8E0,4.245283E-1,-6.566022E-2,9.40988E-2,9.3940967E2,9E1,7.6337964E2,7.167622E2,2.2333334E1,3.130642E-1,4.9666668E1,4.38E1,4.3333335E0,2.725E1,1.32E0,4.4000068E-1,-1.0032328E-2,-2.8850649E-2,-5.1694464E-2,1.0675981E-1,3.6828116E-2,4.0184986E-4,2.3120077E-1,2.9482294E-2,5.359554E-2,1.2070497E-1,1.8773444E-2,4.3848712E-2,5.158607E-3,8.833196E-2,1.10397294E-1,2.4301074E-1,-6.28436E-2,-3.6737792E-2,2.373244E-1,-2.092911E-2,-3.389508E-2,3.3289453E-1,8.417244E-4,9.846433E-2],"split_indices":[82,62,75,0,65,62,0,76,56,84,62,36,49,0,0,82,18,82,82,11,15,0,38,11,54,40,15,0,0,0,0,0,0,0,0,0,0,0,0,0,0,0,0,0,0,0,0,0,0,0,0],"split_type":[0,0,0,0,0,0,0,0,0,0,0,0,0,0,0,0,0,0,0,0,0,0,0,0,0,0,0,0,0,0,0,0,0,0,0,0,0,0,0,0,0,0,0,0,0,0,0,0,0,0,0],"sum_hessian":[1.6176E4,1.1931E4,4.245E3,6.639E3,5.292E3,7.46E2,3.499E3,1.681E3,4.958E3,4.248E3,1.044E3,6.01E2,1.45E2,3.494E3,5E0,1.153E3,5.28E2,4.38E3,5.78E2,1.612E3,2.636E3,9.61E2,8.3E1,5.68E2,3.3E1,1.3E1,1.32E2,4.43E2,7.1E2,5.27E2,1E0,2.81E2,4.099E3,4E0,5.74E2,1.427E3,1.85E2,1.212E3,1.424E3,7.9E1,8.82E2,4.3E1,4E1,5.3E2,3.8E1,3E0,3E1,3E0,1E1,9E1,4.2E1],"tree_param":{"num_deleted":"0","num_feature":"85","num_nodes":"51","size_leaf_vector":"1"}},{"base_weights":[-6.3244244E-3,3.960179E-1,-1.1478723E0,6.9689457E-3,1.0661931E0,-6.8539995E-1,-6.2438827E-2,-5.4400206E-1,1.9130674E-1,9.519529E-1,2.2163079E0,-1.158028E0,7.162767E-1,-9.4025236E-1,-3.8132027E-1,1.2920608E-1,8.355441E-1,1.6761736E0,8.4521276E-1,1.7541835E0,3.9063854E0,-1.1680356E0,1.1215737E-1,1.2117893E-1,1.8679864E0,-4.781478E-2,7.4436046E-2,-2.2613926E-2,1.258799E-2,-4.1748555E-3,1.2934893E-2,9.448609E-2,1.457484E-2,5.368566E-2,1.20377734E-1,3.9488718E-2,9.764446E-2,1.5943283E-1,6.999945E-2,2.4521735E-1,6.0356718E-2,-5.9417248E-2,-1.4264325E-2,2.4417369E-1,2.9572108E-4,1.8184504E-1,5.291425E-2],"categories":[],"categories_nodes":[],"categories_segments":[],"categories_sizes":[],"default_left":[0,1,0,0,0,0,0,0,1,0,0,0,0,0,0,1,0,0,1,0,0,0,0,0,0,0,0,0,0,0,0,0,0,0,0,0,0,0,0,0,0,0,0,0,0,0,0],"id":9,"left_children":[1,3,5,7,9,11,-1,13,15,17,19,21,23,25,27,29,31,33,35,37,39,41,-1,43,45,-1,-1,-1,-1,-1,-1,-1,-1,-1,-1,-1,-1,-1,-1,-1,-1,-1,-1,-1,-1,-1,-1],"loss_changes":[7.407473E3,3.1092092E3,1.952793E2,7.665119E2,5.73376E2,5.0099564E2,0E0,1.2160492E2,2.2613483E2,3.067146E2,3.016526E2,2.185138E1,1.3068121E2,2.2856384E1,6.0444443E1,1.4211755E2,2.844898E2,2.2257605E2,2.1191113E2,1.5405768E2,2.2035474E2,9.7724E0,0E0,6.968442E1,8.925017E1,0E0,0E0,0E0,0E0,0E0,0E0,0E0,0E0,0E0,0E0,0E0,0E0,0E0,0E0,0E0,0E0,0E0,0E0,0E0,0E0,0E0,0E0],"parents":[2147483647,0,0,1,1,2,2,3,3,4,4,5,5,7,7,8,8,9,9,10,10,11,11,12,12,13,13,14,14,15,15,16,16,17,17,18,18,19,19,20,20,21,21,23,23,24,24],"right_children":[2,4,6,8,10,12,-1,14,16,18,20,22,24,26,28,30,32,34,36,38,40,42,-1,44,46,-1,-1,-1,-1,-1,-1,-1,-1,-1,-1,-1,-1,-1,-1,-1,-1,-1,-1,-1,-1,-1,-1],"split_conditions":[3.151442E3,3.4E0,1.760584E-3,8.333333E0,8.72E0,1.7E0,-6.2438827E-2,2.5E-1,1.05E1,8.92788E2,8.947497E-1,2.525E0,3.2978168E-1,1.3333334E0,5.875E0,2E0,9.299591E2,1.5E1,4.076923E-1,6.30257E-1,3.6682466E-1,8E0,1.1215737E-1,7.936512E-2,1.02E1,-4.781478E-2,7.4436046E-2,-2.2613926E-2,1.258799E-2,-4.1748555E-3,1.2934893E-2,9.448609E-2,1.457484E-2,5.368566E-2,1.20377734E-1,3.9488718E-2,9.764446E-2,1.5943283E-1,6.999945E-2,2.4521735E-1,6.0356718E-2,-5.9417248E-2,-1.4264325E-2,2.4417369E-1,2.9572108E-4,1.8184504E-1,5.291425E-2],"split_indices":[82,62,75,0,35,35,0,54,65,84,69,62,69,9,63,11,82,11,20,50,20,65,0,69,36,0,0,0,0,0,0,0,0,0,0,0,0,0,0,0,0,0,0,0,0,0,0],"split_type":[0,0,0,0,0,0,0,0,0,0,0,0,0,0,0,0,0,0,0,0,0,0,0,0,0,0,0,0,0,0,0,0,0,0,0,0,0,0,0,0,0,0,0,0,0,0,0],"sum_hessian":[1.6126E4,1.1924E4,4.202E3,7.545E3,4.379E3,7.54E2,3.448E3,1.891E3,5.654E3,3.985E3,3.94E2,5.64E2,1.9E2,5.49E2,1.342E3,5.158E3,4.96E2,5.1E2,3.475E3,3.11E2,8.3E1,5.63E2,1E0,1.26E2,6.4E1,5.46E2,3E0,1.207E3,1.35E2,1.952E3,3.206E3,1.68E2,3.28E2,2.81E2,2.29E2,3.311E3,1.64E2,6E1,2.51E2,6E1,2.3E1,5.5E2,1.3E1,2E0,1.24E2,1.9E1,4.5E1],"tree_param":{"num_deleted":"0","num_feature":"85","num_nodes":"47","size_leaf_vector":"1"}},{"base_weights":[-1.7469963E-2,3.675843E-1,-5.939998E-2,2.6082752E-2,1.1054026E0,-3.2929906E-1,2.976304E-1,8.078296E-1,1.622704E0,-7.317802E-1,-1.562405E-1,2.088799E-1,8.0274177E-1,1.4697931E0,6.8882996E-1,2.0060797E0,1.237558E0,-2.8093249E-2,-4.487696E-2,-8.765703E-3,1.4133087E-1,9.592752E-3,1.2646931E-1,3.32045E-2,1.0861921E-1,1.551211E-1,5.655371E-2,3.136947E-2,1.0073618E-1,8.0886915E-2,1.3980238E-1,5.498273E-2,1.3451003E-1],"categories":[],"categories_nodes":[],"categories_segments":[],"categories_sizes":[],"default_left":[0,1,0,1,0,0,0,1,1,0,1,0,0,0,1,0,0,0,0,0,0,0,0,0,0,0,0,0,0,0,0,0,0],"id":10,"left_children":[1,3,-1,5,7,9,11,13,15,17,19,21,23,25,27,29,31,-1,-1,-1,-1,-1,-1,-1,-1,-1,-1,-1,-1,-1,-1,-1,-1],"loss_changes":[7.2524795E3,3.0507769E3,0E0,7.989506E2,5.8841406E2,2.4966068E2,2.1021426E2,1.9072205E2,2.0394019E2,2.9857544E1,1.4324196E2,1.5726335E2,1.3167957E2,2.0110175E2,1.6695837E2,2.0991382E2,1.372688E2,0E0,0E0,0E0,0E0,0E0,0E0,0E0,0E0,0E0,0E0,0E0,0E0,0E0,0E0,0E0,0E0],"parents":[2147483647,0,0,1,1,3,3,4,4,5,5,6,6,7,7,8,8,9,9,10,10,11,11,12,12,13,13,14,14,15,15,16,16],"right_children":[2,4,-1,6,8,10,12,14,16,18,20,22,24,26,28,30,32,-1,-1,-1,-1,-1,-1,-1,-1,-1,-1,-1,-1,-1,-1,-1,-1],"split_conditions":[2.00001E0,3.775E0,-5.939998E-2,2.5333334E1,5.9875E0,1.0081184E-2,1.05E1,8.92788E2,1.0368438E3,1.70817E-1,4.1E0,1.3333334E0,2.030075E0,1.1275E1,4.076923E-1,2.3501484E-1,1.1333333E1,-2.8093249E-2,-4.487696E-2,-8.765703E-3,1.4133087E-1,9.592752E-3,1.2646931E-1,3.32045E-2,1.0861921E-1,1.551211E-1,5.655371E-2,3.136947E-2,1.0073618E-1,8.0886915E-2,1.3980238E-1,5.498273E-2,1.3451003E-1],"split_indices":[81,62,0,0,62,69,65,84,84,78,8,18,22,66,20,74,8,0,0,0,0,0,0,0,0,0,0,0,0,0,0,0,0],"split_type":[0,0,0,0,0,0,0,0,0,0,0,0,0,0,0,0,0,0,0,0,0,0,0,0,0,0,0,0,0,0,0,0,0],"sum_hessian":[1.6089E4,1.2107E4,3.982E3,8.277E3,3.83E3,3.585E3,4.692E3,2.433E3,1.397E3,1.077E3,2.508E3,3.992E3,7E2,3.69E2,2.064E3,6.98E2,6.99E2,5.34E2,5.43E2,2.493E3,1.5E1,3.964E3,2.8E1,6.37E2,6.3E1,6.2E1,3.07E2,1.974E3,9E1,4.7E2,2.28E2,6.4E2,5.9E1],"tree_param":{"num_deleted":"0","num_feature":"85","num_nodes":"33","size_leaf_vector":"1"}},{"base_weights":[8.222643E-3,3.775414E-1,-5.6441903E-2,2.7850157E-2,1.0814403E0,-4.3456343E-1,2.2740115E-1,9.158335E-1,1.8535256E0,-7.00338E-1,-2.081543E-1,1.338595E-1,5.377943E-1,1.6197038E0,7.945046E-1,2.56402E0,1.1919211E0,-2.6496638E-2,-4.2600084E-2,-1.20272795E-2,4.1678518E-2,2.6653323E-2,3.7637614E-3,2.223218E-2,9.912437E-2,5.512784E-2,1.15279496E-1,4.349101E-2,6.3752206E-3,1.1516962E-1,2.3215683E-1,5.516396E-2,2.8091827E-1],"categories":[],"categories_nodes":[],"categories_segments":[],"categories_sizes":[],"default_left":[0,1,0,0,0,0,1,1,0,0,0,1,0,0,0,0,0,0,0,0,0,0,0,0,0,0,0,0,0,0,0,0,0],"id":11,"left_children":[1,3,-1,5,7,9,11,13,15,17,19,21,23,25,27,29,31,-1,-1,-1,-1,-1,-1,-1,-1,-1,-1,-1,-1,-1,-1,-1,-1],"loss_changes":[6.738329E3,2.9813064E3,0E0,7.4688116E2,5.123096E2,1.4667825E2,1.6409015E2,2.8155737E2,3.302207E2,2.8545776E1,4.470726E1,1.0160085E2,1.7527621E2,1.6984412E2,1.419049E2,1.7408447E2,1.3858533E2,0E0,0E0,0E0,0E0,0E0,0E0,0E0,0E0,0E0,0E0,0E0,0E0,0E0,0E0,0E0,0E0],"parents":[2147483647,0,0,1,1,3,3,4,4,5,5,6,6,7,7,8,8,9,9,10,10,11,11,12,12,13,13,14,14,15,15,16,16],"right_children":[2,4,-1,6,8,10,12,14,16,18,20,22,24,26,28,30,32,-1,-1,-1,-1,-1,-1,-1,-1,-1,-1,-1,-1,-1,-1,-1,-1],"split_conditions":[2.00001E0,3.6375E0,-5.6441903E-2,9.25E-1,4.2375E-1,1.1217031E-2,6.488E-2,8.92788E2,1.0368438E3,1.2162162E-1,1.3E-1,7.786788E2,6.666667E-1,1.625E1,1.2821749E3,1.0640394E1,2.3333333E0,-2.6496638E-2,-4.2600084E-2,-1.20272795E-2,4.1678518E-2,2.6653323E-2,3.7637614E-3,2.223218E-2,9.912437E-2,5.512784E-2,1.15279496E-1,4.349101E-2,6.3752206E-3,1.1516962E-1,2.3215683E-1,5.516396E-2,2.8091827E-1],"split_indices":[81,62,0,62,61,69,6,84,84,73,5,82,4,65,84,25,10,0,0,0,0,0,0,0,0,0,0,0,0,0,0,0,0],"split_type":[0,0,0,0,0,0,0,0,0,0,0,0,0,0,0,0,0,0,0,0,0,0,0,0,0,0,0,0,0,0,0,0,0],"sum_hessian":[1.6044E4,1.2111E4,3.933E3,8.092E3,4.019E3,2.439E3,5.653E3,3.311E3,7.08E2,1.121E3,1.318E3,4.345E3,1.308E3,4.85E2,2.826E3,3.4E2,3.68E2,5.3E2,5.91E2,1.279E3,3.9E1,5.55E2,3.79E3,1.23E3,7.8E1,2.78E2,2.07E2,2.539E3,2.87E2,3.04E2,3.6E1,3.62E2,6E0],"tree_param":{"num_deleted":"0","num_feature":"85","num_nodes":"33","size_leaf_vector":"1"}},{"base_weights":[-1.0298673E-2,3.4094107E-1,-5.3612035E-2,-1.4503898E-1,7.678227E-1,-5.141518E-1,2.7206654E-2,5.0811154E-1,1.2231522E0,-5.2446765E-1,2.9302365E-1,1.4216924E-2,4.5841284E0,3.3945787E-1,8.007871E-1,1.1263771E0,2.8641307E0,-1.778212E-2,-3.9542142E-2,2.3290982E-2,-2.9993996E-3,3.1782633E-1,-5.33503E-3,3.431438E-2,9.709053E-3,5.179854E-2,1.9548336E-2,7.307141E-2,3.9332982E-2,7.6666944E-2,2.0656817E-1],"categories":[],"categories_nodes":[],"categories_segments":[],"categories_sizes":[],"default_left":[0,1,0,0,0,0,1,0,0,0,0,1,0,0,1,1,0,0,0,0,0,0,0,0,0,0,0,0,0,0,0],"id":12,"left_children":[1,3,-1,5,7,9,11,13,15,17,-1,19,21,23,25,27,29,-1,-1,-1,-1,-1,-1,-1,-1,-1,-1,-1,-1,-1,-1],"loss_changes":[6.0238823E3,2.5177964E3,0E0,3.6088315E2,7.634187E2,1.2183511E2,2.2907161E2,2.0289722E2,3.6933252E2,8.084619E1,0E0,1.2941446E2,9.213243E1,1.3152615E2,1.4455511E2,2.5119531E2,2.1290015E2,0E0,0E0,0E0,0E0,0E0,0E0,0E0,0E0,0E0,0E0,0E0,0E0,0E0,0E0],"parents":[2147483647,0,0,1,1,3,3,4,4,5,5,6,6,7,7,8,8,9,9,11,11,12,12,13,13,14,14,15,15,16,16],"right_children":[2,4,-1,6,8,10,12,14,16,18,-1,20,22,24,26,28,30,-1,-1,-1,-1,-1,-1,-1,-1,-1,-1,-1,-1,-1,-1],"split_conditions":[2.00001E0,2.2666667E0,-5.3612035E-2,4.9577667E-3,5.1E0,2.15E-1,1.8375E1,1.0125E1,8.947497E-1,2.030075E0,2.9302365E-1,8.92788E2,9.5E0,9.663165E2,1.0992257E3,1.0368438E3,2.72E1,-1.778212E-2,-3.9542142E-2,2.3290982E-2,-2.9993996E-3,3.1782633E-1,-5.33503E-3,3.431438E-2,9.709053E-3,5.179854E-2,1.9548336E-2,7.307141E-2,3.9332982E-2,7.6666944E-2,2.0656817E-1],"split_indices":[81,8,0,15,35,60,63,65,69,76,0,84,9,84,84,84,12,0,0,0,0,0,0,0,0,0,0,0,0,0,0],"split_type":[0,0,0,0,0,0,0,0,0,0,0,0,0,0,0,0,0,0,0,0,0,0,0,0,0,0,0,0,0,0,0],"sum_hessian":[1.6148E4,1.2135E4,4.013E3,5.675E3,6.46E3,1.805E3,3.87E3,4.115E3,2.345E3,1.803E3,2E0,3.86E3,1E1,2.612E3,1.503E3,2.216E3,1.29E2,1.105E3,6.98E2,5.44E2,3.316E3,7E0,3E0,7.7E2,1.842E3,9.54E2,5.49E2,1.114E3,1.102E3,6.4E1,6.5E1],"tree_param":{"num_deleted":"0","num_feature":"85","num_nodes":"31","size_leaf_vector":"1"}},{"base_weights":[3.3164294E-3,3.3487564E-1,-5.0941944E-2,-6.9473915E-2,8.382487E-1,-5.2167296E-1,9.3197614E-2,6.540877E-1,1.3733648E0,-3.800626E-1,-8.486089E-1,3.979817E-2,5.262646E-1,1.2827941E0,5.5659974E-1,2.0988097E0,1.1045995E0,-2.0524392E-2,2.771832E-2,-4.2886574E-2,1.02167465E-1,1.29063595E-2,-3.4285826E-3,2.4617063E-2,2.508379E-1,5.984479E-2,2.4956082E-1,1.5407525E-2,4.046467E-2,9.008306E-2,2.3101401E-1,2.3078458E-2,6.834292E-2],"categories":[],"categories_nodes":[],"categories_segments":[],"categories_sizes":[],"default_left":[0,1,0,0,0,0,1,0,1,0,0,1,0,0,0,0,0,0,0,0,0,0,0,0,0,0,0,0,0,0,0,0,0],"id":13,"left_children":[1,3,-1,5,7,9,11,13,15,17,19,21,23,25,27,29,31,-1,-1,-1,-1,-1,-1,-1,-1,-1,-1,-1,-1,-1,-1,-1,-1],"loss_changes":[5.493314E3,2.4911682E3,0E0,4.9937323E2,5.363828E2,8.282788E1,1.1544484E2,2.4800635E2,2.696709E2,3.59075E1,1.6051697E1,1.05211296E2,8.100833E1,1.6731592E2,2.2042786E2,2.7339404E2,1.713822E2,0E0,0E0,0E0,0E0,0E0,0E0,0E0,0E0,0E0,0E0,0E0,0E0,0E0,0E0,0E0,0E0],"parents":[2147483647,0,0,1,1,3,3,4,4,5,5,6,6,7,7,8,8,9,9,10,10,11,11,12,12,13,13,14,14,15,15,16,16],"right_children":[2,4,-1,6,8,10,12,14,16,18,20,22,24,26,28,30,32,-1,-1,-1,-1,-1,-1,-1,-1,-1,-1,-1,-1,-1,-1,-1,-1],"split_conditions":[2.00001E0,2.9E0,-5.0941944E-2,7.3333335E0,5.9875E0,5.1790257E0,2.2857144E0,8.92788E2,9.8314136E2,1.4277867E0,7.666667E-2,9.836727E2,2.775E-1,7.5E0,1E0,1.1024232E0,1.20335E-1,-2.0524392E-2,2.771832E-2,-4.2886574E-2,1.02167465E-1,1.29063595E-2,-3.4285826E-3,2.4617063E-2,2.508379E-1,5.984479E-2,2.4956082E-1,1.5407525E-2,4.046467E-2,9.008306E-2,2.3101401E-1,2.3078458E-2,6.834292E-2],"split_indices":[81,62,0,0,62,77,56,84,83,75,6,84,61,2,81,50,33,0,0,0,0,0,0,0,0,0,0,0,0,0,0,0,0],"split_type":[0,0,0,0,0,0,0,0,0,0,0,0,0,0,0,0,0,0,0,0,0,0,0,0,0,0,0,0,0,0,0,0,0],"sum_hessian":[1.6207E4,1.2238E4,3.969E3,6.787E3,5.451E3,1.795E3,4.992E3,4.057E3,1.394E3,1.254E3,5.41E2,4.445E3,5.47E2,5.43E2,3.514E3,3.75E2,1.019E3,1.215E3,3.9E1,5.4E2,1E0,1.474E3,2.971E3,5.44E2,3E0,5.32E2,1.1E1,1.773E3,1.741E3,3.37E2,3.8E1,2.96E2,7.23E2],"tree_param":{"num_deleted":"0","num_feature":"85","num_nodes":"33","size_leaf_vector":"1"}},{"base_weights":[3.637574E-3,3.172719E-1,-4.8374232E-2,-7.025091E-2,7.3295665E-1,-4.9045312E-1,8.332412E-2,6.2042224E-1,1.534122E0,-6.974052E-1,-2.931882E-1,2.2817919E-1,-9.989276E-2,1.2359869E-1,7.413707E-1,1.6954048E0,-7.512303E-2,-2.3818418E-2,-3.944377E-2,4.5348573E-3,-2.1064466E-2,7.930178E-3,4.331678E-2,-2.1244248E-2,3.1875651E-3,3.3097726E-3,1.416033E-1,4.8374604E-2,2.360557E-2,7.44923E-2,1.4892195E-1,2.392315E-1,-1.1062502E-2],"categories":[],"categories_nodes":[],"categories_segments":[],"categories_sizes":[],"default_left":[0,1,0,0,0,0,1,0,1,0,0,1,0,0,0,0,0,0,0,0,0,0,0,0,0,0,0,0,0,0,0,0,0],"id":14,"left_children":[1,3,-1,5,7,9,11,13,15,17,19,21,23,25,27,29,31,-1,-1,-1,-1,-1,-1,-1,-1,-1,-1,-1,-1,-1,-1,-1,-1],"loss_changes":[4.9207524E3,1.9672499E3,0E0,4.0795123E2,5.3026294E2,6.887039E1,1.2290248E2,3.1045374E2,1.8829639E2,1.630429E1,4.27231E1,1.1468135E2,1.0878642E2,1.5730847E2,2.5258252E2,1.693667E2,4.8638058E1,0E0,0E0,0E0,0E0,0E0,0E0,0E0,0E0,0E0,0E0,0E0,0E0,0E0,0E0,0E0,0E0],"parents":[2147483647,0,0,1,1,3,3,4,4,5,5,6,6,7,7,8,8,9,9,10,10,11,11,12,12,13,13,14,14,15,15,16,16],"right_children":[2,4,-1,6,8,10,12,14,16,18,20,22,24,26,28,30,32,-1,-1,-1,-1,-1,-1,-1,-1,-1,-1,-1,-1,-1,-1,-1,-1],"split_conditions":[2.00001E0,2.65E0,-4.8374232E-2,6.3333335E0,8.166667E0,4.3668E-3,1.0798402E3,4.9666668E1,1.3130503E3,1.255814E-1,1.2086387E-1,3.1764707E-1,2.7E1,3.5375E-1,1.0427291E3,8.947497E-1,4.4432133E-3,-2.3818418E-2,-3.944377E-2,4.5348573E-3,-2.1064466E-2,7.930178E-3,4.331678E-2,-2.1244248E-2,3.1875651E-3,3.3097726E-3,1.416033E-1,4.8374604E-2,2.360557E-2,7.44923E-2,1.4892195E-1,2.392315E-1,-1.1062502E-2],"split_indices":[81,62,0,0,8,69,83,0,83,75,23,19,0,59,82,69,16,0,0,0,0,0,0,0,0,0,0,0,0,0,0,0,0],"split_type":[0,0,0,0,0,0,0,0,0,0,0,0,0,0,0,0,0,0,0,0,0,0,0,0,0,0,0,0,0,0,0,0,0],"sum_hessian":[1.6154E4,1.2211E4,3.943E3,6.32E3,5.891E3,1.691E3,4.629E3,5.167E3,7.24E2,8.24E2,8.67E2,2.585E3,2.044E3,1.012E3,4.155E3,6.58E2,6.6E1,2.43E2,5.81E2,2.17E2,6.5E2,2.332E3,2.53E2,6.84E2,1.36E3,9.92E2,2E1,2.257E3,1.898E3,5.69E2,8.9E1,1E0,6.5E1],"tree_param":{"num_deleted":"0","num_feature":"85","num_nodes":"33","size_leaf_vector":"1"}},{"base_weights":[9.137285E-3,3.4723368E-1,-7.4779576E-1,5.308112E-2,9.3520796E-1,-2.7760115E-1,-8.3216673E-1,-3.0486435E-1,2.4980572E-1,8.262401E-1,1.8955712E0,-4.013666E-1,8.5649115E-1,-4.658935E-1,-9.1388583E-1,-2.0713666E-1,-7.501811E-1,1.5098031E-1,5.3999156E-1,1.2720163E0,6.672418E-1,2.2820207E-1,2.3144183E0,-4.2403412E-1,3.5637908E0,3.599205E0,6.091658E-1,-8.141836E-1,6.84117E-1,-4.5936808E-2,1.3058785E-1,-1.5773712E-2,-2.099492E-3,-2.6234403E-2,-4.155991E-2,4.476695E-2,4.932046E-3,2.6212528E-2,3.3701652E-1,4.291565E-2,9.04169E-2,1.5518628E-2,4.3984156E-2,2.6328555E-1,-2.3589754E-3,1.0169994E-1,2.0009606E-1,-2.3259921E-2,4.808819E-2,3.5384234E-2,2.1399656E-1,2.15554E-1,9.957374E-4,9.107809E-3,1.15209654E-1,-4.1717816E-2,1.1824196E-1,1.3187629E-1,1.8334268E-2],"categories":[],"categories_nodes":[],"categories_segments":[],"categories_sizes":[],"default_left":[0,1,0,0,0,1,0,0,1,0,0,1,0,0,0,0,0,0,0,0,0,0,0,1,0,0,0,1,0,0,0,0,0,0,0,0,0,0,0,0,0,0,0,0,0,0,0,0,0,0,0,0,0,0,0,0,0,0,0],"id":15,"left_children":[1,3,5,7,9,11,13,15,17,19,21,23,25,27,29,31,33,35,37,39,41,43,45,47,49,51,53,55,57,-1,-1,-1,-1,-1,-1,-1,-1,-1,-1,-1,-1,-1,-1,-1,-1,-1,-1,-1,-1,-1,-1,-1,-1,-1,-1,-1,-1,-1,-1],"loss_changes":[4.1269106E3,1.9278701E3,1.972898E2,5.233425E2,3.874131E2,1.0687809E2,1.2591528E2,1.1456273E2,1.3745688E2,2.3588257E2,2.634569E2,6.307921E1,4.868319E1,3.0977173E2,6.1396484E1,3.868628E1,8.223297E0,1.3934698E2,1.15342316E2,1.9303491E2,1.865321E2,1.070657E2,1.3476929E2,3.9352356E1,5.1526527E0,1.5202194E1,5.024578E1,4.0001892E1,1.1064615E2,0E0,0E0,0E0,0E0,0E0,0E0,0E0,0E0,0E0,0E0,0E0,0E0,0E0,0E0,0E0,0E0,0E0,0E0,0E0,0E0,0E0,0E0,0E0,0E0,0E0,0E0,0E0,0E0,0E0,0E0],"parents":[2147483647,0,0,1,1,2,2,3,3,4,4,5,5,6,6,7,7,8,8,9,9,10,10,11,11,12,12,13,13,14,14,15,15,16,16,17,17,18,18,19,19,20,20,21,21,22,22,23,23,24,24,25,25,26,26,27,27,28,28],"right_children":[2,4,6,8,10,12,14,16,18,20,22,24,26,28,30,32,34,36,38,40,42,44,46,48,50,52,54,56,58,-1,-1,-1,-1,-1,-1,-1,-1,-1,-1,-1,-1,-1,-1,-1,-1,-1,-1,-1,-1,-1,-1,-1,-1,-1,-1,-1,-1,-1,-1],"split_conditions":[1.3232372E3,3.6375E0,1.4828707E3,1.6E0,8.72E0,8.45E1,1.760584E-3,5E0,5.881E-2,9.724158E2,1.5714286E-1,4.2637E-1,8.2333336E1,6.375E0,1.8E2,3.6666667E0,9.4129047E2,7.6337964E2,3.2189603E0,1.6375E1,1.46E1,1.2625E1,4.475E1,4.8E-1,5.0666668E1,2.9666665E-1,3.7227672E-1,2.631579E-1,4.245283E-1,-4.5936808E-2,1.3058785E-1,-1.5773712E-2,-2.099492E-3,-2.6234403E-2,-4.155991E-2,4.476695E-2,4.932046E-3,2.6212528E-2,3.3701652E-1,4.291565E-2,9.04169E-2,1.5518628E-2,4.3984156E-2,2.6328555E-1,-2.3589754E-3,1.0169994E-1,2.0009606E-1,-2.3259921E-2,4.808819E-2,3.5384234E-2,2.1399656E-1,2.15554E-1,9.957374E-4,9.107809E-3,1.15209654E-1,-4.1717816E-2,1.1824196E-1,1.3187629E-1,1.8334268E-2],"split_indices":[83,62,82,38,35,54,75,72,33,83,19,6,0,65,0,9,84,82,51,65,13,63,65,61,0,6,70,44,49,0,0,0,0,0,0,0,0,0,0,0,0,0,0,0,0,0,0,0,0,0,0,0,0,0,0,0,0,0,0],"split_type":[0,0,0,0,0,0,0,0,0,0,0,0,0,0,0,0,0,0,0,0,0,0,0,0,0,0,0,0,0,0,0,0,0,0,0,0,0,0,0,0,0,0,0,0,0,0,0,0,0,0,0,0,0,0,0,0,0,0,0],"sum_hessian":[1.6124E4,1.1146E4,4.978E3,7.43E3,3.716E3,7.58E2,4.22E3,2.635E3,4.795E3,3.339E3,3.77E2,6.84E2,7.4E1,7.71E2,3.449E3,2.162E3,4.73E2,3.578E3,1.217E3,8.76E2,2.463E3,7.6E1,3.01E2,6.81E2,3E0,5E0,6.9E1,5.92E2,1.79E2,3.445E3,4E0,1.305E3,8.57E2,1.27E2,3.46E2,2.34E2,3.344E3,1.215E3,2E0,4.96E2,3.8E2,9.2E2,1.543E3,3E0,7.3E1,2.6E2,4.1E1,6.62E2,1.9E1,1E0,2E0,4E0,1E0,5.6E1,1.3E1,5.89E2,3E0,2.4E1,1.55E2],"tree_param":{"num_deleted":"0","num_feature":"85","num_nodes":"59","size_leaf_vector":"1"}},{"base_weights":[-3.3802984E-3,2.7878833E-1,-4.3746516E-2,-1.1516873E-1,6.334972E-1,-5.3130263E-1,1.3473781E-2,3.2775837E-1,8.8995945E-1,-5.530889E-1,8.178511E-1,6.5691817E-1,-3.63405E-2,2.9315662E-1,1.9704931E0,1.1699969E0,5.7373E-1,-3.0340755E-2,-6.9560916E-3,1.4706186E-2,1.5505467E-1,2.9566312E-2,3.6516175E-1,-2.912319E-3,5.0348412E-2,-1.1565327E-3,2.2046039E-2,4.643279E-2,3.2634908E-1,4.8879344E-2,9.729601E-2,2.7072875E-2,1.5133922E-1],"categories":[],"categories_nodes":[],"categories_segments":[],"categories_sizes":[],"default_left":[0,1,0,0,0,0,1,0,1,0,0,1,1,0,0,0,0,0,0,0,0,0,0,0,0,0,0,0,0,0,0,0,0],"id":16,"left_children":[1,3,-1,5,7,9,11,13,15,17,19,21,23,25,27,29,31,-1,-1,-1,-1,-1,-1,-1,-1,-1,-1,-1,-1,-1,-1,-1,-1],"loss_changes":[3.9537195E3,1.6972158E3,0E0,3.0808676E2,5.008296E2,4.0397522E1,1.4095969E2,1.65229E2,3.0706104E2,2.9673859E1,2.539542E1,1.3343996E2,9.335109E1,1.3358145E2,2.7876587E2,2.7309985E2,1.2771881E2,0E0,0E0,0E0,0E0,0E0,0E0,0E0,0E0,0E0,0E0,0E0,0E0,0E0,0E0,0E0,0E0],"parents":[2147483647,0,0,1,1,3,3,4,4,5,5,6,6,7,7,8,8,9,9,10,10,11,11,12,12,13,13,14,14,15,15,16,16],"right_children":[2,4,-1,6,8,10,12,14,16,18,20,22,24,26,28,30,32,-1,-1,-1,-1,-1,-1,-1,-1,-1,-1,-1,-1,-1,-1,-1,-1],"split_conditions":[2.00001E0,2.2666667E0,-4.3746516E-2,3.5E-1,1.0125E1,7.333333E-2,7.526218E2,1.3043479E0,1.0469291E3,3.59E-3,1.6875E0,4E-1,8.425E1,6E1,8.75E-2,2.8966667E1,4.475E1,-3.0340755E-2,-6.9560916E-3,1.4706186E-2,1.5505467E-1,2.9566312E-2,3.6516175E-1,-2.912319E-3,5.0348412E-2,-1.1565327E-3,2.2046039E-2,4.643279E-2,3.2634908E-1,4.8879344E-2,9.729601E-2,2.7072875E-2,1.5133922E-1],"split_indices":[81,8,0,62,65,7,82,18,84,33,75,30,54,0,59,13,65,0,0,0,0,0,0,0,0,0,0,0,0,0,0,0,0],"split_type":[0,0,0,0,0,0,0,0,0,0,0,0,0,0,0,0,0,0,0,0,0,0,0,0,0,0,0,0,0,0,0,0,0],"sum_hessian":[1.6075E4,1.2144E4,3.931E3,5.754E3,6.39E3,1.358E3,4.396E3,2.916E3,3.474E3,1.337E3,2.1E1,3.15E2,4.081E3,2.857E3,5.9E1,1.841E3,1.633E3,1.183E3,1.54E2,1.8E1,3E0,3.13E2,2E0,3.998E3,8.3E1,9.1E2,1.947E3,4.9E1,1E1,1.477E3,3.64E2,1.613E3,2E1],"tree_param":{"num_deleted":"0","num_feature":"85","num_nodes":"33","size_leaf_vector":"1"}},{"base_weights":[-1.7880023E-3,2.668784E-1,-4.152839E-2,-1.2433726E-1,6.005462E-1,-3.0724093E-1,1.4905436E-1,4.0923974E-1,9.5524687E-1,-4.4335225E-1,-1.1876906E-1,-2.9158117E-2,4.5190054E-1,2.7435982E-1,6.9072497E-1,1.7778815E0,8.2553023E-1,-2.8827403E-2,-1.3382959E-2,2.8564928E-2,-8.6002E-3,2.4509681E-3,-2.6785487E-2,4.739384E-2,6.1658802E-3,1.3389887E-2,3.2423484E-1,7.539385E-2,2.3453755E-2,2.2249034E-1,7.947149E-2,2.5727857E-2,5.6736805E-2],"categories":[],"categories_nodes":[],"categories_segments":[],"categories_sizes":[],"default_left":[0,1,0,0,0,1,1,0,1,0,1,1,0,1,0,0,0,0,0,0,0,0,0,0,0,0,0,0,0,0,0,0,0],"id":17,"left_children":[1,3,-1,5,7,9,11,13,15,17,19,21,23,25,27,29,31,-1,-1,-1,-1,-1,-1,-1,-1,-1,-1,-1,-1,-1,-1,-1,-1],"loss_changes":[3.5826833E3,1.5862184E3,0E0,2.7977002E2,4.446123E2,8.593671E1,1.2107005E2,1.6162451E2,2.4364355E2,4.538513E1,5.17854E1,5.5982372E1,1.3531062E2,1.1575366E2,2.4924054E2,1.5002844E2,1.903794E2,0E0,0E0,0E0,0E0,0E0,0E0,0E0,0E0,0E0,0E0,0E0,0E0,0E0,0E0,0E0,0E0],"parents":[2147483647,0,0,1,1,3,3,4,4,5,5,6,6,7,7,8,8,9,9,10,10,11,11,12,12,13,13,14,14,15,15,16,16],"right_children":[2,4,-1,6,8,10,12,14,16,18,20,22,24,26,28,30,32,-1,-1,-1,-1,-1,-1,-1,-1,-1,-1,-1,-1,-1,-1,-1,-1],"split_conditions":[2.00001E0,1.8E0,-4.152839E-2,2.5E0,4.8875E0,9.474011E-2,5.0775E-2,8.333333E-1,8.898413E2,3.875E-1,8.664769E2,3.3305085E-1,1.00129126E3,4.238094E0,9.335813E2,2.665928E-2,1E0,-2.8827403E-2,-1.3382959E-2,2.8564928E-2,-8.6002E-3,2.4509681E-3,-2.6785487E-2,4.739384E-2,6.1658802E-3,1.3389887E-2,3.2423484E-1,7.539385E-2,2.3453755E-2,2.2249034E-1,7.947149E-2,2.5727857E-2,5.6736805E-2],"split_indices":[81,29,0,11,62,23,59,68,84,62,84,75,84,24,84,24,81,0,0,0,0,0,0,0,0,0,0,0,0,0,0,0,0],"split_type":[0,0,0,0,0,0,0,0,0,0,0,0,0,0,0,0,0,0,0,0,0,0,0,0,0,0,0,0,0,0,0,0,0],"sum_hessian":[1.6088E4,1.215E4,3.938E3,5.593E3,6.557E3,3.351E3,2.242E3,4.261E3,2.296E3,1.945E3,1.406E3,1.412E3,8.3E2,2.882E3,1.379E3,3.11E2,1.985E3,1.105E3,8.4E2,1E2,1.306E3,1.224E3,1.88E2,3.3E2,5E2,2.88E3,2E0,2.93E2,1.086E3,1.9E1,2.92E2,9.91E2,9.94E2],"tree_param":{"num_deleted":"0","num_feature":"85","num_nodes":"33","size_leaf_vector":"1"}},{"base_weights":[1.3516979E-2,2.825856E-1,-7.093333E-1,3.0185495E-2,7.7778226E-1,-7.1521574E-1,3.091216E0,-2.7353358E-1,2.4169879E-1,5.226017E-1,1.1745768E0,-4.5078975E-1,-7.7141595E-1,-2.4536008E-2,3.769992E0,-4.540987E-1,-5.515809E-2,1.8863283E-1,7.602911E-1,3.0827302E-1,8.5672957E-1,1.1087098E0,3.146856E0,-6.86617E-1,5.857227E-1,-3.7123826E-1,-3.9398216E-2,2.8028974E-1,1.1408364E-1,-2.3365106E-2,1.0855094E-1,-4.1513965E-3,1.03072606E-1,8.843705E-3,8.335053E-2,3.5095397E-2,2.785403E-1,2.717633E-2,3.630225E-3,7.7081755E-2,2.9907852E-2,1.00162745E-1,4.8438694E-2,5.7776418E-2,2.2179452E-1,-3.7559252E-2,3.1207434E-3,-1.2866393E-2,7.403118E-2,-2.8125552E-2,7.3618494E-2],"categories":[],"categories_nodes":[],"categories_segments":[],"categories_sizes":[],"default_left":[0,1,0,0,0,0,0,0,1,0,0,0,0,0,0,0,0,1,0,0,0,0,0,0,0,0,0,0,0,0,0,0,0,0,0,0,0,0,0,0,0,0,0,0,0,0,0,0,0,0,0],"id":18,"left_children":[1,3,5,7,9,11,13,15,17,19,21,23,25,-1,27,29,31,33,35,37,39,41,43,45,47,49,-1,-1,-1,-1,-1,-1,-1,-1,-1,-1,-1,-1,-1,-1,-1,-1,-1,-1,-1,-1,-1,-1,-1,-1,-1],"loss_changes":[3.1605713E3,1.4800808E3,1.00758545E2,5.040338E2,4.0420044E2,6.5069336E1,1.8869339E1,1.2698221E2,1.27134735E2,1.7411401E2,1.9968726E2,1.8959709E2,2.3739746E1,0E0,3.602974E0,6.212088E1,8.623696E1,7.26651E1,1.1657588E2,8.22917E1,1.674978E2,1.8770532E2,1.2321869E2,3.056424E1,1.0902133E2,5.2312485E1,0E0,0E0,0E0,0E0,0E0,0E0,0E0,0E0,0E0,0E0,0E0,0E0,0E0,0E0,0E0,0E0,0E0,0E0,0E0,0E0,0E0,0E0,0E0,0E0,0E0],"parents":[2147483647,0,0,1,1,2,2,3,3,4,4,5,5,6,6,7,7,8,8,9,9,10,10,11,11,12,12,14,14,15,15,16,16,17,17,18,18,19,19,20,20,21,21,22,22,23,23,24,24,25,25],"right_children":[2,4,6,8,10,12,14,16,18,20,22,24,26,-1,28,30,32,34,36,38,40,42,44,46,48,50,-1,-1,-1,-1,-1,-1,-1,-1,-1,-1,-1,-1,-1,-1,-1,-1,-1,-1,-1,-1,-1,-1,-1,-1,-1],"split_conditions":[1.6097797E3,9.875E0,7.5E1,2.8333334E1,1.22E-1,1.760584E-3,3.2195593E3,6.666667E-3,3.4285715E0,1.725E1,8.780488E-1,8.68E0,3.2195593E3,-2.4536008E-2,1.8E2,2.810619E-1,3E-1,4.5E-1,1.5098875E0,1.0411215E3,9.8314136E2,8.92788E2,3.125E1,7.4E0,3.6486487E0,3.9333335E-1,-3.9398216E-2,2.8028974E-1,1.1408364E-1,-2.3365106E-2,1.0855094E-1,-4.1513965E-3,1.03072606E-1,8.843705E-3,8.335053E-2,3.5095397E-2,2.785403E-1,2.717633E-2,3.630225E-3,7.7081755E-2,2.9907852E-2,1.00162745E-1,4.8438694E-2,5.7776418E-2,2.2179452E-1,-3.7559252E-2,3.1207434E-3,-1.2866393E-2,7.403118E-2,-2.8125552E-2,7.3618494E-2],"split_indices":[83,65,11,0,33,75,83,7,56,65,71,39,83,0,0,70,7,47,50,84,83,84,65,38,25,7,0,0,0,0,0,0,0,0,0,0,0,0,0,0,0,0,0,0,0,0,0,0,0,0,0],"split_type":[0,0,0,0,0,0,0,0,0,0,0,0,0,0,0,0,0,0,0,0,0,0,0,0,0,0,0,0,0,0,0,0,0,0,0,0,0,0,0,0,0,0,0,0,0,0,0,0,0,0,0],"sum_hessian":[1.6248E4,1.1841E4,4.407E3,7.844E3,3.997E3,4.401E3,6E0,3.22E3,4.624E3,2.434E3,1.563E3,7.73E2,3.628E3,1E0,5E0,1.762E3,1.458E3,4.196E3,4.28E2,1.484E3,9.5E2,1.514E3,4.9E1,6.3E2,1.43E2,1.45E2,3.483E3,1E0,4E0,1.754E3,8E0,1.44E3,1.8E1,4.164E3,3.2E1,4.24E2,4E0,7.42E2,7.42E2,2.59E2,6.91E2,2.03E2,1.311E3,2E1,2.9E1,5.8E2,5E1,7.4E1,6.9E1,1.32E2,1.3E1],"tree_param":{"num_deleted":"0","num_feature":"85","num_nodes":"51","size_leaf_vector":"1"}},{"base_weights":[7.3759444E-3,2.5625446E-1,-7.509169E-1,-4.0314812E-2,6.242831E-1,-7.845336E-1,-3.726595E-2,-2.6307467E-1,1.6547771E-1,5.286798E-1,1.3325583E0,-3.8306326E-2,-5.170088E-2,2.0863885E-1,-3.4151378E-1,1.5554725E-2,3.139437E-1,2.863977E-1,7.067943E-1,1.7867365E0,6.125065E-1,3.7567937E-3,1.0311686E-1,-1.7645704E-2,1.6006921E-1,3.157057E-2,-2.1821137E-3,2.1245554E-1,1.5015564E-2,4.4498485E-2,8.872393E-3,2.3852034E-2,4.7122397E-2,7.617722E-2,2.5279337E-1,1.3348411E-1,7.508192E-3],"categories":[],"categories_nodes":[],"categories_segments":[],"categories_sizes":[],"default_left":[0,1,0,0,0,0,0,0,0,0,0,0,0,0,0,0,0,1,0,0,0,0,0,0,0,0,0,0,0,0,0,0,0,0,0,0,0],"id":19,"left_children":[1,3,5,7,9,11,-1,13,15,17,19,-1,-1,21,23,25,27,29,31,33,35,-1,-1,-1,-1,-1,-1,-1,-1,-1,-1,-1,-1,-1,-1,-1,-1],"loss_changes":[3.0495752E3,1.3278953E3,1.6674805E-1,3.0892902E2,3.6691162E2,1.7381287E0,0E0,1.1980582E2,7.796654E1,2.062893E2,2.0984119E2,0E0,0E0,1.1417814E2,1.132121E2,6.3608322E1,9.314081E1,1.3326721E2,1.488208E2,3.3215906E2,2.3833029E2,0E0,0E0,0E0,0E0,0E0,0E0,0E0,0E0,0E0,0E0,0E0,0E0,0E0,0E0,0E0,0E0],"parents":[2147483647,0,0,1,1,2,2,3,3,4,4,5,5,7,7,8,8,9,9,10,10,13,13,14,14,15,15,16,16,17,17,18,18,19,19,20,20],"right_children":[2,4,6,8,10,12,-1,14,16,18,20,-1,-1,22,24,26,28,30,32,34,36,-1,-1,-1,-1,-1,-1,-1,-1,-1,-1,-1,-1,-1,-1,-1,-1],"split_conditions":[2.00001E0,2.875E0,1.760584E-3,2.6333334E1,2.0125E-1,2.057143E0,-3.726595E-2,9.033133E2,1E0,3.130642E-1,2.82E-1,-3.8306326E-2,-5.170088E-2,1.1625E-1,4.031076E-1,7.717777E2,1.62E1,8.92788E2,1E0,1.6666666E0,8.0567633E2,3.7567937E-3,1.0311686E-1,-1.7645704E-2,1.6006921E-1,3.157057E-2,-2.1821137E-3,2.1245554E-1,1.5015564E-2,4.4498485E-2,8.872393E-3,2.3852034E-2,4.7122397E-2,7.617722E-2,2.5279337E-1,1.3348411E-1,7.508192E-3],"split_indices":[81,62,75,0,60,62,0,84,81,15,33,0,0,61,16,82,27,84,81,10,82,0,0,0,0,0,0,0,0,0,0,0,0,0,0,0,0],"split_type":[0,0,0,0,0,0,0,0,0,0,0,0,0,0,0,0,0,0,0,0,0,0,0,0,0,0,0,0,0,0,0,0,0,0,0,0,0],"sum_hessian":[1.6157E4,1.2165E4,3.992E3,6.737E3,5.428E3,5.5E2,3.442E3,3.235E3,3.502E3,4.784E3,6.44E2,5.16E2,3.4E1,4.61E2,2.774E3,1.743E3,1.759E3,2.028E3,2.756E3,3.94E2,2.5E2,4.31E2,3E1,2.766E3,8E0,1.52E2,1.591E3,5E0,1.754E3,3.09E2,1.719E3,1.397E3,1.359E3,3.66E2,2.8E1,4.5E1,2.05E2],"tree_param":{"num_deleted":"0","num_feature":"85","num_nodes":"37","size_leaf_vector":"1"}},{"base_weights":[-1.0355251E-2,2.2272134E-1,-7.1295696E-1,-9.1674425E-2,5.0529647E-1,-7.4230397E-1,-3.54026E-2,-3.9398685E-1,4.200662E-2,3.6959842E-1,1.2071421E0,-3.6229465E-2,-4.7568996E-2,-1.5542236E-1,-5.189425E-1,6.2672053E-3,8.447318E-1,1.9646725E-1,5.7872313E-1,1.3080188E0,-7.9620206E-1,-8.602742E-3,2.4684902E-1,-8.025484E-3,-2.7333695E-2,1.7725215E-5,2.2451945E-1,1.3810949E-1,2.6948744E-2,-1.4724656E-3,1.7460734E-2,-1.08020855E-2,3.2008678E-2,4.5928273E-2,8.638849E-2,1.8294165E-1,-5.290271E-2],"categories":[],"categories_nodes":[],"categories_segments":[],"categories_sizes":[],"default_left":[0,1,0,0,0,0,0,0,1,0,0,0,0,0,1,1,0,0,0,0,0,0,0,0,0,0,0,0,0,0,0,0,0,0,0,0,0],"id":20,"left_children":[1,3,5,7,9,11,-1,13,15,17,19,-1,-1,21,23,25,27,29,31,33,35,-1,-1,-1,-1,-1,-1,-1,-1,-1,-1,-1,-1,-1,-1,-1,-1],"loss_changes":[2.6335835E3,1.0728834E3,5.102539E-2,2.3106018E2,6.052744E2,1.3587952E0,0E0,5.217624E1,1.1374631E2,1.9290057E2,2.0919507E2,0E0,0E0,5.2007782E1,1.1343048E1,1.0066929E2,9.759188E1,1.0070513E2,1.1803473E2,1.5878015E2,6.219926E1,0E0,0E0,0E0,0E0,0E0,0E0,0E0,0E0,0E0,0E0,0E0,0E0,0E0,0E0,0E0,0E0],"parents":[2147483647,0,0,1,1,2,2,3,3,4,4,5,5,7,7,8,8,9,9,10,10,13,13,14,14,15,15,16,16,17,17,18,18,19,19,20,20],"right_children":[2,4,6,8,10,12,-1,14,16,18,20,-1,-1,22,24,26,28,30,32,34,36,-1,-1,-1,-1,-1,-1,-1,-1,-1,-1,-1,-1,-1,-1,-1,-1],"split_conditions":[2.00001E0,4.9666668E1,1.760584E-3,5E-3,2.125E1,6.125E0,-3.54026E-2,7.5742574E0,2.5E-1,7.5E-2,7.058824E-1,-3.6229465E-2,-4.7568996E-2,1.6875E0,8.648411E2,3.47125E1,4.6285715E0,2.6341465E0,6.373415E-2,5.487805E0,8E-2,-8.602742E-3,2.4684902E-1,-8.025484E-3,-2.7333695E-2,1.7725215E-5,2.2451945E-1,1.3810949E-1,2.6948744E-2,-1.4724656E-3,1.7460734E-2,-1.08020855E-2,3.2008678E-2,4.5928273E-2,8.638849E-2,1.8294165E-1,-5.290271E-2],"split_indices":[81,0,75,60,65,65,0,25,31,59,72,0,0,75,83,67,79,52,78,52,32,0,0,0,0,0,0,0,0,0,0,0,0,0,0,0,0],"split_type":[0,0,0,0,0,0,0,0,0,0,0,0,0,0,0,0,0,0,0,0,0,0,0,0,0,0,0,0,0,0,0,0,0,0,0,0,0],"sum_hessian":[1.608E4,1.2075E4,4.005E3,5.716E3,6.359E3,5.52E2,3.453E3,1.752E3,3.964E3,5.33E3,1.029E3,5.13E2,3.9E1,6.03E2,1.149E3,3.796E3,1.68E2,2.917E3,2.413E3,9.8E2,4.9E1,6.02E2,1E0,8.3E1,1.066E3,3.792E3,4E0,2.2E1,1.46E2,1.177E3,1.74E3,1.73E2,2.24E3,5.1E2,4.7E2,2E0,4.7E1],"tree_param":{"num_deleted":"0","num_feature":"85","num_nodes":"37","size_leaf_vector":"1"}},{"base_weights":[2.742768E-4,2.2153124E-1,-6.7786694E-1,-2.5100147E-2,5.7929885E-1,-7.0911765E-1,-3.3632837E-2,-2.2735132E-1,1.5882011E-1,8.367421E-1,3.8971427E-1,-3.442559E-2,-4.6184357E-2,-1.0835118E-1,-4.468471E-1,6.1417174E-1,9.6434765E-2,7.445408E-1,1.5680184E0,2.5011477E-1,9.1883343E-1,-5.8808685E-3,1.6644655E-1,2.2424033E-2,-2.3507386E-2,2.825625E-2,2.989196E-1,5.857946E-4,2.1197783E-2,2.4704192E-2,5.025776E-2,1.4393157E-1,5.012489E-2,-1.4087254E-2,1.6354239E-2,3.7458844E-2,1.042565E-1],"categories":[],"categories_nodes":[],"categories_segments":[],"categories_sizes":[],"default_left":[0,1,0,0,1,0,0,0,0,0,0,0,0,0,0,1,1,0,1,0,0,0,0,0,0,0,0,0,0,0,0,0,0,0,0,0,0],"id":21,"left_children":[1,3,5,7,9,11,-1,13,15,17,19,-1,-1,21,23,25,27,29,31,33,35,-1,-1,-1,-1,-1,-1,-1,-1,-1,-1,-1,-1,-1,-1,-1,-1],"loss_changes":[2.4134495E3,1.0701497E3,1.6723633E-1,2.6711838E2,2.4122107E2,1.7825317E0,0E0,8.9282104E1,1.06780525E2,1.4028955E2,2.104325E2,0E0,0E0,7.1067825E1,2.528656E1,1.1580473E2,9.1810524E1,1.2123682E2,1.7054999E2,9.252847E1,1.1617041E2,0E0,0E0,0E0,0E0,0E0,0E0,0E0,0E0,0E0,0E0,0E0,0E0,0E0,0E0,0E0,0E0],"parents":[2147483647,0,0,1,1,2,2,3,3,4,4,5,5,7,7,8,8,9,9,10,10,13,13,14,14,15,15,16,16,17,17,18,18,19,19,20,20],"right_children":[2,4,6,8,10,12,-1,14,16,18,20,-1,-1,22,24,26,28,30,32,34,36,-1,-1,-1,-1,-1,-1,-1,-1,-1,-1,-1,-1,-1,-1,-1,-1],"split_conditions":[2.00001E0,3.18E0,1.760584E-3,2E0,1.00410767E3,6.125E0,-3.3632837E-2,3.2642486E0,8.92788E2,3.01E1,5.975946E-1,-3.442559E-2,-4.6184357E-2,2.57E1,1.5291262E0,2.3333334E1,2.8E0,1E0,7.971547E2,1.3447596E-1,3.72E1,-5.8808685E-3,1.6644655E-1,2.2424033E-2,-2.3507386E-2,2.825625E-2,2.989196E-1,5.857946E-4,2.1197783E-2,2.4704192E-2,5.025776E-2,1.4393157E-1,5.012489E-2,-1.4087254E-2,1.6354239E-2,3.7458844E-2,1.042565E-1],"split_indices":[81,35,75,11,84,65,0,22,84,67,69,0,0,13,52,11,62,81,82,15,38,0,0,0,0,0,0,0,0,0,0,0,0,0,0,0,0],"split_type":[0,0,0,0,0,0,0,0,0,0,0,0,0,0,0,0,0,0,0,0,0,0,0,0,0,0,0,0,0,0,0,0,0,0,0,0,0],"sum_hessian":[1.6083E4,1.2127E4,3.956E3,7.179E3,4.948E3,5.46E2,3.41E3,3.419E3,3.76E3,2.097E3,2.851E3,5.02E2,4.4E1,2.218E3,1.201E3,4.52E2,3.308E3,1.864E3,2.33E2,2.257E3,5.94E2,2.213E3,5E0,3E1,1.171E3,4.49E2,3E0,2.629E3,6.79E2,9.52E2,9.12E2,6.9E1,1.64E2,2.85E2,1.972E3,5.2E2,7.4E1],"tree_param":{"num_deleted":"0","num_feature":"85","num_nodes":"37","size_leaf_vector":"1"}},{"base_weights":[4.2166123E-3,2.1550715E-1,-6.4383125E-1,2.5817256E-2,6.545634E-1,-6.719176E-1,-3.195981E-2,-2.556149E-1,1.6730343E-1,7.460945E-1,1.0804822E-2,-3.2729767E-2,-4.552306E-2,-1.5831517E-1,-4.6386147E-1,1.3241823E-1,7.760448E-1,5.188655E-1,1.0182564E0,-1.3045491E-1,2.0210416E0,-8.928892E-3,4.1463166E-2,-2.5150312E-2,-1.9214742E-3,1.2397497E-2,-2.0484289E-3,2.1404102E-2,1.3629602E-1,6.533318E-2,2.252217E-2,7.479254E-2,4.1085105E-2,2.674417E-1,-9.091931E-3,1.9240739E-2,2.2216569E-1],"categories":[],"categories_nodes":[],"categories_segments":[],"categories_sizes":[],"default_left":[0,1,0,0,1,0,0,0,1,0,0,0,0,0,0,1,0,0,1,0,0,0,0,0,0,0,0,0,0,0,0,0,0,0,0,0,0],"id":22,"left_children":[1,3,5,7,9,11,-1,13,15,17,19,-1,-1,21,23,25,27,29,31,33,35,-1,-1,-1,-1,-1,-1,-1,-1,-1,-1,-1,-1,-1,-1,-1,-1],"loss_changes":[2.199724E3,1.00897534E3,8.47168E-2,3.3694925E2,2.1535876E2,1.635376E0,0E0,5.7289246E1,1.1947751E2,1.973695E2,1.2975192E2,0E0,0E0,3.87893E1,1.4985397E1,1.06718895E2,2.057707E2,9.352576E1,1.3535632E2,1.2119287E2,1.1719175E2,0E0,0E0,0E0,0E0,0E0,0E0,0E0,0E0,0E0,0E0,0E0,0E0,0E0,0E0,0E0,0E0],"parents":[2147483647,0,0,1,1,2,2,3,3,4,4,5,5,7,7,8,8,9,9,10,10,13,13,14,14,15,15,16,16,17,17,18,18,19,19,20,20],"right_children":[2,4,6,8,10,12,-1,14,16,18,20,-1,-1,22,24,26,28,30,32,34,36,-1,-1,-1,-1,-1,-1,-1,-1,-1,-1,-1,-1,-1,-1,-1,-1],"split_conditions":[2.00001E0,3.875E0,3.3726315E-3,1E0,1.2772128E3,1.675E0,-3.195981E-2,8.922414E0,2.5E-1,1.7333334E1,9.125E0,-3.2729767E-2,-4.552306E-2,1.2E1,1.125E0,1.0814791E3,1.25E-1,7.717777E2,9.719946E2,2.0289855E0,4.3699703E-1,-8.928892E-3,4.1463166E-2,-2.5150312E-2,-1.9214742E-3,1.2397497E-2,-2.0484289E-3,2.1404102E-2,1.3629602E-1,6.533318E-2,2.252217E-2,7.479254E-2,4.1085105E-2,2.674417E-1,-9.091931E-3,1.9240739E-2,2.2216569E-1],"split_indices":[81,62,48,11,83,35,0,79,31,11,62,0,0,65,65,83,32,82,83,79,24,0,0,0,0,0,0,0,0,0,0,0,0,0,0,0,0],"split_type":[0,0,0,0,0,0,0,0,0,0,0,0,0,0,0,0,0,0,0,0,0,0,0,0,0,0,0,0,0,0,0,0,0,0,0,0,0],"sum_hessian":[1.6063E4,1.2114E4,3.949E3,8.46E3,3.654E3,5.39E2,3.41E3,2.83E3,5.63E3,3.199E3,4.55E2,5.06E2,3.3E1,1.93E3,9E2,5.326E3,3.04E2,1.745E3,1.454E3,4.26E2,2.9E1,1.892E3,3.8E1,8.24E2,7.6E1,3.196E3,2.13E3,2.59E2,4.5E1,1.38E2,1.607E3,4.22E2,1.032E3,3E0,4.23E2,1.8E1,1.1E1],"tree_param":{"num_deleted":"0","num_feature":"85","num_nodes":"37","size_leaf_vector":"1"}},{"base_weights":[-9.603865E-3,2.3099609E-1,-5.0609916E-1,-7.751906E-4,5.588628E-1,-1.8031278E-1,-6.117829E-1,-2.4380735E-1,1.4794618E-1,2.2959691E-1,7.316134E-1,-2.0542283E-1,1.971085E0,-6.3905925E-1,-3.0362401E-2,-2.5361133E-1,2.4096549E0,1.3564497E-1,2.6878026E0,1.357719E0,1.7774928E-1,6.706374E-1,1.7321255E0,7.637426E-2,-3.6888292E-1,3.1833987E0,-1.0902225E0,-3.1006891E-2,-4.1377943E-2,-4.083343E-3,-1.9057203E-2,1.9694974E-1,-2.433843E-2,-1.7349534E-3,1.4849374E-2,4.862307E-1,3.8030606E-2,-4.630776E-3,1.324739E-1,-2.7965397E-2,1.2506209E-2,-1.4907658E-2,3.6765646E-2,3.11883E-2,1.2842216E-1,-6.9886134E-3,4.77042E-2,-2.8883507E-2,-4.0321085E-3,2.0299828E-1,3.1720743E-2,-6.4514816E-2,-7.2481693E-3],"categories":[],"categories_nodes":[],"categories_segments":[],"categories_sizes":[],"default_left":[0,1,0,0,0,1,0,0,1,0,0,0,0,0,0,0,0,0,0,0,0,0,0,0,0,0,0,0,0,0,0,0,0,0,0,0,0,0,0,0,0,0,0,0,0,0,0,0,0,0,0,0,0],"id":23,"left_children":[1,3,5,7,9,11,13,15,17,19,21,23,25,27,-1,29,31,33,35,37,39,41,43,45,47,49,51,-1,-1,-1,-1,-1,-1,-1,-1,-1,-1,-1,-1,-1,-1,-1,-1,-1,-1,-1,-1,-1,-1,-1,-1,-1,-1],"loss_changes":[1.9282683E3,8.2624054E2,1.8130286E2,2.3030998E2,2.5596667E2,7.020097E1,1.0412598E-1,6.354004E1,1.2314008E2,9.047738E1,1.789928E2,5.8896152E1,5.9139584E1,1.4413452E0,0E0,5.2838593E1,4.1783928E1,1.08158806E2,2.502676E2,1.276422E2,7.9303055E1,1.74719E2,1.5505081E2,8.929889E1,4.863983E1,2.2002205E1,7.5856304E-1,0E0,0E0,0E0,0E0,0E0,0E0,0E0,0E0,0E0,0E0,0E0,0E0,0E0,0E0,0E0,0E0,0E0,0E0,0E0,0E0,0E0,0E0,0E0,0E0,0E0,0E0],"parents":[2147483647,0,0,1,1,2,2,3,3,4,4,5,5,6,6,7,7,8,8,9,9,10,10,11,11,12,12,13,13,15,15,16,16,17,17,18,18,19,19,20,20,21,21,22,22,23,23,24,24,25,25,26,26],"right_children":[2,4,6,8,10,12,14,16,18,20,22,24,26,28,-1,30,32,34,36,38,40,42,44,46,48,50,52,-1,-1,-1,-1,-1,-1,-1,-1,-1,-1,-1,-1,-1,-1,-1,-1,-1,-1,-1,-1,-1,-1,-1,-1,-1,-1],"split_conditions":[1.2821749E3,1.02E1,2.00001E0,6.0933335E-3,8E0,3.765E1,3.3726315E-3,3.9E-1,4.825E-1,3.3333333E0,8.588371E-1,1.06818184E-1,4.9125E-1,6E0,-3.0362401E-2,2.9636857E-1,3.84E0,1E0,5.0666668E1,1.13060996E-1,1.3333334E0,7E0,5.4625E-1,3E0,7.25E-2,1.4322922E3,2.3833121E-1,-3.1006891E-2,-4.1377943E-2,-4.083343E-3,-1.9057203E-2,1.9694974E-1,-2.433843E-2,-1.7349534E-3,1.4849374E-2,4.862307E-1,3.8030606E-2,-4.630776E-3,1.324739E-1,-2.7965397E-2,1.2506209E-2,-1.4907658E-2,3.6765646E-2,3.11883E-2,1.2842216E-1,-6.9886134E-3,4.77042E-2,-2.8883507E-2,-4.0321085E-3,2.0299828E-1,3.1720743E-2,-6.4514816E-2,-7.2481693E-3],"split_indices":[84,13,81,6,65,67,48,61,32,36,69,48,61,65,0,23,35,81,0,15,2,80,61,2,60,84,16,0,0,0,0,0,0,0,0,0,0,0,0,0,0,0,0,0,0,0,0,0,0,0,0,0,0],"split_type":[0,0,0,0,0,0,0,0,0,0,0,0,0,0,0,0,0,0,0,0,0,0,0,0,0,0,0,0,0,0,0,0,0,0,0,0,0,0,0,0,0,0,0,0,0,0,0,0,0,0,0,0,0],"sum_hessian":[1.614E4,1.0872E4,5.268E3,6.37E3,4.502E3,1.291E3,3.977E3,2.418E3,3.952E3,1.55E3,2.952E3,1.277E3,1.4E1,5.47E2,3.43E3,2.41E3,8E0,3.934E3,1.8E1,6.7E1,1.483E3,2.784E3,1.68E2,4.69E2,8.08E2,1E1,4E0,5.01E2,4.6E1,1.027E3,1.383E3,5E0,3E0,1.914E3,2.02E3,3E0,1.5E1,3.2E1,3.5E1,1.32E2,1.351E3,1.74E2,2.61E3,7.3E1,9.5E1,3.77E2,9.2E1,4.68E2,3.4E2,7E0,3E0,3E0,1E0],"tree_param":{"num_deleted":"0","num_feature":"85","num_nodes":"53","size_leaf_vector":"1"}},{"base_weights":[1.9899937E-3,1.9604655E-1,-5.8119136E-1,-6.489196E-2,4.2828706E-1,-6.0898477E-1,-2.8833047E-2,-7.543044E-2,2.7906137E0,2.6366222E-1,7.2990996E-1,-2.9566571E-2,-4.1188404E-2,-3.4861854E-1,9.580214E-3,5.653976E0,9.550771E-1,2.565732E-1,4.4196405E0,1.1974472E0,5.634552E-1,-1.832242E-2,6.8887934E-2,1.8135252E-3,-3.923802E-2,9.5493235E-2,4.4603106E-1,2.957979E-1,-1.8236645E-2,1.1994909E-2,8.679005E-2,-2.5516147E-2,2.6631775E-1,1.0803558E-1,4.5027174E-2,1.6726112E-2,5.0529964E-2],"categories":[],"categories_nodes":[],"categories_segments":[],"categories_sizes":[],"default_left":[0,1,0,1,0,0,0,0,0,0,1,0,0,0,1,0,0,0,0,0,0,0,0,0,0,0,0,0,0,0,0,0,0,0,0,0,0],"id":24,"left_children":[1,3,5,7,9,11,-1,13,15,17,19,-1,-1,21,23,25,27,29,31,33,35,-1,-1,-1,-1,-1,-1,-1,-1,-1,-1,-1,-1,-1,-1,-1,-1],"loss_changes":[1.8266804E3,7.3396045E2,1.5625E-1,1.718592E2,3.179944E2,1.5869141E0,0E0,1.3200798E2,1.0497197E2,1.210437E2,1.753628E2,0E0,0E0,4.2028473E1,9.195679E1,8.080829E1,9.3821625E1,1.0172632E2,3.4008636E1,1.6765027E2,1.7061322E2,0E0,0E0,0E0,0E0,0E0,0E0,0E0,0E0,0E0,0E0,0E0,0E0,0E0,0E0,0E0,0E0],"parents":[2147483647,0,0,1,1,2,2,3,3,4,4,5,5,7,7,8,8,9,9,10,10,13,13,14,14,15,15,16,16,17,17,18,18,19,19,20,20],"right_children":[2,4,6,8,10,12,-1,14,16,18,20,-1,-1,22,24,26,28,30,32,34,36,-1,-1,-1,-1,-1,-1,-1,-1,-1,-1,-1,-1,-1,-1,-1,-1],"split_conditions":[2.00001E0,4.9666668E1,1.760584E-3,3.5375E-1,4.8875E0,1.35E0,-2.8833047E-2,3E0,2.5E-1,2.81E1,9.8314136E2,-2.9566571E-2,-4.1188404E-2,1.828004E-1,4.675E0,5.22E1,9E-2,5.214592E-1,3.5E0,1.0058051E-1,3.2229933E-1,-1.832242E-2,6.8887934E-2,1.8135252E-3,-3.923802E-2,9.5493235E-2,4.4603106E-1,2.957979E-1,-1.8236645E-2,1.1994909E-2,8.679005E-2,-2.5516147E-2,2.6631775E-1,1.0803558E-1,4.5027174E-2,1.6726112E-2,5.0529964E-2],"split_indices":[81,0,75,59,62,35,0,0,64,66,83,0,0,43,62,27,32,73,8,16,16,0,0,0,0,0,0,0,0,0,0,0,0,0,0,0,0],"split_type":[0,0,0,0,0,0,0,0,0,0,0,0,0,0,0,0,0,0,0,0,0,0,0,0,0,0,0,0,0,0,0,0,0,0,0,0,0],"sum_hessian":[1.6139E4,1.211E4,4.029E3,5.703E3,6.407E3,5.46E2,3.483E3,5.683E3,2E1,4.146E3,2.261E3,5.08E2,3.8E1,1.348E3,4.335E3,7E0,1.3E1,4.14E3,6E0,5.92E2,1.669E3,1.335E3,1.3E1,4.195E3,1.4E2,4E0,3E0,2E0,1.1E1,4.095E3,4.5E1,1E0,5E0,1.38E2,4.54E2,1.105E3,5.64E2],"tree_param":{"num_deleted":"0","num_feature":"85","num_nodes":"37","size_leaf_vector":"1"}},{"base_weights":[3.1344416E-3,1.8476893E-1,-5.525699E-1,-1.6330281E-2,5.165006E-1,-5.812825E-1,-2.7391989E-2,-2.610247E-1,9.338931E-2,1.1196527E0,4.283113E-1,-2.8162673E-2,-4.102735E-2,-3.9286226E-1,-7.8173324E-2,6.638849E-2,7.570989E-1,1.9469455E-1,1.4108678E0,3.8352284E-1,1.6164211E0,-2.0643534E-2,1.7723568E-2,4.924065E-3,-1.8788138E-2,5.946511E-3,-9.3181515E-3,8.112597E-2,6.889184E-3,3.174413E-3,2.336319E-1,5.2867204E-2,1.2124755E-1,8.674112E-3,2.9543778E-2,6.801789E-2,2.4686204E-1],"categories":[],"categories_nodes":[],"categories_segments":[],"categories_sizes":[],"default_left":[0,1,0,0,0,0,0,1,1,1,0,0,0,1,0,1,0,0,1,0,0,0,0,0,0,0,0,0,0,0,0,0,0,0,0,0,0],"id":25,"left_children":[1,3,5,7,9,11,-1,13,15,17,19,-1,-1,21,23,25,27,29,31,33,35,-1,-1,-1,-1,-1,-1,-1,-1,-1,-1,-1,-1,-1,-1,-1,-1],"loss_changes":[1.6262672E3,8.1007983E2,2.2045898E-1,2.0302039E2,2.432976E2,1.8887787E0,0E0,5.640303E1,9.3513756E1,1.5703253E2,2.1223444E2,0E0,0E0,2.0482346E1,5.1661285E1,6.6661224E1,1.0911392E2,8.254568E1,1.5661115E2,1.6783594E2,1.1658292E2,0E0,0E0,0E0,0E0,0E0,0E0,0E0,0E0,0E0,0E0,0E0,0E0,0E0,0E0,0E0,0E0],"parents":[2147483647,0,0,1,1,2,2,3,3,4,4,5,5,7,7,8,8,9,9,10,10,13,13,14,14,15,15,16,16,17,17,18,18,19,19,20,20],"right_children":[2,4,6,8,10,12,-1,14,16,18,20,-1,-1,22,24,26,28,30,32,34,36,-1,-1,-1,-1,-1,-1,-1,-1,-1,-1,-1,-1,-1,-1,-1,-1],"split_conditions":[2.00001E0,1.4E-1,1.760584E-3,1.7625E1,8.92788E2,2.1875E0,-2.7391989E-2,7.334258E-2,4.7125E0,1.0890411E-1,1.1143566E0,-2.8162673E-2,-4.102735E-2,7.097143E-1,1.1028136E3,1.1723721E3,1.2053572E0,6.7164177E-1,2.2E-1,1E0,4.185E1,-2.0643534E-2,1.7723568E-2,4.924065E-3,-1.8788138E-2,5.946511E-3,-9.3181515E-3,8.112597E-2,6.889184E-3,3.174413E-3,2.336319E-1,5.2867204E-2,1.2124755E-1,8.674112E-3,2.9543778E-2,6.801789E-2,2.4686204E-1],"split_indices":[81,61,75,54,84,62,0,23,62,46,15,0,0,73,84,84,49,72,20,81,67,0,0,0,0,0,0,0,0,0,0,0,0,0,0,0,0],"split_type":[0,0,0,0,0,0,0,0,0,0,0,0,0,0,0,0,0,0,0,0,0,0,0,0,0,0,0,0,0,0,0,0,0,0,0,0,0],"sum_hessian":[1.611E4,1.2142E4,3.968E3,7.56E3,4.582E3,5.44E2,3.424E3,2.34E3,5.22E3,5.83E2,3.999E3,5.09E2,3.5E1,1.359E3,9.81E2,5.017E3,2.03E2,1.4E2,4.43E2,3.855E3,1.44E2,1.324E3,3.5E1,6.16E2,3.65E2,4.154E3,8.63E2,8.4E1,1.19E2,1.37E2,3E0,3.3E2,1.13E2,1.916E3,1.939E3,1.35E2,9E0],"tree_param":{"num_deleted":"0","num_feature":"85","num_nodes":"37","size_leaf_vector":"1"}},{"base_weights":[-1.534999E-2,1.8302265E-1,-4.4011647E-1,6.4300015E-3,5.4924685E-1,-5.193121E-1,-2.741607E-1,-2.2641845E-1,1.3811557E-1,1.922005E0,4.8394626E-1,-5.2027774E-1,7.083469E-2,4.6349996E-1,-3.6981994E-1,-4.8044205E-1,-1.5753561E-1,1.2903647E-1,2.651311E0,1.3283788E0,3.4838123E0,4.6357897E-1,3.3415148E0,-5.097991E-1,-6.7900634E-1,-2.5463176E-1,9.6145487E-1,-2.6677487E-2,-5.351379E-1,4.0403884E-2,-2.4547866E-2,-8.848064E-3,4.013486E-2,1.1451035E-2,-2.722271E-3,2.6324913E-1,-4.7359623E-2,1.3225463E-1,3.6270272E-2,2.313669E-1,-7.386904E-2,3.7681968E-3,2.8136242E-2,9.7046874E-2,4.9295837E-1,-2.5650451E-2,4.2977195E-2,-5.505078E-2,-2.9610619E-2,-2.2083912E-2,1.0473569E-1,1.4030916E-2,1.075113E-1,-7.1860985E-3,3.9653927E-2,-2.7105108E-2,9.70727E-2],"categories":[],"categories_nodes":[],"categories_segments":[],"categories_sizes":[],"default_left":[0,1,1,1,0,1,0,0,0,0,0,0,0,0,0,0,1,0,0,0,0,0,0,0,0,0,0,0,0,0,0,0,0,0,0,0,0,0,0,0,0,0,0,0,0,0,0,0,0,0,0,0,0,0,0,0,0],"id":26,"left_children":[1,3,5,7,9,11,13,15,17,19,21,23,-1,25,27,29,31,33,35,37,39,41,43,45,47,49,51,53,55,-1,-1,-1,-1,-1,-1,-1,-1,-1,-1,-1,-1,-1,-1,-1,-1,-1,-1,-1,-1,-1,-1,-1,-1,-1,-1,-1,-1],"loss_changes":[1.3583848E3,7.106825E2,6.7307434E1,2.2739578E2,3.1953955E2,7.2297974E0,1.17307724E2,4.6801086E1,1.07744644E2,1.455672E2,1.9714923E2,5.42865E0,0E0,6.854588E1,8.3375305E1,8.133301E0,3.9481525E1,8.6620605E1,1.6487717E2,9.2560486E1,2.5645935E2,1.3047687E2,1.9994739E2,1.4774475E1,7.11306E0,3.5640694E1,9.0854164E1,4.6073036E1,1.816217E1,0E0,0E0,0E0,0E0,0E0,0E0,0E0,0E0,0E0,0E0,0E0,0E0,0E0,0E0,0E0,0E0,0E0,0E0,0E0,0E0,0E0,0E0,0E0,0E0,0E0,0E0,0E0,0E0],"parents":[2147483647,0,0,1,1,2,2,3,3,4,4,5,5,6,6,7,7,8,8,9,9,10,10,11,11,13,13,14,14,15,15,16,16,17,17,18,18,19,19,20,20,21,21,22,22,23,23,24,24,25,25,26,26,27,27,28,28],"right_children":[2,4,6,8,10,12,14,16,18,20,22,24,-1,26,28,30,32,34,36,38,40,42,44,46,48,50,52,54,56,-1,-1,-1,-1,-1,-1,-1,-1,-1,-1,-1,-1,-1,-1,-1,-1,-1,-1,-1,-1,-1,-1,-1,-1,-1,-1,-1,-1],"split_conditions":[1.3226182E3,8.333333E-1,3.3E1,6.0933335E-3,7.4127954E2,5.435697E-1,2.4375E-4,1E0,8.1E0,2.2333334E1,1.1E1,7.3333335E0,7.083469E-2,2.8125E0,1.3578625E3,2E0,1.2226415E0,1.1103073E3,1.0778443E0,1.5679443E0,6.84066E-1,5.6E-2,1.011236E0,2.04E1,1.4453185E3,4.7584534E-1,1.72E1,8.6125E1,5.6333332E1,4.0403884E-2,-2.4547866E-2,-8.848064E-3,4.013486E-2,1.1451035E-2,-2.722271E-3,2.6324913E-1,-4.7359623E-2,1.3225463E-1,3.6270272E-2,2.313669E-1,-7.386904E-2,3.7681968E-3,2.8136242E-2,9.7046874E-2,4.9295837E-1,-2.5650451E-2,4.2977195E-2,-5.505078E-2,-2.9610619E-2,-2.2083912E-2,1.0473569E-1,1.4030916E-2,1.075113E-1,-7.1860985E-3,3.9653927E-2,-2.7105108E-2,9.70727E-2],"split_indices":[83,68,0,6,82,16,61,54,35,11,2,11,0,25,82,53,75,82,17,76,34,33,71,38,84,15,38,54,11,0,0,0,0,0,0,0,0,0,0,0,0,0,0,0,0,0,0,0,0,0,0,0,0,0,0,0,0],"split_type":[0,0,0,0,0,0,0,0,0,0,0,0,0,0,0,0,0,0,0,0,0,0,0,0,0,0,0,0,0,0,0,0,0,0,0,0,0,0,0,0,0,0,0,0,0,0,0,0,0,0,0,0,0,0,0,0,0],"sum_hessian":[1.6119E4,1.0988E4,5.131E3,7.414E3,3.574E3,3.472E3,1.659E3,2.678E3,4.736E3,1.61E2,3.413E3,3.471E3,1E0,1.9E2,1.469E3,5.7E2,2.108E3,4.72E3,1.6E1,1.18E2,4.3E1,3.39E3,2.3E1,3.26E3,2.11E2,7.8E1,1.12E2,4.78E2,9.91E2,4E0,5.66E2,2.067E3,4.1E1,3.055E3,1.665E3,9E0,7E0,3.6E1,8.2E1,3.5E1,8E0,6.9E2,2.7E3,2E1,3E0,3.253E3,7E0,3.4E1,1.77E2,7.3E1,5E0,7.2E1,4E1,4.19E2,5.9E1,9.89E2,2E0],"tree_param":{"num_deleted":"0","num_feature":"85","num_nodes":"57","size_leaf_vector":"1"}},{"base_weights":[-4.4791386E-3,1.9563562E-1,-4.1752696E-1,-1.8595241E-2,5.1566553E-1,-1.7653823E-1,-4.987049E-1,-2.878256E-1,7.179304E-2,3.8157624E-1,9.6850586E-1,2.9590726E-1,-2.9107937E-1,-5.2482766E-1,-2.4725651E-2,-2.019094E-1,-4.34414E-1,3.0164966E-2,5.4388636E-1,1.2828646E0,3.2870534E-1,1.099735E0,-8.4627765E-1,6.594582E-2,1.3692935E0,-3.4918877E-1,5.8837533E-1,-2.5386741E-2,-3.637209E-2,-1.2710283E-2,1.256287E-2,-6.9700065E-3,-2.372413E-2,1.2126346E-3,2.229179E-1,2.273026E-2,2.4141796E-1,2.5236448E-2,1.0954263E-1,5.7626348E-2,1.4014845E-2,-2.1554746E-2,6.219059E-2,-8.0657884E-2,4.7344483E-2,4.080283E-4,1.5632622E-1,1.804173E-1,3.235513E-2,-1.8820152E-2,5.0768763E-2,2.1015182E-1,8.196635E-3],"categories":[],"categories_nodes":[],"categories_segments":[],"categories_sizes":[],"default_left":[0,1,0,0,0,0,0,0,1,0,0,0,1,0,0,0,0,1,0,0,0,0,0,1,0,1,0,0,0,0,0,0,0,0,0,0,0,0,0,0,0,0,0,0,0,0,0,0,0,0,0,0,0],"id":27,"left_children":[1,3,5,7,9,11,13,15,17,19,21,23,25,27,-1,29,31,33,35,37,39,41,43,45,47,49,51,-1,-1,-1,-1,-1,-1,-1,-1,-1,-1,-1,-1,-1,-1,-1,-1,-1,-1,-1,-1,-1,-1,-1,-1,-1,-1],"loss_changes":[1.3402816E3,7.4889355E2,1.0343921E2,1.5927069E2,2.6558862E2,7.232892E1,1.7388916E-1,2.0629944E1,9.628003E1,1.6068945E2,2.3908325E2,6.4334274E1,5.514289E1,1.469635E0,0E0,2.468705E1,7.10907E0,1.178097E2,1.4966663E2,1.3101678E2,1.2709335E2,2.063158E2,9.503728E1,3.817545E1,7.204811E1,3.7851967E1,1.0210347E2,0E0,0E0,0E0,0E0,0E0,0E0,0E0,0E0,0E0,0E0,0E0,0E0,0E0,0E0,0E0,0E0,0E0,0E0,0E0,0E0,0E0,0E0,0E0,0E0,0E0,0E0],"parents":[2147483647,0,0,1,1,2,2,3,3,4,4,5,5,6,6,7,7,8,8,9,9,10,10,11,11,12,12,13,13,15,15,16,16,17,17,18,18,19,19,20,20,21,21,22,22,23,23,24,24,25,25,26,26],"right_children":[2,4,6,8,10,12,14,16,18,20,22,24,26,28,-1,30,32,34,36,38,40,42,44,46,48,50,52,-1,-1,-1,-1,-1,-1,-1,-1,-1,-1,-1,-1,-1,-1,-1,-1,-1,-1,-1,-1,-1,-1,-1,-1,-1,-1],"split_conditions":[1.2821749E3,8.25E0,2.00001E0,4E-3,2.125E1,5.0561796E-3,1.760584E-3,8.359942E-2,8.375E1,7.526218E2,6.451613E-1,3.8781738E-1,1.9625E-1,6.625E0,-2.4725651E-2,4.2362247E-2,1.2776025E-1,1.2E0,8.166667E0,3.427283E-1,8.858856E2,8.08E0,7.625E1,8.737864E-1,8.4375E-1,4.8E-1,1.8625E1,-2.5386741E-2,-3.637209E-2,-1.2710283E-2,1.256287E-2,-6.9700065E-3,-2.372413E-2,1.2126346E-3,2.229179E-1,2.273026E-2,2.4141796E-1,2.5236448E-2,1.0954263E-1,5.7626348E-2,1.4014845E-2,-2.1554746E-2,6.219059E-2,-8.0657884E-2,4.7344483E-2,4.080283E-4,1.5632622E-1,1.804173E-1,3.235513E-2,-1.8820152E-2,5.0768763E-2,2.1015182E-1,8.196635E-3],"split_indices":[84,65,81,33,65,75,75,74,54,82,72,69,60,65,0,74,48,37,8,42,83,40,54,17,49,61,67,0,0,0,0,0,0,0,0,0,0,0,0,0,0,0,0,0,0,0,0,0,0,0,0,0,0],"split_type":[0,0,0,0,0,0,0,0,0,0,0,0,0,0,0,0,0,0,0,0,0,0,0,0,0,0,0,0,0,0,0,0,0,0,0,0,0,0,0,0,0,0,0,0,0,0,0,0,0,0,0,0,0],"sum_hessian":[1.6213E4,1.0922E4,5.291E3,6.543E3,4.379E3,1.334E3,3.957E3,1.644E3,4.899E3,3.38E3,9.99E2,2.6E2,1.074E3,5.3E2,3.427E3,1.038E3,6.06E2,4.503E3,3.96E2,1.86E2,3.194E3,9.32E2,6.7E1,2.15E2,4.5E1,1.008E3,6.6E1,4.92E2,3.8E1,9.31E2,1.07E2,7.3E1,5.33E2,4.498E3,5E0,3.89E2,7E0,1.01E2,8.5E1,1.76E2,3.018E3,8E1,8.52E2,4.7E1,2E1,2.12E2,3E0,1E1,3.5E1,9.89E2,1.9E1,6E0,6E1],"tree_param":{"num_deleted":"0","num_feature":"85","num_nodes":"53","size_leaf_vector":"1"}},{"base_weights":[-1.5285382E-2,1.349365E-1,-4.740908E-1,-1.7646307E-1,2.884321E-1,-5.0041306E-1,-2.3488006E-2,-1.8552843E-1,2.8517144E0,1.19023494E-1,4.97872E-1,-2.4133466E-2,-3.4120057E-2,2.9132384E-1,-2.1330613E-1,4.589724E0,-4.9944377E-1,1.09837644E-1,2.067318E0,1.1673737E0,4.062965E-1,-9.543343E-4,8.892646E-2,-1.1962821E-2,1.497998E-2,2.7290854E-1,-3.723501E-2,-4.9909458E-2,8.2891425E-3,6.905701E-3,-1.988428E-2,2.428555E-2,3.5156593E-1,8.567982E-2,2.8568704E-2,1.73622E-2,7.807426E-2],"categories":[],"categories_nodes":[],"categories_segments":[],"categories_sizes":[],"default_left":[0,1,0,1,0,0,0,1,0,0,0,0,0,1,1,0,0,0,0,0,0,0,0,0,0,0,0,0,0,0,0,0,0,0,0,0,0],"id":28,"left_children":[1,3,5,7,9,11,-1,13,15,17,19,-1,-1,21,23,25,27,29,31,33,35,-1,-1,-1,-1,-1,-1,-1,-1,-1,-1,-1,-1,-1,-1,-1,-1],"loss_changes":[1.1082018E3,5.790337E2,2.1710205E-1,1.1033498E2,2.8783295E2,1.4304962E0,0E0,5.2899902E1,7.2184456E1,8.007562E1,2.2195819E2,0E0,0E0,1.01595665E2,5.0250534E1,4.112599E1,1.824376E0,6.416049E1,1.6145786E2,1.4096002E2,2.1727393E2,0E0,0E0,0E0,0E0,0E0,0E0,0E0,0E0,0E0,0E0,0E0,0E0,0E0,0E0,0E0,0E0],"parents":[2147483647,0,0,1,1,2,2,3,3,4,4,5,5,7,7,8,8,9,9,10,10,13,13,14,14,15,15,16,16,17,17,18,18,19,19,20,20],"right_children":[2,4,6,8,10,12,-1,14,16,18,20,-1,-1,22,24,26,28,30,32,34,36,-1,-1,-1,-1,-1,-1,-1,-1,-1,-1,-1,-1,-1,-1,-1,-1],"split_conditions":[2.00001E0,2.8666666E1,1.760584E-3,2.0125E-1,1.0125E1,6.125E0,-2.3488006E-2,7.4127954E2,1.6709633E-1,1.5168539E0,8.92788E2,-2.4133466E-2,-3.4120057E-2,1.9148936E0,1.1368421E0,2.5E0,5E-1,2.4848485E-1,8.25E-2,1.46E1,8.588371E-1,-9.543343E-4,8.892646E-2,-1.1962821E-2,1.497998E-2,2.7290854E-1,-3.723501E-2,-4.9909458E-2,8.2891425E-3,6.905701E-3,-1.988428E-2,2.428555E-2,3.5156593E-1,8.567982E-2,2.8568704E-2,1.73622E-2,7.807426E-2],"split_indices":[81,0,75,60,65,65,0,82,43,18,84,0,0,22,48,11,2,73,59,36,69,0,0,0,0,0,0,0,0,0,0,0,0,0,0,0,0],"split_type":[0,0,0,0,0,0,0,0,0,0,0,0,0,0,0,0,0,0,0,0,0,0,0,0,0,0,0,0,0,0,0,0,0,0,0,0,0],"sum_hessian":[1.6077E4,1.2112E4,3.965E3,3.999E3,8.113E3,5.44E2,3.421E3,3.988E3,1.1E1,4.486E3,3.627E3,4.99E2,4.5E1,2.19E2,3.769E3,7E0,4E0,4.466E3,2E1,4.35E2,3.192E3,1.82E2,3.7E1,3.588E3,1.81E2,6E0,1E0,2E0,2E0,4.231E3,2.35E2,1.6E1,4E0,2.26E2,2.09E2,3.038E3,1.54E2],"tree_param":{"num_deleted":"0","num_feature":"85","num_nodes":"37","size_leaf_vector":"1"}},{"base_weights":[-4.6954234E-3,1.4080107E-1,-4.5002604E-1,-1.1995131E-1,3.2454798E-1,-4.7328418E-1,-2.231824E-2,-2.0633742E-1,1.06077194E-1,2.4817944E-1,7.261014E-1,-2.2940973E-2,-3.4449305E-2,-1.6241916E-1,-4.294702E-1,7.769304E-2,1.2059735E0,3.5559955E-1,7.3078506E-2,2.8746024E-1,1.024781E0,-8.641186E-3,4.118058E-2,-2.2135971E-2,8.260143E-2,4.058272E-2,1.5288066E-3,-1.5675312E-2,1.2510179E-1,1.5442452E-2,6.45357E-2,-8.8920904E-4,3.361742E-2,-1.7089186E-2,3.664445E-2,4.907359E-2,4.0439126E-1],"categories":[],"categories_nodes":[],"categories_segments":[],"categories_sizes":[],"default_left":[0,1,0,0,0,0,0,0,1,1,0,0,0,0,1,0,0,0,0,0,0,0,0,0,0,0,0,0,0,0,0,0,0,0,0,0,0],"id":29,"left_children":[1,3,5,7,9,11,-1,13,15,17,19,-1,-1,21,23,25,27,29,31,33,35,-1,-1,-1,-1,-1,-1,-1,-1,-1,-1,-1,-1,-1,-1,-1,-1],"loss_changes":[1.0477183E3,5.8399585E2,1.2786865E-1,9.8412E1,2.1908209E2,1.3219147E0,0E0,3.5659622E1,4.342646E1,1.1299945E2,1.4932245E2,0E0,0E0,3.1412445E1,1.7250732E1,4.7006683E1,6.97113E1,1.6240381E2,1.2448755E2,1.3030196E2,1.997641E2,0E0,0E0,0E0,0E0,0E0,0E0,0E0,0E0,0E0,0E0,0E0,0E0,0E0,0E0,0E0,0E0],"parents":[2147483647,0,0,1,1,2,2,3,3,4,4,5,5,7,7,8,8,9,9,10,10,13,13,14,14,15,15,16,16,17,17,18,18,19,19,20,20],"right_children":[2,4,6,8,10,12,-1,14,16,18,20,-1,-1,22,24,26,28,30,32,34,36,-1,-1,-1,-1,-1,-1,-1,-1,-1,-1,-1,-1,-1,-1,-1,-1],"split_conditions":[2.00001E0,4.5E0,1.760584E-3,2E0,2.125E1,1.4666667E0,-2.231824E-2,4.525E-1,2.304E1,1.09532E3,1.25E0,-2.2940973E-2,-3.4449305E-2,1.2226415E0,2.885416E0,4.032396E-2,1.0550751E3,2.6E1,2.5E-1,4.5412654E-1,8.29272E-1,-8.641186E-3,4.118058E-2,-2.2135971E-2,8.260143E-2,4.058272E-2,1.5288066E-3,-1.5675312E-2,1.2510179E-1,1.5442452E-2,6.45357E-2,-8.8920904E-4,3.361742E-2,-1.7089186E-2,3.664445E-2,4.907359E-2,4.0439126E-1],"split_indices":[81,65,75,2,65,8,0,74,39,83,68,0,0,75,78,15,83,11,31,15,51,0,0,0,0,0,0,0,0,0,0,0,0,0,0,0,0],"split_type":[0,0,0,0,0,0,0,0,0,0,0,0,0,0,0,0,0,0,0,0,0,0,0,0,0,0,0,0,0,0,0,0,0,0,0,0,0],"sum_hessian":[1.6168E4,1.2187E4,3.981E3,5.038E3,7.149E3,5.24E2,3.457E3,3.645E3,1.393E3,6.008E3,1.141E3,4.94E2,3E1,3.047E3,5.98E2,1.359E3,3.4E1,3.723E3,2.285E3,4.63E2,6.78E2,3.016E3,3.1E1,5.95E2,3E0,8.1E1,1.278E3,1.6E1,1.8E1,3.547E3,1.76E2,1.985E3,3E2,1.92E2,2.71E2,6.75E2,3E0],"tree_param":{"num_deleted":"0","num_feature":"85","num_nodes":"37","size_leaf_vector":"1"}},{"base_weights":[1.0699517E-4,1.7360544E-1,-3.585598E-1,-5.916672E-2,3.9300615E-1,-1.4769477E-1,-4.2776415E-1,-2.5404653E-1,3.1847764E-2,3.0145305E-1,8.702516E-1,3.2376322E-1,-2.6115304E-1,-4.507032E-1,-2.120063E-2,-3.497225E-1,-1.7390504E-2,1.42108025E-2,9.616563E-1,1.3569993E-1,4.686357E-1,4.629426E-1,1.3213091E0,1.9246988E-1,2.732835E0,-3.2732993E-1,2.4963763E-1,-2.1891627E-2,-3.2766957E-2,-1.2109585E-2,-2.3458717E-2,-3.8181301E-3,1.0648122E-1,2.1867845E-4,1.16086714E-1,9.6824735E-2,-3.250348E-2,5.195666E-2,2.0513649E-3,2.6318023E-2,-2.1429265E-2,1.8379341E-1,1.7146839E-2,6.152416E-2,3.744588E-1,4.3565263E-3,1.308548E-1,2.213366E-1,3.2426663E-2,-1.1983853E-2,-4.1220367E-2,1.395937E-1,-4.1111503E-3],"categories":[],"categories_nodes":[],"categories_segments":[],"categories_sizes":[],"default_left":[0,1,0,0,0,0,0,1,1,0,0,0,1,0,0,0,0,1,0,0,0,0,0,0,0,1,0,0,0,0,0,0,0,0,0,0,0,0,0,0,0,0,0,0,0,0,0,0,0,0,0,0,0],"id":30,"left_children":[1,3,5,7,9,11,13,15,17,19,21,23,25,27,-1,29,31,33,35,37,39,41,43,45,47,49,51,-1,-1,-1,-1,-1,-1,-1,-1,-1,-1,-1,-1,-1,-1,-1,-1,-1,-1,-1,-1,-1,-1,-1,-1,-1,-1],"loss_changes":[1.00454865E3,5.5566895E2,7.673865E1,9.3658844E1,2.4446387E2,6.972958E1,1.4978027E-1,3.805562E1,5.902272E1,1.3020609E2,1.6491986E2,7.949667E1,3.5574387E1,1.1379623E0,0E0,1.5261536E1,6.1570396E1,8.021039E1,1.0652739E2,2.0198018E2,1.2141852E2,1.8188506E2,2.2999084E2,6.1325428E1,4.302681E1,4.0322754E1,1.02313416E2,0E0,0E0,0E0,0E0,0E0,0E0,0E0,0E0,0E0,0E0,0E0,0E0,0E0,0E0,0E0,0E0,0E0,0E0,0E0,0E0,0E0,0E0,0E0,0E0,0E0,0E0],"parents":[2147483647,0,0,1,1,2,2,3,3,4,4,5,5,6,6,7,7,8,8,9,9,10,10,11,11,12,12,13,13,15,15,16,16,17,17,18,18,19,19,20,20,21,21,22,22,23,23,24,24,25,25,26,26],"right_children":[2,4,6,8,10,12,14,16,18,20,22,24,26,28,-1,30,32,34,36,38,40,42,44,46,48,50,52,-1,-1,-1,-1,-1,-1,-1,-1,-1,-1,-1,-1,-1,-1,-1,-1,-1,-1,-1,-1,-1,-1,-1,-1,-1,-1],"split_conditions":[1.2821749E3,8.3333336E-2,2.00001E0,2.5E0,3.75E-1,5.0561796E-3,1.760584E-3,1.2086387E-1,5.6625E0,1E0,1E0,3.7333332E1,5.9875E0,1.4666667E0,-2.120063E-2,9.756615E2,1.2226415E0,1.88E-1,4.5E0,7.717777E2,6.1120546E-1,1.3322663E-2,8.0243E-1,3E0,9.538568E-2,4.5412654E-1,2.231405E0,-2.1891627E-2,-3.2766957E-2,-1.2109585E-2,-2.3458717E-2,-3.8181301E-3,1.0648122E-1,2.1867845E-4,1.16086714E-1,9.6824735E-2,-3.250348E-2,5.195666E-2,2.0513649E-3,2.6318023E-2,-2.1429265E-2,1.8379341E-1,1.7146839E-2,6.152416E-2,3.744588E-1,4.3565263E-3,1.308548E-1,2.213366E-1,3.2426663E-2,-1.1983853E-2,-4.1220367E-2,1.395937E-1,-4.1111503E-3],"split_indices":[84,7,81,63,61,75,75,23,62,81,81,11,62,8,0,82,75,33,29,82,71,16,78,76,70,15,25,0,0,0,0,0,0,0,0,0,0,0,0,0,0,0,0,0,0,0,0,0,0,0,0,0,0],"split_type":[0,0,0,0,0,0,0,0,0,0,0,0,0,0,0,0,0,0,0,0,0,0,0,0,0,0,0,0,0,0,0,0,0,0,0,0,0,0,0,0,0,0,0,0,0,0,0,0,0,0,0,0,0],"sum_hessian":[1.6141E4,1.0879E4,5.262E3,5.279E3,5.6E3,1.301E3,3.961E3,1.68E3,3.599E3,4.7E3,9E2,2.52E2,1.049E3,5.4E2,3.421E3,1.196E3,4.84E2,3.533E3,6.6E1,2.361E3,2.339E3,4.74E2,4.26E2,2.4E2,1.2E1,9.29E2,1.2E2,5.11E2,2.9E1,6.31E2,5.65E2,4.72E2,1.2E1,3.519E3,1.4E1,4.1E1,2.5E1,2.23E2,2.138E3,2.198E3,1.41E2,1.6E1,4.58E2,4.21E2,5E0,2.31E2,9E0,6E0,6E0,7.91E2,1.38E2,1.3E1,1.07E2],"tree_param":{"num_deleted":"0","num_feature":"85","num_nodes":"53","size_leaf_vector":"1"}},{"base_weights":[-5.1263126E-4,1.6528873E-1,-3.152496E-1,-3.6189236E-2,3.5533962E-1,-3.5758546E-1,-7.420683E-2,-4.9596284E-2,1.4819949E0,2.801147E-1,8.0220604E-1,-3.69696E-1,1.5562859E-1,7.1182954E-1,-1.9712636E-1,-2.4625641E-1,4.1875966E-2,3.9690608E-1,4.432914E0,3.6411005E-1,-1.3202974E-1,6.467363E-1,2.2632897E0,-3.7403736E-1,3.8459945E-1,-4.4047108E-1,8.7975764E-1,2.68786E0,3.819487E-1,-3.7283555E-1,1.755906E-1,-5.6784963E-3,-2.0952035E-2,-5.791231E-3,6.3693183E-3,1.05680384E-1,-2.5801053E-2,2.4968186E-1,-4.3376084E-2,1.4823464E-2,5.7029307E-2,-8.734742E-3,2.7359954E-1,8.063335E-2,2.054389E-2,1.6187717E-1,1.513376E-2,-1.8846294E-2,6.666253E-2,1.3305588E-1,-1.962771E-2,-5.4436564E-3,-2.9394373E-2,-2.3405325E-2,6.588588E-2,-5.0770845E-3,1.9825006E-1,-4.0384077E-2,5.91002E-2,8.385984E-2,-1.9443754E-2,-9.2643965E-4,9.701754E-2],"categories":[],"categories_nodes":[],"categories_segments":[],"categories_sizes":[],"default_left":[0,1,0,1,0,0,0,0,0,0,0,0,1,0,1,0,0,0,0,0,0,0,0,0,0,0,0,0,0,0,1,0,0,0,0,0,0,0,0,0,0,0,0,0,0,0,0,0,0,0,0,0,0,0,0,0,0,0,0,0,0,0,0],"id":31,"left_children":[1,3,5,7,9,11,13,15,17,19,21,23,25,27,29,31,33,35,37,39,41,43,45,47,49,51,53,55,57,59,61,-1,-1,-1,-1,-1,-1,-1,-1,-1,-1,-1,-1,-1,-1,-1,-1,-1,-1,-1,-1,-1,-1,-1,-1,-1,-1,-1,-1,-1,-1,-1,-1],"loss_changes":[8.4302954E2,4.0517062E2,5.6854736E1,1.0463389E2,1.8281158E2,2.9524231E1,8.072074E1,9.1628006E1,1.4233093E2,1.6143823E2,1.7662521E2,1.5312134E1,4.7869347E1,7.263294E1,4.73491E1,3.702397E1,4.6902233E1,5.4376266E1,3.9997025E1,2.0307733E2,1.898418E2,1.6109174E2,1.4228024E2,2.3217163E1,4.8813156E1,2.9178572E0,3.0132359E1,5.7401962E1,9.422813E1,1.6797066E1,7.951317E1,0E0,0E0,0E0,0E0,0E0,0E0,0E0,0E0,0E0,0E0,0E0,0E0,0E0,0E0,0E0,0E0,0E0,0E0,0E0,0E0,0E0,0E0,0E0,0E0,0E0,0E0,0E0,0E0,0E0,0E0,0E0,0E0],"parents":[2147483647,0,0,1,1,2,2,3,3,4,4,5,5,6,6,7,7,8,8,9,9,10,10,11,11,12,12,13,13,14,14,15,15,16,16,17,17,18,18,19,19,20,20,21,21,22,22,23,23,24,24,25,25,26,26,27,27,28,28,29,29,30,30],"right_children":[2,4,6,8,10,12,14,16,18,20,22,24,26,28,30,32,34,36,38,40,42,44,46,48,50,52,54,56,58,60,62,-1,-1,-1,-1,-1,-1,-1,-1,-1,-1,-1,-1,-1,-1,-1,-1,-1,-1,-1,-1,-1,-1,-1,-1,-1,-1,-1,-1,-1,-1,-1,-1],"split_conditions":[1.2107415E3,8.3333336E-2,1.26E1,2.1666666E1,2.6E1,8.3375E1,5.0225805E-2,2.5E0,3.4915423E-1,3.7762237E-1,8.947497E-1,2.0125E-1,1.2694851E3,3.6153632E-1,1.322346E3,9.9001227E2,2.9508197E0,1E0,3.38E1,2E1,1.4592569E0,1.2725E1,2.64E-1,1E0,1.5896073E3,4.6E0,1.65566E-1,8.5E0,5.2969253E-1,4.2E-2,5.252918E-1,-5.6784963E-3,-2.0952035E-2,-5.791231E-3,6.3693183E-3,1.05680384E-1,-2.5801053E-2,2.4968186E-1,-4.3376084E-2,1.4823464E-2,5.7029307E-2,-8.734742E-3,2.7359954E-1,8.063335E-2,2.054389E-2,1.6187717E-1,1.513376E-2,-1.8846294E-2,6.666253E-2,1.3305588E-1,-1.962771E-2,-5.4436564E-3,-2.9394373E-2,-2.3405325E-2,6.588588E-2,-5.0770845E-3,1.9825006E-1,-4.0384077E-2,5.91002E-2,8.385984E-2,-1.9443754E-2,-9.2643965E-4,9.701754E-2],"split_indices":[84,7,38,65,11,54,73,63,78,71,69,60,83,77,82,82,79,49,38,65,51,66,33,37,83,38,78,9,77,32,72,0,0,0,0,0,0,0,0,0,0,0,0,0,0,0,0,0,0,0,0,0,0,0,0,0,0,0,0,0,0,0,0],"split_type":[0,0,0,0,0,0,0,0,0,0,0,0,0,0,0,0,0,0,0,0,0,0,0,0,0,0,0,0,0,0,0,0,0,0,0,0,0,0,0,0,0,0,0,0,0,0,0,0,0,0,0,0,0,0,0,0,0,0,0,0,0,0,0],"sum_hessian":[1.6153E4,1.058E4,5.573E3,5.136E3,5.444E3,4.74E3,8.33E2,5.092E3,4.4E1,4.661E3,7.83E2,4.631E3,1.09E2,1.12E2,7.21E2,1.616E3,3.476E3,3.3E1,1.1E1,3.872E3,7.89E2,7.09E2,7.4E1,4.605E3,2.6E1,6E1,4.9E1,1.5E1,9.7E1,4.9E2,2.31E2,9.15E2,7.01E2,1.222E3,2.254E3,1.1E1,2.2E1,1E1,1E0,3.563E3,3.09E2,7.84E2,5E0,1.38E2,5.71E2,4.9E1,2.5E1,4.598E3,7E0,6E0,2E1,1.9E1,4.1E1,1.2E1,3.7E1,5E0,1E1,3.9E1,5.8E1,3E0,4.87E2,2.09E2,2.2E1],"tree_param":{"num_deleted":"0","num_feature":"85","num_nodes":"63","size_leaf_vector":"1"}},{"base_weights":[8.57025E-3,1.6741462E-1,-3.195019E-1,7.144014E-2,5.994584E-1,-1.1066703E-1,-3.8746795E-1,-1.8303221E-1,1.7023113E-1,5.422789E-1,2.0992422E0,1.659649E-1,-2.882605E-1,-4.078145E-1,-1.9200489E-2,-9.928163E-2,-3.889412E-1,-2.890075E-3,3.4281224E-1,1.2373046E0,4.409869E-1,5.2126465E0,1.2578578E0,1.06434196E-1,2.829759E0,-3.9565513E-1,1.5504508E-1,-3.9680067E-1,-3.1359907E-2,-6.3675656E-3,7.374589E-2,-2.048349E-2,1.3223721E-1,-3.1725075E-3,2.3164093E-2,1.6540593E-2,2.068926E-1,5.3243298E-2,3.4247798E-1,5.8232816E-3,3.8132064E-2,3.4656185E-1,1.9460926E-2,-1.5404443E-2,1.4172141E-1,2.108887E-3,1.2428107E-1,1.8307824E-1,-3.0445585E-2,-2.3106636E-2,1.4877709E-2,2.6354048E-2,-4.7774937E-2,-1.9655874E-2,-2.4913816E-2],"categories":[],"categories_nodes":[],"categories_segments":[],"categories_sizes":[],"default_left":[0,1,0,0,0,0,0,0,0,0,0,0,1,0,0,0,0,1,1,0,0,0,0,0,0,1,0,0,0,0,0,0,0,0,0,0,0,0,0,0,0,0,0,0,0,0,0,0,0,0,0,0,0,0,0],"id":32,"left_children":[1,3,5,7,9,11,13,15,17,19,21,23,25,27,-1,29,31,33,35,37,39,41,43,45,47,49,51,53,-1,-1,-1,-1,-1,-1,-1,-1,-1,-1,-1,-1,-1,-1,-1,-1,-1,-1,-1,-1,-1,-1,-1,-1,-1,-1,-1],"loss_changes":[8.3833386E2,4.493983E2,7.4445496E1,2.2301921E2,1.6780273E2,6.3422985E1,1.2200928E-1,4.2746223E1,1.909179E2,1.3314502E2,1.820523E2,7.978047E1,3.7481735E1,1.1018066E0,0E0,7.8178375E1,4.6171326E1,9.011582E1,1.443653E2,2.2593863E2,1.7308371E2,1.21644684E2,1.4406511E2,7.556984E1,3.3692932E1,2.9307991E1,6.41306E1,4.0740967E-3,0E0,0E0,0E0,0E0,0E0,0E0,0E0,0E0,0E0,0E0,0E0,0E0,0E0,0E0,0E0,0E0,0E0,0E0,0E0,0E0,0E0,0E0,0E0,0E0,0E0,0E0,0E0],"parents":[2147483647,0,0,1,1,2,2,3,3,4,4,5,5,6,6,7,7,8,8,9,9,10,10,11,11,12,12,13,13,15,15,16,16,17,17,18,18,19,19,20,20,21,21,22,22,23,23,24,24,25,25,26,26,27,27],"right_children":[2,4,6,8,10,12,14,16,18,20,22,24,26,28,-1,30,32,34,36,38,40,42,44,46,48,50,52,54,-1,-1,-1,-1,-1,-1,-1,-1,-1,-1,-1,-1,-1,-1,-1,-1,-1,-1,-1,-1,-1,-1,-1,-1,-1,-1,-1],"split_conditions":[1.2821749E3,2.9E-1,2.00001E0,6.666667E-3,6.666667E-1,1.1E-1,1.760584E-3,3.3707866E-1,1E0,8.898413E2,2.1E1,3.6666668E1,1.3125E-1,2.3125E0,-1.9200489E-2,1.5625E-1,2.2333334E1,3.7707895E-1,8.475E0,9.5E0,1E0,1.081236E3,3.72E1,8.65E1,6.392568E-1,5.758147E-1,6.553398E0,1.3333334E0,-3.1359907E-2,-6.3675656E-3,7.374589E-2,-2.048349E-2,1.3223721E-1,-3.1725075E-3,2.3164093E-2,1.6540593E-2,2.068926E-1,5.3243298E-2,3.4247798E-1,5.8232816E-3,3.8132064E-2,3.4656185E-1,1.9460926E-2,-1.5404443E-2,1.4172141E-1,2.108887E-3,1.2428107E-1,1.8307824E-1,-3.0445585E-2,-2.3106636E-2,1.4877709E-2,2.6354048E-2,-4.7774937E-2,-1.9655874E-2,-2.4913816E-2],"split_indices":[84,7,81,6,57,21,75,71,81,84,36,11,60,62,0,59,9,16,62,2,81,83,38,54,42,75,52,8,0,0,0,0,0,0,0,0,0,0,0,0,0,0,0,0,0,0,0,0,0,0,0,0,0,0,0],"split_type":[0,0,0,0,0,0,0,0,0,0,0,0,0,0,0,0,0,0,0,0,0,0,0,0,0,0,0,0,0,0,0,0,0,0,0,0,0,0,0,0,0,0,0,0,0,0,0,0,0,0,0,0,0,0,0],"sum_hessian":[1.6085E4,1.0838E4,5.247E3,8.869E3,1.969E3,1.289E3,3.958E3,2.48E3,6.389E3,1.898E3,7.1E1,5.04E2,7.85E2,5.58E2,3.4E3,1.764E3,7.16E2,3.19E3,3.199E3,2.4E2,1.658E3,1.4E1,5.7E1,4.94E2,1E1,6.32E2,1.53E2,5.34E2,2.4E1,1.734E3,3E1,7.12E2,4E0,2.824E3,3.66E2,3.19E3,9E0,2.34E2,6E0,8.26E2,8.32E2,1E1,4E0,2.9E1,2.8E1,4.82E2,1.2E1,8E0,2E0,5.77E2,5.5E1,1.15E2,3.8E1,5.2E2,1.4E1],"tree_param":{"num_deleted":"0","num_feature":"85","num_nodes":"55","size_leaf_vector":"1"}},{"base_weights":[-2.103733E-3,1.529862E-1,-2.984314E-1,-2.6823917E-2,4.1757745E-1,-1.2447113E-1,-3.6833674E-1,-1.7269766E-1,9.6162125E-2,2.1148638E-1,6.3062716E-1,-5.938505E-2,-8.1290495E-1,-3.8918072E-1,-1.8243698E-2,-6.826057E-2,-3.0056822E-1,8.841017E-2,3.8576267E0,1.9631134E-1,5.6645465E0,5.425293E-1,1.3595169E0,-8.7820634E-2,1.7916274E0,2.072993E-1,-9.548651E-1,-1.8811027E-2,-3.0798558E-2,-6.4484024E-4,-1.72725E-2,-1.6391246E-2,5.2066352E-2,2.9722957E-2,2.040644E-3,2.7047732E-1,6.706502E-2,4.7194462E-2,5.1647383E-3,-5.498289E-2,3.6186597E-1,-5.7936396E-4,3.472574E-2,5.8633246E-2,2.2969937E-1,-5.0145024E-3,1.4441507E-1,1.4938972E-3,1.628631E-1,-5.4960657E-2,4.7248628E-2],"categories":[],"categories_nodes":[],"categories_segments":[],"categories_sizes":[],"default_left":[0,1,0,0,0,0,0,0,1,0,1,0,0,0,0,0,1,0,0,0,0,0,0,0,0,0,1,0,0,0,0,0,0,0,0,0,0,0,0,0,0,0,0,0,0,0,0,0,0,0,0],"id":33,"left_children":[1,3,5,7,9,11,13,15,17,19,21,23,25,27,-1,29,31,33,35,37,39,41,43,45,47,-1,49,-1,-1,-1,-1,-1,-1,-1,-1,-1,-1,-1,-1,-1,-1,-1,-1,-1,-1,-1,-1,-1,-1,-1,-1],"loss_changes":[7.398686E2,5.0279626E2,6.721521E1,1.12915764E2,1.8761566E2,7.1061165E1,1.4276123E-1,3.842688E1,9.923592E1,1.7887015E2,1.342395E2,7.653018E1,1.0040205E2,1.37603E0,0E0,2.4334698E1,4.767019E1,8.208682E1,2.0080132E1,1.5079808E2,7.178989E1,1.5808466E2,1.311997E2,5.3357666E1,5.6708466E1,0E0,3.778662E1,0E0,0E0,0E0,0E0,0E0,0E0,0E0,0E0,0E0,0E0,0E0,0E0,0E0,0E0,0E0,0E0,0E0,0E0,0E0,0E0,0E0,0E0,0E0,0E0],"parents":[2147483647,0,0,1,1,2,2,3,3,4,4,5,5,6,6,7,7,8,8,9,9,10,10,11,11,12,12,13,13,15,15,16,16,17,17,18,18,19,19,20,20,21,21,22,22,23,23,24,24,26,26],"right_children":[2,4,6,8,10,12,14,16,18,20,22,24,26,28,-1,30,32,34,36,38,40,42,44,46,48,-1,50,-1,-1,-1,-1,-1,-1,-1,-1,-1,-1,-1,-1,-1,-1,-1,-1,-1,-1,-1,-1,-1,-1,-1,-1],"split_conditions":[1.2844779E3,2.2857144E0,2.00001E0,2E0,1E0,2.58E-1,3.3726315E-3,4.667905E-1,4E-1,1.75E0,5.415038E-1,8.0187666E-1,2.0179372E0,1.4666667E0,-1.8243698E-2,2E-2,8.456044E-1,7.717777E2,1.1195122E0,7.8410815E2,2.4333334E1,5.88E1,4.6666667E-1,4.86E1,2.564E1,2.072993E-1,9.310345E0,-1.8811027E-2,-3.0798558E-2,-6.4484024E-4,-1.72725E-2,-1.6391246E-2,5.2066352E-2,2.9722957E-2,2.040644E-3,2.7047732E-1,6.706502E-2,4.7194462E-2,5.1647383E-3,-5.498289E-2,3.6186597E-1,-5.7936396E-4,3.472574E-2,5.8633246E-2,2.2969937E-1,-5.0145024E-3,1.4441507E-1,1.4938972E-3,1.628631E-1,-5.4960657E-2,4.7248628E-2],"split_indices":[83,56,81,11,81,32,48,23,32,64,51,42,25,8,0,32,73,82,21,82,9,27,5,38,40,0,52,0,0,0,0,0,0,0,0,0,0,0,0,0,0,0,0,0,0,0,0,0,0,0,0],"split_type":[0,0,0,0,0,0,0,0,0,0,0,0,0,0,0,0,0,0,0,0,0,0,0,0,0,0,0,0,0,0,0,0,0,0,0,0,0,0,0,0,0,0,0,0,0,0,0,0,0,0,0],"sum_hessian":[1.6097E4,1.0567E4,5.53E3,6.292E3,4.275E3,1.586E3,3.944E3,2.878E3,3.414E3,2.174E3,2.101E3,1.45E3,1.36E2,5.46E2,3.398E3,1.585E3,1.293E3,3.408E3,6E0,2.169E3,5E0,1.876E3,2.25E2,1.429E3,2.1E1,3E0,1.33E2,5.19E2,2.7E1,1.322E3,2.63E2,1.268E3,2.5E1,2.92E2,3.116E3,3E0,3E0,2.39E2,1.93E3,1E0,4E0,4.04E2,1.472E3,2.14E2,1.1E1,1.424E3,5E0,1E1,1.1E1,1.24E2,9E0],"tree_param":{"num_deleted":"0","num_feature":"85","num_nodes":"51","size_leaf_vector":"1"}},{"base_weights":[6.164454E-3,1.23320706E-1,-3.4971908E-1,-1.419604E-1,2.3901814E-1,-3.6921775E-1,-1.7327968E-2,-1.4807285E-1,2.7516156E-1,1.0492927E-1,4.1492808E-1,-1.786627E-2,-2.705495E-2,-1.9628884E-2,-3.0400655E-1,8.666814E-2,7.627905E-1,9.4191253E-1,3.2191697E-1,-9.809065E-3,1.0779635E-2,-1.5839482E-2,9.171604E-2,5.159342E-3,-4.4817757E-2,2.2556217E-1,2.3883795E-2,3.9882023E-2,1.512748E-1,1.340822E-2,4.679322E-2],"categories":[],"categories_nodes":[],"categories_segments":[],"categories_sizes":[],"default_left":[0,0,0,0,1,0,0,1,0,1,1,0,0,0,0,1,0,0,0,0,0,0,0,0,0,0,0,0,0,0,0],"id":34,"left_children":[1,3,5,7,9,11,-1,13,-1,15,17,-1,-1,19,21,23,25,27,29,-1,-1,-1,-1,-1,-1,-1,-1,-1,-1,-1,-1],"loss_changes":[6.7035724E2,3.712885E2,1.17370605E-1,1.2758974E2,1.9863449E2,9.104538E-1,0E0,7.3519554E1,0E0,5.7369423E1,1.7826001E2,0E0,0E0,8.368157E1,4.5901474E1,7.5649185E1,1.3571234E2,1.61716E2,1.0198694E2,0E0,0E0,0E0,0E0,0E0,0E0,0E0,0E0,0E0,0E0,0E0,0E0],"parents":[2147483647,0,0,1,1,2,2,3,3,4,4,5,5,7,7,9,9,10,10,13,13,14,14,15,15,16,16,17,17,18,18],"right_children":[2,4,6,8,10,12,-1,14,-1,16,18,-1,-1,20,22,24,26,28,30,-1,-1,-1,-1,-1,-1,-1,-1,-1,-1,-1,-1],"split_conditions":[2.00001E0,2.9E1,3.3726315E-3,5.075E-1,1.0125E1,1.675E0,-1.7327968E-2,1.0730686E3,2.7516156E-1,3.8666666E-1,8.92788E2,-1.786627E-2,-2.705495E-2,1.6E0,1.9066668E1,3.1E-1,2.9905957E-1,6.533333E-1,2.5E0,-9.809065E-3,1.0779635E-2,-1.5839482E-2,9.171604E-2,5.159342E-3,-4.4817757E-2,2.2556217E-1,2.3883795E-2,3.9882023E-2,1.512748E-1,1.340822E-2,4.679322E-2],"split_indices":[81,0,48,61,65,35,0,83,0,20,84,0,0,38,12,47,48,7,41,0,0,0,0,0,0,0,0,0,0,0,0],"split_type":[0,0,0,0,0,0,0,0,0,0,0,0,0,0,0,0,0,0,0,0,0,0,0,0,0,0,0,0,0,0,0],"sum_hessian":[1.6076E4,1.2095E4,3.981E3,3.673E3,8.422E3,5.39E2,3.442E3,3.67E3,3E0,4.78E3,3.642E3,5.07E2,3.2E1,2.013E3,1.657E3,4.652E3,1.28E2,5.45E2,3.097E3,1.15E3,8.63E2,1.648E3,9E0,4.576E3,7.6E1,8E0,1.2E2,5.11E2,3.4E1,2.849E3,2.48E2],"tree_param":{"num_deleted":"0","num_feature":"85","num_nodes":"31","size_leaf_vector":"1"}},{"base_weights":[-4.2727278E-3,1.22210674E-1,-2.8944921E-1,9.177856E-3,4.0721476E-1,-2.914197E-1,2.3838528E-1,-5.9872945E-3,1.0652038E0,3.8365784E-1,2.7976456E0,-1.2939076E-1,-3.3213848E-1,-1.4205601E-2,1.9633503E0,5.970489E-1,6.4606714E0,4.1438642E-1,-1.2400011E0,6.5507007E0,1.4300587E0,-1.8416432E-1,4.9635455E-1,-3.4982985E-1,-1.646494E-2,1.9040563E-3,-1.0235381E-2,2.6883334E-1,3.2801118E-2,1.0604239E-2,1.4591795E-1,4.3818185E-1,6.955277E-2,2.5896294E-4,2.586523E-2,2.8485542E-2,-8.819132E-2,2.0555317E-2,3.6845282E-1,-6.407626E-2,1.3109885E-1,9.056975E-3,-1.6006662E-2,2.0494898E-1,1.2798585E-2,-1.7056994E-2,-2.8393826E-2],"categories":[],"categories_nodes":[],"categories_segments":[],"categories_sizes":[],"default_left":[0,1,1,1,0,0,0,1,0,0,0,0,0,0,0,0,0,0,0,0,0,0,0,0,0,0,0,0,0,0,0,0,0,0,0,0,0,0,0,0,0,0,0,0,0,0,0],"id":35,"left_children":[1,3,5,7,9,11,-1,13,15,17,19,21,23,25,27,29,31,33,35,37,39,41,43,45,-1,-1,-1,-1,-1,-1,-1,-1,-1,-1,-1,-1,-1,-1,-1,-1,-1,-1,-1,-1,-1,-1,-1],"loss_changes":[5.8545294E2,3.622196E2,5.1085205E1,1.2895747E2,1.787284E2,3.2852753E1,0E0,1.285176E2,2.8409692E2,1.5832458E2,1.497436E2,3.446852E1,8.493042E-2,7.876726E1,1.4372945E2,9.4104904E1,9.288562E1,1.3076392E2,5.693528E1,3.7165497E1,8.0927795E1,4.5903374E1,6.9097534E1,8.199997E-1,0E0,0E0,0E0,0E0,0E0,0E0,0E0,0E0,0E0,0E0,0E0,0E0,0E0,0E0,0E0,0E0,0E0,0E0,0E0,0E0,0E0,0E0,0E0],"parents":[2147483647,0,0,1,1,2,2,3,3,4,4,5,5,7,7,8,8,9,9,10,10,11,11,12,12,13,13,14,14,15,15,16,16,17,17,18,18,19,19,20,20,21,21,22,22,23,23],"right_children":[2,4,6,8,10,12,-1,14,16,18,20,22,24,26,28,30,32,34,36,38,40,42,44,46,-1,-1,-1,-1,-1,-1,-1,-1,-1,-1,-1,-1,-1,-1,-1,-1,-1,-1,-1,-1,-1,-1,-1],"split_conditions":[1.3232372E3,8.3333336E-2,7.9E1,3.6875E-1,4.475E1,2.00001E0,2.3838528E-1,2.9533333E1,2.232E1,7.25E0,9.719946E2,8.6125E1,1.760584E-3,4.2056075E-1,6.62E1,7.4117646E-2,5.1125E-1,5.3333335E0,5.6323487E-1,7.25E0,2.72E1,1.760584E-3,8.2333336E1,1E1,-1.646494E-2,1.9040563E-3,-1.0235381E-2,2.6883334E-1,3.2801118E-2,1.0604239E-2,1.4591795E-1,4.3818185E-1,6.955277E-2,2.5896294E-4,2.586523E-2,2.8485542E-2,-8.819132E-2,2.0555317E-2,3.6845282E-1,-6.407626E-2,1.3109885E-1,9.056975E-3,-1.6006662E-2,2.0494898E-1,1.2798585E-2,-1.7056994E-2,-2.8393826E-2],"split_indices":[83,6,11,59,65,81,0,13,40,56,83,54,75,75,27,20,59,11,15,29,36,75,0,65,0,0,0,0,0,0,0,0,0,0,0,0,0,0,0,0,0,0,0,0,0,0,0],"split_type":[0,0,0,0,0,0,0,0,0,0,0,0,0,0,0,0,0,0,0,0,0,0,0,0,0,0,0,0,0,0,0,0,0,0,0,0,0,0,0,0,0,0,0,0,0,0,0],"sum_hessian":[1.6229E4,1.1243E4,4.986E3,8.051E3,3.192E3,4.985E3,1E0,7.938E3,1.13E2,3.162E3,3E1,1.002E3,3.983E3,7.906E3,3.2E1,1.05E2,8E0,3.104E3,5.8E1,7E0,2.3E1,9.22E2,8E1,5.34E2,3.449E3,6.204E3,1.702E3,8E0,2.4E1,9.1E1,1.4E1,5E0,3E0,6.24E2,2.48E3,1.3E1,4.5E1,1E0,6E0,7E0,1.6E1,2.5E2,6.72E2,4E0,7.6E1,5.16E2,1.8E1],"tree_param":{"num_deleted":"0","num_feature":"85","num_nodes":"47","size_leaf_vector":"1"}},{"base_weights":[-6.219387E-3,1.16964854E-1,-2.6697558E-1,1.10299E-3,3.521082E-1,-9.741911E-2,-3.1637892E-1,-7.5060935E-3,2.1042652E0,-1.4517468E-1,4.373118E-1,3.8825822E-1,-2.3154819E-1,-3.160445E-1,-4.1485246E-2,-2.1727882E-1,5.257755E-2,2.697951E0,-1.4037536E0,-2.9851747E-1,9.032992E-1,1.2011057E0,3.5731575E-1,3.8622737E-2,1.4476511E0,-3.0613184E-1,5.997696E-1,-3.3501482E-1,-1.5645284E-2,-1.1155403E-2,1.5111813E-1,1.3426198E-3,3.1622596E-2,3.4870386E-2,2.3224239E-1,-1.07619934E-1,3.977065E-2,-1.797567E-2,1.253324E-1,1.8365838E-1,-4.600655E-3,6.778175E-2,-5.493586E-2,4.2589772E-3,3.1576764E-2,1.50938695E-2,-4.4030283E-2,9.221315E-2,-4.194088E-2,-1.4086656E-2,-8.178927E-2,1.8941852E-1,1.36170685E-2,-1.6173458E-2,-2.6005575E-2],"categories":[],"categories_nodes":[],"categories_segments":[],"categories_sizes":[],"default_left":[0,1,0,1,0,0,0,0,0,0,0,0,1,0,0,0,1,0,0,0,0,0,0,0,0,1,0,0,0,0,0,0,0,0,0,0,0,0,0,0,0,0,0,0,0,0,0,0,0,0,0,0,0,0,0],"id":36,"left_children":[1,3,5,7,9,11,13,15,17,19,21,23,25,27,-1,29,31,33,35,37,39,41,43,45,47,49,51,53,-1,-1,-1,-1,-1,-1,-1,-1,-1,-1,-1,-1,-1,-1,-1,-1,-1,-1,-1,-1,-1,-1,-1,-1,-1,-1,-1],"loss_changes":[5.1939655E2,2.9919482E2,4.3427246E1,1.3324194E2,1.5365573E2,7.643802E1,4.2736816E-1,9.238548E1,6.626709E1,8.564165E1,1.8867688E2,9.4026024E1,5.7164104E1,1.3430786E-1,0E0,3.1493996E1,8.4982124E1,9.8026794E1,9.944021E0,8.029324E1,1.8780609E2,1.0561868E2,2.0912027E2,4.6728138E1,5.8677948E1,2.6920052E1,7.831514E1,1.0199661E0,0E0,0E0,0E0,0E0,0E0,0E0,0E0,0E0,0E0,0E0,0E0,0E0,0E0,0E0,0E0,0E0,0E0,0E0,0E0,0E0,0E0,0E0,0E0,0E0,0E0,0E0,0E0],"parents":[2147483647,0,0,1,1,2,2,3,3,4,4,5,5,6,6,7,7,8,8,9,9,10,10,11,11,12,12,13,13,15,15,16,16,17,17,18,18,19,19,20,20,21,21,22,22,23,23,24,24,25,25,26,26,27,27],"right_children":[2,4,6,8,10,12,14,16,18,20,22,24,26,28,-1,30,32,34,36,38,40,42,44,46,48,50,52,54,-1,-1,-1,-1,-1,-1,-1,-1,-1,-1,-1,-1,-1,-1,-1,-1,-1,-1,-1,-1,-1,-1,-1,-1,-1,-1,-1],"split_conditions":[1.3226182E3,8.333333E-1,2.00001E0,3.72E1,4.9666668E1,8.34981E-4,1.9E1,4.285714E-3,1.3333334E0,4E-1,7.717777E2,3.275235E-1,8.575E1,3.3726315E-3,-4.1485246E-2,1E0,7.116279E-1,6.4536595E-1,3.3333334E-1,2E0,1.25E-1,5E-1,1E0,6.666667E-1,8.84E1,8.475E0,8.2333336E1,2.26E0,-1.5645284E-2,-1.1155403E-2,1.5111813E-1,1.3426198E-3,3.1622596E-2,3.4870386E-2,2.3224239E-1,-1.07619934E-1,3.977065E-2,-1.797567E-2,1.253324E-1,1.8365838E-1,-4.600655E-3,6.778175E-2,-5.493586E-2,4.2589772E-3,3.1576764E-2,1.50938695E-2,-4.4030283E-2,9.221315E-2,-4.194088E-2,-1.4086656E-2,-8.178927E-2,1.8941852E-1,1.36170685E-2,-1.6173458E-2,-2.6005575E-2],"split_indices":[83,68,81,38,0,74,2,60,10,31,82,69,54,48,0,4,19,69,4,41,64,46,81,68,27,62,0,35,0,0,0,0,0,0,0,0,0,0,0,0,0,0,0,0,0,0,0,0,0,0,0,0,0,0,0],"split_type":[0,0,0,0,0,0,0,0,0,0,0,0,0,0,0,0,0,0,0,0,0,0,0,0,0,0,0,0,0,0,0,0,0,0,0,0,0,0,0,0,0,0,0,0,0,0,0,0,0,0,0,0,0,0,0],"sum_hessian":[1.6168E4,1.0981E4,5.187E3,7.357E3,3.624E3,1.171E3,