{"learner":{"attributes":{"scikit_learn":"{\"_estimator_type\": \"regressor\"}"},"feature_names":["roll_3_minutes","roll_3_starts","roll_3_total_points","roll_3_goals_scored","roll_3_assists","roll_3_expected_goals","roll_3_expected_assists","roll_3_expected_goal_involvements","roll_3_ict_index","roll_3_bps","roll_3_bonus","roll_3_threat","roll_3_influence","roll_3_creativity","roll_3_us_key_passes","roll_3_us_xGChain","roll_3_us_xGBuildup","roll_3_goals_scored_per90","roll_3_assists_per90","roll_3_expected_goals_per90","roll_3_expected_assists_per90","roll_3_expected_goal_involvements_per90","roll_3_us_key_passes_per90","roll_3_us_xGChain_per90","roll_3_us_xGBuildup_per90","roll_3_total_points_per90","roll_hist_count_3","roll_5_minutes","roll_5_starts","roll_5_total_points","roll_5_goals_scored","roll_5_assists","roll_5_expected_goals","roll_5_expected_assists","roll_5_expected_goal_involvements","roll_5_ict_index","roll_5_bps","roll_5_bonus","roll_5_threat","roll_5_influence","roll_5_creativity","roll_5_us_key_passes","roll_5_us_xGChain","roll_5_us_xGBuildup","roll_5_goals_scored_per90","roll_5_assists_per90","roll_5_expected_goals_per90","roll_5_expected_assists_per90","roll_5_expected_goal_involvements_per90","roll_5_us_key_passes_per90","roll_5_us_xGChain_per90","roll_5_us_xGBuildup_per90","roll_5_total_points_per90","roll_hist_count_5","roll_8_minutes","roll_8_starts","roll_8_total_points","roll_8_goals_scored","roll_8_assists","roll_8_expected_goals","roll_8_expected_assists","roll_8_expected_goal_involvements","roll_8_ict_index","roll_8_bps","roll_8_bonus","roll_8_threat","roll_8_influence","roll_8_creativity","roll_8_us_key_passes","roll_8_us_xGChain","roll_8_us_xGBuildup","roll_8_goals_scored_per90","roll_8_assists_per90","roll_8_expected_goals_per90","roll_8_expected_assists_per90","roll_8_expected_goal_involvements_per90","roll_8_us_key_passes_per90","roll_8_us_xGChain_per90","roll_8_us_xGBuildup_per90","roll_8_total_points_per90","roll_hist_count_8","was_home","opp_dyn_attack","opp_dyn_defence","opp_dyn_overall"],"feature_types":["float","float","float","float","float","float","float","float","float","float","float","float","float","float","float","float","float","float","float","float","float","float","float","float","float","float","float","float","float","float","float","float","float","float","float","float","float","float","float","float","float","float","float","float","float","float","float","float","float","float","float","float","float","float","float","float","float","float","float","float","float","float","float","float","float","float","float","float","float","float","float","float","float","float","float","float","float","float","float","float","float","float","float","float","float"],"gradient_booster":{"model":{"cats":{"enc":[],"feature_segments":[],"sorted_idx":[]},"gbtree_model_param":{"num_parallel_tree":"1","num_trees":"300"},"iteration_indptr":[0,1,2,3,4,5,6,7,8,9,10,11,12,13,14,15,16,17,18,19,20,21,22,23,24,25,26,27,28,29,30,31,32,33,34,35,36,37,38,39,40,41,42,43,44,45,46,47,48,49,50,51,52,53,54,55,56,57,58,59,60,61,62,63,64,65,66,67,68,69,70,71,72,73,74,75,76,77,78,79,80,81,82,83,84,85,86,87,88,89,90,91,92,93,94,95,96,97,98,99,100,101,102,103,104,105,106,107,108,109,110,111,112,113,114,115,116,117,118,119,120,121,122,123,124,125,126,127,128,129,130,131,132,133,134,135,136,137,138,139,140,141,142,143,144,145,146,147,148,149,150,151,152,153,154,155,156,157,158,159,160,161,162,163,164,165,166,167,168,169,170,171,172,173,174,175,176,177,178,179,180,181,182,183,184,185,186,187,188,189,190,191,192,193,194,195,196,197,198,199,200,201,202,203,204,205,206,207,208,209,210,211,212,213,214,215,216,217,218,219,220,221,222,223,224,225,226,227,228,229,230,231,232,233,234,235,236,237,238,239,240,241,242,243,244,245,246,247,248,249,250,251,252,253,254,255,256,257,258,259,260,261,262,263,264,265,266,267,268,269,270,271,272,273,274,275,276,277,278,279,280,281,282,283,284,285,286,287,288,289,290,291,292,293,294,295,296,297,298,299,300],"tree_info":[0,0,0,0,0,0,0,0,0,0,0,0,0,0,0,0,0,0,0,0,0,0,0,0,0,0,0,0,0,0,0,0,0,0,0,0,0,0,0,0,0,0,0,0,0,0,0,0,0,0,0,0,0,0,0,0,0,0,0,0,0,0,0,0,0,0,0,0,0,0,0,0,0,0,0,0,0,0,0,0,0,0,0,0,0,0,0,0,0,0,0,0,0,0,0,0,0,0,0,0,0,0,0,0,0,0,0,0,0,0,0,0,0,0,0,0,0,0,0,0,0,0,0,0,0,0,0,0,0,0,0,0,0,0,0,0,0,0,0,0,0,0,0,0,0,0,0,0,0,0,0,0,0,0,0,0,0,0,0,0,0,0,0,0,0,0,0,0,0,0,0,0,0,0,0,0,0,0,0,0,0,0,0,0,0,0,0,0,0,0,0,0,0,0,0,0,0,0,0,0,0,0,0,0,0,0,0,0,0,0,0,0,0,0,0,0,0,0,0,0,0,0,0,0,0,0,0,0,0,0,0,0,0,0,0,0,0,0,0,0,0,0,0,0,0,0,0,0,0,0,0,0,0,0,0,0,0,0,0,0,0,0,0,0,0,0,0,0,0,0,0,0,0,0,0,0,0,0,0,0,0,0,0,0,0,0,0,0,0,0,0,0,0,0,0,0,0,0,0,0],"trees":[{"base_weights":[2.3335977E-2,7.786629E-1,-2.0522878E0,-7.2611704E-2,1.7430111E0,-1.6003348E0,-2.1720393E0,-7.436266E-1,2.7309278E-1,1.4176537E0,2.7336662E0,-1.7971226E0,1.6204113E0,-1.08775035E-1,2.0549536E-2,-4.830368E-1,-1.3476648E0,-4.923729E-2,6.5533817E-1,8.573568E-2,1.587745E0,6.0291023E0,2.47176E0,-1.0595926E-1,-1.0086546E0,3.5582432E-1,-5.2547145E-1,-2.5982767E-2,1.558243E-1,-7.134237E-2,-1.590855E-2,1.8912172E-2,-1.9027388E-2,1.8077241E-2,7.9872124E-2,7.603038E-2,-6.4812936E-3,9.137686E-2,3.298122E-2,1.4173485E-1,4.6267414E-1,1.4189337E-1,4.520861E-2,1.7054954E-1,-5.6456298E-2,1.1073271E-1,-6.902305E-2],"categories":[],"categories_nodes":[],"categories_segments":[],"categories_sizes":[],"default_left":[0,1,0,0,0,0,0,0,1,0,0,0,0,0,0,0,1,0,0,0,0,0,0,0,0,0,0,0,0,0,0,0,0,0,0,0,0,0,0,0,0,0,0,0,0,0,0],"id":0,"left_children":[1,3,5,7,9,11,13,15,17,19,21,23,25,-1,-1,27,29,31,33,35,37,39,41,-1,43,-1,45,-1,-1,-1,-1,-1,-1,-1,-1,-1,-1,-1,-1,-1,-1,-1,-1,-1,-1,-1,-1],"loss_changes":[6.457694E3,2.4793206E3,5.6003906E1,3.725195E2,4.525254E2,1.5122217E2,8.636719E0,8.5292816E1,1.30634E2,2.4181665E2,2.8631787E2,5.398224E1,1.6885457E2,0E0,0E0,5.210247E1,1.2914978E1,8.1722145E1,1.3366267E2,3.789709E1,2.0955518E2,2.3126862E2,1.8395325E2,0E0,3.8992516E1,0E0,2.882781E1,0E0,0E0,0E0,0E0,0E0,0E0,0E0,0E0,0E0,0E0,0E0,0E0,0E0,0E0,0E0,0E0,0E0,0E0,0E0,0E0],"parents":[2147483647,0,0,1,1,2,2,3,3,4,4,5,5,6,6,7,7,8,8,9,9,10,10,11,11,12,12,15,15,16,16,17,17,18,18,19,19,20,20,21,21,22,22,24,24,26,26],"right_children":[2,4,6,8,10,12,14,16,18,20,22,24,26,-1,-1,28,30,32,34,36,38,40,42,-1,44,-1,46,-1,-1,-1,-1,-1,-1,-1,-1,-1,-1,-1,-1,-1,-1,-1,-1,-1,-1,-1,-1],"split_conditions":[3.151442E3,2.925E0,1.5230769E-3,1.3333334E-2,5.9564614E-1,4.9406067E-1,1.8E2,2.9752066E0,2.1039775E-2,4.2E0,7.6337256E2,4.3333334E-1,3.7E1,-1.08775035E-1,2.0549536E-2,1.3629465E-1,6.2068963E-1,9.6862756E2,1.18E1,1.8120805E0,1.2460419E3,5.625E0,3.2857633E-1,-1.0595926E-1,2.857143E-1,3.5582432E-1,2.142857E0,-2.5982767E-2,1.558243E-1,-7.134237E-2,-1.590855E-2,1.8912172E-2,-1.9027388E-2,1.8077241E-2,7.9872124E-2,7.603038E-2,-6.4812936E-3,9.137686E-2,3.298122E-2,1.4173485E-1,4.6267414E-1,1.4189337E-1,4.520861E-2,1.7054954E-1,-5.6456298E-2,1.1073271E-1,-6.902305E-2],"split_indices":[82,62,48,7,69,42,0,49,43,36,82,13,11,0,0,70,73,82,12,25,82,52,51,0,56,0,56,0,0,0,0,0,0,0,0,0,0,0,0,0,0,0,0,0,0,0,0],"split_type":[0,0,0,0,0,0,0,0,0,0,0,0,0,0,0,0,0,0,0,0,0,0,0,0,0,0,0,0,0,0,0,0,0,0,0,0,0,0,0,0,0,0,0,0,0,0,0],"sum_hessian":[4.117E3,3.019E3,1.098E3,1.604E3,1.415E3,2.33E2,8.65E2,5.45E2,1.059E3,1.067E3,3.48E2,2.2E2,1.3E1,8.64E2,1E0,3.82E2,1.63E2,5.75E2,4.84E2,1.21E2,9.46E2,2.4E1,3.24E2,1.55E2,6.5E1,3E0,1E1,3.79E2,3E0,1.51E2,1.2E1,2.51E2,3.24E2,3.7E2,1.14E2,1.5E1,1.06E2,7.51E2,1.95E2,1.3E1,1.1E1,2.62E2,6.2E1,1E0,6.4E1,2E0,8E0],"tree_param":{"num_deleted":"0","num_feature":"85","num_nodes":"47","size_leaf_vector":"1"}},{"base_weights":[1.2821963E-2,6.949654E-1,-1.03463784E-1,-1.060574E-1,1.6132711E0,-9.8906916E-1,1.4916334E-1,1.2838302E0,2.673185E0,-1.0942E0,3.9090246E-1,9.377209E-2,2.1231601E0,9.2270195E-1,1.854722E0,3.32974E0,1.8048075E0,1.7119911E-1,-5.586439E-2,-4.7459465E-2,1.3819887E-1,-2.1135958E-3,3.45453E-2,3.2749614E-1,7.51733E-2,4.3733206E-2,3.6020276E-1,3.1079945E-1,8.888091E-2,1.503034E-1,3.3612427E-1,2.1660629E-1,6.664466E-2],"categories":[],"categories_nodes":[],"categories_segments":[],"categories_sizes":[],"default_left":[0,1,0,0,0,0,1,0,0,0,0,1,0,0,0,0,0,0,0,0,0,0,0,0,0,0,0,0,0,0,0,0,0],"id":1,"left_children":[1,3,-1,5,7,9,11,13,15,17,19,21,23,25,27,29,31,-1,-1,-1,-1,-1,-1,-1,-1,-1,-1,-1,-1,-1,-1,-1,-1],"loss_changes":[5.835986E3,2.276803E3,0E0,3.7289777E2,5.0008447E2,5.4251587E1,1.401962E2,2.2548267E2,1.8840747E2,3.9813995E1,8.848727E1,1.01574814E2,8.616577E1,1.9797864E2,1.3220142E2,1.9173218E2,1.719347E2,0E0,0E0,0E0,0E0,0E0,0E0,0E0,0E0,0E0,0E0,0E0,0E0,0E0,0E0,0E0,0E0],"parents":[2147483647,0,0,1,1,3,3,4,4,5,5,6,6,7,7,8,8,9,9,10,10,11,11,12,12,13,13,14,14,15,15,16,16],"right_children":[2,4,-1,6,8,10,12,14,16,18,20,22,24,26,28,30,32,-1,-1,-1,-1,-1,-1,-1,-1,-1,-1,-1,-1,-1,-1,-1,-1],"split_conditions":[2.00001E0,4.58E1,-1.03463784E-1,3.6666667E0,5.8888674E-1,1E0,7.5E-1,1.6133333E1,1.9378482E-1,-2E-1,1.0793632E3,3.9666668E1,3.15E0,1.0695008E0,2.5E0,1.8E-1,5.3E0,1.7119911E-1,-5.586439E-2,-4.7459465E-2,1.3819887E-1,-2.1135958E-3,3.45453E-2,3.2749614E-1,7.51733E-2,4.3733206E-2,3.6020276E-1,3.1079945E-1,8.888091E-2,1.503034E-1,3.3612427E-1,2.1660629E-1,6.664466E-2],"split_indices":[81,27,0,0,69,2,64,12,78,29,84,0,25,50,29,60,35,0,0,0,0,0,0,0,0,0,0,0,0,0,0,0,0],"split_type":[0,0,0,0,0,0,0,0,0,0,0,0,0,0,0,0,0,0,0,0,0,0,0,0,0,0,0,0,0,0,0,0,0],"sum_hessian":[4.107E3,3.094E3,1.013E3,1.653E3,1.441E3,3.7E2,1.283E3,1.101E3,3.4E2,3.44E2,2.6E1,1.249E3,3.4E1,6.76E2,4.25E2,1.92E2,1.48E2,1E0,3.43E2,1.7E1,9E0,1.018E3,2.31E2,3E0,3.1E1,6.72E2,4E0,6E0,4.19E2,1.77E2,1.5E1,2.2E1,1.26E2],"tree_param":{"num_deleted":"0","num_feature":"85","num_nodes":"33","size_leaf_vector":"1"}},{"base_weights":[1.7390003E-2,6.69067E-1,-9.8282985E-2,-1.0604336E-1,1.5517123E0,-7.263376E-1,1.7674284E-1,1.3442906E0,3.190113E0,-1.1915544E0,-4.9096563E-1,-1.3644448E-1,5.40607E-1,-5.524802E-1,1.4352793E0,2.6475707E-2,3.5583003E0,-4.064961E-2,-7.384188E-2,1.6691914E-1,-2.5584081E-2,1.4766546E-1,-9.364462E-3,-8.5536233E-4,4.403644E-2,1.4819217E-2,-6.780701E-2,8.576443E-2,4.3452177E-2,1.3903072E-1,-2.4579002E-2,1.955776E-1,5.6861818E-2],"categories":[],"categories_nodes":[],"categories_segments":[],"categories_sizes":[],"default_left":[0,1,0,0,0,0,1,0,0,0,0,0,0,0,0,0,1,0,0,0,0,0,0,0,0,0,0,0,0,0,0,0,0],"id":2,"left_children":[1,3,-1,5,7,9,11,13,15,17,19,21,23,25,27,29,31,-1,-1,-1,-1,-1,-1,-1,-1,-1,-1,-1,-1,-1,-1,-1,-1],"loss_changes":[5.350178E3,2.1319683E3,0E0,2.913101E2,4.9085767E2,5.635446E1,1.3009943E2,2.242898E2,1.8977014E2,1.7590897E1,2.9235252E1,9.70112E1,1.0017178E2,4.133384E1,1.9447876E2,2.7049246E1,1.2041736E2,0E0,0E0,0E0,0E0,0E0,0E0,0E0,0E0,0E0,0E0,0E0,0E0,0E0,0E0,0E0,0E0],"parents":[2147483647,0,0,1,1,3,3,4,4,5,5,6,6,7,7,8,8,9,9,10,10,11,11,12,12,13,13,14,14,15,15,16,16],"right_children":[2,4,-1,6,8,10,12,14,16,18,20,22,24,26,28,30,32,-1,-1,-1,-1,-1,-1,-1,-1,-1,-1,-1,-1,-1,-1,-1,-1],"split_conditions":[2.00001E0,2.925E0,-9.8282985E-2,8.333333E0,6E0,6E-1,8E0,1.6E1,2.549116E-2,9.6862756E2,-2E-1,5.4E0,2.0693377E-2,1.0682492E0,1.1100499E3,7.5313807E-1,1.2596481E3,-4.064961E-2,-7.384188E-2,1.6691914E-1,-2.5584081E-2,1.4766546E-1,-9.364462E-3,-8.5536233E-4,4.403644E-2,1.4819217E-2,-6.780701E-2,8.576443E-2,4.3452177E-2,1.3903072E-1,-2.4579002E-2,1.955776E-1,5.6861818E-2],"split_indices":[81,62,0,0,56,27,38,0,51,82,29,27,43,49,83,71,82,0,0,0,0,0,0,0,0,0,0,0,0,0,0,0,0],"split_type":[0,0,0,0,0,0,0,0,0,0,0,0,0,0,0,0,0,0,0,0,0,0,0,0,0,0,0,0,0,0,0,0,0],"sum_hessian":[4.138E3,3.115E3,1.023E3,1.659E3,1.456E3,5.19E2,1.14E3,1.294E3,1.62E2,1.73E2,3.46E2,6.13E2,5.27E2,5.9E1,1.235E3,1.7E1,1.45E2,7.6E1,9.7E1,1E0,3.45E2,9E0,6.04E2,2E2,3.27E2,2.9E1,3E1,8.25E2,4.1E2,2E0,1.5E1,1.26E2,1.9E1],"tree_param":{"num_deleted":"0","num_feature":"85","num_nodes":"33","size_leaf_vector":"1"}},{"base_weights":[3.604964E-2,6.7429286E-1,-9.338552E-2,1.4607289E-2,1.6806626E0,-9.9187756E-1,2.6073074E-1,1.4841316E0,3.0379295E0,-1.0883541E0,7.508804E-1,6.7581517E-1,5.4571528E-2,1.8410482E0,8.638913E-1,2.641268E0,5.0929875E0,-4.3669205E-2,-7.235425E-2,-2.7629176E-2,1.05480134E-1,3.0479977E-2,2.1176147E-1,-3.8248543E-3,3.567453E-2,6.866365E-2,1.1443736E-1,5.2461624E-3,6.971964E-2,2.0597087E-1,8.594971E-2,3.6768195E-1,8.763982E-2],"categories":[],"categories_nodes":[],"categories_segments":[],"categories_sizes":[],"default_left":[0,1,0,0,0,1,0,0,0,0,0,1,1,0,0,0,0,0,0,0,0,0,0,0,0,0,0,0,0,0,0,0,0],"id":3,"left_children":[1,3,-1,5,7,9,11,13,15,17,19,21,23,25,27,29,31,-1,-1,-1,-1,-1,-1,-1,-1,-1,-1,-1,-1,-1,-1,-1,-1],"loss_changes":[5.052272E3,2.0673218E3,0E0,4.6646674E2,3.2438818E2,6.3027313E1,1.294358E2,2.3727222E2,1.1289819E2,2.5803986E1,3.658664E1,1.15734085E2,8.745457E1,1.401018E2,1.5929666E2,1.728689E2,1.6833472E2,0E0,0E0,0E0,0E0,0E0,0E0,0E0,0E0,0E0,0E0,0E0,0E0,0E0,0E0,0E0,0E0],"parents":[2147483647,0,0,1,1,3,3,4,4,5,5,6,6,7,7,8,8,9,9,10,10,11,11,12,12,13,13,14,14,15,15,16,16],"right_children":[2,4,-1,6,8,10,12,14,16,18,20,22,24,26,28,30,32,-1,-1,-1,-1,-1,-1,-1,-1,-1,-1,-1,-1,-1,-1,-1,-1],"split_conditions":[2.00001E0,3.58E0,-9.338552E-2,3.6666667E0,6E0,1.4938421E0,9.836727E2,1.0981981E3,1.6875E-1,3.4914032E-1,1.625E0,4.6666665E0,3.75E-2,1E0,6.732173E-2,8.5875E0,9.6966656E2,-4.3669205E-2,-7.235425E-2,-2.7629176E-2,1.05480134E-1,3.0479977E-2,2.1176147E-1,-3.8248543E-3,3.567453E-2,6.866365E-2,1.1443736E-1,5.2461624E-3,6.971964E-2,2.0597087E-1,8.594971E-2,3.6768195E-1,8.763982E-2],"split_indices":[81,35,0,0,56,48,84,83,60,78,54,2,60,81,43,67,82,0,0,0,0,0,0,0,0,0,0,0,0,0,0,0,0],"split_type":[0,0,0,0,0,0,0,0,0,0,0,0,0,0,0,0,0,0,0,0,0,0,0,0,0,0,0,0,0,0,0,0,0],"sum_hessian":[4.156E3,3.113E3,1.043E3,1.881E3,1.232E3,3.69E2,1.512E3,1.078E3,1.54E2,3.5E2,1.9E1,5.01E2,1.011E3,6.83E2,3.95E2,1.31E2,2.3E1,2.21E2,1.29E2,1E1,9E0,4.93E2,8E0,8.44E2,1.67E2,3.36E2,3.47E2,1.63E2,2.32E2,4.9E1,8.2E1,1.3E1,1E1],"tree_param":{"num_deleted":"0","num_feature":"85","num_nodes":"33","size_leaf_vector":"1"}},{"base_weights":[1.9502493E-2,6.093344E-1,-8.871023E-2,-1.0124183E-1,1.4365175E0,-5.8225405E-1,2.2531228E-1,1.2100501E0,2.7272298E0,-1.2355609E0,-4.0376768E-1,6.428783E-1,-7.2517835E-2,-6.882135E-1,1.2997962E0,5.6363006E0,2.2949312E0,-6.720846E-2,-2.222853E-2,-7.4914866E-3,-4.052881E-2,6.850773E-3,6.133314E-2,1.6010964E-1,-5.3163706E-3,-5.2140024E-2,1.0914803E-4,9.803763E-2,5.3849667E-2,1.4510718E-1,3.9839324E-1,1.0021162E-1,2.4645364E-1],"categories":[],"categories_nodes":[],"categories_segments":[],"categories_sizes":[],"default_left":[0,1,0,1,0,0,0,0,0,1,0,0,0,0,0,0,0,0,0,0,0,0,0,0,0,0,0,0,0,0,0,0,0],"id":4,"left_children":[1,3,-1,5,7,9,11,13,15,17,19,21,23,25,27,29,31,-1,-1,-1,-1,-1,-1,-1,-1,-1,-1,-1,-1,-1,-1,-1,-1],"loss_changes":[4.3779673E3,1.8304819E3,0E0,2.6339145E2,4.1732544E2,7.856024E1,1.24285995E2,2.0975793E2,2.5618884E2,1.18591E1,5.5042953E1,1.2268292E2,6.499897E1,1.3711386E1,1.7033337E2,1.4899738E2,1.3408038E2,0E0,0E0,0E0,0E0,0E0,0E0,0E0,0E0,0E0,0E0,0E0,0E0,0E0,0E0,0E0,0E0],"parents":[2147483647,0,0,1,1,3,3,4,4,5,5,6,6,7,7,8,8,9,9,10,10,11,11,12,12,13,13,14,14,15,15,16,16],"right_children":[2,4,-1,6,8,10,12,14,16,18,20,22,24,26,28,30,32,-1,-1,-1,-1,-1,-1,-1,-1,-1,-1,-1,-1,-1,-1,-1,-1],"split_conditions":[2.00001E0,2.925E0,-8.871023E-2,1.0666667E1,5.428571E0,1.375E0,9.528758E2,1.6719308E-1,8.92788E2,9E1,1.1015328E3,1.0452125E-1,1.1E1,2.857143E-1,9.5736255E2,5.7518995E-1,3.5949638E-1,-6.720846E-2,-2.222853E-2,-7.4914866E-3,-4.052881E-2,6.850773E-3,6.133314E-2,1.6010964E-1,-5.3163706E-3,-5.2140024E-2,1.0914803E-4,9.803763E-2,5.3849667E-2,1.4510718E-1,3.9839324E-1,1.0021162E-1,2.4645364E-1],"split_indices":[81,62,0,0,56,54,82,69,84,25,84,61,0,64,84,69,24,0,0,0,0,0,0,0,0,0,0,0,0,0,0,0,0],"split_type":[0,0,0,0,0,0,0,0,0,0,0,0,0,0,0,0,0,0,0,0,0,0,0,0,0,0,0,0,0,0,0,0,0],"sum_hessian":[4.136E3,3.113E3,1.023E3,1.675E3,1.438E3,6.77E2,9.98E2,1.225E3,2.13E2,1.44E2,5.33E2,4.15E2,5.83E2,5.5E1,1.17E3,2.6E1,1.87E2,1.26E2,1.8E1,3.29E2,2.04E2,2.23E2,1.92E2,5E0,5.78E2,3.6E1,1.9E1,2.93E2,8.77E2,1.3E1,1.3E1,1.7E2,1.7E1],"tree_param":{"num_deleted":"0","num_feature":"85","num_nodes":"33","size_leaf_vector":"1"}},{"base_weights":[1.2351298E-2,5.7999635E-1,-8.42837E-2,-1.59763E-2,1.4921826E0,-6.7581356E-1,2.527119E-1,5.442716E-1,1.7452453E0,-5.0946295E-1,-1.3350159E0,-1.5795527E-1,4.9383724E-1,9.3402344E-1,-1.6564855E-1,1.5933318E0,3.4345844E0,-2.7902484E-2,6.268859E-2,-6.926605E-2,4.5210447E-2,-1.0003439E-2,3.407675E-1,2.8671235E-2,-4.1730918E-2,3.8578194E-2,2.2801857E-1,-4.142741E-2,2.9570563E-2,5.5918552E-2,1.0361049E-1,4.248189E-1,1.15441576E-1],"categories":[],"categories_nodes":[],"categories_segments":[],"categories_sizes":[],"default_left":[0,1,0,0,0,0,1,0,0,0,1,1,0,0,0,0,0,0,0,0,0,0,0,0,0,0,0,0,0,0,0,0,0],"id":5,"left_children":[1,3,-1,5,7,9,11,13,15,17,19,21,23,25,27,29,31,-1,-1,-1,-1,-1,-1,-1,-1,-1,-1,-1,-1,-1,-1,-1,-1],"loss_changes":[3.9933506E3,1.6880199E3,0E0,3.332996E2,2.9338428E2,5.8974167E1,1.3237173E2,7.20948E1,2.4294849E2,3.8051697E1,1.3530899E1,1.4673038E2,8.950192E1,9.545607E1,4.71625E1,2.0011157E2,4.3055133E2,0E0,0E0,0E0,0E0,0E0,0E0,0E0,0E0,0E0,0E0,0E0,0E0,0E0,0E0,0E0,0E0],"parents":[2147483647,0,0,1,1,3,3,4,4,5,5,6,6,7,7,8,8,9,9,10,10,11,11,12,12,13,13,14,14,15,15,16,16],"right_children":[2,4,-1,6,8,10,12,14,16,18,20,22,24,26,28,30,32,-1,-1,-1,-1,-1,-1,-1,-1,-1,-1,-1,-1,-1,-1,-1,-1],"split_conditions":[2.00001E0,3.5E0,-8.42837E-2,8.333333E0,2.985682E-1,7.112903E-1,5.375E-2,4.932E-1,1.55E-1,4.4125E1,4.5E0,7.5E-1,2.5E0,5.171642E-1,3.9333335E-1,1E0,9.079158E2,-2.7902484E-2,6.268859E-2,-6.926605E-2,4.5210447E-2,-1.0003439E-2,3.407675E-1,2.8671235E-2,-4.1730918E-2,3.8578194E-2,2.2801857E-1,-4.142741E-2,2.9570563E-2,5.5918552E-2,1.0361049E-1,4.248189E-1,1.15441576E-1],"split_indices":[81,35,0,0,69,74,59,48,60,54,21,73,22,73,5,81,84,0,0,0,0,0,0,0,0,0,0,0,0,0,0,0,0],"split_type":[0,0,0,0,0,0,0,0,0,0,0,0,0,0,0,0,0,0,0,0,0,0,0,0,0,0,0,0,0,0,0,0,0],"sum_hessian":[4.141E3,3.104E3,1.037E3,1.878E3,1.226E3,5.43E2,1.335E3,2.59E2,9.67E2,4.35E2,1.08E2,4.94E2,8.41E2,1.67E2,9.2E1,8.89E2,7.8E1,4.24E2,1.1E1,1.06E2,2E0,4.92E2,2E0,7.94E2,4.7E1,1.61E2,6E0,4.9E1,4.3E1,4.48E2,4.41E2,1.3E1,6.5E1],"tree_param":{"num_deleted":"0","num_feature":"85","num_nodes":"33","size_leaf_vector":"1"}},{"base_weights":[2.61384E-3,5.366087E-1,-8.007275E-2,-3.044818E-2,1.4032677E0,-3.909774E-1,3.9547578E-1,4.6498418E-1,1.6256976E0,-9.260075E-1,-1.9648406E-1,1.153369E0,2.0570172E-1,-4.3094635E-2,1.4135104E0,1.4508777E0,2.9102516E0,-4.797058E-2,5.148053E-2,-1.0820544E-2,2.3921481E-1,1.8502238E-1,3.9575066E-2,9.241431E-3,3.620728E-1,-5.5210676E-2,1.6945694E-2,1.0672462E-1,-2.6593318E-3,8.1369035E-2,1.9365622E-2,7.914438E-2,1.9053476E-1],"categories":[],"categories_nodes":[],"categories_segments":[],"categories_sizes":[],"default_left":[0,1,0,1,0,0,0,0,0,0,1,0,0,0,0,1,0,0,0,0,0,0,0,0,0,0,0,0,0,0,0,0,0],"id":6,"left_children":[1,3,-1,5,7,9,11,13,15,17,19,21,23,25,27,29,31,-1,-1,-1,-1,-1,-1,-1,-1,-1,-1,-1,-1,-1,-1,-1,-1],"loss_changes":[3.51877E3,1.514676E3,0E0,2.863868E2,2.536521E2,1.0491846E2,1.2273605E2,1.1331352E2,2.1697485E2,1.8560394E1,7.467974E1,1.5468274E2,9.925937E1,6.2799126E1,8.6825424E1,1.6250049E2,1.3380835E2,0E0,0E0,0E0,0E0,0E0,0E0,0E0,0E0,0E0,0E0,0E0,0E0,0E0,0E0,0E0,0E0],"parents":[2147483647,0,0,1,1,3,3,4,4,5,5,6,6,7,7,8,8,9,9,10,10,11,11,12,12,13,13,14,14,15,15,16,16],"right_children":[2,4,-1,6,8,10,12,14,16,18,20,22,24,26,28,30,32,-1,-1,-1,-1,-1,-1,-1,-1,-1,-1,-1,-1,-1,-1,-1,-1],"split_conditions":[2.00001E0,3.56E0,-8.007275E-2,2.5E-1,2.1534845E-2,6.666667E-2,2.240664E0,4.0375E-1,7.5E-1,5.375E0,1.7075E1,7.786788E2,8.68E1,4.2E0,1.1999249E3,1.2525405E3,8.00894E-1,-4.797058E-2,5.148053E-2,-1.0820544E-2,2.3921481E-1,1.8502238E-1,3.9575066E-2,9.241431E-3,3.620728E-1,-5.5210676E-2,1.6945694E-2,1.0672462E-1,-2.6593318E-3,8.1369035E-2,1.9365622E-2,7.914438E-2,1.9053476E-1],"split_indices":[81,35,0,55,16,8,25,61,57,63,66,82,27,13,82,82,77,0,0,0,0,0,0,0,0,0,0,0,0,0,0,0,0],"split_type":[0,0,0,0,0,0,0,0,0,0,0,0,0,0,0,0,0,0,0,0,0,0,0,0,0,0,0,0,0,0,0,0,0],"sum_hessian":[4.106E3,3.081E3,1.025E3,1.863E3,1.218E3,1.009E3,8.54E2,2.34E2,9.84E2,2.68E2,7.41E2,1.7E2,6.84E2,1.53E2,8.1E1,8.68E2,1.16E2,2.64E2,4E0,7.39E2,2E0,2E1,1.5E2,6.83E2,1E0,4E1,1.13E2,5.4E1,2.7E1,7.44E2,1.24E2,4.8E1,6.8E1],"tree_param":{"num_deleted":"0","num_feature":"85","num_nodes":"33","size_leaf_vector":"1"}},{"base_weights":[-1.6201736E-2,4.9779958E-1,-7.607208E-2,1.8694464E-4,1.3074173E0,-2.4583505E-1,7.076233E-1,8.108809E-1,1.7232796E0,-5.972673E-1,7.59258E-3,1.066068E0,2.2047447E-2,-4.7342652E-1,1.0507923E0,1.9552467E0,7.4451023E-1,-1.2822084E-2,-4.1915953E-2,8.1752844E-2,-3.291819E-3,6.866596E-2,-6.2196683E-3,3.1466022E-1,-2.5714177E-3,5.527539E-2,-3.8487528E-2,4.5667853E-2,1.4237814E-1,9.122721E-2,2.0526306E-1,2.2292964E-1,2.598892E-2],"categories":[],"categories_nodes":[],"categories_segments":[],"categories_sizes":[],"default_left":[0,1,0,1,0,0,0,0,0,1,0,0,0,0,0,0,0,0,0,0,0,0,0,0,0,0,0,0,0,0,0,0,0],"id":7,"left_children":[1,3,-1,5,7,9,11,13,15,17,19,21,23,25,27,29,31,-1,-1,-1,-1,-1,-1,-1,-1,-1,-1,-1,-1,-1,-1,-1,-1],"loss_changes":[3.230935E3,1.2541528E3,0E0,3.359066E2,2.4329407E2,1.2754226E2,1.22355545E2,1.674986E2,1.4475977E2,4.9078995E1,9.9653656E1,1.1977786E2,7.95775E1,4.1088318E1,1.1025064E2,1.3863611E2,1.0201661E2,0E0,0E0,0E0,0E0,0E0,0E0,0E0,0E0,0E0,0E0,0E0,0E0,0E0,0E0,0E0,0E0],"parents":[2147483647,0,0,1,1,3,3,4,4,5,5,6,6,7,7,8,8,9,9,10,10,11,11,12,12,13,13,14,14,15,15,16,16],"right_children":[2,4,-1,6,8,10,12,14,16,18,20,22,24,26,28,30,32,-1,-1,-1,-1,-1,-1,-1,-1,-1,-1,-1,-1,-1,-1,-1,-1],"split_conditions":[2.00001E0,3.0791798E-1,-7.607208E-2,1.3333333E1,2.857143E-1,1.3333334E-2,2.58E-1,8.3192E-3,1.2460419E3,9.97538E2,1.9354838E0,1.1722216E3,2.5E-2,3.266234E-1,1.55E-1,1.8E-1,4.4522967E0,-1.2822084E-2,-4.1915953E-2,8.1752844E-2,-3.291819E-3,6.866596E-2,-6.2196683E-3,3.1466022E-1,-2.5714177E-3,5.527539E-2,-3.8487528E-2,4.5667853E-2,1.4237814E-1,9.122721E-2,2.0526306E-1,2.2292964E-1,2.598892E-2],"split_indices":[81,69,0,11,57,7,34,16,82,84,52,84,66,69,60,60,79,0,0,0,0,0,0,0,0,0,0,0,0,0,0,0,0],"split_type":[0,0,0,0,0,0,0,0,0,0,0,0,0,0,0,0,0,0,0,0,0,0,0,0,0,0,0,0,0,0,0,0,0],"sum_hessian":[4.174E3,3.112E3,1.062E3,1.928E3,1.184E3,1.431E3,4.97E2,5.41E2,6.43E2,5.99E2,8.32E2,3.26E2,1.71E2,8.5E1,4.56E2,5.19E2,1.24E2,2.49E2,3.5E2,3.5E1,7.97E2,2.59E2,6.7E1,1E0,1.7E2,1.3E1,7.2E1,4.25E2,3.1E1,4.91E2,2.8E1,6E0,1.18E2],"tree_param":{"num_deleted":"0","num_feature":"85","num_nodes":"33","size_leaf_vector":"1"}},{"base_weights":[-3.759266E-2,4.3597108E-1,-1.3539709E0,-2.1350992E-1,1.0053954E0,-9.63683E-1,-1.4429245E0,-8.441654E-1,-3.716434E-2,9.369712E-1,3.4473736E0,-1.2334616E0,5.502147E-1,-7.229485E-2,-3.9540213E-3,1.610835E-1,-8.675979E-1,-1.4623813E-1,5.975525E-1,6.9324416E-1,1.4249598E0,-8.9822197E-1,4.438012E0,-1.2688018E0,1.2377673E-1,3.3864727E0,-5.363076E-1,-4.4281904E-2,1.18121386E-1,-9.992175E-3,7.281326E-2,2.4249208E-1,2.3046687E-2,2.9799962E-2,8.732038E-2,1.6601685E-2,8.663089E-2,-5.632749E-2,2.3209995E-2,4.2266652E-1,1.6765855E-1,-6.797278E-2,-1.7314373E-2,6.403493E-2,3.5855606E-1,-4.41049E-2,1.08912885E-1],"categories":[],"categories_nodes":[],"categories_segments":[],"categories_sizes":[],"default_left":[0,1,0,0,0,0,0,0,1,0,0,1,0,0,0,0,0,1,0,0,0,0,0,0,0,0,0,0,0,0,0,0,0,0,0,0,0,0,0,0,0,0,0,0,0,0,0],"id":8,"left_children":[1,3,5,7,9,11,13,15,17,19,21,23,25,-1,-1,-1,27,29,31,33,35,37,39,41,-1,43,45,-1,-1,-1,-1,-1,-1,-1,-1,-1,-1,-1,-1,-1,-1,-1,-1,-1,-1,-1,-1],"loss_changes":[2.5895247E3,1.1300463E3,3.6763916E1,1.5878122E2,2.6879346E2,8.5221054E1,3.5062256E0,3.2520203E1,7.741838E1,1.8752563E2,1.9340253E2,2.6210419E1,1.0042924E2,0E0,0E0,0E0,2.021428E1,8.224226E1,9.303909E1,1.0741641E2,1.7662708E2,3.3226528E0,1.2846991E2,1.4164368E1,0E0,6.254248E1,2.444953E1,0E0,0E0,0E0,0E0,0E0,0E0,0E0,0E0,0E0,0E0,0E0,0E0,0E0,0E0,0E0,0E0,0E0,0E0,0E0,0E0],"parents":[2147483647,0,0,1,1,2,2,3,3,4,4,5,5,6,6,7,7,8,8,9,9,10,10,11,11,12,12,16,16,17,17,18,18,19,19,20,20,21,21,22,22,23,23,25,25,26,26],"right_children":[2,4,6,8,10,12,14,16,18,20,22,24,26,-1,-1,-1,28,30,32,34,36,38,40,42,-1,44,46,-1,-1,-1,-1,-1,-1,-1,-1,-1,-1,-1,-1,-1,-1,-1,-1,-1,-1,-1,-1],"split_conditions":[3.151442E3,3.84E1,1.2E-3,5E-2,1.3043479E0,1.1E1,1.8E2,-2E-1,2.8899366E-1,8.2666664E1,1.633875E-2,3.525696E0,3.6144578E-1,-7.229485E-2,-3.9540213E-3,1.610835E-1,8E-1,2.7666667E-1,1.9396552E0,4.4806063E-1,2.5E-1,1.37E1,8.2411816E2,4.368932E-1,1.2377673E-1,4.5E-1,7.546838E-1,-4.4281904E-2,1.18121386E-1,-9.992175E-3,7.281326E-2,2.4249208E-1,2.3046687E-2,2.9799962E-2,8.732038E-2,1.6601685E-2,8.663089E-2,-5.632749E-2,2.3209995E-2,4.2266652E-1,1.6765855E-1,-6.797278E-2,-1.7314373E-2,6.403493E-2,3.5855606E-1,-4.41049E-2,1.08912885E-1],"split_indices":[82,27,75,13,44,12,0,29,15,0,60,23,17,0,0,0,64,7,25,24,57,8,82,71,0,44,77,0,0,0,0,0,0,0,0,0,0,0,0,0,0,0,0,0,0,0,0],"split_type":[0,0,0,0,0,0,0,0,0,0,0,0,0,0,0,0,0,0,0,0,0,0,0,0,0,0,0,0,0,0,0,0,0,0,0,0,0,0,0,0,0,0,0,0,0,0,0],"sum_hessian":[4.152E3,3.054E3,1.098E3,1.427E3,1.627E3,2.06E2,8.92E2,3.11E2,1.116E3,1.584E3,4.3E1,1.75E2,3.1E1,8.9E2,2E0,1E0,3.1E2,9.53E2,1.63E2,1.058E3,5.26E2,8E0,3.5E1,1.74E2,1E0,8E0,2.3E1,3.09E2,1E0,9.23E2,3E1,4E0,1.59E2,9.7E2,8.8E1,1.16E2,4.1E2,7E0,1E0,6E0,2.9E1,1.58E2,1.6E1,6E0,2E0,2.1E1,2E0],"tree_param":{"num_deleted":"0","num_feature":"85","num_nodes":"47","size_leaf_vector":"1"}},{"base_weights":[6.59348E-3,4.7410935E-1,-1.2729739E0,-7.884873E-2,1.1237035E0,-8.303468E-1,-1.37232E0,-4.9965036E-1,1.3999435E-1,1.0424005E0,3.488877E0,-1.2072641E0,6.701697E-1,-6.875528E-2,-3.8222235E-3,-5.245394E-1,2.156426E-1,1.1405145E-1,4.1040854E0,1.3165596E0,5.543064E-1,4.197401E0,1.09679304E-1,-1.2440602E0,1.20682314E-1,2.9501405E-1,2.6115713E-1,9.556234E-2,-2.7718483E-2,-4.250482E-3,2.5648355E-2,-3.419074E-2,3.0780044E-1,6.363265E-2,2.4716532E-1,1.1583846E-2,7.9347424E-2,1.5408555E-1,3.7249947E-1,7.789201E-2,-6.802087E-2,-6.693853E-2,-2.4760343E-2,-2.0410264E-2,1.0314747E-1],"categories":[],"categories_nodes":[],"categories_segments":[],"categories_sizes":[],"default_left":[0,1,0,0,0,0,0,0,1,0,0,1,0,0,0,0,0,1,0,0,0,0,0,0,0,0,0,0,0,0,0,0,0,0,0,0,0,0,0,0,0,0,0,0,0],"id":9,"left_children":[1,3,5,7,9,11,13,15,17,19,21,23,25,-1,-1,27,-1,29,31,33,35,37,39,41,-1,-1,43,-1,-1,-1,-1,-1,-1,-1,-1,-1,-1,-1,-1,-1,-1,-1,-1,-1,-1],"loss_changes":[2.481414E3,1.0913333E3,4.7670776E1,1.5128096E2,2.6500037E2,1.1731662E2,3.1617432E0,6.957779E1,1.10702034E2,1.8018848E2,1.09674805E2,2.4986557E1,8.83047E1,0E0,0E0,4.174922E1,0E0,8.540784E1,7.298039E1,1.3144983E2,1.622148E2,1.1493878E2,2.1279745E1,1.0968613E1,0E0,0E0,4.908419E1,0E0,0E0,0E0,0E0,0E0,0E0,0E0,0E0,0E0,0E0,0E0,0E0,0E0,0E0,0E0,0E0,0E0,0E0],"parents":[2147483647,0,0,1,1,2,2,3,3,4,4,5,5,6,6,7,7,8,8,9,9,10,10,11,11,12,12,15,15,17,17,18,18,19,19,20,20,21,21,22,22,23,23,26,26],"right_children":[2,4,6,8,10,12,14,16,18,20,22,24,26,-1,-1,28,-1,30,32,34,36,38,40,42,-1,-1,44,-1,-1,-1,-1,-1,-1,-1,-1,-1,-1,-1,-1,-1,-1,-1,-1,-1,-1],"split_conditions":[3.151442E3,2.925E0,1.2E-3,1.3333334E-2,1.8E-1,5.72E0,1.8E2,3.62E0,4.2E0,1.0991368E3,3.6666667E-1,3.525696E0,2.857143E-1,-6.875528E-2,-3.8222235E-3,-6E-1,2.156426E-1,3.4941334E-2,6.9230767E-3,5.4125E1,5.0625E-1,2.4324324E0,5.027933E-1,6.96E0,1.20682314E-1,2.9501405E-1,5.433864E-1,9.556234E-2,-2.7718483E-2,-4.250482E-3,2.5648355E-2,-3.419074E-2,3.0780044E-1,6.363265E-2,2.4716532E-1,1.1583846E-2,7.9347424E-2,1.5408555E-1,3.7249947E-1,7.789201E-2,-6.802087E-2,-6.693853E-2,-2.4760343E-2,-2.0410264E-2,1.0314747E-1],"split_indices":[82,62,75,7,60,40,0,35,29,83,47,23,68,0,0,36,0,16,20,65,61,49,18,39,0,0,42,0,0,0,0,0,0,0,0,0,0,0,0,0,0,0,0,0,0],"split_type":[0,0,0,0,0,0,0,0,0,0,0,0,0,0,0,0,0,0,0,0,0,0,0,0,0,0,0,0,0,0,0,0,0,0,0,0,0,0,0,0,0,0,0,0,0],"sum_hessian":[4.146E3,3.037E3,1.109E3,1.641E3,1.396E3,2.05E2,9.04E2,5.61E2,1.08E3,1.351E3,4.5E1,1.64E2,4.1E1,9.02E2,2E0,5.59E2,2E0,1.074E3,6E0,8.64E2,4.87E2,3.7E1,8E0,1.63E2,1E0,2E0,3.9E1,6E0,5.53E2,7.17E2,3.57E2,2E0,4E0,8.55E2,9E0,3.72E2,1.15E2,2.9E1,8E0,4E0,4E0,1.44E2,1.9E1,2.9E1,1E1],"tree_param":{"num_deleted":"0","num_feature":"85","num_nodes":"45","size_leaf_vector":"1"}},{"base_weights":[1.0857733E-2,4.522735E-1,-6.530573E-2,-2.2536242E-2,1.0998583E0,-1.9714376E-1,6.163756E-1,8.1288105E-1,1.6512988E0,-9.12334E-1,-1.1466212E-1,9.222535E-1,-3.828767E-1,9.124501E-1,-9.624007E-1,1.4984661E0,4.8164268E0,-5.191114E-2,-3.995633E-3,-8.973104E-3,2.545241E-2,1.322823E-1,3.6108106E-2,1.5872428E-1,-2.9262403E-2,2.6069263E-2,6.5598354E-2,-6.1983842E-2,7.7959955E-2,-1.0402985E-2,8.308691E-2,-6.2333237E-2,3.205058E-1],"categories":[],"categories_nodes":[],"categories_segments":[],"categories_sizes":[],"default_left":[0,1,0,1,0,0,0,0,0,1,1,0,0,0,0,0,0,0,0,0,0,0,0,0,0,0,0,0,0,0,0,0,0],"id":10,"left_children":[1,3,-1,5,7,9,11,13,15,17,19,21,23,25,27,29,31,-1,-1,-1,-1,-1,-1,-1,-1,-1,-1,-1,-1,-1,-1,-1,-1],"loss_changes":[2.3852158E3,9.449093E2,0E0,1.9802684E2,2.0438391E2,8.2127556E1,1.16805435E2,1.523642E2,2.0756091E2,1.5007141E1,5.065227E1,9.878148E1,6.664959E1,1.2618036E2,3.409516E1,1.18762634E2,2.01245E2,0E0,0E0,0E0,0E0,0E0,0E0,0E0,0E0,0E0,0E0,0E0,0E0,0E0,0E0,0E0,0E0],"parents":[2147483647,0,0,1,1,3,3,4,4,5,5,6,6,7,7,8,8,9,9,10,10,11,11,12,12,13,13,14,14,15,15,16,16],"right_children":[2,4,-1,6,8,10,12,14,16,18,20,22,24,26,28,30,32,-1,-1,-1,-1,-1,-1,-1,-1,-1,-1,-1,-1,-1,-1,-1,-1],"split_conditions":[2.00001E0,3.2875E0,-6.530573E-2,2.7E0,4.4125E-1,1.5E0,1.1466749E3,1.006701E0,1.2461538E0,9E1,7.5102276E-1,1.2857144E-1,1.72E0,1E0,8E-1,7E0,3.2998696E-2,-5.191114E-2,-3.995633E-3,-8.973104E-3,2.545241E-2,1.322823E-1,3.6108106E-2,1.5872428E-1,-2.9262403E-2,2.6069263E-2,6.5598354E-2,-6.1983842E-2,7.7959955E-2,-1.0402985E-2,8.308691E-2,-6.2333237E-2,3.205058E-1],"split_indices":[81,62,0,8,61,54,84,19,46,25,46,21,35,81,64,80,51,0,0,0,0,0,0,0,0,0,0,0,0,0,0,0,0],"split_type":[0,0,0,0,0,0,0,0,0,0,0,0,0,0,0,0,0,0,0,0,0,0,0,0,0,0,0,0,0,0,0,0,0],"sum_hessian":[4.101E3,3.072E3,1.029E3,1.773E3,1.299E3,1.393E3,3.8E2,8.56E2,4.43E2,1.43E2,1.25E3,2.91E2,8.9E1,8.11E2,4.5E1,4.24E2,1.9E1,1.24E2,1.9E1,1.133E3,1.17E2,2.9E1,2.62E2,4E0,8.5E1,4.11E2,4E2,4.1E1,4E0,3.7E1,3.87E2,4E0,1.5E1],"tree_param":{"num_deleted":"0","num_feature":"85","num_nodes":"33","size_leaf_vector":"1"}},{"base_weights":[3.0933099E-2,4.643973E-1,-6.2083554E-2,3.199368E-2,1.1456786E0,-1.6571876E-1,5.962407E-1,2.995829E-1,1.3715258E0,-5.0442904E-1,7.386755E-2,1.3026516E0,3.0460313E-1,-4.1584473E-2,9.141462E-1,4.8527488E-1,1.5682232E0,-1.7293182E-3,-3.8898934E-2,1.0222789E-1,3.167932E-4,2.9514313E-2,1.17729746E-1,3.830502E-1,1.1978151E-2,1.42463865E-2,-7.493098E-2,1.6392028E-2,1.6205777E-1,-9.089023E-3,7.0713274E-2,1.2719615E-1,6.616682E-2],"categories":[],"categories_nodes":[],"categories_segments":[],"categories_sizes":[],"default_left":[0,1,0,1,0,0,0,0,0,0,0,0,0,0,0,0,0,0,0,0,0,0,0,0,0,0,0,0,0,0,0,0,0],"id":11,"left_children":[1,3,-1,5,7,9,11,13,15,17,19,21,23,25,27,29,31,-1,-1,-1,-1,-1,-1,-1,-1,-1,-1,-1,-1,-1,-1,-1,-1],"loss_changes":[2.266666E3,9.0287714E2,0E0,2.0938287E2,2.2698425E2,1.1283625E2,9.9933E1,5.2874588E1,1.6292847E2,7.400365E1,1.0845053E2,1.0502037E2,1.6371231E2,7.797258E1,1.2172788E2,1.0684343E2,1.8013635E2,0E0,0E0,0E0,0E0,0E0,0E0,0E0,0E0,0E0,0E0,0E0,0E0,0E0,0E0,0E0,0E0],"parents":[2147483647,0,0,1,1,3,3,4,4,5,5,6,6,7,7,8,8,9,9,10,10,11,11,12,12,13,13,14,14,15,15,16,16],"right_children":[2,4,-1,6,8,10,12,14,16,18,20,22,24,26,28,30,32,-1,-1,-1,-1,-1,-1,-1,-1,-1,-1,-1,-1,-1,-1,-1,-1],"split_conditions":[2.00001E0,3.56E0,-6.2083554E-2,1.2E-1,2.985682E-1,3.75E-3,9.5736255E2,6.94E1,2.2867508E-2,2.2868264E-1,1.9354838E0,1.275E1,1.3214286E-1,4.3875E0,3.7250084E-1,4.55E-1,7.55E0,-1.7293182E-3,-3.8898934E-2,1.0222789E-1,3.167932E-4,2.9514313E-2,1.17729746E-1,3.830502E-1,1.1978151E-2,1.42463865E-2,-7.493098E-2,1.6392028E-2,1.6205777E-1,-9.089023E-3,7.0713274E-2,1.2719615E-1,6.616682E-2],"split_indices":[81,35,0,5,69,60,84,27,16,77,52,65,19,62,77,61,67,0,0,0,0,0,0,0,0,0,0,0,0,0,0,0,0],"split_type":[0,0,0,0,0,0,0,0,0,0,0,0,0,0,0,0,0,0,0,0,0,0,0,0,0,0,0,0,0,0,0,0,0],"sum_hessian":[4.107E3,3.064E3,1.043E3,1.875E3,1.189E3,1.389E3,4.86E2,2.51E2,9.38E2,5.75E2,8.14E2,1.41E2,3.45E2,1.62E2,8.9E1,1.71E2,7.67E2,2.12E2,3.63E2,2.6E1,7.88E2,8.5E1,5.6E1,2E0,3.43E2,1.33E2,2.9E1,7.2E1,1.7E1,1E2,7.1E1,1.52E2,6.15E2],"tree_param":{"num_deleted":"0","num_feature":"85","num_nodes":"33","size_leaf_vector":"1"}},{"base_weights":[-3.532553E-2,3.5244432E-1,-5.8965277E-2,-9.634786E-2,9.1588527E-1,-6.6543835E-1,8.9614786E-2,8.304846E-1,3.4648519E0,-7.34029E-1,8.3164793E-1,3.947974E-1,-1.2849134E-1,7.935824E-1,5.16313E0,6.882681E0,2.3893335E0,-1.8193481E-2,-4.5684412E-2,-6.6957705E-2,1.1047726E-1,1.0240356E-2,6.41298E-2,8.139068E-2,-8.433263E-3,4.5973357E-2,-6.005407E-3,4.5485207E-1,8.078017E-2,1.08628176E-1,3.8943198E-1,3.2750502E-1,6.513099E-2],"categories":[],"categories_nodes":[],"categories_segments":[],"categories_sizes":[],"default_left":[0,1,0,0,0,0,0,0,0,0,0,1,0,0,0,0,0,0,0,0,0,0,0,0,0,0,0,0,0,0,0,0,0],"id":12,"left_children":[1,3,-1,5,7,9,11,13,15,17,19,21,23,25,27,29,31,-1,-1,-1,-1,-1,-1,-1,-1,-1,-1,-1,-1,-1,-1,-1,-1],"loss_changes":[1.831157E3,7.7967993E2,0E0,1.8176903E2,2.9469556E2,4.404666E1,8.624878E1,2.075896E2,1.452962E2,2.6601074E1,5.979062E1,9.08208E1,5.3616123E1,1.5124646E2,1.38815E2,2.5750397E1,1.4972241E2,0E0,0E0,0E0,0E0,0E0,0E0,0E0,0E0,0E0,0E0,0E0,0E0,0E0,0E0,0E0,0E0],"parents":[2147483647,0,0,1,1,3,3,4,4,5,5,6,6,7,7,8,8,9,9,10,10,11,11,12,12,13,13,14,14,15,15,16,16],"right_children":[2,4,-1,6,8,10,12,14,16,18,20,22,24,26,28,30,32,-1,-1,-1,-1,-1,-1,-1,-1,-1,-1,-1,-1,-1,-1,-1,-1],"split_conditions":[2.00001E0,4.6625E1,-5.8965277E-2,1.6666667E-1,1.8E-1,1.1404151E-1,1.02019653E3,1.40625E0,8.88237E2,1.7873524E-1,2.2305475E-1,4E-2,1.9354838E0,3.5433072E-1,1.4938421E0,1.7333334E1,4.7666666E-1,-1.8193481E-2,-4.5684412E-2,-6.6957705E-2,1.1047726E-1,1.0240356E-2,6.41298E-2,8.139068E-2,-8.433263E-3,4.5973357E-2,-6.005407E-3,4.5485207E-1,8.078017E-2,1.08628176E-1,3.8943198E-1,3.2750502E-1,6.513099E-2],"split_indices":[81,54,0,13,60,70,84,48,84,50,73,6,52,72,48,9,21,0,0,0,0,0,0,0,0,0,0,0,0,0,0,0,0],"split_type":[0,0,0,0,0,0,0,0,0,0,0,0,0,0,0,0,0,0,0,0,0,0,0,0,0,0,0,0,0,0,0,0,0],"sum_hessian":[4.126E3,3.082E3,1.044E3,1.716E3,1.366E3,4.22E2,1.294E3,1.323E3,4.3E1,4.04E2,1.8E1,5.39E2,7.55E2,1.313E3,1E1,9E0,3.4E1,1.33E2,2.71E2,7E0,1.1E1,4.45E2,9.4E1,1.6E1,7.39E2,1.154E3,1.59E2,4E0,6E0,2E0,7E0,6E0,2.8E1],"tree_param":{"num_deleted":"0","num_feature":"85","num_nodes":"33","size_leaf_vector":"1"}},{"base_weights":[-2.7592075E-3,3.720298E-1,-5.6030907E-2,-1.6714507E-1,8.6493105E-1,-6.4064205E-1,-1.1854642E-2,6.532979E-1,1.4961272E0,-6.9128954E-1,9.0684617E-1,4.7094774E-2,-8.409693E-1,8.111596E-1,-1.1705091E-1,4.4388123E0,1.3477883E0,-2.6152482E-2,-5.034669E-2,1.0729891E-1,-3.4497447E-2,9.407072E-4,2.4611835E-1,1.5698221E-1,-4.9757402E-2,4.675108E-2,-8.310353E-3,-1.3928058E-2,1.3930456E-1,-5.928879E-2,3.0088773E-1,-4.5285686E-3,7.856633E-2],"categories":[],"categories_nodes":[],"categories_segments":[],"categories_sizes":[],"default_left":[0,1,0,0,0,1,1,1,0,0,0,1,0,0,0,0,0,0,0,0,0,0,0,0,0,0,0,0,0,0,0,0,0],"id":13,"left_children":[1,3,-1,5,7,9,11,13,15,17,19,21,23,25,27,29,31,-1,-1,-1,-1,-1,-1,-1,-1,-1,-1,-1,-1,-1,-1,-1,-1],"loss_changes":[1.7303076E3,8.221402E2,0E0,1.08669075E2,2.1489124E2,2.9234283E1,5.4487274E1,1.474845E2,1.7080585E2,1.8272125E1,2.52243E1,1.4343605E2,4.8540142E1,1.2194031E2,9.783574E1,1.7587277E2,1.2457367E2,0E0,0E0,0E0,0E0,0E0,0E0,0E0,0E0,0E0,0E0,0E0,0E0,0E0,0E0,0E0,0E0],"parents":[2147483647,0,0,1,1,3,3,4,4,5,5,6,6,7,7,8,8,9,9,10,10,11,11,12,12,13,13,14,14,15,15,16,16],"right_children":[2,4,-1,6,8,10,12,14,16,18,20,22,24,26,28,30,32,-1,-1,-1,-1,-1,-1,-1,-1,-1,-1,-1,-1,-1,-1,-1,-1],"split_conditions":[2.00001E0,3.88E1,-5.6030907E-2,3.6666667E0,3.9125E-1,2.5240622E0,1.0495031E0,1.1723721E3,2.84E-1,3.7976083E-1,7.3333335E-1,1.0135136E0,2.25E0,3.9473686E-1,1.5E-1,1.86E-1,1.28E1,-2.6152482E-2,-5.034669E-2,1.0729891E-1,-3.4497447E-2,9.407072E-4,2.4611835E-1,1.5698221E-1,-4.9757402E-2,4.675108E-2,-8.310353E-3,-1.3928058E-2,1.3930456E-1,-5.928879E-2,3.0088773E-1,-4.5285686E-3,7.856633E-2],"split_indices":[81,27,0,0,59,23,75,84,34,78,12,73,65,72,60,34,39,0,0,0,0,0,0,0,0,0,0,0,0,0,0,0,0],"split_type":[0,0,0,0,0,0,0,0,0,0,0,0,0,0,0,0,0,0,0,0,0,0,0,0,0,0,0,0,0,0,0,0,0],"sum_hessian":[4.128E3,3.092E3,1.036E3,1.477E3,1.615E3,3.64E2,1.113E3,1.211E3,4.04E2,3.53E2,1.1E1,1.04E3,7.3E1,1.005E3,2.06E2,1.8E1,3.86E2,2.32E2,1.21E2,6E0,5E0,1.035E3,5E0,2E0,7.1E1,8.92E2,1.13E2,1.96E2,1E1,4E0,1.4E1,5.2E1,3.34E2],"tree_param":{"num_deleted":"0","num_feature":"85","num_nodes":"33","size_leaf_vector":"1"}},{"base_weights":[-6.2140925E-3,3.451947E-1,-5.3242203E-2,-1.679662E-1,7.9752094E-1,-2.0801136E-1,1.5212259E0,5.9692806E-1,1.5300366E0,4.196938E-1,-2.8853813E-1,6.487104E-1,3.951457E-1,8.831077E-1,1.4239217E-1,3.9542656E0,1.3428807E0,-1.4500089E-2,8.547438E-2,-1.9957695E-2,9.346462E-3,-1.7541517E-2,1.3914146E-1,4.0715083E-2,1.6396624E-1,-2.8548768E-2,2.212842E-2,8.4943675E-2,3.583733E-1,8.5944E-2,1.0616241E-2],"categories":[],"categories_nodes":[],"categories_segments":[],"categories_sizes":[],"default_left":[0,1,0,1,0,0,0,0,0,0,0,0,0,0,0,0,0,0,0,0,0,0,0,0,0,0,0,0,0,0,0],"id":14,"left_children":[1,3,-1,5,7,9,11,13,15,17,19,21,-1,23,25,27,29,-1,-1,-1,-1,-1,-1,-1,-1,-1,-1,-1,-1,-1,-1],"loss_changes":[1.5464491E3,7.2456854E2,0E0,9.9279526E1,2.4285583E2,7.2403404E1,1.8418945E2,1.6949716E2,1.562102E2,1.4969957E2,6.6764046E1,6.710359E1,0E0,1.2922894E2,1.08391365E2,1.6899902E2,1.4076434E2,0E0,0E0,0E0,0E0,0E0,0E0,0E0,0E0,0E0,0E0,0E0,0E0,0E0,0E0],"parents":[2147483647,0,0,1,1,3,3,4,4,5,5,6,6,7,7,8,8,9,9,10,10,11,11,13,13,14,14,15,15,16,16],"right_children":[2,4,-1,6,8,10,12,14,16,18,20,22,-1,24,26,28,30,-1,-1,-1,-1,-1,-1,-1,-1,-1,-1,-1,-1,-1,-1],"split_conditions":[2.00001E0,3.84E1,-5.3242203E-2,1.45E1,5.8888674E-1,2.8421052E0,1.1233334E1,1.1225239E3,7.6337256E2,1.5E0,3.3333334E-1,9.231305E-1,3.951457E-1,1.25E0,2.7266111E-2,2.1875E1,4.9E1,-1.4500089E-2,8.547438E-2,-1.9957695E-2,9.346462E-3,-1.7541517E-2,1.3914146E-1,4.0715083E-2,1.6396624E-1,-2.8548768E-2,2.212842E-2,8.4943675E-2,3.583733E-1,8.5944E-2,1.0616241E-2],"split_indices":[81,27,0,63,69,52,13,82,82,9,10,50,0,64,24,63,11,0,0,0,0,0,0,0,0,0,0,0,0,0,0],"split_type":[0,0,0,0,0,0,0,0,0,0,0,0,0,0,0,0,0,0,0,0,0,0,0,0,0,0,0,0,0,0,0],"sum_hessian":[4.155E3,3.12E3,1.035E3,1.462E3,1.658E3,1.429E3,3.3E1,1.303E3,3.55E2,1.62E2,1.267E3,3E1,3E0,7.99E2,5.04E2,2.4E1,3.31E2,1.05E2,5.7E1,1.028E3,2.39E2,2.1E1,9E0,7.78E2,2.1E1,1.49E2,3.55E2,1.5E1,9E0,2.48E2,8.3E1],"tree_param":{"num_deleted":"0","num_feature":"85","num_nodes":"31","size_leaf_vector":"1"}},{"base_weights":[1.8238874E-2,3.703535E-1,-9.3616015E-1,-6.383781E-2,9.3138385E-1,-6.1267823E-1,-1.0107926E0,-3.935979E-1,1.9878411E-1,1.2407434E0,4.3112326E-1,-7.777762E-1,1.7660414E0,-5.0640386E-2,-3.4680683E-3,-2.6873088E-1,-8.308926E-1,1.8293271E0,1.22976616E-1,1.1730244E0,5.0169373E0,-1.87374E-2,1.076666E0,-8.176795E-1,1.0442511E-1,5.5897503E0,-3.2241732E-1,-1.5554564E-2,8.14416E-2,-4.5397166E-2,-4.881248E-3,-1.5196043E-2,1.8023948E-1,3.5927128E-3,1.3960744E-1,-8.555869E-3,6.3728146E-2,3.4196565E-1,-6.2441498E-2,-6.4757913E-3,1.7764358E-1,2.3468976E-1,4.5383345E-2,-4.331294E-2,8.626054E-3,1.16210654E-1,3.496019E-1,1.0934099E-1,-6.1153956E-2],"categories":[],"categories_nodes":[],"categories_segments":[],"categories_sizes":[],"default_left":[0,1,0,0,0,0,0,0,0,0,0,0,0,0,0,0,1,0,1,0,0,0,0,0,0,0,0,0,0,0,0,0,0,0,0,0,0,0,0,0,0,0,0,0,0,0,0,0,0],"id":15,"left_children":[1,3,5,7,9,11,13,15,17,19,21,23,25,-1,-1,27,29,31,33,35,37,39,41,43,-1,45,47,-1,-1,-1,-1,-1,-1,-1,-1,-1,-1,-1,-1,-1,-1,-1,-1,-1,-1,-1,-1,-1,-1],"loss_changes":[1.3865853E3,7.342533E2,2.6226868E1,1.4730203E2,2.0297498E2,8.423787E1,1.6408691E0,4.09479E1,1.1683122E2,2.0175964E2,1.4638394E2,2.4353806E1,1.13601456E2,0E0,0E0,4.777104E1,9.346649E0,1.601706E2,1.2342705E2,1.09267334E2,1.6840121E2,1.1836601E2,1.2227699E2,9.577698E0,0E0,6.6451416E0,2.5274393E1,0E0,0E0,0E0,0E0,0E0,0E0,0E0,0E0,0E0,0E0,0E0,0E0,0E0,0E0,0E0,0E0,0E0,0E0,0E0,0E0,0E0,0E0],"parents":[2147483647,0,0,1,1,2,2,3,3,4,4,5,5,6,6,7,7,8,8,9,9,10,10,11,11,12,12,15,15,16,16,17,17,18,18,19,19,20,20,21,21,22,22,23,23,25,25,26,26],"right_children":[2,4,6,8,10,12,14,16,18,20,22,24,26,-1,-1,28,30,32,34,36,38,40,42,44,-1,46,48,-1,-1,-1,-1,-1,-1,-1,-1,-1,-1,-1,-1,-1,-1,-1,-1,-1,-1,-1,-1,-1,-1],"split_conditions":[3.151442E3,3.16E0,1.2E-3,1.5333333E1,1.09532E3,5.2536035E-1,1.8E2,4.2857143E-1,1.875E0,8.5E0,3.8875E-1,1.4437172E-1,6.5666666E0,-5.0640386E-2,-3.4680683E-3,1.8367347E0,8.842105E-1,1.5E0,1.2089552E1,6.725E0,1.1277847E3,3.8166377E-1,2.54E-1,9.330707E-1,1.0442511E-1,6.14E0,8.318991E-1,-1.5554564E-2,8.14416E-2,-4.5397166E-2,-4.881248E-3,-1.5196043E-2,1.8023948E-1,3.5927128E-3,1.3960744E-1,-8.555869E-3,6.3728146E-2,3.4196565E-1,-6.2441498E-2,-6.4757913E-3,1.7764358E-1,2.3468976E-1,4.5383345E-2,-4.331294E-2,8.626054E-3,1.16210654E-1,3.496019E-1,1.0934099E-1,-6.1153956E-2],"split_indices":[82,35,75,0,83,42,0,47,52,29,61,43,8,0,0,72,75,25,52,66,84,16,34,77,0,35,50,0,0,0,0,0,0,0,0,0,0,0,0,0,0,0,0,0,0,0,0,0,0],"split_type":[0,0,0,0,0,0,0,0,0,0,0,0,0,0,0,0,0,0,0,0,0,0,0,0,0,0,0,0,0,0,0,0,0,0,0,0,0,0,0,0,0,0,0,0,0,0,0,0,0],"sum_hessian":[4.124E3,3.013E3,1.111E3,1.699E3,1.314E3,2.1E2,9.01E2,7.53E2,9.46E2,8.11E2,5.03E2,1.97E2,1.3E1,8.99E2,2E0,5.87E2,1.66E2,4.1E1,9.05E2,7.98E2,1.3E1,2.97E2,2.06E2,1.95E2,2E0,4E0,9E0,5.75E2,1.2E1,1.5E2,1.6E1,1.9E1,2.2E1,8.89E2,1.6E1,5.6E1,7.42E2,1E1,3E0,2.89E2,8E0,8E0,1.98E2,1.86E2,9E0,2E0,2E0,2E0,7E0],"tree_param":{"num_deleted":"0","num_feature":"85","num_nodes":"49","size_leaf_vector":"1"}},{"base_weights":[-3.187617E-3,3.116917E-1,-4.811729E-2,-1.0793278E-1,8.0618817E-1,1.9707764E-2,-4.945748E-1,2.5262076E-1,1.0234721E0,2.4567011E-1,-2.6298127E-1,2.0665493E0,-5.243836E-1,-1.386996E-1,8.2374436E-1,1.1972352E0,1.9747618E-1,4.7019847E-2,-3.9617563E-4,-1.4191783E-2,1.858747E-1,1.3999115E-1,-2.1663621E-2,-1.7946154E-2,-3.7257597E-2,4.005626E-2,-2.8955653E-2,1.353868E-1,1.4579684E-2,7.050099E-2,1.2045191E-2,4.981966E-3,2.2264646E-1],"categories":[],"categories_nodes":[],"categories_segments":[],"categories_sizes":[],"default_left":[0,1,0,0,0,1,0,1,1,0,0,0,1,0,0,0,0,0,0,0,0,0,0,0,0,0,0,0,0,0,0,0,0],"id":16,"left_children":[1,3,-1,5,7,9,11,13,15,17,19,21,23,25,27,29,31,-1,-1,-1,-1,-1,-1,-1,-1,-1,-1,-1,-1,-1,-1,-1,-1],"loss_changes":[1.2452227E3,6.441758E2,0E0,8.2919754E1,1.7114233E2,8.080524E1,3.291915E1,9.018164E1,1.465924E2,1.2386078E2,4.7706936E1,1.0378353E1,1.4818794E1,9.9802704E1,1.6363148E2,1.7161145E2,7.408121E1,0E0,0E0,0E0,0E0,0E0,0E0,0E0,0E0,0E0,0E0,0E0,0E0,0E0,0E0,0E0,0E0],"parents":[2147483647,0,0,1,1,3,3,4,4,5,5,6,6,7,7,8,8,9,9,10,10,11,11,12,12,13,13,14,14,15,15,16,16],"right_children":[2,4,-1,6,8,10,12,14,16,18,20,22,24,26,28,30,32,-1,-1,-1,-1,-1,-1,-1,-1,-1,-1,-1,-1,-1,-1,-1,-1],"split_conditions":[2.00001E0,2.925E0,-4.811729E-2,5.027933E-1,2.8469035E-2,1.0538796E3,-6E-1,4.6391752E-1,1.2460419E3,3.1141868E0,1.3666667E-1,2.9375E1,4.383121E-2,4.225352E-1,1.74E-1,3.6E-1,1.0654411E0,4.7019847E-2,-3.9617563E-4,-1.4191783E-2,1.858747E-1,1.3999115E-1,-2.1663621E-2,-1.7946154E-2,-3.7257597E-2,4.005626E-2,-2.8955653E-2,1.353868E-1,1.4579684E-2,7.050099E-2,1.2045191E-2,4.981966E-3,2.2264646E-1],"split_indices":[81,62,0,18,16,84,36,17,82,52,6,54,69,22,34,72,73,0,0,0,0,0,0,0,0,0,0,0,0,0,0,0,0],"split_type":[0,0,0,0,0,0,0,0,0,0,0,0,0,0,0,0,0,0,0,0,0,0,0,0,0,0,0,0,0,0,0,0,0],"sum_hessian":[4.121E3,3.103E3,1.018E3,1.679E3,1.424E3,1.263E3,4.16E2,4.02E2,1.022E3,7.02E2,5.61E2,4E0,4.12E2,2.39E2,1.63E2,8.44E2,1.78E2,1.87E2,5.15E2,5.59E2,2E0,3E0,1E0,2.37E2,1.75E2,7.6E1,1.63E2,3.5E1,1.28E2,6.9E2,1.54E2,1.75E2,3E0],"tree_param":{"num_deleted":"0","num_feature":"85","num_nodes":"33","size_leaf_vector":"1"}},{"base_weights":[-2.0412147E-2,2.785522E-1,-4.5704786E-2,-1.4225934E-1,7.1616787E-1,5.2297395E-1,-2.390579E-1,8.816034E-1,7.499661E-2,-9.278247E-1,8.257148E-1,-3.148196E-1,3.252763E-1,8.326187E-1,3.3542712E0,-5.152112E-1,6.800475E-1,-5.720765E-2,1.6068342E-1,2.1451609E-1,2.8806126E-2,-1.6341433E-2,2.3148847E-1,3.1097166E-3,1.050625E-1,3.621475E-2,8.7420136E-2,2.2313152E-1,-7.641742E-2,-4.510661E-2,3.8725343E-2,9.466321E-3,1.1416316E-1],"categories":[],"categories_nodes":[],"categories_segments":[],"categories_sizes":[],"default_left":[0,1,0,0,0,0,0,0,0,0,0,0,1,0,0,0,0,0,0,0,0,0,0,0,0,0,0,0,0,0,0,0,0],"id":17,"left_children":[1,3,-1,5,7,9,11,13,15,17,19,21,23,25,27,29,31,-1,-1,-1,-1,-1,-1,-1,-1,-1,-1,-1,-1,-1,-1,-1,-1],"loss_changes":[1.098897E3,5.676637E2,0E0,1.0135178E2,1.6020947E2,8.8609314E1,5.88049E1,1.4267572E2,1.1141027E2,3.5034203E1,1.4107495E2,7.3422134E1,7.602725E1,1.1569171E2,1.3128946E2,7.95437E1,1.207244E2,0E0,0E0,0E0,0E0,0E0,0E0,0E0,0E0,0E0,0E0,0E0,0E0,0E0,0E0,0E0,0E0],"parents":[2147483647,0,0,1,1,3,3,4,4,5,5,6,6,7,7,8,8,9,9,10,10,11,11,12,12,13,13,14,14,15,15,16,16],"right_children":[2,4,-1,6,8,10,12,14,16,18,20,22,24,26,28,30,32,-1,-1,-1,-1,-1,-1,-1,-1,-1,-1,-1,-1,-1,-1,-1,-1],"split_conditions":[2.00001E0,2.7E0,-4.5704786E-2,2.2040815E0,1.1722216E3,7.317073E-2,3.3333334E-1,1.2E0,1E0,2.4333334E0,9.55725E-2,5.15E-1,1.45E-1,8.94E1,1.8098882E-1,1.3333334E0,1.3296196E-1,-5.720765E-2,1.6068342E-1,2.1451609E-1,2.8806126E-2,-1.6341433E-2,2.3148847E-1,3.1097166E-3,1.050625E-1,3.621475E-2,8.7420136E-2,2.2313152E-1,-7.641742E-2,-4.510661E-2,3.8725343E-2,9.466321E-3,1.1416316E-1],"split_indices":[81,8,0,25,84,48,10,30,81,8,48,61,61,27,78,14,70,0,0,0,0,0,0,0,0,0,0,0,0,0,0,0,0],"split_type":[0,0,0,0,0,0,0,0,0,0,0,0,0,0,0,0,0,0,0,0,0,0,0,0,0,0,0,0,0,0,0,0,0],"sum_hessian":[4.111E3,3.081E3,1.03E3,1.571E3,1.51E3,1.99E2,1.372E3,1.2E3,3.1E2,3.4E1,1.65E2,1.21E3,1.62E2,1.178E3,2.2E1,1.57E2,1.53E2,3.3E1,1E0,1E1,1.55E2,1.208E3,2E0,1.42E2,2E1,1.055E3,1.23E2,1.8E1,4E0,1.21E2,3.6E1,1.18E2,3.5E1],"tree_param":{"num_deleted":"0","num_feature":"85","num_nodes":"33","size_leaf_vector":"1"}},{"base_weights":[1.9573318E-2,3.259604E-1,-8.308418E-1,-2.0272266E-2,7.3232573E-1,-6.5359885E-1,-4.345256E-2,-3.6723292E-1,1.5103829E-1,4.5914406E-1,1.2276076E0,-6.806066E-1,1.1802343E-1,-3.8595378E-1,3.1623735E0,1.4172848E0,8.620541E-2,1.9602088E0,3.6969754E-1,2.85202E0,1.0331278E0,-1.5315388E-1,-8.426929E-1,-1.0090438E-2,-3.2095127E-2,-2.712152E-2,2.6429954E-1,1.9826E-1,1.6782288E-2,3.7112352E-3,3.1844577E-1,1.3464151E-1,-6.56411E-2,1.654219E-2,1.8215327E-1,1.09702826E-1,3.820195E-1,6.2429246E-2,-3.7794255E-3,-1.6147308E-2,1.2506895E-1,-4.3424018E-2,3.6378726E-2],"categories":[],"categories_nodes":[],"categories_segments":[],"categories_sizes":[],"default_left":[0,1,0,0,0,1,0,1,0,0,0,0,0,0,0,0,1,0,0,0,0,0,1,0,0,0,0,0,0,0,0,0,0,0,0,0,0,0,0,0,0,0,0],"id":18,"left_children":[1,3,5,7,9,11,-1,13,15,17,19,21,-1,23,25,27,29,31,33,35,37,39,41,-1,-1,-1,-1,-1,-1,-1,-1,-1,-1,-1,-1,-1,-1,-1,-1,-1,-1,-1,-1],"loss_changes":[1.0870507E3,4.3153247E2,6.9154053E0,9.8544266E1,1.9034735E2,1.7887161E1,0E0,3.7430855E1,9.100261E1,1.2159073E2,1.5532721E2,1.6884018E1,0E0,2.5604362E1,2.6470041E1,1.4748901E2,7.9089035E1,1.2582773E2,1.0829888E2,1.5021683E2,1.0735181E2,2.244233E1,6.7868423E0,0E0,0E0,0E0,0E0,0E0,0E0,0E0,0E0,0E0,0E0,0E0,0E0,0E0,0E0,0E0,0E0,0E0,0E0,0E0,0E0],"parents":[2147483647,0,0,1,1,2,2,3,3,4,4,5,5,7,7,8,8,9,9,10,10,11,11,13,13,14,14,15,15,16,16,17,17,18,18,19,19,20,20,21,21,22,22],"right_children":[2,4,6,8,10,12,-1,14,16,18,20,22,-1,24,26,28,30,32,34,36,38,40,42,-1,-1,-1,-1,-1,-1,-1,-1,-1,-1,-1,-1,-1,-1,-1,-1,-1,-1,-1,-1],"split_conditions":[3.2195593E3,2.25E0,1.2E-3,1.3333334E-2,8.2666664E1,3.525696E0,-4.345256E-2,2.7272727E0,1.9354838E0,2.616279E-2,8.88237E2,4.1538463E0,1.1802343E-1,2.5E-1,5.3333335E0,6.6E0,2.04E-1,5.487805E-1,1.0714285E0,1.0525056E0,3.3582088E-1,5E0,1.2676057E0,-1.0090438E-2,-3.2095127E-2,-2.712152E-2,2.6429954E-1,1.9826E-1,1.6782288E-2,3.7112352E-3,3.1844577E-1,1.3464151E-1,-6.56411E-2,1.654219E-2,1.8215327E-1,1.09702826E-1,3.820195E-1,6.2429246E-2,-3.7794255E-3,-1.6147308E-2,1.2506895E-1,-4.3424018E-2,3.6378726E-2],"split_indices":[83,56,75,7,0,23,0,17,52,19,84,25,0,48,0,38,33,45,72,15,72,29,17,0,0,0,0,0,0,0,0,0,0,0,0,0,0,0,0,0,0,0,0],"split_type":[0,0,0,0,0,0,0,0,0,0,0,0,0,0,0,0,0,0,0,0,0,0,0,0,0,0,0,0,0,0,0,0,0,0,0,0,0,0,0,0,0,0,0],"sum_hessian":[4.17E3,3.066E3,1.104E3,1.656E3,1.41E3,1.99E2,9.05E2,5.47E2,1.109E3,9.1E2,5E2,1.98E2,1E0,5.45E2,2E0,5.3E1,1.056E3,5E1,8.6E2,5.2E1,4.48E2,4.7E1,1.51E2,3.18E2,2.27E2,1E0,1E0,1.5E1,3.8E1,1.055E3,1E0,4.1E1,9E0,8.51E2,9E0,4.7E1,5E0,3.75E2,7.3E1,4.5E1,2E0,1.49E2,2E0],"tree_param":{"num_deleted":"0","num_feature":"85","num_nodes":"43","size_leaf_vector":"1"}},{"base_weights":[9.0546915E-3,2.8607982E-1,-4.127681E-2,-3.5991047E-2,8.850101E-1,-9.743038E-2,9.883135E-1,1.1230522E0,7.574604E-2,-3.7043217E-1,5.1579073E-2,1.5462935E0,-9.5970714E-1,2.039428E0,9.560295E-1,3.1048465E-1,2.5568642E-2,-9.772169E-3,-3.3216577E-2,5.7914026E-2,-3.0824132E-4,5.600219E-2,3.6280373E-1,-7.509789E-2,1.1990805E-1,-2.5215214E-2,1.3783582E-1,4.0216435E-2,1.2917602E-1,2.8835101E-2,-1.6249506E-2],"categories":[],"categories_nodes":[],"categories_segments":[],"categories_sizes":[],"default_left":[0,1,0,1,0,0,0,0,0,1,0,0,0,0,0,0,0,0,0,0,0,0,0,0,0,0,0,0,0,0,0],"id":19,"left_children":[1,3,-1,5,7,9,11,13,15,17,19,21,23,25,27,-1,29,-1,-1,-1,-1,-1,-1,-1,-1,-1,-1,-1,-1,-1,-1],"loss_changes":[9.52791E2,5.968583E2,0E0,1.26779594E2,2.0835016E2,7.7310814E1,1.2539704E2,1.2600488E2,7.586425E1,3.437908E1,7.8610596E1,2.0848041E2,5.0942894E1,2.3493762E2,1.7296814E2,0E0,4.771576E1,0E0,0E0,0E0,0E0,0E0,0E0,0E0,0E0,0E0,0E0,0E0,0E0,0E0,0E0],"parents":[2147483647,0,0,1,1,3,3,4,4,5,5,6,6,7,7,8,8,9,9,10,10,11,11,12,12,13,13,14,14,16,16],"right_children":[2,4,-1,6,8,10,12,14,16,18,20,22,24,26,28,-1,30,-1,-1,-1,-1,-1,-1,-1,-1,-1,-1,-1,-1,-1,-1],"split_conditions":[2.00001E0,4E0,-4.127681E-2,4.95E0,1.2438605E3,1.2E1,7.588491E-1,5.3731346E-1,6.2E0,1.1015328E3,1.9354838E0,3.040549E-1,6.413601E-1,1.9328956E-2,1.55E-1,3.1048465E-1,4.090909E-2,-9.772169E-3,-3.3216577E-2,5.7914026E-2,-3.0824132E-4,5.600219E-2,3.6280373E-1,-7.509789E-2,1.1990805E-1,-2.5215214E-2,1.3783582E-1,4.0216435E-2,1.2917602E-1,2.8835101E-2,-1.6249506E-2],"split_indices":[81,8,0,62,82,0,23,76,38,84,52,24,15,16,60,0,74,0,0,0,0,0,0,0,0,0,0,0,0,0,0],"split_type":[0,0,0,0,0,0,0,0,0,0,0,0,0,0,0,0,0,0,0,0,0,0,0,0,0,0,0,0,0,0,0],"sum_hessian":[4.119E3,3.093E3,1.026E3,2.012E3,1.081E3,1.899E3,1.13E2,8.35E2,2.46E2,6.7E2,1.229E3,8.8E1,2.5E1,1.27E2,7.08E2,1E0,2.45E2,4.21E2,2.49E2,6E1,1.169E3,8.3E1,5E0,2.2E1,3E0,2.8E1,9.9E1,6.49E2,5.9E1,9.5E1,1.5E2],"tree_param":{"num_deleted":"0","num_feature":"85","num_nodes":"31","size_leaf_vector":"1"}},{"base_weights":[2.3628227E-2,2.884276E-1,-3.923853E-2,-1.3238806E-1,6.7198133E-1,-1.505781E-1,4.467002E-1,9.799438E-2,9.009025E-1,-1.7639259E-1,1.5776235E0,9.3106043E-1,-2.0921123E-1,1.0599782E0,2.7600188E-2,-9.290554E-3,2.240883E-1,1.9346455E-1,-3.2727014E-2,3.5229463E-2,3.1353724E-1,-1.40416E-2,1.2359803E-1,6.397314E-2,9.166563E-3,1.647868E-1,-5.164148E-3],"categories":[],"categories_nodes":[],"categories_segments":[],"categories_sizes":[],"default_left":[0,1,0,1,0,1,0,0,0,1,0,0,0,1,0,0,0,0,0,0,0,0,0,0,0,0,0],"id":20,"left_children":[1,3,-1,5,7,9,-1,11,13,15,17,19,21,23,25,-1,-1,-1,-1,-1,-1,-1,-1,-1,-1,-1,-1],"loss_changes":[8.875195E2,5.0415808E2,0E0,2.4707321E2,2.1461566E2,6.666188E1,0E0,1.19710625E2,1.6223083E2,6.519417E1,1.1507091E2,1.4795154E2,6.636763E1,1.8986694E2,7.776203E1,0E0,0E0,0E0,0E0,0E0,0E0,0E0,0E0,0E0,0E0,0E0,0E0],"parents":[2147483647,0,0,1,1,3,3,4,4,5,5,7,7,8,8,9,9,10,10,11,11,12,12,13,13,14,14],"right_children":[2,4,-1,6,8,10,-1,12,14,16,18,20,22,24,26,-1,-1,-1,-1,-1,-1,-1,-1,-1,-1,-1,-1],"split_conditions":[2.00001E0,3.8666668E1,-3.923853E-2,8.066667E-1,3.0360604E-2,6.2375E1,4.467002E-1,1.00947186E3,3.6E-1,7.46E0,3.0508475E-2,7.58E-1,7.258065E-1,1.2438605E3,1.5000063E-1,-9.290554E-3,2.240883E-1,1.9346455E-1,-3.2727014E-2,3.5229463E-2,3.1353724E-1,-1.40416E-2,1.2359803E-1,6.397314E-2,9.166563E-3,1.647868E-1,-5.164148E-3],"split_indices":[81,0,0,7,16,54,0,83,72,35,47,34,18,82,15,0,0,0,0,0,0,0,0,0,0,0,0],"split_type":[0,0,0,0,0,0,0,0,0,0,0,0,0,0,0,0,0,0,0,0,0,0,0,0,0,0,0],"sum_hessian":[4.144E3,3.122E3,1.022E3,1.489E3,1.633E3,1.487E3,2E0,4.66E2,1.167E3,1.466E3,2.1E1,1.25E2,3.41E2,9.87E2,1.8E2,1.464E3,2E0,1E1,1.1E1,1.21E2,4E0,3.33E2,8E0,7.89E2,1.98E2,6E0,1.74E2],"tree_param":{"num_deleted":"0","num_feature":"85","num_nodes":"27","size_leaf_vector":"1"}},{"base_weights":[2.7383544E-2,2.8215873E-1,-3.7275594E-2,8.906881E-2,8.9924014E-1,4.1723898E-1,-8.220821E-2,3.635595E-1,1.4562902E0,3.2822058E-2,7.4653655E-1,-1.0007619E-1,5.4268503E0,1.9336265E-1,2.1818144E0,1.4600629E-1,1.7619717E0,-5.150323E-4,2.6701742E-1,9.987251E-2,2.5806699E-2,-9.692014E-3,2.2957139E-2,3.7606367E-1,7.6173864E-2,4.507591E-3,1.6548203E-1,-3.323601E-2,1.9614856E-1,7.048945E-2,-4.925487E-2,2.0092383E-1,7.6739356E-2],"categories":[],"categories_nodes":[],"categories_segments":[],"categories_sizes":[],"default_left":[0,1,0,1,0,0,1,0,0,0,0,1,0,0,0,0,0,0,0,0,0,0,0,0,0,0,0,0,0,0,0,0,0],"id":21,"left_children":[1,3,-1,5,7,9,11,13,15,17,19,21,23,25,27,29,31,-1,-1,-1,-1,-1,-1,-1,-1,-1,-1,-1,-1,-1,-1,-1,-1],"loss_changes":[8.0539404E2,3.6643207E2,0E0,1.3178586E2,2.1819843E2,1.0175189E2,1.5223257E2,1.156261E2,1.4353284E2,8.519647E1,1.23765564E2,8.068107E1,2.9418106E1,1.1034362E2,1.6120808E2,1.00022156E2,1.430116E2,0E0,0E0,0E0,0E0,0E0,0E0,0E0,0E0,0E0,0E0,0E0,0E0,0E0,0E0,0E0,0E0],"parents":[2147483647,0,0,1,1,3,3,4,4,5,5,6,6,7,7,8,8,9,9,10,10,11,11,12,12,13,13,14,14,15,15,16,16],"right_children":[2,4,-1,6,8,10,12,14,16,18,20,22,24,26,28,30,32,-1,-1,-1,-1,-1,-1,-1,-1,-1,-1,-1,-1,-1,-1,-1,-1],"split_conditions":[2.00001E0,1.6325E1,-3.7275594E-2,9.836176E2,1E0,1.826436E-2,5.32E1,9.275E0,5.714286E-1,1.4625E1,2.672595E-1,6.323185E-1,3.2E-1,1.4574898E0,3.3333335E-2,2.1077283E-1,1.2666667E1,-5.150323E-4,2.6701742E-1,9.987251E-2,2.5806699E-2,-9.692014E-3,2.2957139E-2,3.7606367E-1,7.6173864E-2,4.507591E-3,1.6548203E-1,-3.323601E-2,1.9614856E-1,7.048945E-2,-4.925487E-2,2.0092383E-1,7.6739356E-2],"split_indices":[81,66,0,84,81,43,38,62,55,63,50,44,7,44,6,72,63,0,0,0,0,0,0,0,0,0,0,0,0,0,0,0,0],"split_type":[0,0,0,0,0,0,0,0,0,0,0,0,0,0,0,0,0,0,0,0,0,0,0,0,0,0,0,0,0,0,0,0,0],"sum_hessian":[4.088E3,3.075E3,1.013E3,2.343E3,7.32E2,8.03E2,1.54E3,3.74E2,3.58E2,3.71E2,4.32E2,1.536E3,4E0,3.43E2,3.1E1,6.8E1,2.9E2,3.69E2,2E0,6.6E1,3.66E2,1.316E3,2.2E2,2E0,2E0,3.33E2,1E1,1.2E1,1.9E1,3.2E1,3.6E1,2.5E1,2.65E2],"tree_param":{"num_deleted":"0","num_feature":"85","num_nodes":"33","size_leaf_vector":"1"}},{"base_weights":[-1.1181264E-2,2.2136213E-1,-3.5394873E-2,-1.7571318E-1,5.550859E-1,7.2426714E-2,-3.6555788E-1,3.3898368E-1,1.0157397E0,-1.2550564E-1,7.40638E-1,-4.8172882E-1,1.4560078E-2,4.2052644E-1,-7.6458615E-1,1.8796792E0,6.835779E-1,3.0406594E-2,-1.5942564E-2,8.042147E-2,-5.64866E-4,-1.9817356E-2,-5.485604E-2,1.8161708E-1,-4.191417E-3,1.1219175E-1,1.7911078E-2,-5.6259878E-2,1.42484475E-2,8.2446836E-2,3.5328823E-1,1.4351831E-1,2.3610672E-2],"categories":[],"categories_nodes":[],"categories_segments":[],"categories_sizes":[],"default_left":[0,1,0,1,0,0,1,0,0,0,0,1,0,0,0,0,1,0,0,0,0,0,0,0,0,0,0,0,0,0,0,0,0],"id":22,"left_children":[1,3,-1,5,7,9,11,13,15,17,19,21,23,25,27,29,31,-1,-1,-1,-1,-1,-1,-1,-1,-1,-1,-1,-1,-1,-1,-1,-1],"loss_changes":[6.6685565E2,4.0903415E2,0E0,6.6448814E1,1.665982E2,8.103646E1,3.5289787E1,1.0317795E2,1.522428E2,6.728687E1,9.13714E1,3.1721603E1,6.722267E1,1.2018129E2,3.0220692E1,1.6545331E2,1.7798181E2,0E0,0E0,0E0,0E0,0E0,0E0,0E0,0E0,0E0,0E0,0E0,0E0,0E0,0E0,0E0,0E0],"parents":[2147483647,0,0,1,1,3,3,4,4,5,5,6,6,7,7,8,8,9,9,10,10,11,11,12,12,13,13,14,14,15,15,16,16],"right_children":[2,4,-1,6,8,10,12,14,16,18,20,22,24,26,28,30,32,-1,-1,-1,-1,-1,-1,-1,-1,-1,-1,-1,-1,-1,-1,-1,-1],"split_conditions":[2.00001E0,5.8E0,-3.5394873E-2,9.508469E2,5.166393E-1,1.4E1,1.3374332E-1,2.5E0,9.2E0,1.12038754E-1,5.999635E-2,1.9723281E-1,-6.666667E-1,1.8120805E0,2.3E-1,1.6666666E0,7.457155E2,3.0406594E-2,-1.5942564E-2,8.042147E-2,-5.64866E-4,-1.9817356E-2,-5.485604E-2,1.8161708E-1,-4.191417E-3,1.1219175E-1,1.7911078E-2,-5.6259878E-2,1.42484475E-2,8.2446836E-2,3.5328823E-1,1.4351831E-1,2.3610672E-2],"split_indices":[81,63,0,82,42,11,51,22,40,50,70,42,9,25,7,22,82,0,0,0,0,0,0,0,0,0,0,0,0,0,0,0,0],"split_type":[0,0,0,0,0,0,0,0,0,0,0,0,0,0,0,0,0,0,0,0,0,0,0,0,0,0,0,0,0,0,0,0,0],"sum_hessian":[4.114E3,3.085E3,1.029E3,1.409E3,1.676E3,6.11E2,7.98E2,1.142E3,5.34E2,4.72E2,1.39E2,6.11E2,1.87E2,1.064E3,7.8E1,1.47E2,3.87E2,9.8E1,3.74E2,6.4E1,7.5E1,5.38E2,7.3E1,4E0,1.83E2,3.4E1,1.03E3,5.8E1,2E1,1.42E2,5E0,3.3E1,3.54E2],"tree_param":{"num_deleted":"0","num_feature":"85","num_nodes":"33","size_leaf_vector":"1"}},{"base_weights":[-8.480645E-3,2.1096358E-1,-3.363911E-2,-2.592623E-1,4.2755243E-1,-3.1672868E-1,8.18246E-1,3.1329843E-1,1.0852413E0,2.8541176E-2,-4.6786147E-1,-2.4003512E-3,2.2773063E0,4.3632892E-1,-2.0915452E-1,9.398272E-1,4.391027E0,-1.1558375E-2,6.742901E-2,-2.6535843E-2,2.3859093E-2,6.701314E-2,-2.8087163E-2,2.2820508E-1,-4.2700768E-4,1.6598469E-2,5.289727E-2,-1.2235808E-2,3.0237946E-1,5.7538487E-2,-5.464487E-2,3.206117E-1,8.712652E-2],"categories":[],"categories_nodes":[],"categories_segments":[],"categories_sizes":[],"default_left":[0,0,0,0,1,0,0,0,0,0,1,0,0,1,1,0,0,0,0,0,0,0,0,0,0,0,0,0,0,0,0,0,0],"id":23,"left_children":[1,3,-1,5,7,9,11,13,15,17,19,21,23,25,27,29,31,-1,-1,-1,-1,-1,-1,-1,-1,-1,-1,-1,-1,-1,-1,-1,-1],"loss_changes":[6.035135E2,3.1705457E2,0E0,6.1065117E1,1.5979099E2,4.8698784E1,5.987409E1,1.1688376E2,1.4729611E2,9.801704E1,3.880452E1,2.553618E1,9.412971E1,9.507492E1,7.868751E1,1.3118045E2,5.8417557E1,0E0,0E0,0E0,0E0,0E0,0E0,0E0,0E0,0E0,0E0,0E0,0E0,0E0,0E0,0E0,0E0],"parents":[2147483647,0,0,1,1,3,3,4,4,5,5,6,6,7,7,8,8,9,9,10,10,11,11,12,12,13,13,14,14,15,15,16,16],"right_children":[2,4,-1,6,8,10,12,14,16,18,20,22,24,26,28,30,32,-1,-1,-1,-1,-1,-1,-1,-1,-1,-1,-1,-1,-1,-1,-1,-1],"split_conditions":[2.00001E0,1.258794E-1,-3.363911E-2,1.1666667E1,5.0625E-1,1.5115413E-1,1.2625E-1,1.1723721E3,2.5E0,5.1411055E-3,1.478364E0,1.05E0,1.8838E-1,5.3333335E0,2.0375E-1,1.3523908E0,9.221118E2,-1.1558375E-2,6.742901E-2,-2.6535843E-2,2.3859093E-2,6.701314E-2,-2.8087163E-2,2.2820508E-1,-4.2700768E-4,1.6598469E-2,5.289727E-2,-1.2235808E-2,3.0237946E-1,5.7538487E-2,-5.464487E-2,3.206117E-1,8.712652E-2],"split_indices":[81,69,0,9,61,50,59,84,49,43,23,40,61,2,60,23,82,0,0,0,0,0,0,0,0,0,0,0,0,0,0,0,0],"split_type":[0,0,0,0,0,0,0,0,0,0,0,0,0,0,0,0,0,0,0,0,0,0,0,0,0,0,0,0,0,0,0,0,0],"sum_hessian":[4.138E3,3.111E3,1.027E3,9.81E2,2.13E3,9.32E2,4.9E1,1.816E3,3.14E2,2.84E2,6.48E2,3.2E1,1.7E1,1.47E3,3.46E2,3.02E2,1.2E1,2.38E2,4.6E1,6.08E2,4E1,9E0,2.3E1,8E0,9E0,1.26E3,2.1E2,3.45E2,1E0,2.74E2,2.8E1,6E0,6E0],"tree_param":{"num_deleted":"0","num_feature":"85","num_nodes":"33","size_leaf_vector":"1"}},{"base_weights":[-1.7513193E-2,1.9237794E-1,-3.19754E-2,-2.6080903E-1,3.5142505E-1,-3.0437055E-1,9.108265E-1,4.4341233E-1,-1.8134253E-1,-4.1370612E-1,3.3869796E-2,4.5082846E0,-2.648905E-2,1.5974839E-1,7.4001896E-1,7.681047E-1,-3.4554747E-1,-1.2144617E-2,-3.851583E-2,9.842472E-3,-5.790314E-2,2.4404721E-1,6.612464E-2,7.747095E-2,-4.5564093E-2,4.3316702E-3,7.4340336E-2,3.5044324E-2,2.3811841E-1,1.012424E-2,1.8561493E-1,-1.9030808E-2,2.4297896E-1],"categories":[],"categories_nodes":[],"categories_segments":[],"categories_sizes":[],"default_left":[0,0,0,0,1,1,0,1,0,0,1,0,0,1,0,0,0,0,0,0,0,0,0,0,0,0,0,0,0,0,0,0,0],"id":24,"left_children":[1,3,-1,5,7,9,11,13,15,17,19,21,23,25,27,29,31,-1,-1,-1,-1,-1,-1,-1,-1,-1,-1,-1,-1,-1,-1,-1,-1],"loss_changes":[5.386467E2,2.224525E2,0E0,4.1209892E1,1.1201434E2,2.8637848E1,9.790605E1,1.6377988E2,5.280503E1,3.544757E1,3.713751E1,6.682968E-1,3.4876408E1,9.660798E1,1.4651166E2,8.251303E1,5.4420235E1,0E0,0E0,0E0,0E0,0E0,0E0,0E0,0E0,0E0,0E0,0E0,0E0,0E0,0E0,0E0,0E0],"parents":[2147483647,0,0,1,1,3,3,4,4,5,5,6,6,7,7,8,8,9,9,10,10,11,11,12,12,13,13,14,14,15,15,16,16],"right_children":[2,4,-1,6,8,10,12,14,16,18,20,22,24,26,28,30,32,-1,-1,-1,-1,-1,-1,-1,-1,-1,-1,-1,-1,-1,-1,-1,-1],"split_conditions":[2.00001E0,1.6E1,-3.19754E-2,1.1514595E-1,3.6144578E-1,4.9591836E-1,2.125E0,4.4818666E-2,3.901734E0,3.8737112E-1,4.285714E0,5E-1,4.1333333E-1,2.8213167E-1,2.0375E-1,1.0125E-1,1.9333333E0,-1.2144617E-2,-3.851583E-2,9.842472E-3,-5.790314E-2,2.4404721E-1,6.612464E-2,7.747095E-2,-4.5564093E-2,4.3316702E-3,7.4340336E-2,3.5044324E-2,2.3811841E-1,1.012424E-2,1.8561493E-1,-1.9030808E-2,2.4297896E-1],"split_indices":[81,0,0,70,72,73,67,16,52,75,17,2,19,72,60,60,19,0,0,0,0,0,0,0,0,0,0,0,0,0,0,0,0],"split_type":[0,0,0,0,0,0,0,0,0,0,0,0,0,0,0,0,0,0,0,0,0,0,0,0,0,0,0,0,0,0,0,0,0],"sum_hessian":[4.124E3,3.084E3,1.04E3,8.01E2,2.283E3,7.73E2,2.8E1,1.947E3,3.36E2,5.84E2,1.89E2,5E0,2.3E1,9.96E2,9.51E2,4.9E1,2.87E2,3.96E2,1.88E2,1.67E2,2.2E1,4E0,1E0,8E0,1.5E1,9.45E2,5.1E1,9.43E2,8E0,4.2E1,7E0,2.86E2,1E0],"tree_param":{"num_deleted":"0","num_feature":"85","num_nodes":"33","size_leaf_vector":"1"}},{"base_weights":[-2.8484284E-3,2.008955E-1,-3.0325493E-2,-3.0332045E-3,7.6690036E-1,1.0233767E-1,-3.939399E-1,-1.5819062E-1,1.0111854E0,7.334965E-2,1.7043515E0,-2.1491568E-1,-8.43835E-1,1.1845738E0,-6.395107E-1,1.1892117E0,-3.9541516E-1,-1.1201688E-2,1.11937E-2,4.5369245E-2,2.2105174E-1,-1.618847E-2,5.476287E-2,-4.4694558E-2,8.53328E-2,3.2188445E-2,3.3510414E-1,1.8025126E-2,-4.428662E-2,8.779707E-2,3.841198E-2,-3.4171503E-2,7.5811155E-2],"categories":[],"categories_nodes":[],"categories_segments":[],"categories_sizes":[],"default_left":[0,1,0,0,0,0,1,0,1,0,0,1,0,0,0,0,0,0,0,0,0,0,0,0,0,0,0,0,0,0,0,0,0],"id":25,"left_children":[1,3,-1,5,7,9,11,13,15,17,19,21,23,25,27,29,31,-1,-1,-1,-1,-1,-1,-1,-1,-1,-1,-1,-1,-1,-1,-1,-1],"loss_changes":[5.1177005E2,3.5908838E2,0E0,9.428346E1,1.8637234E2,8.36049E1,3.8962112E1,1.1256735E2,1.6373883E2,7.937097E1,6.5271805E1,5.012803E1,1.9143715E1,1.3294461E2,3.1836098E1,1.367873E2,4.177917E1,0E0,0E0,0E0,0E0,0E0,0E0,0E0,0E0,0E0,0E0,0E0,0E0,0E0,0E0,0E0,0E0],"parents":[2147483647,0,0,1,1,3,3,4,4,5,5,6,6,7,7,8,8,9,9,10,10,11,11,12,12,13,13,14,14,15,15,16,16],"right_children":[2,4,-1,6,8,10,12,14,16,18,20,22,24,26,28,30,32,-1,-1,-1,-1,-1,-1,-1,-1,-1,-1,-1,-1,-1,-1,-1,-1],"split_conditions":[2.00001E0,4.2916057E-1,-3.0325493E-2,2.3333333E0,1.4285715E-1,2.3499496E-1,6.796809E-2,5.962181E-1,1.3103077E3,2.225E0,2.9305375E-1,8.978388E-2,3.5146666E-1,5.7943296E-1,4E0,1.01E1,8.8E1,-1.1201688E-2,1.11937E-2,4.5369245E-2,2.2105174E-1,-1.618847E-2,5.476287E-2,-4.4694558E-2,8.53328E-2,3.2188445E-2,3.3510414E-1,1.8025126E-2,-4.428662E-2,8.779707E-2,3.841198E-2,-3.4171503E-2,7.5811155E-2],"split_indices":[81,15,0,22,64,16,42,77,83,67,61,51,5,77,66,40,54,0,0,0,0,0,0,0,0,0,0,0,0,0,0,0,0],"split_type":[0,0,0,0,0,0,0,0,0,0,0,0,0,0,0,0,0,0,0,0,0,0,0,0,0,0,0,0,0,0,0,0,0],"sum_hessian":[4.159E3,3.11E3,1.049E3,2.287E3,8.23E2,1.802E3,4.85E2,1.72E2,6.51E2,1.771E3,3.1E1,3.48E2,1.37E2,4.5E1,1.27E2,5.78E2,7.3E1,5.95E2,1.176E3,2.5E1,6E0,3.22E2,2.6E1,1.35E2,2E0,4.2E1,3E0,2.5E1,1.02E2,2.45E2,3.33E2,6.4E1,9E0],"tree_param":{"num_deleted":"0","num_feature":"85","num_nodes":"33","size_leaf_vector":"1"}},{"base_weights":[1.0846044E-2,2.757685E-1,-4.0162864E-1,6.191914E-3,7.700361E-1,-5.046667E-1,1.1971989E-1,-2.1275485E-1,2.815439E-1,6.381579E-1,1.7204969E0,-5.2234036E-1,1.4976879E0,-1.6800691E-1,1.0495064E0,-2.4849707E-1,1.6646626E0,1.9737929E-1,1.6664724E0,7.788687E-1,-4.0512198E-1,5.222841E0,1.2647821E0,-4.9003384E-1,-9.623661E-1,2.3252938E-2,4.440745E0,1.1775355E0,-3.5395443E-1,2.4474373E0,2.3970355E-1,4.9378254E-2,-1.5021669E-2,3.0318093E-1,1.4445679E-2,-7.493899E-3,2.2709986E-2,1.6410236E-1,1.2970589E-2,2.9644508E-2,7.9962924E-2,2.944158E-2,-5.6694087E-2,2.7156731E-2,3.3611974E-1,1.0565918E-1,1.2095305E-3,-2.6058087E-2,1.846694E-2,-5.351888E-2,6.433414E-3,-4.7854315E-2,7.439743E-2,3.0557057E-1,-1.4281347E-2,-9.816801E-3,1.6289882E-1,-7.4399835E-3,-6.490727E-2,1.7254323E-1,-4.8537534E-2,1.5823534E-1,-3.724976E-3],"categories":[],"categories_nodes":[],"categories_segments":[],"categories_sizes":[],"default_left":[0,1,1,0,0,1,1,1,1,0,0,1,0,0,0,0,0,1,0,0,0,0,0,1,0,0,0,0,0,0,0,0,0,0,0,0,0,0,0,0,0,0,0,0,0,0,0,0,0,0,0,0,0,0,0,0,0,0,0,0,0,0,0],"id":26,"left_children":[1,3,5,7,9,11,13,15,17,19,21,23,25,27,29,31,33,35,37,39,41,43,45,47,49,51,53,55,57,59,61,-1,-1,-1,-1,-1,-1,-1,-1,-1,-1,-1,-1,-1,-1,-1,-1,-1,-1,-1,-1,-1,-1,-1,-1,-1,-1,-1,-1,-1,-1,-1,-1],"loss_changes":[4.4900754E2,3.3336914E2,8.638641E1,9.772553E1,1.09581726E2,4.82742E1,7.1337845E1,6.1007725E1,8.336257E1,1.1437967E2,1.6417374E2,1.8449463E1,5.1968895E1,5.1457653E1,7.073239E1,5.7238995E1,1.0112974E2,6.0533993E1,9.235027E1,1.0356564E2,6.8032524E1,8.05585E1,1.0099074E2,3.3416565E1,1.0743713E1,1.4347182E1,3.3330338E1,7.209614E1,3.4673782E1,8.22377E1,3.7916615E1,0E0,0E0,0E0,0E0,0E0,0E0,0E0,0E0,0E0,0E0,0E0,0E0,0E0,0E0,0E0,0E0,0E0,0E0,0E0,0E0,0E0,0E0,0E0,0E0,0E0,0E0,0E0,0E0,0E0,0E0,0E0,0E0],"parents":[2147483647,0,0,1,1,2,2,3,3,4,4,5,5,6,6,7,7,8,8,9,9,10,10,11,11,12,12,13,13,14,14,15,15,16,16,17,17,18,18,19,19,20,20,21,21,22,22,23,23,24,24,25,25,26,26,27,27,28,28,29,29,30,30],"right_children":[2,4,6,8,10,12,14,16,18,20,22,24,26,28,30,32,34,36,38,40,42,44,46,48,50,52,54,56,58,60,62,-1,-1,-1,-1,-1,-1,-1,-1,-1,-1,-1,-1,-1,-1,-1,-1,-1,-1,-1,-1,-1,-1,-1,-1,-1,-1,-1,-1,-1,-1,-1,-1],"split_conditions":[1.1723721E3,3.9666667E0,1.2681561E3,1.15E-1,1.375E0,8.6875E1,1.6425E1,1.5929203E0,8.7666664E1,3.0346578E-1,1.422E1,1.8E1,7.5757575E-1,1.1750033E-1,1.2844779E3,1.8828452E0,2E-1,4.694852E-2,9.528758E2,2.0634113E-1,1.098E1,1.28E1,1.0501831E3,3.2666668E1,3.565E1,1.104E1,3.3333334E-1,2.35E0,4.52E0,8.25E1,3.7578288E-1,4.9378254E-2,-1.5021669E-2,3.0318093E-1,1.4445679E-2,-7.493899E-3,2.2709986E-2,1.6410236E-1,1.2970589E-2,2.9644508E-2,7.9962924E-2,2.944158E-2,-5.6694087E-2,2.7156731E-2,3.3611974E-1,1.0565918E-1,1.2095305E-3,-2.6058087E-2,1.846694E-2,-5.351888E-2,6.433414E-3,-4.7854315E-2,7.439743E-2,3.0557057E-1,-1.4281347E-2,-9.816801E-3,1.6289882E-1,-7.4399835E-3,-6.490727E-2,1.7254323E-1,-4.8537534E-2,1.5823534E-1,-3.724976E-3],"split_indices":[84,8,83,61,68,54,66,72,0,78,40,9,71,50,83,25,45,51,82,51,40,36,83,11,66,40,4,67,35,54,71,0,0,0,0,0,0,0,0,0,0,0,0,0,0,0,0,0,0,0,0,0,0,0,0,0,0,0,0,0,0,0,0],"split_type":[0,0,0,0,0,0,0,0,0,0,0,0,0,0,0,0,0,0,0,0,0,0,0,0,0,0,0,0,0,0,0,0,0,0,0,0,0,0,0,0,0,0,0,0,0,0,0,0,0,0,0,0,0,0,0,0,0,0,0,0,0,0,0],"sum_hessian":[4.107E3,2.501E3,1.606E3,1.619E3,8.82E2,1.341E3,2.65E2,9.02E2,7.17E2,7.76E2,1.06E2,1.33E3,1.1E1,2.03E2,6.2E1,8.86E2,1.6E1,6.77E2,4E1,6.84E2,9.2E1,1.1E1,9.5E1,1.241E3,8.9E1,8E0,3E0,2.4E1,1.79E2,2.2E1,4E1,3.5E1,8.51E2,3E0,1.3E1,2.88E2,3.89E2,1.8E1,2.2E1,5.59E2,1.25E2,3.9E1,5.3E1,3E0,8E0,5.6E1,3.9E1,1.198E3,4.3E1,8.1E1,8E0,5E0,3E0,2E0,1E0,1.5E1,9E0,1.48E2,3.1E1,1.7E1,5E0,3E0,3.7E1],"tree_param":{"num_deleted":"0","num_feature":"85","num_nodes":"63","size_leaf_vector":"1"}},{"base_weights":[8.396371E-3,1.9200599E-1,-2.7557084E-2,5.3010803E-2,9.0832496E-1,1.6227366E-1,-3.6153072E-1,3.697349E0,7.755579E-1,1.4879961E-1,5.7511883E0,-1.9365914E-1,-1.3770384E0,1.6418281E0,6.2053437E0,6.4013076E-1,3.6273649E0,3.4401085E-2,2.225405E-3,6.3412845E-2,3.2774284E-1,-1.2734169E-2,1.08849876E-1,-7.4867524E-2,3.3949394E-2,2.5807157E-2,2.1635023E-1,3.4127057E-1,1.24169126E-1,2.6229585E-2,1.4288878E-1,-6.1655524E-3,2.889708E-1],"categories":[],"categories_nodes":[],"categories_segments":[],"categories_sizes":[],"default_left":[0,1,0,0,0,0,1,0,0,1,0,1,0,0,0,0,0,0,0,0,0,0,0,0,0,0,0,0,0,0,0,0,0],"id":27,"left_children":[1,3,-1,5,7,9,11,13,15,17,19,21,23,25,27,29,31,-1,-1,-1,-1,-1,-1,-1,-1,-1,-1,-1,-1,-1,-1,-1,-1],"loss_changes":[4.299556E2,3.1368085E2,0E0,1.196348E2,1.8672128E2,1.565322E2,9.366496E1,1.08382324E2,1.8692188E2,1.1727828E2,9.700699E0,6.912684E1,2.0311142E1,4.0083923E1,6.1285706E0,1.18670166E2,1.7828885E2,0E0,0E0,0E0,0E0,0E0,0E0,0E0,0E0,0E0,0E0,0E0,0E0,0E0,0E0,0E0,0E0],"parents":[2147483647,0,0,1,1,3,3,4,4,5,5,6,6,7,7,8,8,9,9,10,10,11,11,12,12,13,13,14,14,15,15,16,16],"right_children":[2,4,-1,6,8,10,12,14,16,18,20,22,24,26,28,30,32,-1,-1,-1,-1,-1,-1,-1,-1,-1,-1,-1,-1,-1,-1,-1,-1],"split_conditions":[2.00001E0,3.625E-1,-2.7557084E-2,4.30622E-1,2.84E-1,2.0375E-1,1.098E1,5.7333332E1,6.949807E-1,8.927937E2,6.0666668E1,1.975E1,4.1E-1,7.18E0,1.37125E1,9.68E-1,2.0666666E1,3.4401085E-2,2.225405E-3,6.3412845E-2,3.2774284E-1,-1.2734169E-2,1.08849876E-1,-7.4867524E-2,3.3949394E-2,2.5807157E-2,2.1635023E-1,3.4127057E-1,1.24169126E-1,2.6229585E-2,1.4288878E-1,-6.1655524E-3,2.889708E-1],"split_indices":[81,59,0,45,34,60,40,0,18,84,0,36,74,40,67,32,12,0,0,0,0,0,0,0,0,0,0,0,0,0,0,0,0],"split_type":[0,0,0,0,0,0,0,0,0,0,0,0,0,0,0,0,0,0,0,0,0,0,0,0,0,0,0,0,0,0,0,0,0],"sum_hessian":[4.183E3,3.15E3,1.033E3,2.639E3,5.11E2,2.089E3,5.5E2,2.2E1,4.89E2,2.085E3,4E0,4.73E2,7.7E1,1.3E1,9E0,4.68E2,2.1E1,3.37E2,1.748E3,1E0,3E0,4.62E2,1.1E1,7.3E1,4E0,1E1,3E0,7E0,2E0,4.46E2,2.2E1,8E0,1.3E1],"tree_param":{"num_deleted":"0","num_feature":"85","num_nodes":"33","size_leaf_vector":"1"}},{"base_weights":[2.5316156E-2,2.867156E-1,-3.850999E-1,-7.106409E-2,5.747228E-1,-4.9102554E-1,1.0846755E-1,-1.7235276E-1,4.1600543E-1,4.759837E-1,1.367298E0,-5.2792615E-1,-5.98087E-4,-2.4957973E-1,8.309582E-1,5.0281547E-2,-3.9557022E-1,2.2518311E-1,4.334646E0,4.3714917E-1,2.9690447E0,4.5764822E-1,2.587013E0,-5.3425795E-1,1.555833E0,-2.2748417E-1,1.9279933E0,-3.7040177E-1,1.3130434E0,6.075225E0,6.5285325E-1,-8.540134E-3,3.3427764E-2,1.9322814E-2,-2.3081684E-2,2.3450991E-2,-7.669355E-2,1.6142469E-2,2.7173764E-1,6.7934826E-2,1.7234335E-2,3.4372855E-3,2.7862197E-1,-6.282398E-3,1.4848909E-1,2.855279E-1,8.1812E-2,-2.5961885E-2,-6.8820775E-2,9.100503E-3,9.76552E-2,4.6114703E-3,-8.0600664E-2,1.7196167E-1,-1.3554672E-2,3.8080394E-2,-2.7955754E-2,1.8727581E-1,-4.8975047E-2,9.170555E-2,3.6393633E-1,2.4261845E-2,2.7597988E-1],"categories":[],"categories_nodes":[],"categories_segments":[],"categories_sizes":[],"default_left":[0,0,1,1,1,1,1,0,0,1,0,1,1,1,0,0,0,0,0,0,0,0,0,1,0,0,0,0,0,0,0,0,0,0,0,0,0,0,0,0,0,0,0,0,0,0,0,0,0,0,0,0,0,0,0,0,0,0,0,0,0,0,0],"id":28,"left_children":[1,3,5,7,9,11,13,15,17,19,21,23,25,27,29,31,33,35,37,39,41,43,45,47,49,51,53,55,57,59,61,-1,-1,-1,-1,-1,-1,-1,-1,-1,-1,-1,-1,-1,-1,-1,-1,-1,-1,-1,-1,-1,-1,-1,-1,-1,-1,-1,-1,-1,-1,-1,-1],"loss_changes":[4.4501105E2,2.611521E2,8.443552E1,5.586916E1,1.0922366E2,2.405069E1,7.419153E1,4.6584915E1,1.448379E2,1.19723175E2,1.7079065E2,1.7138947E1,4.1570217E1,3.6735813E1,8.476659E1,6.435876E1,2.4356857E1,8.092782E1,3.796602E1,1.0450859E2,1.4307875E2,1.3225174E2,1.866618E2,1.488205E1,1.8276358E0,3.777416E1,3.4165836E1,3.8664753E1,8.174046E1,1.9625778E0,7.318606E1,0E0,0E0,0E0,0E0,0E0,0E0,0E0,0E0,0E0,0E0,0E0,0E0,0E0,0E0,0E0,0E0,0E0,0E0,0E0,0E0,0E0,0E0,0E0,0E0,0E0,0E0,0E0,0E0,0E0,0E0,0E0,0E0],"parents":[2147483647,0,0,1,1,2,2,3,3,4,4,5,5,6,6,7,7,8,8,9,9,10,10,11,11,12,12,13,13,14,14,15,15,16,16,17,17,18,18,19,19,20,20,21,21,22,22,23,23,24,24,25,25,26,26,27,27,28,28,29,29,30,30],"right_children":[2,4,6,8,10,12,14,16,18,20,22,24,26,28,30,32,34,36,38,40,42,44,46,48,50,52,54,56,58,60,62,-1,-1,-1,-1,-1,-1,-1,-1,-1,-1,-1,-1,-1,-1,-1,-1,-1,-1,-1,-1,-1,-1,-1,-1,-1,-1,-1,-1,-1,-1,-1,-1],"split_conditions":[1.1761234E3,3.85E1,1E0,6.792453E-1,8.650364E-1,1.3573916E3,5.3878333E-2,6.298336E-2,4.8E1,1.3432835E0,7.8375E1,2.25E0,1E0,8E-1,4.4570614E-2,4.9915197E-3,1.791284E-1,1.6625E1,6.59166E-3,8.7435504E2,7.5292654E-2,2.368421E0,7.04E0,5.2E1,7.1666664E1,3.52E-1,3.956044E0,9.0503596E-2,4.3333333E-2,6.7E1,2.46E1,-8.540134E-3,3.3427764E-2,1.9322814E-2,-2.3081684E-2,2.3450991E-2,-7.669355E-2,1.6142469E-2,2.7173764E-1,6.7934826E-2,1.7234335E-2,3.4372855E-3,2.7862197E-1,-6.282398E-3,1.4848909E-1,2.855279E-1,8.1812E-2,-2.5961885E-2,-6.8820775E-2,9.100503E-3,9.76552E-2,4.6114703E-3,-8.0600664E-2,1.7196167E-1,-1.3554672E-2,3.8080394E-2,-2.7955754E-2,1.8727581E-1,-4.8975047E-2,9.170555E-2,3.6393633E-1,2.4261845E-2,2.7597988E-1],"split_indices":[84,54,81,17,15,82,16,24,27,44,54,37,41,37,51,43,77,65,43,84,70,22,35,11,0,34,52,50,6,0,40,0,0,0,0,0,0,0,0,0,0,0,0,0,0,0,0,0,0,0,0,0,0,0,0,0,0,0,0,0,0,0,0],"split_type":[0,0,0,0,0,0,0,0,0,0,0,0,0,0,0,0,0,0,0,0,0,0,0,0,0,0,0,0,0,0,0,0,0,0,0,0,0,0,0,0,0,0,0,0,0,0,0,0,0,0,0,0,0,0,0,0,0,0,0,0,0,0,0],"sum_hessian":[4.146E3,2.533E3,1.613E3,1.13E3,1.403E3,1.328E3,2.85E2,9.36E2,1.94E2,1.249E3,1.54E2,1.235E3,9.3E1,1.91E2,9.4E1,4.69E2,4.67E2,1.86E2,8E0,1.231E3,1.8E1,8.9E1,6.5E1,1.232E3,3E0,8.4E1,9E0,1.78E2,1.3E1,2E0,9.2E1,3.46E2,1.23E2,3.6E1,4.31E2,1.64E2,2.2E1,2E0,6E0,1.11E2,1.12E3,9E0,9E0,7.3E1,1.6E1,1.4E1,5.1E1,1.212E3,2E1,1E0,2E0,6.9E1,1.5E1,5E0,4E0,2.5E1,1.53E2,6E0,7E0,1E0,1E0,9E1,2E0],"tree_param":{"num_deleted":"0","num_feature":"85","num_nodes":"63","size_leaf_vector":"1"}},{"base_weights":[-3.468471E-3,1.6716582E-1,-4.982885E-1,-2.3845147E-1,3.1999278E-1,-2.683407E-2,-2.4568131E-2,-2.5149158E-1,2.678812E-1,1.947259E-1,7.119031E-1,-1.8264368E-1,-9.833326E-1,4.2310274E-1,-5.2126627E-2,3.074783E0,5.766777E-1,-1.2998852E-2,6.771648E-2,-6.1526354E-2,5.7401985E-2,7.0986883E-3,3.714375E-2,4.5655104E-3,-4.4530667E-2,1.5910566E-2,2.3708382E-1,1.8942615E-2,9.206417E-2],"categories":[],"categories_nodes":[],"categories_segments":[],"categories_sizes":[],"default_left":[0,1,0,1,0,0,0,1,0,1,0,1,0,0,0,0,0,0,0,0,0,0,0,0,0,0,0,0,0],"id":29,"left_children":[1,3,5,7,9,-1,-1,11,-1,13,15,17,19,21,23,25,27,-1,-1,-1,-1,-1,-1,-1,-1,-1,-1,-1,-1],"loss_changes":[3.4870822E2,1.9044531E2,1.7913818E-2,6.27181E1,1.0938873E2,0E0,0E0,4.21444E1,0E0,9.540922E1,1.707684E2,9.175493E1,3.934687E1,7.89142E1,9.7981E1,1.3174353E2,1.27390045E2,0E0,0E0,0E0,0E0,0E0,0E0,0E0,0E0,0E0,0E0,0E0,0E0],"parents":[2147483647,0,0,1,1,2,2,3,3,4,4,7,7,9,9,10,10,11,11,12,12,13,13,14,14,15,15,16,16],"right_children":[2,4,6,8,10,-1,-1,12,-1,14,16,18,20,22,24,26,28,-1,-1,-1,-1,-1,-1,-1,-1,-1,-1,-1,-1],"split_conditions":[2.00001E0,1.3356087E-2,1.2E-3,1.6125463E-1,3.8875E-1,-2.683407E-2,-2.4568131E-2,2.42E-1,2.678812E-1,1.0619001E3,2.86E-1,1.58E-1,8.375E-2,3.16E0,8.606272E-1,1.2331867E-1,3.652872E-1,-1.2998852E-2,6.771648E-2,-6.1526354E-2,5.7401985E-2,7.0986883E-3,3.714375E-2,4.5655104E-3,-4.4530667E-2,1.5910566E-2,2.3708382E-1,1.8942615E-2,9.206417E-2],"split_indices":[81,51,75,70,61,0,0,32,0,83,34,32,60,35,77,70,24,0,0,0,0,0,0,0,0,0,0,0,0],"split_type":[0,0,0,0,0,0,0,0,0,0,0,0,0,0,0,0,0,0,0,0,0,0,0,0,0,0,0,0,0],"sum_hessian":[4.128E3,3.07E3,1.058E3,8.4E2,2.23E3,1.5E2,9.08E2,8.39E2,1E0,1.691E3,5.39E2,7.68E2,7.1E1,8.78E2,8.13E2,2.8E1,5.11E2,7.32E2,3.6E1,6.4E1,7E0,4.68E2,4.1E2,6.95E2,1.18E2,1.1E1,1.7E1,4.43E2,6.8E1],"tree_param":{"num_deleted":"0","num_feature":"85","num_nodes":"29","size_leaf_vector":"1"}},{"base_weights":[1.4713706E-3,1.8627243E-1,-4.1595256E-1,7.721365E-2,9.335147E-1,-4.6325845E-1,8.770282E-2,-1.3360764E-1,2.7303222E-1,1.2750156E0,-2.7728716E-1,-4.4438577E-1,-1.1017581E0,3.4972003E-1,-8.763411E-2,-9.915448E-2,-1.0735558E0,2.2592666E0,2.2953992E-1,2.9650998E0,9.6628606E-1,-7.7285194E-1,2.677912E0,-1.458434E-1,-2.3552485E-2,-1.7134842E0,-2.4839642E-2,6.0940817E-2,2.628161E0,-1.3367133E-2,7.810734E-3,5.27331E-2,-6.594386E-2,-5.0628047E-2,1.809313E-1,-1.666892E-3,2.4400335E-2,-1.5195737E-2,2.1728905E-1,3.223537E-2,1.2753059E-1,-8.0947734E-2,1.5446399E-2,-9.687529E-3,2.3783891E-1,1.0551589E-2,-5.505259E-2,-9.981119E-2,-3.461063E-2,9.963149E-2,-1.2044652E-2,1.5172803E-1,-3.589591E-2],"categories":[],"categories_nodes":[],"categories_segments":[],"categories_sizes":[],"default_left":[0,1,1,0,0,0,1,0,0,0,0,0,0,1,0,0,0,0,0,0,0,0,0,1,0,0,0,0,0,0,0,0,0,0,0,0,0,0,0,0,0,0,0,0,0,0,0,0,0,0,0,0,0],"id":30,"left_children":[1,3,5,7,9,11,13,15,17,19,21,23,25,27,-1,29,31,33,35,37,39,41,43,45,-1,47,-1,49,51,-1,-1,-1,-1,-1,-1,-1,-1,-1,-1,-1,-1,-1,-1,-1,-1,-1,-1,-1,-1,-1,-1,-1,-1],"loss_changes":[3.2252426E2,2.3609561E2,3.0609207E1,1.0448176E2,1.5293134E2,1.3645279E1,5.413854E1,3.9369884E1,1.1281971E2,1.4740717E2,1.2215803E2,9.014023E0,1.1361164E1,6.432053E1,0E0,5.0594E1,2.384116E1,1.2819656E2,8.7325806E1,1.9991327E2,1.2317952E2,6.548622E1,7.255926E1,3.261692E1,0E0,3.238247E0,0E0,5.1788334E1,1.7136879E1,0E0,0E0,0E0,0E0,0E0,0E0,0E0,0E0,0E0,0E0,0E0,0E0,0E0,0E0,0E0,0E0,0E0,0E0,0E0,0E0,0E0,0E0,0E0,0E0],"parents":[2147483647,0,0,1,1,2,2,3,3,4,4,5,5,6,6,7,7,8,8,9,9,10,10,11,11,12,12,13,13,15,15,16,16,17,17,18,18,19,19,20,20,21,21,22,22,23,23,25,25,27,27,28,28],"right_children":[2,4,6,8,10,12,14,16,18,20,22,24,26,28,-1,30,32,34,36,38,40,42,44,46,-1,48,-1,50,52,-1,-1,-1,-1,-1,-1,-1,-1,-1,-1,-1,-1,-1,-1,-1,-1,-1,-1,-1,-1,-1,-1,-1,-1],"split_conditions":[1.4037958E3,4.8E-1,1E0,2.2333333E0,4.8666668E1,4.4E1,2.82E1,8.3E0,2.616279E-2,4.1284403E-1,1.182E0,1E0,1E0,1.625E1,-8.763411E-2,5E-3,8.985219E-2,4.22E1,1E0,4.2420518E-1,1.3333334E0,1.008E0,7.8666664E1,3.5E-1,-2.3552485E-2,7.5E-1,-2.4839642E-2,9.0503596E-2,4.7666666E-1,-1.3367133E-2,7.810734E-3,5.27331E-2,-6.594386E-2,-5.0628047E-2,1.809313E-1,-1.666892E-3,2.4400335E-2,-1.5195737E-2,2.1728905E-1,3.223537E-2,1.2753059E-1,-8.0947734E-2,1.5446399E-2,-9.687529E-3,2.3783891E-1,1.0551589E-2,-5.505259E-2,-9.981119E-2,-3.461063E-2,9.963149E-2,-1.2044652E-2,1.5172803E-1,-3.589591E-2],"split_indices":[84,61,81,8,11,38,12,13,19,49,34,81,81,63,0,33,75,27,81,23,10,76,0,19,0,18,0,50,5,0,0,0,0,0,0,0,0,0,0,0,0,0,0,0,0,0,0,0,0,0,0,0,0],"split_type":[0,0,0,0,0,0,0,0,0,0,0,0,0,0,0,0,0,0,0,0,0,0,0,0,0,0,0,0,0,0,0,0,0,0,0,0,0,0,0,0,0,0,0,0,0,0,0,0,0,0,0,0,0],"sum_hessian":[4.179E3,2.897E3,1.282E3,2.529E3,3.68E2,1.172E3,1.1E2,1.218E3,1.311E3,2.87E2,8.1E1,1.14E3,3.2E1,9.7E1,1.3E1,1.176E3,4.2E1,2.7E1,1.284E3,4.3E1,2.44E2,7E1,1.1E1,9.4E1,1.046E3,1.5E1,1.7E1,8.7E1,1E1,7.09E2,4.67E2,4E0,3.8E1,8E0,1.9E1,6.37E2,6.47E2,1.3E1,3E1,2.04E2,4E1,3.9E1,3.1E1,5E0,6E0,6.9E1,2.5E1,1.1E1,4E0,1.1E1,7.6E1,9E0,1E0],"tree_param":{"num_deleted":"0","num_feature":"85","num_nodes":"53","size_leaf_vector":"1"}},{"base_weights":[-1.8583867E-3,2.2024082E-1,-3.6052588E-1,2.1014642E-2,6.4834464E-1,-3.908794E-1,5.8642995E-1,-8.543149E-3,1.7866229E0,5.866215E-1,3.2163396E0,-4.372933E-1,-3.5704356E-2,-3.8691267E-1,1.8428166E0,1.358389E0,-3.3420634E-2,-8.945525E-1,4.34869E0,1.866868E0,5.0071865E-1,5.4865165E0,-5.9096813E-1,-7.432082E-1,-3.9847466E-1,1.8775867E-1,-1.0008032E0,-6.1406887E-1,1.4933653E-1,3.8648138E0,4.1133147E-1,1.2528841E-1,-3.335544E-2,-2.1632852E-3,1.6593091E-1,1.3324404E-1,-6.695732E-2,6.404272E-2,3.1257984E-1,6.5881886E-2,3.9268038E-1,2.9320447E-2,-3.0888364E-2,3.3024505E-1,-3.513531E-3,1.49959E-1,-7.6615036E-2,-1.870831E-2,-5.7125617E-2,-2.0248817E-2,8.371999E-2,-4.945152E-3,1.1238312E-1,3.8504347E-2,-5.985106E-2,1.1508856E-1,-4.036569E-2,2.0570999E-2,2.7614704E-1,-4.7585335E-2,1.1936667E-1],"categories":[],"categories_nodes":[],"categories_segments":[],"categories_sizes":[],"default_left":[0,1,1,1,0,1,0,0,0,0,0,0,0,0,0,0,1,0,0,0,0,0,0,1,1,0,0,0,0,0,0,0,0,0,0,0,0,0,0,0,0,0,0,0,0,0,0,0,0,0,0,0,0,0,0,0,0,0,0,0,0],"id":31,"left_children":[1,3,5,7,9,11,13,15,17,19,21,23,25,27,29,31,33,35,37,39,41,43,45,47,49,51,53,55,-1,57,59,-1,-1,-1,-1,-1,-1,-1,-1,-1,-1,-1,-1,-1,-1,-1,-1,-1,-1,-1,-1,-1,-1,-1,-1,-1,-1,-1,-1,-1,-1],"loss_changes":[3.326589E2,2.1994794E2,4.6132523E1,9.1917404E1,1.2792865E2,2.5503265E1,6.185774E1,5.897751E1,2.0310132E2,8.715665E1,1.6746431E2,1.5960968E1,3.9007416E1,2.4058035E1,6.2088387E1,7.3716064E1,5.634438E1,2.7306198E1,7.955969E1,1.5405675E2,7.243649E1,7.503961E1,3.163183E1,2.2118591E1,1.7079788E1,8.702514E1,1.2736149E1,1.7635443E1,0E0,4.9263214E1,3.9979164E1,0E0,0E0,0E0,0E0,0E0,0E0,0E0,0E0,0E0,0E0,0E0,0E0,0E0,0E0,0E0,0E0,0E0,0E0,0E0,0E0,0E0,0E0,0E0,0E0,0E0,0E0,0E0,0E0,0E0,0E0],"parents":[2147483647,0,0,1,1,2,2,3,3,4,4,5,5,6,6,7,7,8,8,9,9,10,10,11,11,12,12,13,13,14,14,15,15,16,16,17,17,18,18,19,19,20,20,21,21,22,22,23,23,24,24,25,25,26,26,27,27,29,29,30,30],"right_children":[2,4,6,8,10,12,14,16,18,20,22,24,26,28,30,32,34,36,38,40,42,44,46,48,50,52,54,56,-1,58,60,-1,-1,-1,-1,-1,-1,-1,-1,-1,-1,-1,-1,-1,-1,-1,-1,-1,-1,-1,-1,-1,-1,-1,-1,-1,-1,-1,-1,-1,-1],"split_conditions":[1.1761234E3,4.233333E0,9E1,3.3109E-1,5.4125E1,1.3573916E3,1.2069819E-1,1.875E0,2.0706667E-2,7.457155E2,1.57836E-1,1.1526576E3,5.9666667E0,1.3438588E-1,1.4031869E-1,1.0510583E3,2.689615E-1,2.0429447E-1,1.4285715E-1,9.563354E-1,2.8710192E-1,1.5E0,3.2666668E1,6.923077E-1,1.625E0,1.7075E1,3E0,6.52E1,1.4933653E-1,5.2625E0,3.3333334E-1,1.2528841E-1,-3.335544E-2,-2.1632852E-3,1.6593091E-1,1.3324404E-1,-6.695732E-2,6.404272E-2,3.1257984E-1,6.5881886E-2,3.9268038E-1,2.9320447E-2,-3.0888364E-2,3.3024505E-1,-3.513531E-3,1.49959E-1,-7.6615036E-2,-1.870831E-2,-5.7125617E-2,-2.0248817E-2,8.371999E-2,-4.945152E-3,1.1238312E-1,3.8504347E-2,-5.985106E-2,1.1508856E-1,-4.036569E-2,2.0570999E-2,2.7614704E-1,-4.7585335E-2,1.1936667E-1],"split_indices":[84,8,0,16,65,82,70,79,6,82,16,83,8,43,43,84,70,21,64,15,43,44,11,49,64,66,2,27,0,62,18,0,0,0,0,0,0,0,0,0,0,0,0,0,0,0,0,0,0,0,0,0,0,0,0,0,0,0,0,0,0],"split_type":[0,0,0,0,0,0,0,0,0,0,0,0,0,0,0,0,0,0,0,0,0,0,0,0,0,0,0,0,0,0,0,0,0,0,0,0,0,0,0,0,0,0,0,0,0,0,0,0,0,0,0,0,0,0,0,0,0,0,0,0,0],"sum_hessian":[4.174E3,2.578E3,1.596E3,1.76E3,8.18E2,1.547E3,4.9E1,1.732E3,2.8E1,8E2,1.8E1,1.368E3,1.79E2,2.8E1,2.1E1,3E1,1.702E3,1.4E1,1.4E1,4.9E1,7.51E2,1.1E1,7E0,1.52E2,1.216E3,1.46E2,3.3E1,2.7E1,1E0,8E0,1.3E1,1.9E1,1.1E1,1.698E3,4E0,1E0,1.3E1,6E0,8E0,4.6E1,3E0,6.98E2,5.3E1,9E0,2E0,1E0,6E0,8E1,7.2E1,1.213E3,3E0,1.29E2,1.7E1,3E0,3E1,1E0,2.6E1,3E0,5E0,8E0,5E0],"tree_param":{"num_deleted":"0","num_feature":"85","num_nodes":"61","size_leaf_vector":"1"}},{"base_weights":[1.7095655E-2,1.640479E-1,-2.1396365E-2,-5.166633E-2,4.29627E-1,-1.3030577E-2,-7.1118385E-1,7.0776075E-2,7.3062754E-1,-3.6432005E-2,1.6916112E0,-9.145645E-1,1.6149015E0,2.9347785E-2,3.309733E-1,1.855125E-1,1.2898219E0,-4.985321E-3,2.2737445E-2,-2.2521002E-2,1.7570862E-1,-6.173205E-2,1.5639987E-2,1.7001076E-1,-5.1023286E-2,8.033028E-2,-4.6941736E-3,9.465152E-2,1.5318276E-3,5.428618E-2,1.6494359E-1],"categories":[],"categories_nodes":[],"categories_segments":[],"categories_sizes":[],"default_left":[0,1,0,1,0,1,1,0,0,1,0,0,0,0,0,0,0,0,0,0,0,0,0,0,0,0,0,0,0,0,0],"id":32,"left_children":[1,3,-1,5,7,9,11,13,15,17,19,21,23,25,-1,27,29,-1,-1,-1,-1,-1,-1,-1,-1,-1,-1,-1,-1,-1,-1],"loss_changes":[2.7055267E2,1.7819157E2,0E0,4.374153E1,1.5052026E2,6.480481E1,4.641961E1,1.726245E2,2.3081824E2,4.9834194E1,8.7470474E1,3.495704E1,4.110946E1,1.23379814E2,0E0,1.0175658E2,1.4977466E2,0E0,0E0,0E0,0E0,0E0,0E0,0E0,0E0,0E0,0E0,0E0,0E0,0E0,0E0],"parents":[2147483647,0,0,1,1,3,3,4,4,5,5,6,6,7,7,8,8,9,9,10,10,11,11,12,12,13,13,15,15,16,16],"right_children":[2,4,-1,6,8,10,12,14,16,18,20,22,24,26,-1,28,30,-1,-1,-1,-1,-1,-1,-1,-1,-1,-1,-1,-1,-1,-1],"split_conditions":[2.00001E0,4.6625E1,-2.1396365E-2,2.6125E-1,3.0405405E-1,3.5E1,5.1508254E-1,2.296E1,1E0,7.5102276E-1,4.8214287E-1,2.6946107E-1,7.758621E-1,8.951334E2,3.309733E-1,1.07354715E-1,2.0206416E-1,-4.985321E-3,2.2737445E-2,-2.2521002E-2,1.7570862E-1,-6.173205E-2,1.5639987E-2,1.7001076E-1,-5.1023286E-2,8.033028E-2,-4.6941736E-3,9.465152E-2,1.5318276E-3,5.428618E-2,1.6494359E-1],"split_indices":[81,54,0,59,44,11,24,39,81,46,73,72,17,83,0,19,70,0,0,0,0,0,0,0,0,0,0,0,0,0,0],"split_type":[0,0,0,0,0,0,0,0,0,0,0,0,0,0,0,0,0,0,0,0,0,0,0,0,0,0,0,0,0,0,0],"sum_hessian":[4.135E3,3.109E3,1.026E3,1.716E3,1.393E3,1.622E3,9.4E1,6.36E2,7.57E2,1.601E3,2.1E1,8.7E1,7E0,6.33E2,3E0,3.84E2,3.73E2,1.419E3,1.82E2,1E1,1.1E1,6.9E1,1.8E1,4E0,3E0,4.5E1,5.88E2,3.1E1,3.53E2,3.4E2,3.3E1],"tree_param":{"num_deleted":"0","num_feature":"85","num_nodes":"31","size_leaf_vector":"1"}},{"base_weights":[2.0811982E-3,-2.2891517E-1,2.5985697E-1,-1.0563364E-1,-4.3561465E-1,-4.9545627E-2,6.7085844E-1,-2.2914018E-1,2.0754305E-1,1.6441219E-1,-4.4880378E-1,3.073977E-1,-6.616118E-2,1.3152837E0,4.3190664E-1,-1.0358977E-1,-5.7245845E-1,5.5580716E0,1.5141407E-1,-6.202046E-1,-3.5173625E-1,-1.2791744E-1,1.1050808E0,8.5701704E-1,2.6670084E0,-2.465315E-1,6.9163924E-1,-9.832274E-3,4.1929122E-2,-3.194737E-2,6.8750106E-2,5.1245827E-2,3.3637425E-1,2.7960861E-2,-1.8933017E-2,-4.1798957E-2,-2.0157773E-2,2.190433E-1,-1.8461427E-2,1.0072821E-2,-1.5944077E-2,-6.474072E-2,1.1379737E-1,7.302776E-2,-3.932224E-3,2.724273E-1,9.417057E-2,-2.1543782E-2,2.066971E-1,4.5469824E-2,-3.3410292E-2],"categories":[],"categories_nodes":[],"categories_segments":[],"categories_sizes":[],"default_left":[0,0,1,0,0,0,1,0,0,0,0,0,1,1,0,0,1,0,0,0,0,0,0,0,0,0,1,0,0,0,0,0,0,0,0,0,0,0,0,0,0,0,0,0,0,0,0,0,0,0,0],"id":33,"left_children":[1,3,5,7,9,11,13,15,17,-1,19,-1,21,23,25,27,29,31,33,35,37,39,41,43,45,47,49,-1,-1,-1,-1,-1,-1,-1,-1,-1,-1,-1,-1,-1,-1,-1,-1,-1,-1,-1,-1,-1,-1,-1,-1],"loss_changes":[2.4669598E2,5.5632645E1,2.490222E2,5.3038284E1,4.1553207E1,1.1553263E2,1.289346E2,4.2311687E1,1.15682495E2,0E0,1.3324753E1,0E0,8.086334E1,1.3832953E2,1.0854121E2,6.3378216E1,3.493302E1,1.4309402E1,8.343565E1,1.3385239E1,4.483074E1,6.679963E1,1.6030452E2,9.667982E1,1.1397565E2,1.3986621E2,1.3237932E2,0E0,0E0,0E0,0E0,0E0,0E0,0E0,0E0,0E0,0E0,0E0,0E0,0E0,0E0,0E0,0E0,0E0,0E0,0E0,0E0,0E0,0E0,0E0,0E0],"parents":[2147483647,0,0,1,1,2,2,3,3,4,4,5,5,6,6,7,7,8,8,10,10,12,12,13,13,14,14,15,15,16,16,17,17,18,18,19,19,20,20,21,21,22,22,23,23,24,24,25,25,26,26],"right_children":[2,4,6,8,10,12,14,16,18,-1,20,-1,22,24,26,28,30,32,34,36,38,40,42,44,46,48,50,-1,-1,-1,-1,-1,-1,-1,-1,-1,-1,-1,-1,-1,-1,-1,-1,-1,-1,-1,-1,-1,-1,-1,-1],"split_conditions":[2.3E0,1.7821782E0,1E0,3.975E0,8.035714E-1,-2E0,9.4287665E2,2.54E1,2E0,1.6441219E-1,1.0900756E-1,3.073977E-1,8.95E1,1.965E1,3.461729E-2,5.375E0,1.3661519E3,3.3333334E-1,1.3333334E0,1.3578625E3,1.12038754E-1,7.258065E-1,1.26E1,1.1547467E-1,3.3333334E-1,2.626051E-1,4.522613E-1,-9.832274E-3,4.1929122E-2,-3.194737E-2,6.8750106E-2,5.1245827E-2,3.3637425E-1,2.7960861E-2,-1.8933017E-2,-4.1798957E-2,-2.0157773E-2,2.190433E-1,-1.8461427E-2,1.0072821E-2,-1.5944077E-2,-6.474072E-2,1.1379737E-1,7.302776E-2,-3.932224E-3,2.724273E-1,9.417057E-2,-2.1543782E-2,2.066971E-1,4.5469824E-2,-3.3410292E-2],"split_indices":[8,22,81,67,52,9,84,27,26,0,51,0,54,66,43,66,84,1,2,82,50,22,67,43,10,47,45,0,0,0,0,0,0,0,0,0,0,0,0,0,0,0,0,0,0,0,0,0,0,0,0],"split_type":[0,0,0,0,0,0,0,0,0,0,0,0,0,0,0,0,0,0,0,0,0,0,0,0,0,0,0,0,0,0,0,0,0,0,0,0,0,0,0,0,0,0,0,0,0,0,0,0,0,0,0],"sum_hessian":[4.141E3,2.184E3,1.957E3,1.369E3,8.15E2,1.117E3,8.4E2,9.82E2,3.87E2,2E0,8.13E2,2E0,1.115E3,2.26E2,6.14E2,7.2E2,2.62E2,3E0,3.84E2,2.92E2,5.21E2,1.06E3,5.5E1,1.7E2,5.6E1,1.7E2,4.44E2,6.56E2,6.4E1,2.54E2,8E0,1E0,2E0,2.17E2,1.67E2,1.45E2,1.47E2,1E0,5.2E2,3.89E2,6.71E2,1.8E1,3.7E1,1.03E2,6.7E1,1.1E1,4.5E1,1.64E2,6E0,3.83E2,6.1E1],"tree_param":{"num_deleted":"0","num_feature":"85","num_nodes":"51","size_leaf_vector":"1"}},{"base_weights":[5.149792E-3,2.0469975E-1,-2.8180254E-1,-1.4208949E-1,3.8747096E-1,-3.2394078E-1,8.453518E-1,-1.7784901E-1,1.593243E0,1.7735648E0,3.3467296E-1,-3.3355352E-1,1.8275058E-1,2.7929595E0,-3.4878347E-2,-6.592606E-2,-5.9062785E-1,3.364993E-1,1.1798986E-2,5.627969E0,1.1341767E0,2.1598504E-1,9.082619E-1,-3.9538348E-1,-4.2107757E-2,1.525083E-1,5.7098484E0,-6.8199587E-1,2.8815105E0,-4.9552997E-3,1.028773E-1,-3.4435906E-2,9.3096346E-2,-1.8066883E-2,1.2156439E-1,1.6408842E-2,3.6699352E-1,-7.3122284E-3,1.4143261E-1,6.141711E-2,7.4326615E-3,5.9203822E-2,-3.4959618E-2,-1.781486E-2,-3.9457005E-2,-6.6199615E-3,1.5503924E-1,-4.7498014E-2,1.7045389E-1,3.0995804E-1,4.4883776E-2,-4.3338615E-2,8.197344E-2,2.0945767E-1,2.6328955E-2],"categories":[],"categories_nodes":[],"categories_segments":[],"categories_sizes":[],"default_left":[0,0,1,1,0,1,0,0,0,0,1,1,0,0,0,0,1,0,0,0,0,0,0,0,1,0,0,0,0,0,0,0,0,0,0,0,0,0,0,0,0,0,0,0,0,0,0,0,0,0,0,0,0,0,0],"id":34,"left_children":[1,3,5,7,9,11,13,15,17,19,21,23,-1,25,27,29,31,-1,33,35,37,39,41,43,45,47,49,51,53,-1,-1,-1,-1,-1,-1,-1,-1,-1,-1,-1,-1,-1,-1,-1,-1,-1,-1,-1,-1,-1,-1,-1,-1,-1,-1],"loss_changes":[2.3522997E2,1.5363225E2,8.030507E1,5.2223095E1,1.15547806E2,6.33732E1,1.0467233E2,3.7890785E1,1.380196E2,1.3655559E2,1.039633E2,2.921193E1,0E0,1.4546536E2,8.3116776E1,4.5789368E1,4.3382404E1,0E0,1.35177145E1,7.017297E1,1.1106544E2,8.631732E1,1.1698802E2,2.0311295E1,8.1286804E1,4.273141E1,1.5627075E1,1.6863316E1,2.2429352E1,0E0,0E0,0E0,0E0,0E0,0E0,0E0,0E0,0E0,0E0,0E0,0E0,0E0,0E0,0E0,0E0,0E0,0E0,0E0,0E0,0E0,0E0,0E0,0E0,0E0,0E0],"parents":[2147483647,0,0,1,1,2,2,3,3,4,4,5,5,6,6,7,7,8,8,9,9,10,10,11,11,13,13,14,14,15,15,16,16,18,18,19,19,20,20,21,21,22,22,23,23,24,24,25,25,26,26,27,27,28,28],"right_children":[2,4,6,8,10,12,14,16,18,20,22,24,-1,26,28,30,32,-1,34,36,38,40,42,44,46,48,50,52,54,-1,-1,-1,-1,-1,-1,-1,-1,-1,-1,-1,-1,-1,-1,-1,-1,-1,-1,-1,-1,-1,-1,-1,-1,-1,-1],"split_conditions":[1.1722216E3,2.8E1,9E1,1.5929203E0,2.6E-2,1.072E0,1.2460419E3,4.1095892E-1,1.1886792E1,8.373533E-3,7.5E0,1E0,1.8275058E-1,8.810385E-2,1.9144154E-1,8.64E0,6.0858464E-1,3.364993E-1,1.25E1,8.8094586E2,7.6E0,8.664769E2,1.8743704E-1,7.45E1,2.2824323E-1,2.9126215E-1,6.828794E-1,2.198E1,7.7335364E-1,-4.9552997E-3,1.028773E-1,-3.4435906E-2,9.3096346E-2,-1.8066883E-2,1.2156439E-1,1.6408842E-2,3.6699352E-1,-7.3122284E-3,1.4143261E-1,6.141711E-2,7.4326615E-3,5.9203822E-2,-3.4959618E-2,-1.781486E-2,-3.9457005E-2,-6.6199615E-3,1.5503924E-1,-4.7498014E-2,1.7045389E-1,3.0995804E-1,4.4883776E-2,-4.3338615E-2,8.197344E-2,2.0945767E-1,2.6328955E-2],"split_indices":[84,0,0,72,32,32,82,72,25,78,25,81,0,16,78,40,51,0,54,84,13,84,70,0,70,72,19,40,15,0,0,0,0,0,0,0,0,0,0,0,0,0,0,0,0,0,0,0,0,0,0,0,0,0,0],"split_type":[0,0,0,0,0,0,0,0,0,0,0,0,0,0,0,0,0,0,0,0,0,0,0,0,0,0,0,0,0,0,0,0,0,0,0,0,0,0,0,0,0,0,0,0,0,0,0,0,0,0,0,0,0,0,0],"sum_hessian":[4.106E3,2.422E3,1.684E3,8.36E2,1.586E3,1.624E3,6E1,8.2E2,1.6E1,5.7E1,1.529E3,1.621E3,3E0,1.8E1,4.2E1,6.46E2,1.74E2,3E0,1.3E1,7E0,5E1,1.268E3,2.61E2,1.337E3,2.84E2,1E1,8E0,3.5E1,7E0,6.37E2,9E0,1.68E2,6E0,1.2E1,1E0,2E0,5E0,2.9E1,2.1E1,7.8E1,1.19E3,2.23E2,3.8E1,1.218E3,1.19E2,2.77E2,7E0,8E0,2E0,7E0,1E0,3.3E1,2E0,4E0,3E0],"tree_param":{"num_deleted":"0","num_feature":"85","num_nodes":"55","size_leaf_vector":"1"}},{"base_weights":[7.895273E-3,1.3822176E-1,-3.7670428E-1,5.305523E-2,7.9362005E-1,-2.0328855E-2,-1.8561143E-2,8.398343E-2,-9.6256465E-1,2.6923516E0,5.611848E-1,4.3125708E-2,1.1761669E0,2.9538608E-1,-1.1203178E0,1.081288E0,4.511854E0,1.1071016E0,-2.2291572E-1,8.240006E-4,6.366864E-2,-2.5400171E-2,9.874568E-2,-7.015764E-2,2.3353059E-2,-3.663916E-2,2.1737552E-1,6.887957E-3,2.5250033E-1,7.974651E-2,-1.26871765E-2,4.7843855E-2,-4.841793E-2],"categories":[],"categories_nodes":[],"categories_segments":[],"categories_sizes":[],"default_left":[0,1,0,1,0,0,0,1,0,0,0,1,1,0,0,0,0,0,0,0,0,0,0,0,0,0,0,0,0,0,0,0,0],"id":35,"left_children":[1,3,5,7,9,-1,-1,11,13,15,17,19,21,-1,23,25,27,29,31,-1,-1,-1,-1,-1,-1,-1,-1,-1,-1,-1,-1,-1,-1],"loss_changes":[2.1011967E2,1.7472403E2,2.279663E-2,8.715293E1,1.5736865E2,0E0,0E0,1.200328E2,9.549091E1,1.0944345E2,1.3808006E2,8.5045166E1,1.314901E2,0E0,3.702162E1,1.335393E2,4.167502E1,1.2653792E2,1.1789587E2,0E0,0E0,0E0,0E0,0E0,0E0,0E0,0E0,0E0,0E0,0E0,0E0,0E0,0E0],"parents":[2147483647,0,0,1,1,2,2,3,3,4,4,7,7,8,8,9,9,10,10,11,11,12,12,14,14,15,15,16,16,17,17,18,18],"right_children":[2,4,6,8,10,-1,-1,12,14,16,18,20,22,-1,24,26,28,30,32,-1,-1,-1,-1,-1,-1,-1,-1,-1,-1,-1,-1,-1,-1],"split_conditions":[2.00001E0,5.8888674E-1,1.2E-3,5.4842836E-1,8.88237E2,-2.0328855E-2,-1.8561143E-2,1.1407625E-1,3.8875E0,8.1666664E1,1.38E1,5.625E0,6.508545E-2,2.9538608E-1,8.8235295E-1,8.709932E2,8E-1,4.4375E1,4.0268457E-1,8.240006E-4,6.366864E-2,-2.5400171E-2,9.874568E-2,-7.015764E-2,2.3353059E-2,-3.663916E-2,2.1737552E-1,6.887957E-3,2.5250033E-1,7.974651E-2,-1.26871765E-2,4.7843855E-2,-4.841793E-2],"split_indices":[81,69,75,69,84,0,0,60,67,0,13,56,24,0,44,84,55,65,44,0,0,0,0,0,0,0,0,0,0,0,0,0,0],"split_type":[0,0,0,0,0,0,0,0,0,0,0,0,0,0,0,0,0,0,0,0,0,0,0,0,0,0,0,0,0,0,0,0,0],"sum_hessian":[4.19E3,3.13E3,1.06E3,2.771E3,3.59E2,1.53E2,9.07E2,2.69E3,8.1E1,3.8E1,3.21E2,2.594E3,9.6E1,1E0,8E1,2.1E1,1.7E1,1.89E2,1.32E2,2.54E3,5.4E1,3.1E1,6.5E1,6.8E1,1.2E1,1.4E1,7E0,2E0,1.5E1,1.39E2,5E1,5.1E1,8.1E1],"tree_param":{"num_deleted":"0","num_feature":"85","num_nodes":"33","size_leaf_vector":"1"}},{"base_weights":[7.992538E-3,1.9308902E-1,-2.735929E-1,-2.6951788E-3,5.1553565E-1,-3.463567E-1,1.0016968E-1,5.023867E-1,-9.588592E-2,1.7026744E0,4.3607986E-1,-3.5724172E-1,1.5623579E0,-8.4730096E-2,1.1927768E0,-7.580756E-2,1.2379963E0,-1.6028261E-1,7.944447E-1,1.657678E-1,3.6469877E0,2.3209848E-1,9.02111E-1,-3.3280227E-1,-8.135804E-1,2.6660556E-1,-5.8291155E-1,-8.1331503E-1,1.7566997E-1,2.858068E0,-2.2395124E-1,-9.698746E-3,2.6334965E-1,1.1691957E-1,-8.164446E-3,-6.6607236E-3,-9.869829E-2,7.748067E-2,-4.985197E-2,1.7560692E-1,-1.3568464E-2,3.6666438E-1,8.006137E-2,9.978229E-3,2.592147E-1,1.721807E-2,1.0996377E-1,-1.6994467E-2,2.223637E-1,-2.3559896E-2,-6.808527E-2,-9.590281E-3,-3.6525656E-2,-4.778641E-2,4.864291E-2,-2.5776898E-2,2.5837054E-2,2.1487084E-1,4.7061425E-2,8.984524E-2,-5.470394E-2],"categories":[],"categories_nodes":[],"categories_segments":[],"categories_sizes":[],"default_left":[0,0,1,0,0,1,1,0,0,0,1,0,0,0,0,0,0,0,0,0,0,1,0,0,1,0,0,0,1,0,0,0,0,0,0,0,0,0,0,0,0,0,0,0,0,0,0,0,0,0,0,0,0,0,0,0,0,0,0,0,0],"id":36,"left_children":[1,3,5,7,9,11,13,15,17,19,21,23,25,27,29,31,33,35,37,39,41,43,45,47,49,-1,51,53,55,57,59,-1,-1,-1,-1,-1,-1,-1,-1,-1,-1,-1,-1,-1,-1,-1,-1,-1,-1,-1,-1,-1,-1,-1,-1,-1,-1,-1,-1,-1,-1],"loss_changes":[2.1630066E2,1.580788E2,4.479995E1,7.342868E1,8.848897E1,2.9188019E1,5.4445206E1,1.03447876E2,7.5636665E1,1.7570091E2,8.420538E1,1.50195465E1,6.780523E1,4.396902E1,9.26514E1,8.751588E1,1.6537233E2,6.007236E1,1.219507E2,5.0689056E1,1.843312E2,9.8695076E1,1.9458572E2,4.5652893E1,1.2307491E1,0E0,2.0625067E-1,1.644664E1,4.0579834E1,4.5617157E1,4.0650814E1,0E0,0E0,0E0,0E0,0E0,0E0,0E0,0E0,0E0,0E0,0E0,0E0,0E0,0E0,0E0,0E0,0E0,0E0,0E0,0E0,0E0,0E0,0E0,0E0,0E0,0E0,0E0,0E0,0E0,0E0],"parents":[2147483647,0,0,1,1,2,2,3,3,4,4,5,5,6,6,7,7,8,8,9,9,10,10,11,11,12,12,13,13,14,14,15,15,16,16,17,17,18,18,19,19,20,20,21,21,22,22,23,23,24,24,26,26,27,27,28,28,29,29,30,30],"right_children":[2,4,6,8,10,12,14,16,18,20,22,24,26,28,30,32,34,36,38,40,42,44,46,48,50,-1,52,54,56,58,60,-1,-1,-1,-1,-1,-1,-1,-1,-1,-1,-1,-1,-1,-1,-1,-1,-1,-1,-1,-1,-1,-1,-1,-1,-1,-1,-1,-1,-1,-1],"split_conditions":[1.1723721E3,3.9666667E0,1.2681561E3,2.6470587E0,1.42E1,2.7666666E1,6.1E0,1.9620854E-1,1.3872175E-1,3E0,8.646314E-1,7.3E0,2.3333333E0,3.8255033E0,1.4037958E3,3.325E-1,2.6567057E-1,6.2125E0,8.7983286E-1,7.0866144E-1,3.2230057E-2,5.1508254E-1,7.6E1,4.9333332E1,1.0814791E3,2.6660556E-1,8.0666664E1,1.5207426E-1,1.6875E1,7E0,4.8333332E-1,-9.698746E-3,2.6334965E-1,1.1691957E-1,-8.164446E-3,-6.6607236E-3,-9.869829E-2,7.748067E-2,-4.985197E-2,1.7560692E-1,-1.3568464E-2,3.6666438E-1,8.006137E-2,9.978229E-3,2.592147E-1,1.721807E-2,1.0996377E-1,-1.6994467E-2,2.223637E-1,-2.3559896E-2,-6.808527E-2,-9.590281E-3,-3.6525656E-2,-4.778641E-2,4.864291E-2,-2.5776898E-2,2.5837054E-2,2.1487084E-1,4.7061425E-2,8.984524E-2,-5.470394E-2],"split_indices":[84,8,83,52,38,13,62,46,70,29,23,8,2,79,84,61,69,62,23,76,43,24,54,11,83,0,0,43,54,62,21,0,0,0,0,0,0,0,0,0,0,0,0,0,0,0,0,0,0,0,0,0,0,0,0,0,0,0,0,0,0],"split_type":[0,0,0,0,0,0,0,0,0,0,0,0,0,0,0,0,0,0,0,0,0,0,0,0,0,0,0,0,0,0,0,0,0,0,0,0,0,0,0,0,0,0,0,0,0,0,0,0,0,0,0,0,0,0,0,0,0,0,0,0,0],"sum_hessian":[4.148E3,2.503E3,1.645E3,1.558E3,9.45E2,1.377E3,2.68E2,2.42E2,1.316E3,5.8E1,8.87E2,1.37E3,7E0,2.3E2,3.8E1,1.36E2,1.06E2,1.228E3,8.8E1,3.3E1,2.5E1,6.18E2,2.69E2,1.302E3,6.8E1,2E0,5E0,6E1,1.7E2,1.7E1,2.1E1,1.34E2,2E0,5.9E1,4.7E1,1.211E3,1.7E1,6.2E1,2.6E1,3E0,3E1,8E0,1.7E1,6.15E2,3E0,1.89E2,8E1,1.301E3,1E0,4.3E1,2.5E1,2E0,3E0,5.6E1,4E0,5.6E1,1.14E2,9E0,8E0,6E0,1.5E1],"tree_param":{"num_deleted":"0","num_feature":"85","num_nodes":"61","size_leaf_vector":"1"}},{"base_weights":[-2.3310374E-2,-1.6678931E-1,2.7402782E-1,-1.9593267E-1,1.0175283E0,-2.1357443E-2,6.5105575E-1,9.769237E-2,-2.663026E-1,4.0062485E0,3.5891807E-1,-1.1321744E-1,9.379289E-1,1.4411045E0,3.637545E-1,1.4032724E0,-3.9635203E-3,-2.376719E-1,-9.646576E-1,2.685443E-1,-6.574694E-2,1.0344033E0,-1.1245731E0,2.0442614E-1,-3.941008E-1,4.1549163E0,5.469816E-1,5.8994856E0,1.2556349E0,3.2290568E0,2.8856093E-1,1.3726616E-4,1.90199E-1,1.5425618E-1,-2.7613228E-3,-1.06246555E-2,-3.873062E-2,-5.9215467E-2,7.699061E-3,5.9630245E-2,-4.4136625E-2,-2.0306868E-2,1.0270883E-1,-8.711589E-2,-1.5661879E-2,3.4177896E-2,-2.9205129E-2,2.0030169E-1,-2.2689372E-2,3.156943E-1,-4.141697E-2,2.093457E-1,1.0611005E-2,2.6869787E-2,4.2230907E-1,5.2488398E-2,2.4150093E-1,2.942525E-1,1.7443597E-3,4.5093726E-2,2.59424E-3],"categories":[],"categories_nodes":[],"categories_segments":[],"categories_sizes":[],"default_left":[1,1,1,0,0,0,1,0,1,0,0,0,0,0,0,0,0,1,0,0,0,1,0,0,0,0,0,0,0,0,0,0,0,0,0,0,0,0,0,0,0,0,0,0,0,0,0,0,0,0,0,0,0,0,0,0,0,0,0,0,0],"id":37,"left_children":[1,3,5,7,9,11,13,15,17,19,21,23,25,27,29,31,33,35,37,-1,39,41,43,45,47,49,51,53,55,57,59,-1,-1,-1,-1,-1,-1,-1,-1,-1,-1,-1,-1,-1,-1,-1,-1,-1,-1,-1,-1,-1,-1,-1,-1,-1,-1,-1,-1,-1,-1],"loss_changes":[1.760255E2,9.625458E1,1.4958179E2,5.6165665E1,1.3044498E2,6.65487E1,1.3339516E2,6.981624E1,4.3598404E1,6.703468E1,5.7279533E1,6.1553696E1,8.0733734E1,1.22414856E2,9.257453E1,1.2775526E2,7.760629E1,2.8321014E1,2.13135E1,0E0,5.1649723E0,5.812625E1,8.475809E0,1.2280942E2,9.794022E1,8.054093E1,7.222199E1,7.739473E1,1.067784E2,9.311533E1,6.149965E1,0E0,0E0,0E0,0E0,0E0,0E0,0E0,0E0,0E0,0E0,0E0,0E0,0E0,0E0,0E0,0E0,0E0,0E0,0E0,0E0,0E0,0E0,0E0,0E0,0E0,0E0,0E0,0E0,0E0,0E0],"parents":[2147483647,0,0,1,1,2,2,3,3,4,4,5,5,6,6,7,7,8,8,9,9,10,10,11,11,12,12,13,13,14,14,15,15,16,16,17,17,18,18,20,20,21,21,22,22,23,23,24,24,25,25,26,26,27,27,28,28,29,29,30,30],"right_children":[2,4,6,8,10,12,14,16,18,20,22,24,26,28,30,32,34,36,38,-1,40,42,44,46,48,50,52,54,56,58,60,-1,-1,-1,-1,-1,-1,-1,-1,-1,-1,-1,-1,-1,-1,-1,-1,-1,-1,-1,-1,-1,-1,-1,-1,-1,-1,-1,-1,-1,-1],"split_conditions":[1.16E1,2.2899826E-1,1E0,8.8502606E2,1.173913E-1,1.9148936E0,9.4287665E2,1.8828452E0,3.1903332E-1,4.408163E-1,1.2162162E0,3.4E-2,2.1461056E-1,8.666667E0,2.857143E0,5.8E0,-4E-1,3.7333333E0,6.433333E-1,2.685443E-1,3.3333335E-2,9.196479E2,1.5941298E3,1.1536921E3,4.568E-2,7.692308E-1,8.7435504E2,1.3333333E1,2.3076923E0,6.4718E-2,3.09375E-1,1.3726616E-4,1.90199E-1,1.5425618E-1,-2.7613228E-3,-1.06246555E-2,-3.873062E-2,-5.9215467E-2,7.699061E-3,5.9630245E-2,-4.4136625E-2,-2.0306868E-2,1.0270883E-1,-8.711589E-2,-1.5661879E-2,3.4177896E-2,-2.9205129E-2,2.0030169E-1,-2.2689372E-2,3.156943E-1,-4.141697E-2,2.093457E-1,1.0611005E-2,2.6869787E-2,4.2230907E-1,5.2488398E-2,2.4150093E-1,2.942525E-1,1.7443597E-3,4.5093726E-2,2.59424E-3],"split_indices":[12,43,81,82,19,76,84,25,5,48,49,33,15,9,25,36,36,8,7,0,6,83,83,84,32,18,84,12,49,16,19,0,0,0,0,0,0,0,0,0,0,0,0,0,0,0,0,0,0,0,0,0,0,0,0,0,0,0,0,0,0],"split_type":[0,0,0,0,0,0,0,0,0,0,0,0,0,0,0,0,0,0,0,0,0,0,0,0,0,0,0,0,0,0,0,0,0,0,0,0,0,0,0,0,0,0,0,0,0,0,0,0,0,0,0,0,0,0,0,0,0,0,0,0,0],"sum_hessian":[4.124E3,2.782E3,1.342E3,2.716E3,6.6E1,7.53E2,5.89E2,5.25E2,2.191E3,1.1E1,5.5E1,6.88E2,6.5E1,1.56E2,4.33E2,3.7E1,4.88E2,2.106E3,8.5E1,8E0,3E0,3.8E1,1.7E1,3.23E2,3.65E2,6E0,5.9E1,5E0,1.51E2,1E1,4.23E2,2.4E1,1.3E1,7E0,4.81E2,2.013E3,9.3E1,7.1E1,1.4E1,1E0,2E0,1.6E1,2.2E1,9E0,8E0,2.01E2,1.22E2,4E0,3.61E2,4E0,2E0,4E0,5.5E1,2E0,3E0,1.44E2,7E0,5E0,5E0,1.17E2,3.06E2],"tree_param":{"num_deleted":"0","num_feature":"85","num_nodes":"61","size_leaf_vector":"1"}},{"base_weights":[-1.2849356E-2,1.5774657E-1,-2.5203303E-1,-7.132633E-2,3.4061423E-1,-3.044306E-1,3.8299132E-2,-9.393755E-2,2.6097476E0,2.9067457E-1,1.9588836E0,-3.12311E-1,1.3736748E0,-2.6630375E-1,5.24691E-1,-5.3881075E-2,-1.6910429E0,3.9728646E0,-7.203873E-2,8.671873E-1,1.7531674E-1,5.1689057E0,9.948499E-1,-2.7863318E-1,-7.089122E-1,-1.4737287E0,1.9388297E-1,-4.1094336E-1,1.7697114E0,2.9666778E-1,3.5718417E-1,-3.562538E-3,1.4742374E-1,-1.0424628E-1,-2.7209545E-2,2.3856318E-1,6.589555E-2,1.1097977E-1,2.191587E-2,3.4487078E-3,6.1794877E-2,-2.144863E-2,2.961131E-1,1.06323324E-1,-4.1131284E-2,-1.49254715E-2,8.126261E-2,-7.008991E-2,-1.8338017E-2,-1.6888713E-2,-8.698944E-2,-5.4571717E-3,-4.8111107E-2,-1.3369647E-2,1.4859849E-1,4.0705964E-2,-2.9760147E-2],"categories":[],"categories_nodes":[],"categories_segments":[],"categories_sizes":[],"default_left":[0,0,1,0,0,1,1,0,0,0,1,0,0,1,0,0,0,0,0,0,1,0,0,0,0,0,0,0,0,0,0,0,0,0,0,0,0,0,0,0,0,0,0,0,0,0,0,0,0,0,0,0,0,0,0,0,0],"id":38,"left_children":[1,3,5,7,9,11,13,15,17,19,21,23,25,27,29,31,33,35,-1,37,39,41,43,45,47,49,-1,51,53,-1,55,-1,-1,-1,-1,-1,-1,-1,-1,-1,-1,-1,-1,-1,-1,-1,-1,-1,-1,-1,-1,-1,-1,-1,-1,-1,-1],"loss_changes":[1.6868169E2,